svm_type epsilon_svr
kernel_type rbf
gamma 0.25
nr_class 2
total_sv 1309
rho -0.686697724453728
SV
-0.26752633853867436 1:0.17623589211051294 2:0.10691823899371045 3:0.1428571428571428 4:0.1875 5:0.139455782312925 6:0.17803438542468575 7:-0.69453044375645 8:-0.2515151515151516 9:-0.764102564102564 10:0.0323981900452488 11:-0.7691897654584222 12:0.18779544477868493 13:0.20486659325204637 14:0.20590253946465342 15:0.2836120401337794 16:0.2770062370062367 17:-0.5353334163243288 18:-0.3533166842762462 19:0.44868679434344494 20:0.3394942410057744 21:0.4089227710422001 22:0.4282683823501954 23:0.41093962432066933 24:0.11001494514584897 25:-0.05192376356832984 26:-0.17359388940974219 27:-1.0 28:-0.41052032563623764 29:-0.6903850313645836 30:-0.6601563810880968 
-4.0 1:-0.9474758052867255 2:-0.6654767975522692 3:-0.5752895752895753 4:-0.7567567567567566 5:-0.7506894649751792 6:-0.6472356414385397 7:-0.584795321637427 8:-0.8011223344556679 9:-0.7493727148899563 10:-0.5886725663716814 11:-0.7747695852534562 12:-0.6851193499238193 13:-0.7824668413118373 14:-0.7696884138348291 15:-0.6185770750988142 16:-0.6579852579852579 17:-0.9891841735171735 18:-0.9514681757627137 19:-0.4703157353102374 20:-0.3507134276463113 21:-0.36513417736968956 22:-0.43335337863248913 23:-0.5047679809876511 24:-0.8663745356274113 25:-0.9361525989474724 26:-0.9820934596961864 27:0.320754716981132 28:-0.5739987710641479 29:-0.7442421266176593 30:-0.7108575671651842 
-4.0 1:-0.20413511840952825 2:-0.10865322055953175 3:0.17241379310344818 4:0.10344827586206917 5:-0.06826178747361011 6:-0.06480023330417017 7:-0.7199248120300752 8:-0.14424242424242417 9:-0.759990672457516 10:-0.17623762376237606 11:-0.7637987012987013 12:-0.1327297245232132 13:-0.1487484056515037 14:-0.13601823708206684 15:0.11844077961019472 16:-0.08033550792171495 17:-0.29494383436802984 18:-0.33106019430667855 19:-0.031767787925950364 20:-0.07571089064010872 21:0.059254495351437786 22:-0.033245755619306205 23:-0.08237020613127843 24:-0.5558962882117289 25:-0.7569214047730775 26:-0.9429824561403508 27:0.39622641509433953 28:-0.5138553211031538 29:-0.7389671958897197 30:-0.7174220530135755 
-4.0 1:-0.20413511840952825 2:-0.10865322055953175 3:0.17241379310344818 4:0.10344827586206917 5:-0.06826178747361011 6:-0.06480023330417017 7:-0.7199248120300752 8:-0.14424242424242417 9:-0.759990672457516 10:-0.17623762376237606 11:-0.7637987012987013 12:-0.1327297245232132 13:-0.1487484056515037 14:-0.13601823708206684 15:0.11844077961019472 16:-0.08033550792171495 17:-0.21615178806695823 18:-0.25447523074292966 19:-0.031767787925950364 20:-0.07571089064010872 21:0.059254495351437786 22:-0.033245755619306205 23:-0.08237020613127843 24:-0.5558962882117289 25:-0.7569214047730775 26:-0.9429824561403508 27:0.2075471698113207 28:-0.5729920480927203 29:-0.7389671958897197 30:-0.7174220530135755 
4.0 1:-0.20413511840952825 2:-0.10865322055953175 3:0.17241379310344818 4:0.10344827586206917 5:-0.06826178747361011 6:-0.06480023330417017 7:-0.7153446997776131 8:-0.018039215686274646 9:-0.7516617256982369 10:-0.17623762376237606 11:-0.7546296296296297 12:-0.1327297245232132 13:-0.1487484056515037 14:-0.13601823708206684 15:0.11844077961019472 16:-0.08033550792171495 17:-0.2628819495367172 18:-0.2686515509353775 19:-0.031767787925950364 20:-0.07571089064010872 21:0.059254495351437786 22:-0.033245755619306205 23:-0.08237020613127843 24:-0.5558962882117289 25:-0.7569214047730775 26:-0.9429824561403508 27:0.320754716981132 28:-0.6530209598959326 29:-0.7489099525499066 30:-0.7272744310887536 
-4.0 1:-0.9474758052867255 2:-0.6654767975522692 3:-0.5752895752895753 4:-0.7567567567567566 5:-0.7506894649751792 6:-0.6472356414385397 7:-0.584795321637427 8:-0.8011223344556679 9:-0.7493727148899563 10:-0.5886725663716814 11:-0.7747695852534562 12:-0.6851193499238193 13:-0.7824668413118373 14:-0.7696884138348291 15:-0.6185770750988142 16:-0.6579852579852579 17:-0.9891841735171735 18:-0.9389668771891116 19:-0.4703157353102374 20:-0.3507134276463113 21:-0.36513417736968956 22:-0.43335337863248913 23:-0.5047679809876511 24:-0.8663745356274113 25:-0.9361525989474724 26:-0.9820934596961864 27:0.35849056603773577 28:-0.5030734007721385 29:-0.7442421266176593 30:-0.7108575671651842 
4.0 1:-0.9474758052867255 2:-0.6654767975522692 3:-0.5752895752895753 4:-0.7567567567567566 5:-0.7506894649751792 6:-0.6472356414385397 7:-0.584795321637427 8:-0.8011223344556679 9:-0.7493727148899563 10:-0.5886725663716814 11:-0.7747695852534562 12:-0.6851193499238193 13:-0.7824668413118373 14:-0.7696884138348291 15:-0.6185770750988142 16:-0.6579852579852579 17:-0.9891841735171735 18:-0.9389668771891116 19:-0.4703157353102374 20:-0.3507134276463113 21:-0.36513417736968956 22:-0.43335337863248913 23:-0.5047679809876511 24:-0.8663745356274113 25:-0.9361525989474724 26:-0.9820934596961864 27:0.35849056603773577 28:-0.5030734007721385 29:-0.7442421266176593 30:-0.7108575671651842 
-1.5784851929829387 1:-0.9450588047469533 2:-0.7861635220125787 3:-1.0 4:-0.9861111111111109 5:-0.7993197278911566 6:-1.0 7:-0.584795321637427 8:-0.8011223344556679 9:-0.7481799198600372 10:-0.7963636363636362 11:-0.7771428571428571 12:-0.7875063484002032 13:-0.8858969707486106 14:-0.9239125978764399 15:-0.8094861660079051 16:-0.7047665847665845 17:-0.5558085460867193 18:-0.5917289093762583 19:-0.36810118235484923 20:-0.22741000975443826 21:-0.39479789026573375 22:-0.40639262727850256 23:-0.36178042154308987 24:-0.7667561905989095 25:-0.8995708060216642 26:-0.947083613756688 27:0.35849056603773577 28:-0.6053433283087624 29:-0.7726893704586106 30:-0.7467656403353592 
3.2749677433268203 1:-0.9474758052867255 2:-0.6654767975522692 3:-0.5752895752895753 4:-0.7567567567567566 5:-0.7506894649751792 6:-0.6472356414385397 7:-0.6271929824561404 8:-0.8443381180223286 9:-0.7493727148899563 10:-0.5886725663716814 11:-0.7747695852534562 12:-0.6851193499238193 13:-0.7824668413118373 14:-0.7696884138348291 15:-0.6185770750988142 16:-0.6579852579852579 17:-1.0 18:-0.9515171993209277 19:-0.4703157353102374 20:-0.3507134276463113 21:-0.36513417736968956 22:-0.43335337863248913 23:-0.5047679809876511 24:-0.8663745356274113 25:-0.9361525989474724 26:-0.9820934596961864 27:0.320754716981132 28:-0.5544533464552204 29:-0.7418843705528637 30:-0.7096870760609277 
-4.0 1:-0.9049544994944387 2:-0.6654767975522692 3:-0.48262548262548277 4:-0.7567567567567566 5:-0.7506894649751792 6:-0.5601990049751242 7:-0.6549707602339181 8:-0.7634986225895317 9:-0.7525788387857353 10:-0.4706040268456374 11:-0.7730769230769231 12:-0.7420010157440324 13:-0.7395241020814542 14:-0.729821006416751 15:-0.5494071146245056 16:-0.6648648648648648 17:-0.9891268674819137 18:-0.9428559724725545 19:-0.40778700539902535 20:-0.3381189225426927 21:-0.2792650744366644 22:-0.36353721588435184 23:-0.45977298284492607 24:-0.8724057828745871 25:-0.9361525989474724 26:-0.9820934596961864 27:0.35849056603773577 28:-0.6016549580064319 29:-0.7371412065386369 30:-0.7038065402069986 
-4.0 1:-0.7060548385178136 2:-0.4482406935237123 3:-0.48262548262548277 4:-0.493243243243243 5:-0.522338665195808 6:-0.693912093912094 7:-0.6912280701754385 8:-0.6001515151515151 9:-0.7522707177879592 10:-0.4270270270270269 11:-0.776578073089701 12:-0.5429151853732859 13:-0.5478003217223983 14:-0.5868794326241134 15:-0.7015810276679841 16:-0.4378378378378379 17:-0.8374760877297391 18:-0.8063060179469711 19:-0.29887157784603646 20:-0.09478294811225085 21:-0.22187992492614506 22:-0.2490617323155555 23:-0.29301771098478446 24:-0.7812599198585809 25:-0.897343394386132 26:-0.963101674525475 27:-0.018867924528301883 28:-0.37472163190394026 29:-0.7220188136843935 30:-0.6896477255509961 
4.0 1:-0.7060548385178136 2:-0.4482406935237123 3:-0.48262548262548277 4:-0.493243243243243 5:-0.522338665195808 6:-0.693912093912094 7:-0.6541353383458647 8:-0.4491228070175438 9:-0.7522707177879592 10:-0.4270270270270269 11:-0.776578073089701 12:-0.5429151853732859 13:-0.5478003217223983 14:-0.5868794326241134 15:-0.7015810276679841 16:-0.4378378378378379 17:-0.7893048261702517 18:-0.7701265994196173 19:-0.29887157784603646 20:-0.09478294811225085 21:-0.22187992492614506 22:-0.2490617323155555 23:-0.29301771098478446 24:-0.7812599198585809 25:-0.897343394386132 26:-0.963101674525475 27:-0.018867924528301883 28:-0.430240112365445 29:-0.7223532190736079 30:-0.69261855550445 
2.2234021427921373 1:-0.7195921604717765 2:-0.5930647628760837 3:-0.38996138996138985 4:-0.493243243243243 5:-0.674572531715389 6:-0.7441819772528433 7:-0.631578947368421 8:-0.7525141525141524 9:-0.7648099027409372 10:-0.5094305239179953 11:-0.7770935960591133 12:-0.6780091416962926 13:-0.6480958041650157 14:-0.6595744680851062 15:-0.46640316205533616 16:-0.5547911547911548 17:-0.8795948493839432 18:-0.8999829345899347 19:-0.2516212967436172 20:-0.1971078488044663 21:-0.17636861379021163 22:-0.2617438618486604 23:-0.30317877031355844 24:-0.7596656954716728 25:-0.8892664246223606 26:-0.9641869193923728 27:-0.018867924528301883 28:-0.6014246936489245 29:-0.7103254086593025 30:-0.6937623214704263 
-2.1017015737478246 1:-0.6632811674690249 2:-0.4482406935237123 3:-0.48262548262548277 4:-0.4054054054054054 5:-0.522338665195808 6:-0.7118699186991869 7:-0.5719298245614035 8:-0.8535559678416822 9:-0.764896163550495 10:-0.4411009174311926 11:-0.7867647058823529 12:-0.500253936008126 13:-0.5861892062818147 14:-0.6220396658990134 15:-0.5355731225296443 16:-0.43095823095823116 17:-0.9054966810294631 18:-0.8925504045629394 19:-0.2686191421845928 20:-0.09355588929699066 21:-0.15544378341119713 22:-0.2539035323726674 23:-0.26137939293835966 24:-0.5585492735253577 25:-0.6979933890478631 26:-0.7992296996239084 27:0.018867924528301883 28:-0.6149122281515425 29:-0.7161690953166586 30:-0.6919738788831965 
-3.099048640099398 1:-0.9951298604172523 2:-0.6745283018867925 3:-0.7142857142857143 4:-0.6249999999999999 5:-0.7602040816326531 6:-0.8755134281200633 7:-0.6716791979949874 8:-0.9378299120234604 9:-0.5642288745737021 10:-0.762004555808656 11:-0.7796352583586627 12:-0.813103098019299 13:-0.982063489970062 14:-0.9744133543134704 15:-0.8675889328063241 16:-0.7405405405405406 17:-0.9559685151210274 18:-0.9255404062617082 19:-0.5918012305809328 20:-0.5564127978644573 21:-0.5309406263319825 22:-0.5412468290334729 23:-0.6146338524805639 24:-0.8538052361513947 25:-0.9455419226316676 26:-0.9820934596961864 27:-1.0 28:-0.43611273722278343 29:-0.818822064805194 30:-0.7918003884356641 
1.2267660758298493 1:-0.20413511840952825 2:-0.10865322055953175 3:0.17241379310344818 4:0.10344827586206917 5:-0.06826178747361011 6:-0.06480023330417017 7:-0.7199248120300752 8:-0.14424242424242417 9:-0.759990672457516 10:-0.17623762376237606 11:-0.7637987012987013 12:-0.1327297245232132 13:-0.1487484056515037 14:-0.13601823708206684 15:0.11844077961019472 16:-0.08033550792171495 17:-0.2634039096756653 18:-0.25443110650811285 19:-0.031767787925950364 20:-0.07571089064010872 21:0.059254495351437786 22:-0.033245755619306205 23:-0.08237020613127843 24:-0.5558962882117289 25:-0.7569214047730775 26:-0.9429824561403508 27:0.35849056603773577 28:-0.07877012581823217 29:-0.7389671958897197 30:-0.7174220530135755 
3.459466382549114 1:-0.7060548385178136 2:-0.4482406935237123 3:-0.48262548262548277 4:-0.493243243243243 5:-0.522338665195808 6:-0.693912093912094 7:-0.6912280701754385 8:-0.6001515151515151 9:-0.7522707177879592 10:-0.4270270270270269 11:-0.776578073089701 12:-0.5429151853732859 13:-0.5478003217223983 14:-0.5868794326241134 15:-0.7015810276679841 16:-0.4378378378378379 17:-0.7953183663325908 18:-0.7643444062844558 19:-0.29887157784603646 20:-0.09478294811225085 21:-0.22187992492614506 22:-0.2490617323155555 23:-0.29301771098478446 24:-0.7812599198585809 25:-0.897343394386132 26:-0.963101674525475 27:-0.018867924528301883 28:-0.3116889663940857 29:-0.7220188136843935 30:-0.6896477255509961 
4.0 1:-0.7196701712761345 2:-0.4482406935237123 3:-0.5752895752895753 4:-0.493243243243243 5:-0.522338665195808 6:-0.6275940062199603 7:-0.6081871345029239 8:-0.732583567635114 9:-0.7527572246265531 10:-0.44657534246575337 11:-0.777992277992278 12:-0.500253936008126 13:-0.5861892062818147 14:-0.6451119454874149 15:-0.49407114624505954 16:-0.4584766584766583 17:-0.9408061580690396 18:-0.9185991878377018 19:-0.302205022419866 20:-0.1713890727993469 21:-0.21491911513927509 22:-0.2667382262299802 23:-0.30145500881696097 24:-0.599058563310936 25:-0.7227019738601004 26:-0.8024854342246016 27:-0.018867924528301883 28:-0.6296720634657309 29:-0.7397155505989965 30:-0.7122842662525316 
2.4056837500966477 1:-0.20413511840952825 2:-0.10865322055953175 3:0.17241379310344818 4:0.10344827586206917 5:-0.06826178747361011 6:-0.06480023330417017 7:-0.7153446997776131 8:-0.018039215686274646 9:-0.7516617256982369 10:-0.17623762376237606 11:-0.7546296296296297 12:-0.1327297245232132 13:-0.1487484056515037 14:-0.13601823708206684 15:0.11844077961019472 16:-0.08033550792171495 17:-0.24122198461729916 18:-0.2632868759173326 19:-0.031767787925950364 20:-0.07571089064010872 21:0.059254495351437786 22:-0.033245755619306205 23:-0.08237020613127843 24:-0.5558962882117289 25:-0.7569214047730775 26:-0.9429824561403508 27:0.35849056603773577 28:-0.6582995886644523 29:-0.7489099525499066 30:-0.7272744310887536 
-2.439263353923403 1:-0.7075943486459157 2:-0.5206527281998978 3:-0.48262548262548277 4:-0.4054054054054054 5:-0.5984555984555983 6:-0.7055837563451776 7:0.08771929824561386 8:-0.8895055821371611 9:-0.7670605256812153 10:-0.4733485193621867 11:-0.7848639455782314 12:-0.5642458100558659 13:-0.6010533303439152 14:-0.6577870965524351 15:-0.5079051383399209 16:-0.4584766584766583 17:-0.9494584837545127 18:-0.8907680063668922 19:-0.26255813268891015 20:-0.18437511788284877 21:-0.15509858564919232 22:-0.25821769943072015 23:-0.2998320856528609 24:-0.5570345824342913 25:-0.6976637773689132 26:-0.7992296996239084 27:-0.018867924528301883 28:-0.7280203523340096 29:-0.7251011443564866 30:-0.7067912563528553 
4.0 1:0.9999999999999998 2:1.0 3:1.0 4:1.0 5:1.0 6:1.0 7:-0.7326073805202662 8:0.13391198416324035 9:-0.10151917048468773 10:1.0 11:-0.767445054945055 12:1.0 13:1.0 14:1.0 15:1.0 16:1.0 17:0.7998030850016409 18:0.7849952590756868 19:0.9979382433421327 20:0.9999999999999998 21:1.0 22:1.0 23:1.0 24:0.9999999999999998 25:1.0 26:1.0 27:-0.3584905660377359 28:0.48361047770056076 29:-0.24388555275080437 30:-0.2772757614349658 
-4.0 1:0.9999999999999998 2:1.0 3:1.0 4:1.0 5:1.0 6:1.0 7:-0.7362864174009685 8:0.052086906803887834 9:-0.4288616739093628 10:1.0 11:-0.7678571428571429 12:1.0 13:1.0 14:1.0 15:1.0 16:1.0 17:0.9799438427597273 18:0.9673022124035475 19:0.9979382433421327 20:0.9999999999999998 21:1.0 22:1.0 23:1.0 24:0.9999999999999998 25:1.0 26:1.0 27:-0.39622641509433965 28:0.9102025045650315 29:-0.24477564430645382 30:-0.2839401634789268 
4.0 1:0.9999999999999998 2:1.0 3:1.0 4:1.0 5:1.0 6:1.0 7:-0.736842105263158 8:0.052086906803887834 9:-0.4288616739093628 10:1.0 11:-0.7678571428571429 12:1.0 13:1.0 14:1.0 15:1.0 16:1.0 17:1.0 18:1.0 19:0.9979382433421327 20:0.9999999999999998 21:1.0 22:1.0 23:1.0 24:0.9999999999999998 25:1.0 26:1.0 27:-1.0 28:1.0 29:-0.24475557827655525 30:-0.28387345816917287 
-4.0 1:0.9999999999999998 2:1.0 3:1.0 4:1.0 5:1.0 6:1.0 7:-0.7316394434361766 8:0.11406603346901845 9:-0.10151917048468773 10:1.0 11:-0.7675150519978107 12:1.0 13:1.0 14:1.0 15:1.0 16:1.0 17:0.8023663337637355 18:0.7864706494058114 19:0.9979382433421327 20:0.9999999999999998 21:1.0 22:1.0 23:1.0 24:0.9999999999999998 25:1.0 26:1.0 27:0.018867924528301883 28:0.45564257494326 29:-0.24368445419769214 30:-0.27735221327925563 
-4.0 1:0.7979593712657411 2:0.7023060796645699 3:1.0 4:0.6388888888888888 5:0.6870748299319729 6:0.7803921568627452 7:-0.7309941520467836 8:0.34411518499916305 9:-0.3985333125292557 10:0.9223529411764706 11:-0.7669172932330828 12:0.7392923649906891 13:0.7367970311161858 14:0.740213941459974 15:0.7463768115942031 16:0.8486486486486489 17:0.7965211683623235 18:0.703898454838088 19:0.8526186489092993 20:0.9126595742123731 21:0.8972242577500964 22:0.8271139799709177 23:0.8226685435237531 24:0.40920828544730736 25:0.23175728474194113 26:0.1288256368952967 27:0.018867924528301883 28:0.3404364591410398 29:-0.27070777364152077 30:-0.3134852608486819 
-4.0 1:0.7979593712657411 2:0.7023060796645699 3:1.0 4:0.6388888888888888 5:0.6870748299319729 6:0.7803921568627452 7:-0.7309941520467836 8:0.06719367588932812 9:-0.43268888949656814 10:0.9223529411764706 11:-0.7678571428571429 12:0.7392923649906891 13:0.7367970311161858 14:0.740213941459974 15:0.7463768115942031 16:0.8486486486486489 17:0.7965211683623235 18:0.703898454838088 19:0.8526186489092993 20:0.9126595742123731 21:0.8972242577500964 22:0.8271139799709177 23:0.8226685435237531 24:-7.852179886400634E-4 25:-0.2684684684684684 26:-0.6541353383458646 27:0.018867924528301883 28:0.3784815450049053 29:-0.28284555796926303 30:-0.3374491330853042 
-4.0 1:0.9999999999999998 2:1.0 3:1.0 4:1.0 5:1.0 6:1.0 7:-0.7367331371908031 8:0.2082251082251081 9:-0.4288616739093628 10:1.0 11:-0.7678571428571429 12:1.0 13:1.0 14:1.0 15:1.0 16:1.0 17:0.8479258407056243 18:0.8196124538653395 19:0.9979382433421327 20:0.9999999999999998 21:1.0 22:1.0 23:1.0 24:0.9999999999999998 25:1.0 26:1.0 27:0.018867924528301883 28:0.6165438012051752 29:-0.2429235343870394 30:-0.2834487691880764 
-4.0 1:0.9999999999999998 2:1.0 3:1.0 4:1.0 5:1.0 6:1.0 7:-0.7326073805202662 8:0.13391198416324035 9:-0.10151917048468773 10:1.0 11:-0.767445054945055 12:1.0 13:1.0 14:1.0 15:1.0 16:1.0 17:0.7998030850016409 18:0.7849952590756868 19:0.9979382433421327 20:0.9999999999999998 21:1.0 22:1.0 23:1.0 24:0.9999999999999998 25:1.0 26:1.0 27:-0.3584905660377359 28:0.48361047770056076 29:-0.24388555275080437 30:-0.2772757614349658 
-4.0 1:0.7979593712657411 2:0.7023060796645699 3:1.0 4:0.6388888888888888 5:0.6870748299319729 6:0.7803921568627452 7:-0.7309941520467836 8:0.332001332001332 9:-0.42403240067311254 10:0.9223529411764706 11:-0.76698606271777 12:0.7392923649906891 13:0.7367970311161858 14:0.740213941459974 15:0.7463768115942031 16:0.8486486486486489 17:0.7939883848689373 18:0.702479027970411 19:0.8526186489092993 20:0.9126595742123731 21:0.8972242577500964 22:0.8271139799709177 23:0.8226685435237531 24:0.4213839564881432 25:0.24215541833433263 26:0.1308027029540315 27:-0.3584905660377359 28:0.3323589348236513 29:-0.27050296086058345 30:-0.31227281941980656 
-4.0 1:0.7979593712657411 2:0.7023060796645699 3:1.0 4:0.6388888888888888 5:0.6870748299319729 6:0.7803921568627452 7:-0.7309941520467836 8:0.4891774891774896 9:1.0 10:0.9223529411764706 11:-0.767466110531804 12:0.7392923649906891 13:0.7367970311161858 14:0.740213941459974 15:0.7463768115942031 16:0.8486486486486489 17:0.8089541226382777 18:0.7826824585194552 19:0.8526186489092993 20:0.9126595742123731 21:0.8972242577500964 22:0.8271139799709177 23:0.8226685435237531 24:0.5138478066880101 25:0.37231206599861255 26:0.2756057957735998 27:-0.3584905660377359 28:0.21225668915135487 29:-0.2687415565828325 30:-0.30630571821273556 
-1.0791487902529715 1:0.7979593712657411 2:0.7023060796645699 3:1.0 4:0.6388888888888888 5:0.6870748299319729 6:0.7803921568627452 7:-0.7309941520467836 8:0.4891774891774896 9:1.0 10:0.9223529411764706 11:-0.767466110531804 12:0.7392923649906891 13:0.7367970311161858 14:0.740213941459974 15:0.7463768115942031 16:0.8486486486486489 17:0.8089541226382777 18:0.7826824585194552 19:0.8526186489092993 20:0.9126595742123731 21:0.8972242577500964 22:0.8271139799709177 23:0.8226685435237531 24:0.5138478066880101 25:0.37231206599861255 26:0.2756057957735998 27:-0.3584905660377359 28:0.21225668915135487 29:-0.2687415565828325 30:-0.30630571821273556 
4.0 1:0.9999999999999998 2:1.0 3:1.0 4:1.0 5:1.0 6:1.0 7:-0.7326073805202662 8:0.13391198416324035 9:-0.10151917048468773 10:1.0 11:-0.767445054945055 12:1.0 13:1.0 14:1.0 15:1.0 16:1.0 17:0.7998030850016409 18:0.7849952590756868 19:0.9979382433421327 20:0.9999999999999998 21:1.0 22:1.0 23:1.0 24:0.9999999999999998 25:1.0 26:1.0 27:-0.3584905660377359 28:0.48361047770056076 29:-0.24388555275080437 30:-0.2772757614349658 
-4.0 1:0.9999999999999998 2:1.0 3:1.0 4:1.0 5:1.0 6:1.0 7:-0.7362864174009685 8:0.052086906803887834 9:-0.4288616739093628 10:1.0 11:-0.7678571428571429 12:1.0 13:1.0 14:1.0 15:1.0 16:1.0 17:0.9799438427597273 18:0.9673022124035475 19:0.9979382433421327 20:0.9999999999999998 21:1.0 22:1.0 23:1.0 24:0.9999999999999998 25:1.0 26:1.0 27:-0.39622641509433965 28:0.9102025045650315 29:-0.24477564430645382 30:-0.2839401634789268 
4.0 1:0.9999999999999998 2:1.0 3:1.0 4:1.0 5:1.0 6:1.0 7:-0.736842105263158 8:0.052086906803887834 9:-0.4288616739093628 10:1.0 11:-0.7678571428571429 12:1.0 13:1.0 14:1.0 15:1.0 16:1.0 17:1.0 18:1.0 19:0.9979382433421327 20:0.9999999999999998 21:1.0 22:1.0 23:1.0 24:0.9999999999999998 25:1.0 26:1.0 27:-1.0 28:1.0 29:-0.24475557827655525 30:-0.28387345816917287 
-4.0 1:0.9999999999999998 2:1.0 3:1.0 4:1.0 5:1.0 6:1.0 7:-0.7316394434361766 8:0.11406603346901845 9:-0.10151917048468773 10:1.0 11:-0.7675150519978107 12:1.0 13:1.0 14:1.0 15:1.0 16:1.0 17:0.8023663337637355 18:0.7864706494058114 19:0.9979382433421327 20:0.9999999999999998 21:1.0 22:1.0 23:1.0 24:0.9999999999999998 25:1.0 26:1.0 27:0.018867924528301883 28:0.45564257494326 29:-0.24368445419769214 30:-0.27735221327925563 
-4.0 1:0.7979593712657411 2:0.7023060796645699 3:1.0 4:0.6388888888888888 5:0.6870748299319729 6:0.7803921568627452 7:-0.7309941520467836 8:0.34411518499916305 9:-0.3985333125292557 10:0.9223529411764706 11:-0.7669172932330828 12:0.7392923649906891 13:0.7367970311161858 14:0.740213941459974 15:0.7463768115942031 16:0.8486486486486489 17:0.7965211683623235 18:0.703898454838088 19:0.8526186489092993 20:0.9126595742123731 21:0.8972242577500964 22:0.8271139799709177 23:0.8226685435237531 24:0.40920828544730736 25:0.23175728474194113 26:0.1288256368952967 27:0.018867924528301883 28:0.3404364591410398 29:-0.27070777364152077 30:-0.3134852608486819 
-4.0 1:0.7979593712657411 2:0.7023060796645699 3:1.0 4:0.6388888888888888 5:0.6870748299319729 6:0.7803921568627452 7:-0.7309941520467836 8:0.06719367588932812 9:-0.43268888949656814 10:0.9223529411764706 11:-0.7678571428571429 12:0.7392923649906891 13:0.7367970311161858 14:0.740213941459974 15:0.7463768115942031 16:0.8486486486486489 17:0.7965211683623235 18:0.703898454838088 19:0.8526186489092993 20:0.9126595742123731 21:0.8972242577500964 22:0.8271139799709177 23:0.8226685435237531 24:-7.852179886400634E-4 25:-0.2684684684684684 26:-0.6541353383458646 27:0.018867924528301883 28:0.3784815450049053 29:-0.28284555796926303 30:-0.3374491330853042 
-4.0 1:0.9999999999999998 2:1.0 3:1.0 4:1.0 5:1.0 6:1.0 7:-0.7367331371908031 8:0.2082251082251081 9:-0.4288616739093628 10:1.0 11:-0.7678571428571429 12:1.0 13:1.0 14:1.0 15:1.0 16:1.0 17:0.8479258407056243 18:0.8196124538653395 19:0.9979382433421327 20:0.9999999999999998 21:1.0 22:1.0 23:1.0 24:0.9999999999999998 25:1.0 26:1.0 27:0.018867924528301883 28:0.6165438012051752 29:-0.2429235343870394 30:-0.2834487691880764 
-4.0 1:0.9999999999999998 2:1.0 3:1.0 4:1.0 5:1.0 6:1.0 7:-0.7326073805202662 8:0.13391198416324035 9:-0.10151917048468773 10:1.0 11:-0.767445054945055 12:1.0 13:1.0 14:1.0 15:1.0 16:1.0 17:0.7998030850016409 18:0.7849952590756868 19:0.9979382433421327 20:0.9999999999999998 21:1.0 22:1.0 23:1.0 24:0.9999999999999998 25:1.0 26:1.0 27:-0.3584905660377359 28:0.48361047770056076 29:-0.24388555275080437 30:-0.2772757614349658 
-4.0 1:0.7979593712657411 2:0.7023060796645699 3:1.0 4:0.6388888888888888 5:0.6870748299319729 6:0.7803921568627452 7:-0.7309941520467836 8:0.332001332001332 9:-0.42403240067311254 10:0.9223529411764706 11:-0.76698606271777 12:0.7392923649906891 13:0.7367970311161858 14:0.740213941459974 15:0.7463768115942031 16:0.8486486486486489 17:0.7939883848689373 18:0.702479027970411 19:0.8526186489092993 20:0.9126595742123731 21:0.8972242577500964 22:0.8271139799709177 23:0.8226685435237531 24:0.4213839564881432 25:0.24215541833433263 26:0.1308027029540315 27:-0.3584905660377359 28:0.3323589348236513 29:-0.27050296086058345 30:-0.31227281941980656 
-4.0 1:0.7979593712657411 2:0.7023060796645699 3:1.0 4:0.6388888888888888 5:0.6870748299319729 6:0.7803921568627452 7:-0.7309941520467836 8:0.4891774891774896 9:1.0 10:0.9223529411764706 11:-0.767466110531804 12:0.7392923649906891 13:0.7367970311161858 14:0.740213941459974 15:0.7463768115942031 16:0.8486486486486489 17:0.8089541226382777 18:0.7826824585194552 19:0.8526186489092993 20:0.9126595742123731 21:0.8972242577500964 22:0.8271139799709177 23:0.8226685435237531 24:0.5138478066880101 25:0.37231206599861255 26:0.2756057957735998 27:-0.3584905660377359 28:0.21225668915135487 29:-0.2687415565828325 30:-0.30630571821273556 
-4.0 1:0.7979593712657411 2:0.7023060796645699 3:1.0 4:0.6388888888888888 5:0.6870748299319729 6:0.7803921568627452 7:-0.7309941520467836 8:0.4891774891774896 9:1.0 10:0.9223529411764706 11:-0.767466110531804 12:0.7392923649906891 13:0.7367970311161858 14:0.740213941459974 15:0.7463768115942031 16:0.8486486486486489 17:0.8089541226382777 18:0.7826824585194552 19:0.8526186489092993 20:0.9126595742123731 21:0.8972242577500964 22:0.8271139799709177 23:0.8226685435237531 24:0.5138478066880101 25:0.37231206599861255 26:0.2756057957735998 27:-0.3584905660377359 28:0.21225668915135487 29:-0.2687415565828325 30:-0.30630571821273556 
0.041071128508196685 1:-0.49000492548635566 2:-0.5831903945111492 3:-0.7142857142857143 4:-0.7234848484848483 5:-0.6215213358070503 6:-0.4484517304189434 7:-0.7422222222222222 8:-0.174891774891775 9:-0.7063992042440319 10:-0.3063515509601181 11:-0.7571428571428571 12:-0.4100992569290013 13:-0.40045596372731895 14:-0.391713325867861 15:-0.40059096665259597 16:-0.329099973760168 17:0.03022580873504621 18:-0.3107128292679556 19:-0.03128870882773904 20:9.26453296077101E-4 21:-0.011244694085854712 22:-0.012414853547006555 23:-0.06560802061142024 24:-0.2672424936508373 25:-0.42401992106606134 26:-0.5701253862718012 27:0.13207547169811318 28:-0.3972113027160936 29:-1.0 30:-1.0 
-0.1336971236024885 1:0.4537262832332123 2:0.6172506738544472 3:0.5324675324675325 4:0.5357142857142856 5:0.5976676384839648 6:0.9713920817369095 7:-0.7358271712338698 8:-0.3349494949494949 9:-0.6384713626092937 10:0.6583529411764706 11:-0.5357142857142858 12:0.4301675977653634 13:0.6114622840286554 14:0.7028310181114823 15:0.8043478260869565 16:0.6108108108108108 17:0.037778686726775756 18:0.03715715116839968 19:0.5055405552151777 20:0.5013066437767089 21:0.756437943813945 22:0.8039895093682157 23:0.4841686290684679 24:-0.19407100434338298 25:-0.417103222214931 26:-0.5840827387061508 27:0.39622641509433953 28:0.16541904165563492 29:-0.9111483193546898 30:-0.9099544304207972 
0.6762389511147178 1:0.4537262832332123 2:0.6172506738544472 3:0.5324675324675325 4:0.5357142857142856 5:0.5976676384839648 6:0.9713920817369095 7:-0.7358271712338698 8:-0.3349494949494949 9:-0.6384713626092937 10:0.6583529411764706 11:-0.5357142857142858 12:0.4301675977653634 13:0.6114622840286554 14:0.7028310181114823 15:0.8043478260869565 16:0.6108108108108108 17:0.037778686726775756 18:0.04396013821983069 19:0.5055405552151777 20:0.5013066437767089 21:0.756437943813945 22:0.8039895093682157 23:0.4841686290684679 24:-0.19407100434338298 25:-0.417103222214931 26:-0.5840827387061508 27:0.320754716981132 28:0.12898972617712978 29:-0.9111483193546898 30:-0.9099544304207972 
-4.0 1:-0.2516023364446931 2:-0.08618052014278421 3:0.2586872586872586 4:0.033783783783783994 5:-0.06563706563706573 6:-0.03223391812865495 7:-0.6626180836707153 8:-0.9608993157380255 9:-0.7414424655803966 10:0.00459016393442635 11:-0.7799744897959184 12:-0.012474171577255722 13:-0.0849732445992255 14:-0.05580088317944609 15:0.1369863013698629 16:-0.11647537948907816 17:-0.9519360090606639 18:-1.0 19:-0.02570788929395207 20:0.12745795168113117 21:0.06951862750716775 22:0.08501358735263653 23:-0.030083863728671556 24:-0.5558563595351347 25:-0.7758195627654219 26:-0.9016465181878224 27:0.320754716981132 28:-0.42304404257822914 29:-0.4987721590044938 30:-0.4400653277658122 
3.726659828582305 1:0.385680353713332 2:0.422123566407695 3:0.5966386554621848 4:0.4901960784313726 5:0.4477791116446581 6:0.42671660424469415 7:-0.7110423116615068 8:1.0 9:-0.7478337754199824 10:0.41607476635514007 11:-0.7613636363636364 12:0.40190601380216906 13:0.46355739412240404 14:0.47286892341336717 15:0.543478260869565 16:0.4124006359300476 17:-0.0933672187133735 18:-0.3392611286764653 19:0.46465249452536805 20:0.4820602124354383 21:0.5674043156087156 22:0.4947452553317655 23:0.4505829436682014 24:-0.04737951124593709 25:-0.31865948845826264 26:-0.4998365478914678 27:0.39622641509433953 28:-0.6313725943791085 29:-0.5430550374627598 30:-0.5059542476770983 
0.9924008365251051 1:0.385680353713332 2:0.422123566407695 3:0.5966386554621848 4:0.4901960784313726 5:0.4477791116446581 6:0.42671660424469415 7:-0.7110423116615068 8:1.0 9:-0.7478337754199824 10:0.41607476635514007 11:-0.7613636363636364 12:0.40190601380216906 13:0.46355739412240404 14:0.47286892341336717 15:0.543478260869565 16:0.4124006359300476 17:-0.20501678786735766 18:-0.4465299802554422 19:0.46465249452536805 20:0.4820602124354383 21:0.5674043156087156 22:0.4947452553317655 23:0.4505829436682014 24:-0.04737951124593709 25:-0.31865948845826264 26:-0.4998365478914678 27:0.2075471698113207 28:-0.7055423325726508 29:-0.5430550374627598 30:-0.5059542476770983 
-4.0 1:-0.2516023364446931 2:-0.08618052014278421 3:0.2586872586872586 4:0.033783783783783994 5:-0.06563706563706573 6:-0.03223391812865495 7:-0.6626180836707153 8:-0.9608993157380255 9:-0.7414424655803966 10:0.00459016393442635 11:-0.7799744897959184 12:-0.012474171577255722 13:-0.0849732445992255 14:-0.05580088317944609 15:0.1369863013698629 16:-0.11647537948907816 17:-0.9519360090606639 18:-0.9998715417692078 19:-0.02570788929395207 20:0.12745795168113117 21:0.06951862750716775 22:0.08501358735263653 23:-0.030083863728671556 24:-0.5558563595351347 25:-0.7758195627654219 26:-0.9016465181878224 27:0.35849056603773577 28:-0.3702290576951621 29:-0.4987721590044938 30:-0.4400653277658122 
-4.0 1:-0.2516023364446931 2:-0.08618052014278421 3:0.2586872586872586 4:0.033783783783783994 5:-0.06563706563706573 6:-0.03223391812865495 7:-0.6626180836707153 8:-0.9608993157380255 9:-0.7414424655803966 10:0.00459016393442635 11:-0.7799744897959184 12:-0.012474171577255722 13:-0.0849732445992255 14:-0.05580088317944609 15:0.1369863013698629 16:-0.11647537948907816 17:-0.9519360090606639 18:-0.9998715417692078 19:-0.02570788929395207 20:0.12745795168113117 21:0.06951862750716775 22:0.08501358735263653 23:-0.030083863728671556 24:-0.5558563595351347 25:-0.7758195627654219 26:-0.9016465181878224 27:0.35849056603773577 28:-0.3702290576951621 29:-0.4987721590044938 30:-0.4400653277658122 
-4.0 1:-0.5294586606517847 2:-0.4884696016771489 3:-0.07563025210084029 4:-0.5294117647058822 5:-0.48639455782312935 6:-0.4376379176379175 7:-0.631578947368421 8:-0.0982683982683984 9:-0.7421027248613457 10:-0.343157894736842 11:-0.7719387755102041 12:-0.3699765723553794 13:-0.4557711217003251 14:-0.45753931544865845 15:-0.05626598465473143 16:-0.2962510897994769 17:-0.4360046186000964 18:-0.5100110597809222 19:-0.13159178891312862 20:-0.050919478087833925 21:-0.11246192295620872 22:-0.1910766896376226 23:-0.15830231479930768 24:-0.654885890268635 25:-0.814007641219862 26:-0.9187639572693198 27:0.35849056603773577 28:-0.10212736466381822 29:-0.5343420303520411 30:-0.48722415547565534 
3.328196708006005 1:-0.2516023364446931 2:-0.08618052014278421 3:0.2586872586872586 4:0.033783783783783994 5:-0.06563706563706573 6:-0.03223391812865495 7:-0.22807017543859653 8:-0.9608993157380255 9:-0.7414424655803966 10:0.00459016393442635 11:-0.7799744897959184 12:-0.012474171577255722 13:-0.0849732445992255 14:-0.05580088317944609 15:0.1369863013698629 16:-0.11647537948907816 17:-0.9242159296028881 18:-0.9862273239117902 19:-0.02570788929395207 20:0.12745795168113117 21:0.06951862750716775 22:0.08501358735263653 23:-0.030083863728671556 24:-0.5558563595351347 25:-0.7758195627654219 26:-0.9016465181878224 27:0.320754716981132 28:-0.41477851147452427 29:-0.4959371629393189 30:-0.4386900248681136 
2.3197203701668228 1:-0.2122437724055518 2:-0.08618052014278421 3:0.35135135135135154 4:0.033783783783783994 5:-0.06563706563706573 6:0.070026397888169 7:-0.5719298245614035 8:-0.8509803921568628 9:-0.7465823301367068 10:0.13093167701863373 11:-0.7767857142857143 12:-0.038187801331598825 13:-0.07320417762895637 14:-0.040258048508157174 15:0.21203097081596178 16:-0.11647537948907816 17:-0.9538491560152209 18:-0.9935986715234626 19:0.045727325296688104 20:0.13790609943180154 21:0.14954734745818765 22:0.13786162155057347 23:0.011399474844595137 24:-0.5641306129831278 25:-0.7758195627654219 26:-0.9016465181878224 27:0.35849056603773577 28:-0.5691768828972478 29:-0.4900281058702419 30:-0.4326158719055002 
-4.0 1:-0.035527037191118604 2:0.13105558388577254 3:0.35135135135135154 4:0.29729729729729737 5:0.16271373414230572 6:-0.021082621082620934 7:-0.6842105263157895 8:-0.787878787878788 9:-0.7393740053050397 10:0.20799999999999996 11:-0.778957528957529 12:0.10323716231728786 13:0.11312043093497492 14:0.12140175219023797 15:0.1406649616368285 16:0.13854128100703433 17:-0.4243674731746152 18:-0.5416934214810258 19:0.1393132513908284 20:0.39856929464267354 21:0.26566730962395324 22:0.24442249601094002 23:0.15919263418103768 24:-0.45921110249193164 25:-0.6844867920402233 26:-0.8687028762216076 27:-0.018867924528301883 28:0.014232101285625687 29:-0.47583156907694757 30:-0.4137076474966249 
-4.0 1:-0.3376896554621611 2:-0.013768485466598812 3:-0.019305019305019155 4:-0.14189189189189166 5:-0.06563706563706573 6:-0.17666424594529162 7:-0.6985645933014355 8:-0.5403263403263403 9:-0.7569289249984336 10:-0.07596638655462185 11:-0.7875939849624061 12:-0.1667559501033138 13:-0.18781530311239547 14:-0.21112929623567922 15:-0.11316259678380003 16:-0.1102554609403924 17:-0.9499618853107425 18:-0.9498010346199761 19:-0.15247545590570954 20:-0.001203812857028419 21:-0.05591499473742112 22:-0.04434737961374502 23:-0.1192596514314408 24:-0.4705578421192159 25:-0.6750767489958089 26:-0.8500825568493993 27:-1.0 28:-0.44737834505922014 29:-0.6032765998514182 30:-0.5465504264163974 
4.0 1:-0.035527037191118604 2:0.13105558388577254 3:0.35135135135135154 4:0.29729729729729737 5:0.16271373414230572 6:-0.021082621082620934 7:-0.729651998849583 8:-0.6090909090909091 9:-0.7393740053050397 10:0.20799999999999996 11:-0.7763975155279503 12:0.10323716231728786 13:0.11312043093497492 14:0.12140175219023797 15:0.13171355498721216 16:0.13854128100703433 17:-0.5151515151515151 18:-0.5739457320603781 19:0.1393132513908284 20:0.39856929464267354 21:0.26566730962395324 22:0.24442249601094002 23:0.15919263418103768 24:-0.45921110249193164 25:-0.6844867920402233 26:-0.8687028762216076 27:-0.018867924528301883 28:6.122362004907789E-4 29:-0.4768679573842364 30:-0.41795696143267447 
3.0634919955292528 1:-0.06856865968870862 2:-0.08618052014278421 3:0.444015444015444 4:0.29729729729729737 5:0.010479867622724903 6:-0.08114630467571637 7:-0.722953216374269 8:-0.7603729603729605 9:-0.7445291777188329 10:0.06071578947368428 11:-0.7785714285714286 12:-0.05747302364735585 13:-0.03521713409554639 14:0.018003273322422242 15:0.2745681953543775 16:0.007922991484635267 17:-0.8867453375379917 18:-0.9599582172701949 19:0.17951264155065716 20:0.2357903452009793 21:0.3125353002735769 22:0.2265855719572223 23:0.1310117404224327 24:-0.5889741722912325 25:-0.7969646038189816 26:-0.923608946165299 27:-0.018867924528301883 28:-0.03853738001867246 29:-0.4634741230717866 30:-0.42025234706283243 
-1.472340279868231 1:-0.33047411506929847 2:-0.31335553089160206 3:0.05882352941176472 4:-0.14705882352941158 5:-0.21488595438175284 6:-0.1451056281244958 7:-0.7495126705653021 8:-0.7650548033526758 9:-0.7450180235326125 10:-0.08091324200913252 11:-0.7857142857142857 12:-0.23299375616168239 13:-0.22068148561075884 14:-0.16352842544127966 15:0.15856777493606122 16:-0.25087440381558046 17:-0.4652088943250262 18:-0.431483117059583 19:-0.13324919476378216 20:-0.07184336814130032 21:0.04198160327761746 22:-0.013361783782921632 23:-0.17834018471022162 24:-0.6484025715297128 25:-0.8299079306454622 26:-0.937878320264774 27:-0.018867924528301883 28:-0.21930388064994533 29:-0.5137746654742963 30:-0.4630560445636772 
-4.0 1:-0.12876447552916337 2:-0.013768485466598812 3:0.2586872586872586 4:0.29729729729729737 5:0.010479867622724903 6:-0.18895966029723987 7:-0.7192982456140351 8:-0.8345191040843215 9:-0.7426387000423511 10:0.03796610169491532 11:-0.7857142857142857 12:0.071095125124359 13:-0.07300278821675377 14:-0.08589440504334123 15:0.11381074168797967 16:0.014142910033321021 17:-0.8590636459251259 18:-0.9315814573556029 19:0.06667559605957685 20:0.20688656270459505 21:0.18025950022063952 22:0.05938511958744219 23:0.07103533869796119 24:-0.4488421508733511 25:-0.6765368423556015 26:-0.8400562310335946 27:0.018867924528301883 28:0.05433663329535943 29:-0.4750966250414095 30:-0.4248817612379684 
0.10729387612549753 1:-0.35434436333919694 2:-0.013768485466598812 3:0.07335907335907343 4:-0.14189189189189166 5:-0.06563706563706573 6:-0.2830917874396134 7:-0.7092731829573935 8:-0.3430894308943091 9:-0.7625047366426677 10:-0.03932631578947354 11:-0.7840136054421769 12:-0.0767582459631132 13:-0.20054978177521643 14:-0.23203414297370217 15:-0.23823704586063144 16:-0.08537578674564972 17:-0.9602888086642599 18:-0.978556059161576 19:-0.16433435253914574 20:0.04858118872087469 21:-0.028354364618096928 22:-0.09152768761497843 23:-0.13437310704272454 24:-0.454795324015019 25:-0.6750767489958089 26:-0.8500825568493993 27:-1.0 28:-0.3148417721579029 29:-0.6264353029622401 30:-0.5726624710372733 
-1.682033969801539 1:0.385680353713332 2:0.422123566407695 3:0.5966386554621848 4:0.4901960784313726 5:0.4477791116446581 6:0.42671660424469415 7:-0.7110423116615068 8:1.0 9:-0.7478337754199824 10:0.41607476635514007 11:-0.7613636363636364 12:0.40190601380216906 13:0.46355739412240404 14:0.47286892341336717 15:0.543478260869565 16:0.4124006359300476 17:-0.20077596580771007 18:-0.44281199252767345 19:0.46465249452536805 20:0.4820602124354383 21:0.5674043156087156 22:0.4947452553317655 23:0.4505829436682014 24:-0.04737951124593709 25:-0.31865948845826264 26:-0.4998365478914678 27:0.35849056603773577 28:-0.3326390886303988 29:-0.5430550374627598 30:-0.5059542476770983 
4.0 1:-0.035527037191118604 2:0.13105558388577254 3:0.35135135135135154 4:0.29729729729729737 5:0.16271373414230572 6:-0.021082621082620934 7:-0.6842105263157895 8:-0.787878787878788 9:-0.7393740053050397 10:0.20799999999999996 11:-0.778957528957529 12:0.10323716231728786 13:0.11312043093497492 14:0.12140175219023797 15:0.1406649616368285 16:0.13854128100703433 17:-0.5111917499808414 18:-0.6281138081973736 19:0.1393132513908284 20:0.39856929464267354 21:0.26566730962395324 22:0.24442249601094002 23:0.15919263418103768 24:-0.45921110249193164 25:-0.6844867920402233 26:-0.8687028762216076 27:-0.018867924528301883 28:0.03161708739119762 29:-0.47583156907694757 30:-0.4137076474966249 
1.4761600997855608 1:-0.11568262119266981 2:0.13105558388577254 3:0.16602316602316614 4:0.20945945945945965 5:0.08659680088251509 6:-0.019676945668134938 7:-0.7243107769423559 8:-0.8736969696969696 9:-0.7409837591325794 10:0.09772151898734172 11:-0.7767857142857143 12:0.13537919951021649 13:0.031316927304319675 14:-0.01860109568097834 15:0.22122762148337594 16:0.07012217697149192 17:-0.8647373937347154 18:-0.9246869036913561 19:0.06419517970839905 20:0.2966415144204102 21:0.15608957563282555 22:0.08946954138347674 23:0.08365306282263885 24:-0.3277633801731701 25:-0.5776551268889306 26:-0.7880148256087046 27:-0.018867924528301883 28:-0.04562361749003152 29:-0.5094750956095151 30:-0.45116216974839896 
-2.965245235484406 1:0.385680353713332 2:0.422123566407695 3:0.5966386554621848 4:0.4901960784313726 5:0.4477791116446581 6:0.42671660424469415 7:-0.7110423116615068 8:1.0 9:-0.7307902825144204 10:0.41607476635514007 11:-0.7613636363636364 12:0.40190601380216906 13:0.46355739412240404 14:0.47286892341336717 15:0.543478260869565 16:0.4124006359300476 17:-0.19726977434107207 18:-0.4426803492960908 19:0.46465249452536805 20:0.4820602124354383 21:0.5674043156087156 22:0.4947452553317655 23:0.4505829436682014 24:-0.04737951124593709 25:-0.31865948845826264 26:-0.4998365478914678 27:0.35849056603773577 28:-0.7263186385044974 29:-0.5473277152217011 30:-0.508318435344618 
1.7636220147651882 1:-0.19853387259858424 2:-0.15859255481897006 3:0.2586872586872586 4:0.29729729729729737 5:-0.14175399889685603 6:-0.2408990186767963 7:-0.7264590046544934 8:-0.8627202255109232 9:-0.7445291777188329 10:-0.03932631578947354 11:-0.7803030303030303 12:-0.07032983852452745 13:-0.1709065772869396 14:-0.1678486997635935 15:0.09946396664681356 16:-0.0667160310995929 17:-0.867807987364621 18:-0.9123565242838408 19:0.056810676751660294 20:0.0984775437051788 21:0.13976961057019865 22:-6.139485446107207E-4 23:0.010080025712381646 24:-0.5571307427656172 25:-0.7597671363955386 26:-0.8801615342968128 27:-0.018867924528301883 28:-0.08933908732407747 29:-0.48803445813318 30:-0.4470188565005371 
-4.0 1:-0.7511498074146348 2:-0.6654767975522692 3:-0.2100840336134453 4:-0.5931372549019608 5:-0.5462184873949578 6:-0.5324599708879183 7:-0.6140350877192983 8:-0.8038896426956129 9:-0.7410881801125704 10:-0.5776576576576576 11:-0.7738095238095238 12:-0.5366414722313504 13:-0.6700305335610415 14:-0.6338989137265463 15:-0.11892583120204603 16:-0.6292527821939587 17:-0.3086642599277979 18:-0.2887238695233384 19:-0.503307637743972 20:-0.4286418381628353 21:-0.4015743717762834 22:-0.4860635444186545 23:-0.5233412562018364 24:-0.6156374215252509 25:-0.715885945306383 26:-0.7930533634922265 27:-0.018867924528301883 28:-0.20682636896054862 29:-0.6377409221627668 30:-0.5937770359017048 
4.0 1:-0.7511498074146348 2:-0.6654767975522692 3:-0.2100840336134453 4:-0.5931372549019608 5:-0.5462184873949578 6:-0.5324599708879183 7:-0.6140350877192983 8:-0.8038896426956129 9:-0.7410881801125704 10:-0.5776576576576576 11:-0.7738095238095238 12:-0.5366414722313504 13:-0.6700305335610415 14:-0.6338989137265463 15:-0.11892583120204603 16:-0.6292527821939587 17:-0.3086642599277979 18:-0.2852492879722075 19:-0.503307637743972 20:-0.4286418381628353 21:-0.4015743717762834 22:-0.4860635444186545 23:-0.5233412562018364 24:-0.6156374215252509 25:-0.715885945306383 26:-0.7930533634922265 27:-0.1320754716981133 28:-0.3063078482176448 29:-0.6377409221627668 30:-0.5937770359017048 
4.0 1:-0.7511498074146348 2:-0.6654767975522692 3:-0.2100840336134453 4:-0.5931372549019608 5:-0.5462184873949578 6:-0.5324599708879183 7:-0.6140350877192983 8:-0.2738636363636363 9:-0.7174368281446322 10:-0.5776576576576576 11:-0.5892857142857143 12:-0.5366414722313504 13:-0.6700305335610415 14:-0.6338989137265463 15:-0.11892583120204603 16:-0.6292527821939587 17:-0.3086642599277979 18:-0.26217690356514856 19:-0.503307637743972 20:-0.4286418381628353 21:-0.4015743717762834 22:-0.4860635444186545 23:-0.5233412562018364 24:-0.6156374215252509 25:-0.715885945306383 26:-0.7930533634922265 27:-1.0 28:-0.19255113146464242 29:-0.642503676830948 30:-0.5970387510533373 
4.0 1:0.9999999999999998 2:1.0 3:1.0 4:1.0 5:1.0 6:1.0 7:-0.38596491228070184 8:-0.787878787878788 9:-0.7540910018363599 10:1.0 11:-0.7678571428571429 12:1.0 13:1.0 14:1.0 15:1.0 16:1.0 17:1.0 18:0.7362704760931229 19:0.9979382433421327 20:0.9999999999999998 21:1.0 22:1.0 23:1.0 24:0.9999999999999998 25:1.0 26:1.0 27:-0.3584905660377359 28:0.5922983758697549 29:-0.3425906515064334 30:-0.309849892821057 
0.046290849616717346 1:0.9999999999999998 2:1.0 3:1.0 4:1.0 5:1.0 6:1.0 7:-0.38596491228070184 8:-0.787878787878788 9:-0.7540910018363599 10:1.0 11:-0.7678571428571429 12:1.0 13:1.0 14:1.0 15:1.0 16:1.0 17:1.0 18:0.9868376748599592 19:0.9979382433421327 20:0.9999999999999998 21:1.0 22:1.0 23:1.0 24:0.9999999999999998 25:1.0 26:1.0 27:-0.3584905660377359 28:0.7218711679915044 29:-0.3425906515064334 30:-0.309849892821057 
1.1211489853661898 1:0.9999999999999998 2:1.0 3:1.0 4:1.0 5:1.0 6:1.0 7:-0.38596491228070184 8:-0.787878787878788 9:-0.7174368281446322 10:1.0 11:-0.7678571428571429 12:1.0 13:1.0 14:1.0 15:1.0 16:1.0 17:1.0 18:0.7362704760931229 19:0.9979382433421327 20:0.9999999999999998 21:1.0 22:1.0 23:1.0 24:0.9999999999999998 25:1.0 26:1.0 27:-0.3584905660377359 28:0.6188146991272598 29:-0.38520844486441397 30:-0.3576537695609032 
0.24803786621143376 1:0.9999999999999998 2:1.0 3:1.0 4:1.0 5:1.0 6:1.0 7:-0.38596491228070184 8:-0.775258467023173 9:-0.7540910018363599 10:1.0 11:-0.7662337662337663 12:1.0 13:1.0 14:1.0 15:1.0 16:1.0 17:0.9761596621483548 18:0.9879764802377542 19:0.9979382433421327 20:0.9999999999999998 21:1.0 22:1.0 23:1.0 24:0.9999999999999998 25:1.0 26:1.0 27:-1.0 28:0.4149926371744981 29:-0.3425662260261898 30:-0.31001209102673677 
-1.9832077222027915 1:0.9238018200202225 2:0.8551759306476288 3:1.0 4:0.8879310344827589 5:0.9028852920478536 6:0.8987080103359175 7:-0.4736842105263158 8:-0.8146969696969697 9:-0.7294429708222812 10:0.9200000000000002 11:-0.763888888888889 12:0.8219996147177804 13:0.8837707687265208 14:0.911447690026846 15:1.0 16:0.8711468224981738 17:0.5695457161475053 18:0.44872157133860857 19:0.962667707786276 20:0.8783015115112118 21:0.9795973919196439 22:0.9691473503989478 23:0.9330758327242175 24:0.7400960618667458 25:0.6883266244968373 26:0.6335403726708075 27:-0.3584905660377359 28:0.2943331388325381 29:-0.34148707670642586 30:-0.3111963114592031 
4.0 1:0.050097013089935194 2:0.20346761856195816 3:0.39495798319327724 4:0.29729729729729737 5:0.16271373414230572 6:0.20732491957436294 7:-0.4035087719298246 8:-0.8468198468198469 9:-0.7238587184140723 10:0.17028571428571437 11:-0.6632653061224489 12:0.16291710705118523 13:0.18552521571782377 14:0.1738049184857695 15:0.41815856777493576 16:0.21460920379839288 17:-0.5298650173975503 18:-0.7426402315800972 19:0.18930207507304653 20:0.16406801717752084 21:0.25915824630065876 22:0.2620829433409628 23:0.1454570186511741 24:-0.28303535349429165 25:-0.46328146328146325 26:-0.6043233082706768 27:0.6226415094339621 28:-0.3408522590226647 29:-0.3959528228556992 30:-0.34803181073371126 
4.0 1:0.22284136490405437 2:0.2758796532381438 3:0.444015444015444 4:0.472972972972973 5:0.2388306674020959 6:0.23070707070707086 7:-0.7 8:-0.8093333333333335 9:-0.7152961980548187 10:0.272098765432099 11:-0.6275510204081634 12:0.24535708893250785 13:0.2973032740598578 14:0.28944199116820557 15:0.4817861339600469 16:0.3557341124908695 17:0.4862538183837821 18:0.3452858694112646 19:0.3431940779299645 20:0.2993373745378376 21:0.4022203309060248 22:0.29938904847615344 23:0.3105614669990988 24:-0.48392519939448553 25:-0.7209937209937209 26:-0.8740601503759398 27:0.320754716981132 28:0.022587187434780276 29:-0.4884781219399248 30:-0.44679816509187964 
-0.5203581886390534 1:0.050097013089935194 2:0.20346761856195816 3:0.39495798319327724 4:0.29729729729729737 5:0.16271373414230572 6:0.20732491957436294 7:-0.4035087719298246 8:-0.7755485893416927 9:-0.7238587184140723 10:0.17028571428571437 11:-0.6632653061224489 12:0.16291710705118523 13:0.18552521571782377 14:0.1738049184857695 15:0.41815856777493576 16:0.21460920379839288 17:0.06649816397108821 18:-0.1291131971168037 19:0.1875993214213958 20:0.16406801717752084 21:0.2591776751700292 22:0.25835588392216 23:0.1454570186511741 24:-0.28303535349429165 25:-0.46328146328146325 26:-0.6043233082706768 27:0.6226415094339621 28:-0.31182333859123457 29:-0.3968358981871487 30:-0.3514103444500608 
4.0 1:0.03708464340623596 2:0.05864354920958692 3:0.5366795366795369 4:0.29729729729729737 5:0.08659680088251509 6:0.0869165023011178 7:-0.26315789473684215 8:-0.9192331478045764 9:-0.7440058251417278 10:0.15651452282157696 11:-0.6897321428571428 12:0.1819417182545673 13:0.12029196383846585 14:0.1365529663402003 15:0.3554987212276213 16:0.09189189189189184 17:0.5882005737738671 18:0.4679130062138417 19:0.20160209587699152 20:0.1755678081011296 21:0.2610655299028073 22:0.23403659626536233 23:0.13417328457063493 24:-0.46202304957018847 25:-0.6422140302191066 26:-0.7770513239620792 27:0.6603773584905659 28:-0.42603906242603473 29:-0.39979176425912577 30:-0.35902908962392843 
-2.579845113878344 1:0.09928781817382526 2:0.20346761856195816 3:0.35135135135135154 4:0.3851351351351353 5:0.16271373414230572 6:0.13103448275862073 7:-0.6842105263157895 8:-0.8299465240641711 9:-0.7504219918013022 10:0.1889484536082473 11:-0.3928571428571429 12:0.12486788464442089 13:0.23438278488220354 14:0.21944760907719307 15:0.3337250293772034 16:0.2698319941563183 17:0.5504787923560484 18:0.35130139907640934 19:0.2339113960617616 20:0.2804305160864451 21:0.27397811020758267 22:0.21985529616027666 23:0.19529844003072672 24:-0.5155989969445398 25:-0.7264537264537264 26:-0.8778195488721804 27:0.320754716981132 28:0.09807321430689853 29:-0.5215538536032208 30:-0.47890397776322624 
4.0 1:-0.7511498074146348 2:-0.6654767975522692 3:-0.2100840336134453 4:-0.5931372549019608 5:-0.5462184873949578 6:-0.5324599708879183 7:-0.6140350877192983 8:-0.8038896426956129 9:-0.7410881801125704 10:-0.5776576576576576 11:-0.7738095238095238 12:-0.5366414722313504 13:-0.6700305335610415 14:-0.6338989137265463 15:-0.11892583120204603 16:-0.6292527821939587 17:-0.3086642599277979 18:-0.2954403457162941 19:-0.503307637743972 20:-0.4286418381628353 21:-0.4015743717762834 22:-0.4860635444186545 23:-0.5233412562018364 24:-0.6156374215252509 25:-0.715885945306383 26:-0.7930533634922265 27:0.16981132075471694 28:-0.3296953399474518 29:-0.6377409221627668 30:-0.5937770359017048 
4.0 1:0.050097013089935194 2:0.20346761856195816 3:0.39495798319327724 4:0.29729729729729737 5:0.16271373414230572 6:0.20732491957436294 7:-0.4035087719298246 8:-0.8468198468198469 9:-0.7238587184140723 10:0.17028571428571437 11:-0.6632653061224489 12:0.16291710705118523 13:0.18552521571782377 14:0.1738049184857695 15:0.41815856777493576 16:0.21460920379839288 17:-0.5298650173975503 18:-0.7426402315800972 19:0.18930207507304653 20:0.16406801717752084 21:0.25915824630065876 22:0.2620829433409628 23:0.1454570186511741 24:-0.28303535349429165 25:-0.46328146328146325 26:-0.6043233082706768 27:0.6226415094339621 28:-0.33336857934712716 29:-0.3959528228556992 30:-0.34803181073371126 
4.0 1:0.007836198179979936 2:0.05864354920958692 3:0.39495798319327724 4:0.12162162162162171 5:0.010479867622724903 6:0.20551353168599773 7:-0.5789473684210527 8:-0.8652920962199313 9:-0.7347480106100797 10:0.15999999999999992 11:-0.6840659340659341 12:0.12486788464442089 13:0.10563016323577346 14:0.1186302996219577 15:0.46944770857814344 16:0.03666910153396641 17:0.06802144623610973 18:-0.03865336549696119 19:0.20107912327078314 20:0.11171416176854732 21:0.2508355900751611 22:0.2494734299129575 23:0.12424257905404801 24:-0.5238397491569098 25:-0.6961922888576456 26:-0.821837201699902 27:0.6226415094339621 28:-0.39153293289871693 29:-0.42895910560566 30:-0.37952455463694734 
4.0 1:-0.7511498074146348 2:-0.6654767975522692 3:-0.2100840336134453 4:-0.5931372549019608 5:-0.5462184873949578 6:-0.5324599708879183 7:-0.6140350877192983 8:-0.2738636363636363 9:-0.7174368281446322 10:-0.5776576576576576 11:-0.5892857142857143 12:-0.5366414722313504 13:-0.6700305335610415 14:-0.6338989137265463 15:-0.11892583120204603 16:-0.6292527821939587 17:-0.3086642599277979 18:-0.2887238695233384 19:-0.503307637743972 20:-0.4286418381628353 21:-0.4015743717762834 22:-0.4860635444186545 23:-0.5233412562018364 24:-0.6156374215252509 25:-0.715885945306383 26:-0.7930533634922265 27:-0.3584905660377359 28:-0.18901565237517937 29:-0.642503676830948 30:-0.5970387510533373 
4.0 1:-0.015450952209845492 2:-0.08618052014278421 3:0.5366795366795369 4:0.29729729729729737 5:-0.049219687875150075 6:0.04047267355982287 7:-0.6140350877192983 8:-0.9346730462519937 9:-0.7396993810786914 10:0.09096907216494854 11:-0.6160714285714286 12:0.048769439830892214 13:0.015635009134261635 14:0.04682650353110529 15:0.3954171562867217 16:0.030533235938641434 17:0.5640623935699203 18:0.4402721234197555 19:0.20542800249493798 20:0.06152507048296707 21:0.23281927915439748 22:0.17513707949532442 23:0.09503448558462346 24:-0.5903341175670364 25:-0.7536869608467727 26:-0.8740601503759398 27:0.6226415094339621 28:-0.4583981583237967 29:-0.414283559690911 30:-0.3842442664937902 
-2.4706367722396254 1:0.9999999999999998 2:1.0 3:1.0 4:1.0 5:1.0 6:1.0 7:-0.7343941248470012 8:0.13391198416324035 9:-0.10151917048468773 10:1.0 11:-0.7674418604651163 12:1.0 13:1.0 14:1.0 15:1.0 16:1.0 17:0.7932392517230062 18:0.7586384508421375 19:0.9979382433421327 20:0.9999999999999998 21:1.0 22:1.0 23:1.0 24:0.9999999999999998 25:1.0 26:1.0 27:-0.4339622641509434 28:0.42258098608755623 29:-0.24392690177462095 30:-0.27729804668578073 
4.0 1:0.9999999999999998 2:1.0 3:1.0 4:1.0 5:1.0 6:1.0 7:-0.736842105263158 8:0.13391198416324035 9:-0.10151917048468773 10:1.0 11:-0.76778304682869 12:1.0 13:1.0 14:1.0 15:1.0 16:1.0 17:0.9773559515029178 18:0.9881352814421613 19:0.9979382433421327 20:0.9999999999999998 21:1.0 22:1.0 23:1.0 24:0.9999999999999998 25:1.0 26:1.0 27:-0.018867924528301883 28:0.9085805058200507 29:-0.24252240248885615 30:-0.2701447781114308 
-2.3709226137322847 1:0.7979593712657411 2:0.7023060796645699 3:1.0 4:0.7333333333333334 5:0.740031397174254 6:0.7803921568627452 7:-0.7309941520467836 8:0.34411518499916305 9:-0.12485136741973835 10:0.9223529411764706 11:-0.7660478288231592 12:0.7392923649906891 13:0.7367970311161858 14:0.763300735176236 15:0.7463768115942031 16:0.8486486486486489 17:0.9194172253739039 18:0.8450591484061529 19:0.8526186489092993 20:0.9126595742123731 21:0.8972242577500964 22:0.8286624249293377 23:0.8226685435237531 24:0.5048914782454974 25:0.3479036072664765 26:0.24485439936463194 27:-0.018867924528301883 28:0.4091054597014834 29:-0.2698143897299067 30:-0.3059779588936543 
-3.98119835911706 1:0.7979593712657411 2:0.7023060796645699 3:1.0 4:0.6388888888888888 5:0.6870748299319729 6:0.7803921568627452 7:-0.7309941520467836 8:0.18531708840987182 9:-0.12485136741973835 10:0.9223529411764706 11:-0.7678571428571429 12:0.7392923649906891 13:0.7367970311161858 14:0.740213941459974 15:0.7463768115942031 16:0.8486486486486489 17:0.9194172253739039 18:0.8450591484061529 19:0.8526186489092993 20:0.9126595742123731 21:0.8972242577500964 22:0.8271139799709177 23:0.8226685435237531 24:-7.852179886400634E-4 25:-0.2684684684684684 26:-0.6541353383458646 27:-0.018867924528301883 28:0.4421980652961024 29:-0.2836816923933174 30:-0.33348047020407945 
0.5016306493424489 1:0.9999999999999998 2:1.0 3:1.0 4:1.0 5:1.0 6:1.0 7:-0.7333959899749374 8:0.2082251082251081 9:-0.10151917048468773 10:1.0 11:-0.7671957671957672 12:1.0 13:1.0 14:1.0 15:1.0 16:1.0 17:0.8668934888190531 18:0.8322527498533585 19:0.9979382433421327 20:0.9999999999999998 21:1.0 22:1.0 23:1.0 24:0.9999999999999998 25:1.0 26:1.0 27:-0.018867924528301883 28:0.43013308406006256 29:-0.2419622107745769 30:-0.27682836525976173 
-4.0 1:0.9999999999999998 2:1.0 3:1.0 4:1.0 5:1.0 6:1.0 7:-0.736842105263158 8:0.13391198416324035 9:-0.10151917048468773 10:1.0 11:-0.7678571428571429 12:1.0 13:1.0 14:1.0 15:1.0 16:1.0 17:1.0 18:1.0 19:0.9979382433421327 20:0.9999999999999998 21:1.0 22:1.0 23:1.0 24:0.9999999999999998 25:1.0 26:1.0 27:-1.0 28:1.0 29:-0.24271801871081167 30:-0.27003530067144166 
-2.8837835550813025 1:0.7979593712657411 2:0.7252056119980648 3:1.0 4:0.7500000000000002 5:0.75447409733124 6:0.7803921568627452 7:-0.7309941520467836 8:0.332001332001332 9:-0.12485136741973835 10:0.9223529411764706 11:-0.7661188369152971 12:0.7392923649906891 13:0.7547696816947147 14:0.7803613871309525 15:0.7463768115942031 16:0.8486486486486489 17:0.9421868777059754 18:0.8570552343582318 19:0.8526186489092993 20:0.9126595742123731 21:0.8972242577500964 22:0.8424895720371417 23:0.8226685435237531 24:0.5296197885859142 25:0.37468875076605435 26:0.26959921158441813 27:-0.6981132075471699 28:0.430797115097201 29:-0.26961726249919293 30:-0.30485824649204274 
-4.0 1:0.8134655289421546 2:0.7652207741684496 3:1.0 4:0.8324742268041236 5:0.8112770881548497 6:0.8418322174660666 7:-0.7267206477732794 8:0.4891774891774896 9:1.0 10:0.9223529411764706 11:-0.7671541057367829 12:0.781086217819501 13:0.8283576329136342 14:0.8522235363011106 15:0.8541012998655311 16:0.8486486486486489 17:0.22356126566149914 18:0.426234296624189 19:0.8526186489092993 20:0.9126595742123731 21:0.8991528845054164 22:0.8894456170373066 23:0.8388625414469131 24:0.6135701105733515 25:0.46818039918979437 26:0.37034239109979517 27:-0.6981132075471699 28:0.4317391083028941 29:-0.26765023149554057 30:-0.29868181696702556 
-4.0 1:0.8134655289421546 2:0.7652207741684496 3:1.0 4:0.8324742268041236 5:0.8112770881548497 6:0.8418322174660666 7:-0.7267206477732794 8:0.4891774891774896 9:1.0 10:0.9223529411764706 11:-0.7671541057367829 12:0.781086217819501 13:0.8283576329136342 14:0.8522235363011106 15:0.8541012998655311 16:0.8486486486486489 17:0.22356126566149914 18:0.426234296624189 19:0.8526186489092993 20:0.9126595742123731 21:0.8991528845054164 22:0.8894456170373066 23:0.8388625414469131 24:0.6135701105733515 25:0.46818039918979437 26:0.37034239109979517 27:-0.6981132075471699 28:0.4317391083028941 29:-0.26765023149554057 30:-0.29868181696702556 
-2.762663193040269 1:0.9999999999999998 2:1.0 3:1.0 4:1.0 5:1.0 6:1.0 7:-0.7362864174009685 8:0.052086906803887834 9:-0.4288616739093628 10:1.0 11:-0.7678571428571429 12:1.0 13:1.0 14:1.0 15:1.0 16:1.0 17:0.9799438427597273 18:0.9673022124035475 19:0.9979382433421327 20:0.9999999999999998 21:1.0 22:1.0 23:1.0 24:0.9999999999999998 25:1.0 26:1.0 27:-0.39622641509433965 28:0.9102025045650315 29:-0.24477564430645382 30:-0.2839401634789268 
4.0 1:0.9999999999999998 2:1.0 3:1.0 4:1.0 5:1.0 6:1.0 7:-0.733578131374949 8:0.11406603346901845 9:-0.10151917048468773 10:1.0 11:-0.7675124103695532 12:1.0 13:1.0 14:1.0 15:1.0 16:1.0 17:0.7957785448891934 18:0.7600719888111112 19:0.9979382433421327 20:0.9999999999999998 21:1.0 22:1.0 23:1.0 24:0.9999999999999998 25:1.0 26:1.0 27:-0.1320754716981133 28:0.395633617278788 29:-0.2437232077714463 30:-0.27740197623013463 
4.0 1:0.7979593712657411 2:0.7023060796645699 3:1.0 4:0.6388888888888888 5:0.6870748299319729 6:0.7803921568627452 7:-0.7309941520467836 8:0.34411518499916305 9:-0.3985333125292557 10:0.9223529411764706 11:-0.7669096209912537 12:0.7392923649906891 13:0.7367970311161858 14:0.740213941459974 15:0.7463768115942031 16:0.8486486486486489 17:0.7899573350836886 18:0.6772716813070307 19:0.8526186489092993 20:0.9126595742123731 21:0.8972242577500964 22:0.8271139799709177 23:0.8226685435237531 24:0.3937021722841514 25:0.2217338586663926 26:0.12036379416391108 27:-0.1320754716981133 28:0.3040271139879176 29:-0.27076412260427707 30:-0.3135406264930972 
4.0 1:0.7979593712657411 2:0.7023060796645699 3:1.0 4:0.6388888888888888 5:0.6870748299319729 6:0.7803921568627452 7:-0.7309941520467836 8:0.01288945795988039 9:-0.5150123709961438 10:0.9223529411764706 11:-0.7678571428571429 12:0.7392923649906891 13:0.7367970311161858 14:0.740213941459974 15:0.7463768115942031 16:0.8486486486486489 17:0.7899573350836886 18:0.6772716813070307 19:0.8526186489092993 20:0.9126595742123731 21:0.8972242577500964 22:0.8271139799709177 23:0.8226685435237531 24:-7.852179886400634E-4 25:-0.2684684684684684 26:-0.6541353383458646 27:-0.1320754716981133 28:0.37850183247584845 29:-0.2822012692992819 30:-0.33762560836347966 
4.0 1:0.9999999999999998 2:1.0 3:1.0 4:1.0 5:1.0 6:1.0 7:-0.736842105263158 8:0.2082251082251081 9:-0.435204681560885 10:1.0 11:-0.7678571428571429 12:1.0 13:1.0 14:1.0 15:1.0 16:1.0 17:0.8280900807976619 18:0.786428584277088 19:0.9979382433421327 20:0.9999999999999998 21:1.0 22:1.0 23:1.0 24:0.9999999999999998 25:1.0 26:1.0 27:-0.1320754716981133 28:0.5873247908014494 29:-0.24296310102946372 30:-0.2835611508531657 
4.0 1:0.9999999999999998 2:1.0 3:1.0 4:1.0 5:1.0 6:1.0 7:-0.7343941248470012 8:0.13391198416324035 9:-0.10151917048468773 10:1.0 11:-0.7674418604651163 12:1.0 13:1.0 14:1.0 15:1.0 16:1.0 17:0.7932392517230062 18:0.7586384508421375 19:0.9979382433421327 20:0.9999999999999998 21:1.0 22:1.0 23:1.0 24:0.9999999999999998 25:1.0 26:1.0 27:-0.4339622641509434 28:0.42258098608755623 29:-0.24392690177462095 30:-0.27729804668578073 
4.0 1:0.7979593712657411 2:0.7023060796645699 3:1.0 4:0.6388888888888888 5:0.6870748299319729 6:0.7803921568627452 7:-0.7309941520467836 8:0.332001332001332 9:-0.42403240067311254 10:0.9223529411764706 11:-0.7669789227166277 12:0.7392923649906891 13:0.7367970311161858 14:0.740213941459974 15:0.7463768115942031 16:0.8486486486486489 17:0.7874483335949354 18:0.6758949424029568 19:0.8526186489092993 20:0.9126595742123731 21:0.8972242577500964 22:0.8271139799709177 23:0.8226685435237531 24:0.40585529008226584 25:0.23213199225878411 26:0.12234086022264612 27:-0.4339622641509434 28:0.3019934530673398 29:-0.27056749259925605 30:-0.3123422046428972 
4.0 1:0.7979593712657411 2:0.7023060796645699 3:1.0 4:0.6388888888888888 5:0.6870748299319729 6:0.7803921568627452 7:-0.7309941520467836 8:0.4891774891774896 9:1.0 10:0.9223529411764706 11:-0.7674632352941176 12:0.7392923649906891 13:0.7367970311161858 14:0.740213941459974 15:0.7463768115942031 16:0.8486486486486489 17:0.8023663337637355 18:0.7564835994701502 19:0.8526186489092993 20:0.9126595742123731 21:0.8972242577500964 22:0.8271139799709177 23:0.8226685435237531 24:0.48660994801716195 25:0.34892998686670795 26:0.2514973617098648 27:-0.4339622641509434 28:0.19763208212941352 29:-0.2687638344330857 30:-0.3063441750855521 
4.0 1:0.7979593712657411 2:0.7023060796645699 3:1.0 4:0.6388888888888888 5:0.6870748299319729 6:0.7803921568627452 7:-0.7309941520467836 8:0.34411518499916305 9:-0.3985333125292557 10:0.9223529411764706 11:-0.7669172932330828 12:0.7392923649906891 13:0.7367970311161858 14:0.740213941459974 15:0.7463768115942031 16:0.8486486486486489 17:0.7965211683623235 18:0.703898454838088 19:0.8526186489092993 20:0.9126595742123731 21:0.8972242577500964 22:0.8271139799709177 23:0.8226685435237531 24:0.40920828544730736 25:0.23175728474194113 26:0.1288256368952967 27:0.018867924528301883 28:0.3404364591410398 29:-0.27070777364152077 30:-0.3134852608486819 
4.0 1:0.7979593712657411 2:0.7023060796645699 3:1.0 4:0.6388888888888888 5:0.6870748299319729 6:0.7803921568627452 7:-0.7309941520467836 8:0.06719367588932812 9:-0.43268888949656814 10:0.9223529411764706 11:-0.7678571428571429 12:0.7392923649906891 13:0.7367970311161858 14:0.740213941459974 15:0.7463768115942031 16:0.8486486486486489 17:0.7965211683623235 18:0.703898454838088 19:0.8526186489092993 20:0.9126595742123731 21:0.8972242577500964 22:0.8271139799709177 23:0.8226685435237531 24:-7.852179886400634E-4 25:-0.2684684684684684 26:-0.6541353383458646 27:0.018867924528301883 28:0.3784815450049053 29:-0.28284555796926303 30:-0.3374491330853042 
-1.3194944256975654 1:0.9999999999999998 2:1.0 3:1.0 4:1.0 5:1.0 6:1.0 7:-0.7367331371908031 8:0.2082251082251081 9:-0.4288616739093628 10:1.0 11:-0.7678571428571429 12:1.0 13:1.0 14:1.0 15:1.0 16:1.0 17:0.8479258407056243 18:0.8196124538653395 19:0.9979382433421327 20:0.9999999999999998 21:1.0 22:1.0 23:1.0 24:0.9999999999999998 25:1.0 26:1.0 27:0.018867924528301883 28:0.6165438012051752 29:-0.2429235343870394 30:-0.2834487691880764 
-4.0 1:0.9999999999999998 2:1.0 3:1.0 4:1.0 5:1.0 6:1.0 7:-0.7326073805202662 8:0.13391198416324035 9:-0.10151917048468773 10:1.0 11:-0.767445054945055 12:1.0 13:1.0 14:1.0 15:1.0 16:1.0 17:0.7998030850016409 18:0.7849952590756868 19:0.9979382433421327 20:0.9999999999999998 21:1.0 22:1.0 23:1.0 24:0.9999999999999998 25:1.0 26:1.0 27:-0.3584905660377359 28:0.48361047770056076 29:-0.24388555275080437 30:-0.2772757614349658 
1.4136715691744575 1:0.7979593712657411 2:0.7023060796645699 3:1.0 4:0.6388888888888888 5:0.6870748299319729 6:0.7803921568627452 7:-0.7309941520467836 8:0.332001332001332 9:-0.42403240067311254 10:0.9223529411764706 11:-0.76698606271777 12:0.7392923649906891 13:0.7367970311161858 14:0.740213941459974 15:0.7463768115942031 16:0.8486486486486489 17:0.7939883848689373 18:0.702479027970411 19:0.8526186489092993 20:0.9126595742123731 21:0.8972242577500964 22:0.8271139799709177 23:0.8226685435237531 24:0.4213839564881432 25:0.24215541833433263 26:0.1308027029540315 27:-0.3584905660377359 28:0.3323589348236513 29:-0.27050296086058345 30:-0.31227281941980656 
4.0 1:0.7979593712657411 2:0.7023060796645699 3:1.0 4:0.6388888888888888 5:0.6870748299319729 6:0.7803921568627452 7:-0.7309941520467836 8:0.4891774891774896 9:1.0 10:0.9223529411764706 11:-0.767466110531804 12:0.7392923649906891 13:0.7367970311161858 14:0.740213941459974 15:0.7463768115942031 16:0.8486486486486489 17:0.8089541226382777 18:0.7826824585194552 19:0.8526186489092993 20:0.9126595742123731 21:0.8972242577500964 22:0.8271139799709177 23:0.8226685435237531 24:0.5138478066880101 25:0.37231206599861255 26:0.2756057957735998 27:-0.3584905660377359 28:0.21225668915135487 29:-0.2687415565828325 30:-0.30630571821273556 
4.0 1:0.9999999999999998 2:1.0 3:1.0 4:1.0 5:1.0 6:1.0 7:-0.736842105263158 8:0.13391198416324035 9:-0.10151917048468773 10:1.0 11:-0.76778304682869 12:1.0 13:1.0 14:1.0 15:1.0 16:1.0 17:0.9773559515029178 18:0.9881352814421613 19:0.9979382433421327 20:0.9999999999999998 21:1.0 22:1.0 23:1.0 24:0.9999999999999998 25:1.0 26:1.0 27:-0.018867924528301883 28:0.9085805058200507 29:-0.24252240248885615 30:-0.2701447781114308 
0.597419537489721 1:0.8230521219627809 2:0.7790313168644232 3:1.0 4:0.8324742268041236 5:0.8112770881548497 6:0.8521533019727967 7:-0.7253711201079622 8:0.4891774891774896 9:1.0 10:0.9223529411764706 11:-0.7672268907563026 12:0.7919714335080346 13:0.8381258977071668 14:0.8596112311015118 15:0.8541012998655311 16:0.8486486486486489 17:0.17407116309430237 18:0.4011142061281334 19:0.8600468632786438 20:0.9126595742123731 21:0.9081491360255411 22:0.8957674735622851 23:0.8472779181789336 24:0.642262137599227 25:0.5096331311997733 26:0.4228337421227706 27:-0.018867924528301883 28:0.4190563078285221 29:-0.2674007110341181 30:-0.29871041735834547 
4.0 1:0.7979593712657411 2:0.7023060796645699 3:1.0 4:0.7333333333333334 5:0.740031397174254 6:0.7803921568627452 7:-0.7309941520467836 8:0.34411518499916305 9:-0.12485136741973835 10:0.9223529411764706 11:-0.7660478288231592 12:0.7392923649906891 13:0.7367970311161858 14:0.763300735176236 15:0.7463768115942031 16:0.8486486486486489 17:0.9194172253739039 18:0.8450591484061529 19:0.8526186489092993 20:0.9126595742123731 21:0.8972242577500964 22:0.8286624249293377 23:0.8226685435237531 24:0.5048914782454974 25:0.3479036072664765 26:0.24485439936463194 27:-0.018867924528301883 28:0.4091054597014834 29:-0.2698143897299067 30:-0.3059779588936543 
2.1696394195379933 1:0.9999999999999998 2:1.0 3:1.0 4:1.0 5:1.0 6:1.0 7:-0.736842105263158 8:0.5349321435211007 9:0.7926953682921851 10:1.0 11:-0.7673384706579728 12:1.0 13:1.0 14:1.0 15:1.0 16:1.0 17:0.9353027185797651 18:0.8289346133856565 19:0.9979382433421327 20:0.9999999999999998 21:1.0 22:1.0 23:1.0 24:0.9999999999999998 25:1.0 26:1.0 27:-0.018867924528301883 28:0.3393721036090622 29:-0.2885182380480489 30:-0.326883724874068 
4.0 1:0.7979593712657411 2:0.7023060796645699 3:1.0 4:0.6388888888888888 5:0.6870748299319729 6:0.7803921568627452 7:-0.7309941520467836 8:0.18531708840987182 9:-0.12485136741973835 10:0.9223529411764706 11:-0.7678571428571429 12:0.7392923649906891 13:0.7367970311161858 14:0.740213941459974 15:0.7463768115942031 16:0.8486486486486489 17:0.9194172253739039 18:0.8450591484061529 19:0.8526186489092993 20:0.9126595742123731 21:0.8972242577500964 22:0.8271139799709177 23:0.8226685435237531 24:-7.852179886400634E-4 25:-0.2684684684684684 26:-0.6541353383458646 27:-0.018867924528301883 28:0.4421980652961024 29:-0.2836816923933174 30:-0.33348047020407945 
-1.845676329254792 1:0.9999999999999998 2:1.0 3:1.0 4:1.0 5:1.0 6:1.0 7:-0.736842105263158 8:0.5349321435211007 9:0.7926953682921851 10:1.0 11:-0.7678571428571429 12:1.0 13:1.0 14:1.0 15:1.0 16:1.0 17:0.9353027185797651 18:0.8289346133856565 19:0.9979382433421327 20:0.9999999999999998 21:1.0 22:1.0 23:1.0 24:0.9999999999999998 25:1.0 26:1.0 27:-0.018867924528301883 28:0.4581771402866577 29:-0.3045062221271496 30:-0.35140991422916157 
4.0 1:0.9999999999999998 2:1.0 3:1.0 4:1.0 5:1.0 6:1.0 7:-0.7333959899749374 8:0.2082251082251081 9:-0.10151917048468773 10:1.0 11:-0.7671957671957672 12:1.0 13:1.0 14:1.0 15:1.0 16:1.0 17:0.8668934888190531 18:0.8322527498533585 19:0.9979382433421327 20:0.9999999999999998 21:1.0 22:1.0 23:1.0 24:0.9999999999999998 25:1.0 26:1.0 27:-0.018867924528301883 28:0.43013308406006256 29:-0.2419622107745769 30:-0.27682836525976173 
4.0 1:0.7979593712657411 2:0.7023060796645699 3:1.0 4:0.6388888888888888 5:0.6870748299319729 6:0.7803921568627452 7:-0.7309941520467836 8:0.4891774891774896 9:1.0 10:0.9223529411764706 11:-0.7676486937187327 12:0.7392923649906891 13:0.7367970311161858 14:0.740213941459974 15:0.7463768115942031 16:0.8486486486486489 17:0.8761876213687132 18:0.7958113042199642 19:0.8526186489092993 20:0.9126595742123731 21:0.8972242577500964 22:0.8271139799709177 23:0.8226685435237531 24:0.44350179678479074 25:0.26963097024081173 26:0.1537273813722897 27:-0.018867924528301883 28:0.39322459928013886 29:-0.2672996182224546 30:-0.3059427176049708 
-2.370416164703625 1:0.272163611042219 2:0.3748427672955976 3:0.4285714285714288 4:0.4583333333333335 5:0.34285714285714297 6:0.39188357122865947 7:-0.6491228070175439 8:-0.9744400527009223 9:-0.7986737400530504 10:0.29646437994722974 11:-0.7142857142857143 12:0.3430167597765361 13:0.3468987734823783 14:0.3414387031408306 15:0.37608695652173907 16:0.36432432432432416 17:0.35699078298356257 18:0.35533641354549084 19:0.3447640742355311 20:0.3165543745545172 21:0.4082519136103935 22:0.3307453175892252 23:0.34724544335446406 24:-0.05375029197701775 25:-0.28205128205128205 26:-0.39187969924812016 27:0.018867924528301883 28:0.3136814099940777 29:-0.8271717708537086 30:-0.8025209083505516 
-1.9013487656640184 1:-0.400544012304362 2:-0.30134770889487883 3:-0.37142857142857155 4:-0.29999999999999993 5:-0.2874635568513121 6:-0.1145893719806762 7:-0.7390350877192983 8:-0.8829305715381666 9:-0.8336146612008681 10:-0.18608695652173912 11:-0.625 12:-0.3681134507950151 13:-0.2593779059161674 14:-0.2435744680851063 15:-0.3484949832775921 16:-0.35866943866943846 17:0.14983149815885488 18:0.05451824344574674 19:-0.6023947636585787 20:-0.26364828823351694 21:-0.26630394848669925 22:-0.3434560785538743 23:-0.41960582741196195 24:-0.7046547595818755 25:-0.8613319982251436 26:-0.957740839458037 27:-0.3584905660377359 28:-0.1767188722569517 29:-0.8839244086714777 30:-0.8509916569519065 
0.8217209806816709 1:-0.3086209170440055 2:-0.1366495140080045 3:-0.14285714285714302 4:-0.08333333333333337 5:-0.19480519480519476 6:0.08721842571500904 7:-0.7348927875243665 8:-0.7391184573002756 9:-0.9593280282935456 10:-0.13712846347607066 11:-0.4642857142857143 12:-0.24767225325884545 13:-0.14985342776542943 14:-0.14216153276172327 15:-0.21739130434782605 16:-0.2432432432432433 17:0.24524591328371947 18:-6.707498509723742E-4 19:-0.39257543368130443 20:-0.1827195071666856 21:-0.1599383981922582 22:-0.24265080931572713 23:-0.30316018675986944 24:-0.6268034494202532 25:-0.8622027220241998 26:-0.9266805759124958 27:-1.0 28:-0.08958290727623597 29:-0.851728678078765 30:-0.8194526377663196 
-2.0195707371148193 1:-0.2745978356675616 2:-0.1366495140080045 3:-0.14285714285714302 4:-0.08333333333333337 5:-0.19480519480519476 6:0.15884773662551455 7:-0.735672514619883 8:-0.732583567635114 9:-0.5851458885941645 10:-0.026666666666666505 11:-0.771978021978022 12:-0.2774674115456237 13:-0.11088952594623802 14:-0.0759066529321919 15:-0.11594202898550743 16:-0.22162162162162158 17:0.28465887358333375 18:0.026952098614613895 19:-0.35371389132579245 20:-0.15113886608419425 21:-0.08680808434086229 22:-0.14649265912172593 23:-0.26731770407877553 24:-0.6268034494202532 25:-0.8622027220241998 26:-0.9266805759124958 27:0.018867924528301883 28:-0.014708709905659645 29:-0.8519804297648965 30:-0.8156421343201317 
-2.198843107458275 1:-0.3086209170440055 2:-0.1366495140080045 3:-0.14285714285714302 4:-0.08333333333333337 5:-0.19480519480519476 6:0.08721842571500904 7:-0.7348927875243665 8:-0.7391184573002756 9:-0.9593280282935456 10:-0.13712846347607066 11:-0.4642857142857143 12:-0.24767225325884545 13:-0.14985342776542943 14:-0.14216153276172327 15:-0.21739130434782605 16:-0.2432432432432433 17:0.24524591328371947 18:-0.011635320269636984 19:-0.39257543368130443 20:-0.1827195071666856 21:-0.1599383981922582 22:-0.24265080931572713 23:-0.30316018675986944 24:-0.6268034494202532 25:-0.8622027220241998 26:-0.9266805759124958 27:-1.0 28:0.003997577645019845 29:-0.851728678078765 30:-0.8194526377663196 
2.4784448021309657 1:0.9999999999999998 2:1.0 3:1.0 4:1.0 5:1.0 6:1.0 7:-0.736842105263158 8:-0.787878787878788 9:-0.7559681697612732 10:1.0 11:-0.7678571428571429 12:1.0 13:1.0 14:1.0 15:1.0 16:1.0 17:1.0 18:0.9468641070132173 19:0.9979382433421327 20:0.9999999999999998 21:1.0 22:1.0 23:1.0 24:0.9999999999999998 25:1.0 26:1.0 27:-0.3584905660377359 28:0.7536231223026291 29:-0.836962170168926 30:-0.8106351280319894 
-0.2445067827356533 1:0.14636472900013353 2:0.28553459119496827 3:0.3142857142857145 4:0.3500000000000003 5:0.24897959183673457 6:0.24579124579124612 7:-0.6491228070175439 8:-0.8907430469074306 9:-0.7803713527851459 10:0.15685863874345563 11:-1.0 12:0.17094972067039116 13:0.2598674984283573 14:0.24300111982082884 15:0.31521739130434767 16:0.2356756756756757 17:0.3879809039421307 18:0.3416680768948013 19:0.2243099631309884 20:0.3216515726024207 21:0.37778405918579216 22:0.275844602790533 23:0.22135380157844264 24:-0.1979716075834328 25:-0.44767844767844756 26:-0.5747368421052632 27:-1.0 28:0.1351745774707549 29:-0.833251241762192 30:-0.8141625008804434 
-0.9495386502229962 1:0.20027853558959863 2:0.3748427672955976 3:0.3142857142857145 4:0.3500000000000003 5:0.34285714285714297 6:0.2687285223367699 7:-0.712280701754386 8:-0.9328419328419328 9:-0.783359497645212 10:0.28629921259842517 11:-0.8214285714285714 12:0.25698324022346375 13:0.32784882850783803 14:0.31093691675998514 15:0.3304347826086955 16:0.2810810810810813 17:0.407671280218761 18:0.34725448659337865 19:0.24807756249636648 20:0.3682222119935987 21:0.3947772273188026 22:0.32821922962744443 23:0.2685631672444506 24:-0.05431537864323055 25:-0.3294111223867544 26:-0.5103759398496239 27:-0.3584905660377359 28:0.025887954431048188 29:-0.829541977449926 30:-0.8060004730874406 
4.0 1:0.7979593712657411 2:0.7252056119980648 3:1.0 4:0.7500000000000002 5:0.75447409733124 6:0.7803921568627452 7:-0.7309941520467836 8:0.332001332001332 9:-0.12485136741973835 10:0.9223529411764706 11:-0.7661188369152971 12:0.7392923649906891 13:0.7547696816947147 14:0.7803613871309525 15:0.7463768115942031 16:0.8486486486486489 17:0.9421868777059754 18:0.8570552343582318 19:0.8526186489092993 20:0.9126595742123731 21:0.8972242577500964 22:0.8424895720371417 23:0.8226685435237531 24:0.5296197885859142 25:0.37468875076605435 26:0.26959921158441813 27:-0.6981132075471699 28:0.430797115097201 29:-0.26961726249919293 30:-0.30485824649204274 
4.0 1:0.8134655289421546 2:0.7652207741684496 3:1.0 4:0.8324742268041236 5:0.8112770881548497 6:0.8418322174660666 7:-0.7267206477732794 8:0.4891774891774896 9:1.0 10:0.9223529411764706 11:-0.7671541057367829 12:0.781086217819501 13:0.8283576329136342 14:0.8522235363011106 15:0.8541012998655311 16:0.8486486486486489 17:0.22356126566149914 18:0.426234296624189 19:0.8526186489092993 20:0.9126595742123731 21:0.8991528845054164 22:0.8894456170373066 23:0.8388625414469131 24:0.6135701105733515 25:0.46818039918979437 26:0.37034239109979517 27:-0.6981132075471699 28:0.4317391083028941 29:-0.26765023149554057 30:-0.29868181696702556 
4.0 1:0.8134655289421546 2:0.7652207741684496 3:1.0 4:0.8324742268041236 5:0.8112770881548497 6:0.8418322174660666 7:-0.7267206477732794 8:0.4891774891774896 9:1.0 10:0.9223529411764706 11:-0.7671541057367829 12:0.781086217819501 13:0.8283576329136342 14:0.8522235363011106 15:0.8541012998655311 16:0.8486486486486489 17:0.22356126566149914 18:0.426234296624189 19:0.8526186489092993 20:0.9126595742123731 21:0.8991528845054164 22:0.8894456170373066 23:0.8388625414469131 24:0.6135701105733515 25:0.46818039918979437 26:0.37034239109979517 27:-0.6981132075471699 28:0.4317391083028941 29:-0.26765023149554057 30:-0.29868181696702556 
1.0349147449122904 1:0.9999999999999998 2:1.0 3:1.0 4:1.0 5:1.0 6:1.0 7:-0.736842105263158 8:0.5349321435211007 9:0.7926953682921851 10:1.0 11:-0.7674107142857143 12:1.0 13:1.0 14:1.0 15:1.0 16:1.0 17:0.9129706034038163 18:0.8172326875763918 19:0.9979382433421327 20:0.9999999999999998 21:1.0 22:1.0 23:1.0 24:0.9999999999999998 25:1.0 26:1.0 27:-1.0 28:0.3416349480308587 29:-0.2885588407147126 30:-0.3258738550413166 
0.06569651566115936 1:0.9999999999999998 2:1.0 3:1.0 4:1.0 5:1.0 6:1.0 7:-0.736842105263158 8:0.5349321435211007 9:0.7926953682921851 10:1.0 11:-0.7678571428571429 12:1.0 13:1.0 14:1.0 15:1.0 16:1.0 17:1.0 18:1.0 19:0.9979382433421327 20:0.9999999999999998 21:1.0 22:1.0 23:1.0 24:0.9999999999999998 25:1.0 26:1.0 27:-1.0 28:1.0 29:-0.2861184050528791 30:-0.3198894428460992 
4.0 1:0.9999999999999998 2:1.0 3:1.0 4:1.0 5:1.0 6:1.0 7:-0.7199248120300752 8:-0.12380952380952381 9:-0.7559681697612732 10:1.0 11:-0.7589285714285714 12:1.0 13:1.0 14:1.0 15:1.0 16:1.0 17:0.8447883372806915 18:0.8334406772278804 19:0.9979382433421327 20:0.9999999999999998 21:1.0 22:1.0 23:1.0 24:0.9999999999999998 25:1.0 26:1.0 27:-0.05660377358490565 28:0.3891194976353096 29:-0.5495789757222873 30:-0.5376338271813326 
-4.0 1:-0.7511498074146348 2:-0.6654767975522692 3:-0.2100840336134453 4:-0.5931372549019608 5:-0.5462184873949578 6:-0.5324599708879183 7:-0.6140350877192983 8:-0.8038896426956129 9:-0.7410881801125704 10:-0.5776576576576576 11:-0.7738095238095238 12:-0.5366414722313504 13:-0.6700305335610415 14:-0.6338989137265463 15:-0.11892583120204603 16:-0.6292527821939587 17:-0.3086642599277979 18:-0.2917696399773809 19:-0.503307637743972 20:-0.4286418381628353 21:-0.4015743717762834 22:-0.4860635444186545 23:-0.5233412562018364 24:-0.6156374215252509 25:-0.715885945306383 26:-0.7930533634922265 27:0.018867924528301883 28:-0.24217385053243579 29:-0.6377409221627668 30:-0.5937770359017048 
-4.0 1:-0.7511498074146348 2:-0.6654767975522692 3:-0.2100840336134453 4:-0.5931372549019608 5:-0.5462184873949578 6:-0.5324599708879183 7:-0.6140350877192983 8:-0.8038896426956129 9:-0.7410881801125704 10:-0.5776576576576576 11:-0.7738095238095238 12:-0.5366414722313504 13:-0.6700305335610415 14:-0.6338989137265463 15:-0.11892583120204603 16:-0.6292527821939587 17:-0.3086642599277979 18:-0.2885033473218812 19:-0.503307637743972 20:-0.4286418381628353 21:-0.4015743717762834 22:-0.4860635444186545 23:-0.5233412562018364 24:-0.6156374215252509 25:-0.715885945306383 26:-0.7930533634922265 27:0.018867924528301883 28:-0.19335516153687637 29:-0.6377409221627668 30:-0.5937770359017048 
-4.0 1:-0.7511498074146348 2:-0.6810950795412503 3:-0.2100840336134453 4:-0.5931372549019608 5:-0.5462184873949578 6:-0.5324599708879183 7:-0.6140350877192983 8:-0.3637773079633545 9:-0.7418894103244236 10:-0.5776576576576576 11:-0.7738095238095238 12:-0.5366414722313504 13:-0.6700305335610415 14:-0.6338989137265463 15:-0.11892583120204603 16:-0.6292527821939587 17:-0.3086642599277979 18:-0.2917696399773809 19:-0.503307637743972 20:-0.5531415378425619 21:-0.4015743717762834 22:-0.4860635444186545 23:-0.5233412562018364 24:-0.6550849337862343 25:-0.7588652482269505 26:-0.8260869565217392 27:0.018867924528301883 28:-0.2112023456857529 29:-0.6546156852722524 30:-0.6237043382275739 
-4.0 1:-0.708910638381419 2:-0.6285608583055866 3:-0.2100840336134453 4:-0.5294117647058822 5:-0.490996398559424 6:-0.4947845804988663 7:-0.6491228070175439 8:-0.7186705767350929 9:-0.7410881801125704 10:-0.5681203007518798 11:1.0 12:-0.49983568846533044 13:-0.6339770158522258 14:-0.6117749927134946 15:-0.11892583120204603 16:-0.5891891891891893 17:-0.3086642599277979 18:-0.2512435336251493 19:-0.4664921067625405 20:-0.4286418381628353 21:-0.3906068609214348 22:-0.46744100199234817 23:-0.48625305387850815 24:-0.6156374215252509 25:-0.715885945306383 26:-0.7930533634922265 27:-0.018867924528301883 28:-0.24765405035939492 29:-0.6335126999364056 30:-0.5917231003335421 
-4.0 1:-0.7100460275384441 2:-0.6654767975522692 3:-0.14285714285714302 4:-0.5294117647058822 5:-0.5462184873949578 6:-0.5094142600750529 7:-0.6461988304093567 8:-0.758886158886159 9:-0.7408875510386552 10:-0.5057186081694403 11:-0.7767857142857143 12:-0.46763062767006225 13:-0.6382204281598785 14:-0.5709705625182162 15:-0.17263427109974439 16:-0.6069952305246424 17:-0.3086642599277979 18:-0.27630472486466595 19:-0.4596970514270857 20:-0.36037850590310005 21:-0.3874914057839457 22:-0.44892674145408507 23:-0.4656065468605357 24:-0.627509834046396 25:-0.7177159875266318 26:-0.7930533634922265 27:0.018867924528301883 28:-0.28367217858414884 29:-0.6297757177593548 30:-0.5864440775131374 
-4.0 1:-0.5899328410177318 2:-0.523492415834258 3:-0.2773109243697479 4:-0.4019607843137254 5:-0.5462184873949578 6:-0.3715858273133812 7:-0.7008310249307479 8:-0.7228650137741048 9:-0.7490241745918786 10:-0.35022900763358755 11:-0.7222222222222223 12:-0.5872494249096287 13:-0.4801073305863194 14:-0.43310801615025163 15:0.0421994884910486 16:-0.4868044515103336 17:-0.584604634913241 18:-0.5897886517331603 19:-0.3415580205556744 20:-0.30741798016533395 21:-0.1993518655627452 22:-0.3035922785031241 23:-0.3866243232022303 24:-0.7098553108677174 25:-0.7982378452175765 26:-0.8655630751474124 27:0.6981132075471697 28:-0.5850458596247399 29:-0.610704556972042 30:-0.5591219152918832 
4.0 1:-0.5923940039463218 2:-0.523492415834258 3:-0.2773109243697479 4:-0.4019607843137254 5:-0.490996398559424 6:-0.3593462006607545 7:-0.6791979949874687 8:-0.6840664711632455 9:-0.7490241745918786 10:-0.33619631901840485 11:-0.753968253968254 12:-0.5412421952021031 13:-0.49200008105581006 14:-0.45220130061405284 15:0.03324808184143224 16:-0.44674085850556444 17:-0.5352439795492383 18:-0.5318411541057538 19:-0.32989937202980013 20:-0.30741798016533395 21:-0.18854394228688076 22:-0.29569541467041216 23:-0.3887860806439042 24:-0.7098553108677174 25:-0.7982378452175765 26:-0.8655630751474124 27:0.6981132075471697 28:-0.6166681306775523 29:-0.6117138865662964 30:-0.5637115299267763 
1.1337618646369871 1:-0.4510395601617795 2:-0.470958194598594 3:-0.07563025210084029 4:-0.27450980392156865 5:-0.490996398559424 6:-0.20283687943262396 7:-0.6140350877192983 8:-0.7182211727666274 9:-0.7520946486463728 10:-0.16707317073170713 11:1.0 12:-0.4952349654945778 13:-0.43075097965848996 14:-0.37561461944576613 15:0.09590792838874651 16:-0.38441971383147866 17:-0.4369593152209794 18:-0.4269062615452637 19:-0.19430358471889775 20:-0.30827671194278317 21:-0.0899606686778669 22:-0.2064105822511213 23:-0.2646219823426704 24:-0.6724483240289767 25:-0.7946898296556996 26:-0.8655630751474124 27:0.6981132075471697 28:-0.8428890302028482 29:-0.5899432676280432 30:-0.5577251014382432 
-2.5091446257513876 1:-0.4398777173913042 2:-0.470958194598594 3:-0.07563025210084029 4:-0.27450980392156865 5:-0.43577430972388975 6:-0.171020339552866 7:-0.7516869095816464 8:-0.775258467023173 9:-0.7543835474869958 10:-0.1693150684931507 11:-0.7321428571428572 12:-0.472231350640815 13:-0.4241283998792187 14:-0.3638320531121836 15:0.09590792838874651 16:-0.37106518282988854 17:-0.4066504030174458 18:-0.3551904972429638 19:-0.18069041144083275 20:-0.31919559516762386 21:-0.060337731622347124 22:-0.17013719495583923 23:-0.25481856273244063 24:-0.6948498947672309 25:-0.8234054260503301 26:-0.887218045112782 27:0.6981132075471697 28:-0.9793213762595336 29:-0.6250392804379165 30:-0.5864836478357884 
-0.3565556122587785 1:0.9999999999999998 2:1.0 3:1.0 4:1.0 5:1.0 6:1.0 7:-0.7199248120300752 8:-0.12380952380952381 9:-0.7559681697612732 10:1.0 11:-0.7589285714285714 12:1.0 13:1.0 14:1.0 15:1.0 16:1.0 17:0.8447883372806915 18:0.8214172458862208 19:0.9979382433421327 20:0.9999999999999998 21:1.0 22:1.0 23:1.0 24:0.9999999999999998 25:1.0 26:1.0 27:0.24528301886792447 28:-0.24921079440520377 29:-0.5495789757222873 30:-0.5376338271813326 
4.0 1:-0.5899328410177318 2:-0.523492415834258 3:-0.2773109243697479 4:-0.4019607843137254 5:-0.5462184873949578 6:-0.3715858273133812 7:-0.7008310249307479 8:-0.7228650137741048 9:-0.7490241745918786 10:-0.35022900763358755 11:-0.7222222222222223 12:-0.5872494249096287 13:-0.4801073305863194 14:-0.43310801615025163 15:0.0421994884910486 16:-0.4868044515103336 17:-0.5962501455688832 18:-0.6013799896790673 19:-0.3415580205556744 20:-0.30741798016533395 21:-0.1993518655627452 22:-0.3035922785031241 23:-0.3866243232022303 24:-0.7098553108677174 25:-0.7982378452175765 26:-0.8655630751474124 27:0.6981132075471697 28:-0.4710312608941458 29:-0.610704556972042 30:-0.5591219152918832 
4.0 1:-0.6573104145601617 2:-0.6285608583055866 3:-0.008403361344537674 4:-0.4656862745098036 5:-0.601440576230492 6:-0.3617021276595743 7:-0.6140350877192983 8:-0.8783497626871122 9:-0.7428950359984843 10:-0.3981308411214952 11:-0.7633928571428572 12:-0.5136378573775877 13:-0.569198501346035 14:-0.5526601520086862 15:0.19437340153452687 16:-0.5758346581875994 17:-0.3788398186250863 18:-0.3584098788159592 19:-0.3768928586846134 20:-0.27244489084944457 21:-0.3431871684279568 22:-0.4541840301156408 23:-0.4137345838192166 24:-0.7623170228942105 25:-0.8778446817983966 26:-0.9576700061688646 27:0.6981132075471697 28:-0.6292501788809407 29:-0.6385692927079161 30:-0.5928850063741331 
1.1276828317228351 1:0.9999999999999998 2:1.0 3:1.0 4:1.0 5:1.0 6:1.0 7:-0.7128737336298493 8:0.10354246692274849 9:-0.7559681697612732 10:1.0 11:-0.7280219780219781 12:1.0 13:1.0 14:1.0 15:1.0 16:1.0 17:0.8447883372806915 18:0.8455103525362382 19:0.9979382433421327 20:0.9999999999999998 21:1.0 22:1.0 23:1.0 24:0.9999999999999998 25:1.0 26:1.0 27:0.018867924528301883 28:0.36657008260616464 29:-0.5542237802278845 30:-0.5409060925733562 
-4.0 1:-0.5101161896778114 2:-0.523492415834258 3:-0.008403361344537674 4:-0.2107843137254901 5:-0.490996398559424 6:-0.30722057368941647 7:0.12280701754385959 8:-0.9865319865319866 9:-0.7443476064165719 10:-0.1925233644859814 11:-0.7714285714285715 12:-0.5642458100558659 13:-0.4512574766518591 14:-0.4185919094146652 15:0.051150895140664954 16:-0.460095389507154 17:-0.4789921853593154 18:-0.41653432428974857 19:-0.19006631169473398 20:-0.3078733945533365 21:-0.1788615385276796 22:-0.2980646177315871 23:-0.30213117527196787 24:-0.7967704042421521 25:-0.8902212980459564 26:-0.9706983885937596 27:0.6981132075471697 28:-0.9165255830716237 29:-0.6116245439778922 30:-0.5809377029971778 
0.07842821812211548 1:0.9999999999999998 2:1.0 3:1.0 4:1.0 5:1.0 6:1.0 7:-0.7128737336298493 8:0.10354246692274849 9:-0.7559681697612732 10:1.0 11:-0.7280219780219781 12:1.0 13:1.0 14:1.0 15:1.0 16:1.0 17:0.8279228532497998 18:0.5530107722447439 19:0.9979382433421327 20:0.9999999999999998 21:1.0 22:1.0 23:1.0 24:0.9999999999999998 25:1.0 26:1.0 27:-0.1320754716981133 28:0.4282692751438424 29:-0.5542237802278845 30:-0.5409060925733562 
-4.0 1:-0.7511498074146348 2:-0.6654767975522692 3:-0.2100840336134453 4:-0.5931372549019608 5:-0.5462184873949578 6:-0.5324599708879183 7:-0.6140350877192983 8:-0.8038896426956129 9:-0.7410881801125704 10:-0.5776576576576576 11:-0.7738095238095238 12:-0.5366414722313504 13:-0.6700305335610415 14:-0.6338989137265463 15:-0.11892583120204603 16:-0.6292527821939587 17:-0.3086642599277979 18:-0.2899729317155313 19:-0.503307637743972 20:-0.4286418381628353 21:-0.4015743717762834 22:-0.4860635444186545 23:-0.5233412562018364 24:-0.6156374215252509 25:-0.715885945306383 26:-0.7930533634922265 27:-0.09433962264150941 28:-0.37788728345574785 29:-0.6377409221627668 30:-0.5937770359017048 
4.0 1:-0.7511498074146348 2:-0.6654767975522692 3:-0.2100840336134453 4:-0.5931372549019608 5:-0.5462184873949578 6:-0.5324599708879183 7:-0.6140350877192983 8:-0.8038896426956129 9:-0.7410881801125704 10:-0.5776576576576576 11:-0.7738095238095238 12:-0.5366414722313504 13:-0.6700305335610415 14:-0.6338989137265463 15:-0.11892583120204603 16:-0.6292527821939587 17:-0.3086642599277979 18:-0.28501528891867545 19:-0.503307637743972 20:-0.4286418381628353 21:-0.4015743717762834 22:-0.4860635444186545 23:-0.5233412562018364 24:-0.6156374215252509 25:-0.715885945306383 26:-0.7930533634922265 27:-0.09433962264150941 28:-0.334341219640773 29:-0.6377409221627668 30:-0.5937770359017048 
-4.0 1:-0.7511498074146348 2:-0.6810950795412503 3:-0.2100840336134453 4:-0.5931372549019608 5:-0.5462184873949578 6:-0.5324599708879183 7:-0.6140350877192983 8:-0.3637773079633545 9:-0.7418894103244236 10:-0.5776576576576576 11:-0.7738095238095238 12:-0.5366414722313504 13:-0.6700305335610415 14:-0.6338989137265463 15:-0.11892583120204603 16:-0.6292527821939587 17:-0.3086642599277979 18:-0.2899729317155313 19:-0.503307637743972 20:-0.5531415378425619 21:-0.4015743717762834 22:-0.4860635444186545 23:-0.5233412562018364 24:-0.6550849337862343 25:-0.7588652482269505 26:-0.8260869565217392 27:-0.09433962264150941 28:-0.35850676620934485 29:-0.6546156852722524 30:-0.6237043382275739 
2.4635622901188583 1:-0.708910638381419 2:-0.6285608583055866 3:-0.2100840336134453 4:-0.5294117647058822 5:-0.490996398559424 6:-0.4947845804988663 7:-0.6491228070175439 8:-0.7186705767350929 9:-0.7410881801125704 10:-0.5681203007518798 11:1.0 12:-0.49983568846533044 13:-0.6339770158522258 14:-0.6117749927134946 15:-0.11892583120204603 16:-0.5891891891891893 17:-0.3086642599277979 18:-0.24767873723305478 19:-0.4664921067625405 20:-0.4286418381628353 21:-0.3906068609214348 22:-0.46744100199234817 23:-0.48625305387850815 24:-0.6156374215252509 25:-0.715885945306383 26:-0.7930533634922265 27:-0.1320754716981133 28:-0.34232008035662254 29:-0.6335126999364056 30:-0.5917231003335421 
2.94349533612157 1:-0.7100460275384441 2:-0.6654767975522692 3:-0.14285714285714302 4:-0.5294117647058822 5:-0.5462184873949578 6:-0.5094142600750529 7:-0.6461988304093567 8:-0.758886158886159 9:-0.7408875510386552 10:-0.5057186081694403 11:-0.7767857142857143 12:-0.46763062767006225 13:-0.6382204281598785 14:-0.5709705625182162 15:-0.17263427109974439 16:-0.6069952305246424 17:-0.3086642599277979 18:-0.2761701533876395 19:-0.4596970514270857 20:-0.36037850590310005 21:-0.3874914057839457 22:-0.44892674145408507 23:-0.4656065468605357 24:-0.627509834046396 25:-0.7177159875266318 26:-0.7930533634922265 27:-0.09433962264150941 28:-0.3690927810769947 29:-0.6297757177593548 30:-0.5864440775131374 
-4.0 1:-0.5899328410177318 2:-0.523492415834258 3:-0.2773109243697479 4:-0.4019607843137254 5:-0.5462184873949578 6:-0.3715858273133812 7:-0.7008310249307479 8:-0.7228650137741048 9:-0.7490241745918786 10:-0.35022900763358755 11:-0.7222222222222223 12:-0.5872494249096287 13:-0.4801073305863194 14:-0.43310801615025163 15:0.0421994884910486 16:-0.4868044515103336 17:-0.634517389431148 18:-0.6359149997327187 19:-0.3415580205556744 20:-0.30741798016533395 21:-0.1993518655627452 22:-0.3035922785031241 23:-0.3866243232022303 24:-0.7098553108677174 25:-0.7982378452175765 26:-0.8655630751474124 27:0.5094339622641508 28:-0.6785424484734912 29:-0.610704556972042 30:-0.5591219152918832 
4.0 1:-0.4398777173913042 2:-0.470958194598594 3:-0.07563025210084029 4:-0.27450980392156865 5:-0.43577430972388975 6:-0.171020339552866 7:-0.7516869095816464 8:-0.775258467023173 9:-0.7543835474869958 10:-0.1693150684931507 11:-0.7321428571428572 12:-0.472231350640815 13:-0.4241283998792187 14:-0.3638320531121836 15:0.09590792838874651 16:-0.37106518282988854 17:-0.4066504030174458 18:-0.36207408895998816 19:-0.18069041144083275 20:-0.31919559516762386 21:-0.060337731622347124 22:-0.17013719495583923 23:-0.25481856273244063 24:-0.6948498947672309 25:-0.8234054260503301 26:-0.887218045112782 27:0.5094339622641508 28:-1.0 29:-0.6250392804379165 30:-0.5864836478357884 
-1.0279239458366436 1:-0.4932747451832633 2:-0.470958194598594 3:-0.008403361344537674 4:-0.14705882352941158 5:-0.43577430972388975 6:-0.25368994551758284 7:-0.5508771929824561 8:-0.9411255411255413 9:-0.7465823301367068 10:-0.1947744945567652 11:-0.753968253968254 12:-0.4814327965823202 13:-0.4231010506843601 14:-0.38149324679479835 15:0.06010230179028131 16:-0.41112877583465834 17:-0.4422850357583513 18:-0.36903081463434584 19:-0.2304762023642546 20:-0.2652637949097385 21:-0.17057089367380485 22:-0.2685506474367686 23:-0.2933884616647352 24:-0.7490636579554296 25:-0.8752357868176178 26:-0.9576700061688646 27:0.5471698113207546 28:-0.8604969725201277 29:-0.6006852936692559 30:-0.563162959250999 
-1.3889107114400219 1:0.9999999999999998 2:1.0 3:1.0 4:1.0 5:1.0 6:1.0 7:-0.7199248120300752 8:-0.12380952380952381 9:-0.7559681697612732 10:1.0 11:-0.7589285714285714 12:1.0 13:1.0 14:1.0 15:1.0 16:1.0 17:0.8096231949458483 18:0.5922379251691587 19:0.9979382433421327 20:0.9999999999999998 21:1.0 22:1.0 23:1.0 24:0.9999999999999998 25:1.0 26:1.0 27:0.05660377358490565 28:-0.284411658803299 29:-0.5495789757222873 30:-0.5376338271813326 
-4.0 1:-0.6573104145601617 2:-0.6285608583055866 3:-0.008403361344537674 4:-0.4656862745098036 5:-0.601440576230492 6:-0.3617021276595743 7:-0.6140350877192983 8:-0.8783497626871122 9:-0.7428950359984843 10:-0.3981308411214952 11:-0.7633928571428572 12:-0.5136378573775877 13:-0.569198501346035 14:-0.5526601520086862 15:0.19437340153452687 16:-0.5758346581875994 17:-0.3788398186250863 18:-0.3601302253204225 19:-0.3768928586846134 20:-0.27244489084944457 21:-0.3431871684279568 22:-0.4541840301156408 23:-0.4137345838192166 24:-0.7623170228942105 25:-0.8778446817983966 26:-0.9576700061688646 27:0.5094339622641508 28:-0.7177663477120853 29:-0.6385692927079161 30:-0.5928850063741331 
4.0 1:0.9999999999999998 2:1.0 3:1.0 4:1.0 5:1.0 6:1.0 7:-0.7128737336298493 8:0.10354246692274849 9:-0.7559681697612732 10:1.0 11:-0.7280219780219781 12:1.0 13:1.0 14:1.0 15:1.0 16:1.0 17:0.8279228532497998 18:0.5680015283968716 19:0.9979382433421327 20:0.9999999999999998 21:1.0 22:1.0 23:1.0 24:0.9999999999999998 25:1.0 26:1.0 27:-0.09433962264150941 28:0.42918142427388917 29:-0.5542237802278845 30:-0.5409060925733562 
4.0 1:-0.5101161896778114 2:-0.523492415834258 3:-0.008403361344537674 4:-0.2107843137254901 5:-0.490996398559424 6:-0.30722057368941647 7:0.12280701754385959 8:-0.9865319865319866 9:-0.7443476064165719 10:-0.1925233644859814 11:-0.7714285714285715 12:-0.5642458100558659 13:-0.4512574766518591 14:-0.4185919094146652 15:0.051150895140664954 16:-0.460095389507154 17:-0.4789921853593154 18:-0.41302273292849967 19:-0.19006631169473398 20:-0.3078733945533365 21:-0.1788615385276796 22:-0.2980646177315871 23:-0.30213117527196787 24:-0.7967704042421521 25:-0.8902212980459564 26:-0.9706983885937596 27:0.5094339622641508 28:-0.9603076795548827 29:-0.6116245439778922 30:-0.5809377029971778 
-4.0 1:-0.7511498074146348 2:-0.6654767975522692 3:-0.2100840336134453 4:-0.5931372549019608 5:-0.5462184873949578 6:-0.5324599708879183 7:-0.6140350877192983 8:-0.2738636363636363 9:-0.7174368281446322 10:-0.5776576576576576 11:-0.5892857142857143 12:-0.5366414722313504 13:-0.6700305335610415 14:-0.6338989137265463 15:-0.11892583120204603 16:-0.6292527821939587 17:-0.3086642599277979 18:-0.2785202341084786 19:-0.503307637743972 20:-0.4286418381628353 21:-0.4015743717762834 22:-0.4860635444186545 23:-0.5233412562018364 24:-0.6156374215252509 25:-0.715885945306383 26:-0.7930533634922265 27:-0.3584905660377359 28:-0.20484673098496609 29:-0.642503676830948 30:-0.5970387510533373 
4.0 1:-0.7511498074146348 2:-0.6654767975522692 3:-0.2100840336134453 4:-0.5931372549019608 5:-0.5462184873949578 6:-0.5324599708879183 7:-0.6140350877192983 8:-0.2738636363636363 9:-0.7174368281446322 10:-0.5776576576576576 11:-0.5892857142857143 12:-0.5366414722313504 13:-0.6700305335610415 14:-0.6338989137265463 15:-0.11892583120204603 16:-0.6292527821939587 17:-0.3086642599277979 18:-0.26185796475151646 19:-0.503307637743972 20:-0.4286418381628353 21:-0.4015743717762834 22:-0.4860635444186545 23:-0.5233412562018364 24:-0.6156374215252509 25:-0.715885945306383 26:-0.7930533634922265 27:-0.3584905660377359 28:-0.2699325511904618 29:-0.642503676830948 30:-0.5970387510533373 
-1.8458719730130007 1:-0.7511498074146348 2:-0.6810950795412503 3:-0.2100840336134453 4:-0.5931372549019608 5:-0.5462184873949578 6:-0.5324599708879183 7:-0.6140350877192983 8:-0.15347018572825033 9:-0.7335570833107778 10:-0.5776576576576576 11:-0.5892857142857143 12:-0.5366414722313504 13:-0.6700305335610415 14:-0.6338989137265463 15:-0.11892583120204603 16:-0.6292527821939587 17:-0.3086642599277979 18:-0.2785202341084786 19:-0.503307637743972 20:-0.5531415378425619 21:-0.4015743717762834 22:-0.4860635444186545 23:-0.5233412562018364 24:-0.6550849337862343 25:-0.7588652482269505 26:-0.8260869565217392 27:-0.3584905660377359 28:-0.208372731905207 29:-0.6597596119527569 30:-0.6270335059570931 
0.2140784227932654 1:-0.708910638381419 2:-0.6285608583055866 3:-0.2100840336134453 4:-0.5294117647058822 5:-0.490996398559424 6:-0.4947845804988663 7:-0.6491228070175439 8:-0.2738636363636363 9:-0.7174368281446322 10:-0.5681203007518798 11:1.0 12:-0.49983568846533044 13:-0.6339770158522258 14:-0.6117749927134946 15:-0.11892583120204603 16:-0.5891891891891893 17:-0.3086642599277979 18:-0.2516040186535632 19:-0.4664921067625405 20:-0.4286418381628353 21:-0.3906068609214348 22:-0.46744100199234817 23:-0.48625305387850815 24:-0.6156374215252509 25:-0.715885945306383 26:-0.7930533634922265 27:-1.0 28:-0.20286719033264788 29:-0.6383658378139696 30:-0.5950445871519922 
4.0 1:-0.7100460275384441 2:-0.6654767975522692 3:-0.14285714285714302 4:-0.5294117647058822 5:-0.5462184873949578 6:-0.5094142600750529 7:-0.6461988304093567 8:-0.23526170798898072 9:-0.7250966731648077 10:-0.5057186081694403 11:-0.7321428571428572 12:-0.46763062767006225 13:-0.6382204281598785 14:-0.5709705625182162 15:-0.17263427109974439 16:-0.6069952305246424 17:-0.3086642599277979 18:-0.27150658680126494 19:-0.4596970514270857 20:-0.36037850590310005 21:-0.3874914057839457 22:-0.44892674145408507 23:-0.4656065468605357 24:-0.627509834046396 25:-0.7177159875266318 26:-0.7930533634922265 27:-0.3584905660377359 28:-0.22517332037031323 29:-0.6339354433740394 30:-0.5900097237688553 
-4.0 1:-0.5899328410177318 2:-0.523492415834258 3:-0.2773109243697479 4:-0.4019607843137254 5:-0.5462184873949578 6:-0.3715858273133812 7:-0.7008310249307479 8:-0.46041467304625194 9:-0.7382393615815366 10:-0.35022900763358755 11:-0.7222222222222223 12:-0.5872494249096287 13:-0.4801073305863194 14:-0.43310801615025163 15:0.0421994884910486 16:-0.4868044515103336 17:-0.6450457976549213 18:-0.6499416640549252 19:-0.3415580205556744 20:-0.30741798016533395 21:-0.1993518655627452 22:-0.3035922785031241 23:-0.3866243232022303 24:-0.7098553108677174 25:-0.7982378452175765 26:-0.8655630751474124 27:0.6226415094339621 28:-0.6212984753827748 29:-0.6120343785176221 30:-0.5599819666416239 
