svm_type epsilon_svr
kernel_type rbf
gamma 1.0
nr_class 2
total_sv 3513
rho -0.759170871170485
SV
4.0 1:-0.7670886327602745 2:-0.6574176840547536 3:-0.09195402298850575 4:-0.3899371069182389 5:-0.6892911010558067 6:-0.4742940472510838 7:-0.8647563676633444 8:-0.24765782503854206 9:-0.9169260296711277 10:-0.5776182089147812 11:-0.7855480501788046 12:-0.7142857142857142 13:-0.6342927935578623 14:-0.6133760188112674 15:0.12694877505567903 16:-0.6048004976125572 17:-0.5966319165998395 18:-0.5862829402501668 19:-0.24537496114655133 20:-0.551217782928126 21:-0.2955639379728575 22:-0.23954187058357113 23:-0.42282693323361653 24:-0.8139845043308485 25:-0.960732717826344 26:-0.9942713439322756 27:-0.3207547169811321 28:0.06447452669583487 29:0.5624459841949414 30:0.5136225511951154 
-0.183984361842436 1:-0.886708760495168 2:-0.6729559748427674 3:-0.2701149425287357 4:-0.36944444444444424 5:-0.66025641025641 6:-0.567468571353819 7:-0.8642857142857143 8:-0.19443518181042707 9:-0.9195718876084173 10:-0.6524579710599422 11:-0.7836925599112783 12:-0.7398545377885527 13:-0.7684742532830687 14:-0.7723328713979092 15:-0.169559188132958 16:-0.6742646700952319 17:-0.45218828218026286 18:-0.40427474958800846 19:-0.4253957854862702 20:-0.723360636647228 21:-0.5523386854863201 22:-0.5241465918201289 23:-0.6121127926497717 24:-0.7653311837728654 25:-0.884832150397342 26:-0.94561283167999 27:-0.3584905660377359 28:-0.018872288246484237 29:0.5004255869802321 30:0.5440627823776207 
-0.2561158582299235 1:-0.7310156510156509 2:-0.43268308282699064 3:-0.2701149425287357 4:-0.2966101694915254 5:-0.46023468057366357 6:-0.4883055502331223 7:-0.8639213943613292 8:-0.19385526037629475 9:-0.9165282766256002 10:-0.6313379816399661 11:-0.7795216741405082 12:-0.520794537554314 13:-0.5773655618519083 14:-0.608099502415963 15:-0.09131403118040082 16:-0.4419604471195183 17:-0.4826155387036771 18:-0.4956008525056014 19:-0.3945443985700182 20:-0.580480533248263 21:-0.4951589733985049 22:-0.4790932263317009 23:-0.5408035691844405 24:-0.7158891739602768 25:-0.8569630640799362 26:-0.9247260055163979 27:-0.3584905660377359 28:-0.02693583931801158 29:0.47071990106532424 30:0.4988342399313468 
-4.0 1:-0.9685884891364344 2:-0.8073485600794438 3:-0.03128991060025543 4:-0.41666666666666663 5:-0.8421052631578947 6:-0.57843506348245 7:-0.8630952380952381 8:-0.18508034057657452 9:-0.9185710533228264 10:-0.6727687875228858 11:-0.7873442949676134 12:-0.7948717948717948 13:-0.8233200117710714 14:-0.7960755451973935 15:-0.19391620505206264 16:-0.7294910217131789 17:-0.47220320639453384 18:-0.4242706209581084 19:-0.5159577465092066 20:-0.7201727927599464 21:-0.6102593842828822 22:-0.6310944693918004 23:-0.755062534509129 24:-0.8483494694257111 25:-0.9588271555335649 26:-0.9948182797924338 27:-0.6226415094339623 28:0.23808103809210013 29:0.3286291178115035 30:0.32089220330947676 
4.0 1:-0.8736627610799796 2:-0.7092119866814647 3:-0.139846743295019 4:-0.38888888888888895 5:-0.7420814479638007 6:-0.6409972753160018 7:-0.8632876167759889 8:-0.2966946613624084 9:-0.9168800136542072 10:-0.7352611044332484 11:-0.7838933595429695 12:-0.7575629809212606 13:-0.770018366442188 14:-0.7438687031669327 15:-0.2766315081732993 16:-0.6589779057161015 17:-0.5376137920751098 18:-0.5000384094266752 19:-0.4037682839477341 20:-0.6514647615092498 21:-0.5186307608008736 22:-0.519619678636686 23:-0.6442383389611954 24:-0.8164210686067647 25:-0.9453048919415933 26:-0.992958001416679 27:-1.0 28:0.2778661530875748 29:0.3818376395384675 30:0.32092166653163545 
-4.0 1:-0.8499209124209125 2:-0.7120894479385043 3:-0.13652357494722023 4:-0.32993197278911546 5:-0.695156695156695 6:-0.6338511651215234 7:-0.8633164038135971 8:-0.23385841230808513 9:-0.9180043643320479 10:-0.6757680530088095 11:-0.7854805478123864 12:-0.7270119281292464 13:-0.7643972866342008 14:-0.70548124172925 15:-0.10114568911896304 16:-0.7040242646433532 17:-0.5227691497762569 18:-0.46353144043893046 19:-0.3765207778221288 20:-0.6787696351509167 21:-0.514825262188962 22:-0.4626465637589996 23:-0.6108955033291048 24:-0.8259331390257869 25:-0.9613963476787197 26:-0.9884558988956704 27:-0.3584905660377359 28:0.20821224302386176 29:0.473002014428588 30:0.4431547283562236 
1.1017605677266398 1:-0.8190662765130852 2:-0.6615946439440048 3:-0.08731924360400445 4:-0.41666666666666663 5:-0.6935483870967741 6:-0.36080452863603274 7:-0.8641599652249511 8:-0.2879092382495948 9:-0.9190447277878973 10:-0.5652799028536735 11:-0.7833735770955502 12:-0.44993553932101427 13:-0.6662813489470776 14:-0.6396478617560943 15:-0.0073667980126777 16:-0.6666446193531318 17:-0.4797493614303959 18:-0.4162124326517227 19:-0.38919316331903875 20:-0.5674223281129247 21:-0.48390930179127023 22:-0.4276746467596776 23:-0.5610643905225274 24:-0.6149894979699411 25:-0.7550264443950672 26:-0.8092283265366326 27:0.6226415094339621 28:-0.08923118781809758 29:0.49196181383541204 30:0.46807748424822027 
4.0 1:-0.775600061314347 2:-0.6711590296495955 3:-0.19634060520760033 4:-0.27210884353741505 5:-0.7032967032967032 6:-0.5447703543241242 7:-0.8637125497590614 8:-0.220789389205991 9:-0.9191425858092525 10:-0.6781026421046701 11:-0.7786547085201794 12:-0.6216014897579143 13:-0.6241726680846926 14:-0.5992663678751788 15:-0.164068299925761 16:-0.5824591573516766 17:-0.5389854792751374 18:-0.48399995803930074 19:-0.2996046866183164 20:-0.5943398680046639 21:-0.4414853144151938 22:-0.4095508155427364 23:-0.5140514206585851 24:-0.7086101041152562 25:-0.8527941494316459 26:-0.934016757103095 27:-0.3584905660377359 28:-0.06971292455537514 29:0.5288967409395373 30:0.5464077505973026 
-1.0668268286818665 1:-0.5772606264409541 2:-0.36335970785149097 3:0.14905450500556183 4:-0.22777777777777775 5:-0.38957816377171206 6:-0.2549578894855766 7:-0.8640800096397157 8:-0.2544570502431117 9:-0.9174015285126396 10:-0.21952520403747644 11:-0.7770361872979455 12:-0.36169603208709356 13:-0.4790983927189908 14:-0.4737387490511247 15:-0.029752726857404155 16:-0.4665002777376177 17:-0.4471679822739232 18:-0.36597699814087603 19:-0.2580634316745545 20:-0.3613368779756746 21:-0.35394492766825336 22:-0.2973001062602205 23:-0.41426086904288784 24:-0.624793949149647 25:-0.749727170529358 26:-0.7992214410144343 27:0.6603773584905659 28:0.02537767914064437 29:0.5218903832046162 30:0.49362712050927726 
0.26689791232781096 1:-0.8246010399856556 2:-0.5094339622641507 3:-0.2561576354679803 4:-0.2648809523809522 5:-0.5384615384615383 6:-0.4782537438797042 7:-0.8641603406032856 8:-0.2544570502431117 9:-0.9191651969429747 10:-0.6709563380433495 11:-0.7815709532764357 12:-0.4990689013035381 13:-0.6083814760462913 14:-0.6276876824684243 15:-0.11556545409552099 16:-0.6449650383685652 17:-0.38794572585892073 18:-0.3494928003465444 19:-0.504871820810048 20:-0.5396239180341531 21:-0.6113723781120358 22:-0.5182466277694555 23:-0.6408280826596033 24:-0.6883631442598399 25:-0.8714368701597766 26:-0.946811954749403 27:-0.6226415094339623 28:0.1857502786876164 29:0.5623745980624746 30:0.5866739075406062 
0.7163018658454657 1:-0.8534139000158419 2:-0.6117684681803643 3:-0.34132086499123315 4:-0.44067796610169474 5:-0.6427640156453716 6:-0.3144295781045199 7:-0.8639345150973058 8:-0.278283394977074 9:-0.9183628072516962 10:-0.4420059500336666 11:-0.7937219730941705 12:-0.741252572772714 13:-0.6365292074743994 14:-0.5856508925849395 15:-0.08323022354202747 16:-0.5955420332032539 17:-0.6239395326795023 18:-0.4824191518172565 19:-0.33507478946493374 20:-0.48674995369795093 21:-0.3730543340458222 22:-0.3039451509785642 23:-0.5427459165511719 24:-0.7473327332628482 25:-0.8654454476811946 26:-0.941364986259884 27:-0.3584905660377359 28:0.24948219948857964 29:0.38894785093978235 30:0.5536633567197053 
0.007031853041126074 1:-0.8501113314546151 2:-0.5849056603773584 3:-0.24196376388077145 4:-0.3660714285714284 5:-0.6153846153846153 6:-0.34977745729417886 7:-0.8644472762026123 8:-0.2602406235499034 9:-0.9172771672771672 10:-0.5309343587667816 11:-0.7885296200141609 12:-0.7720670391061453 13:-0.6179024237265356 14:-0.5822884404929651 15:-0.057273043051838 16:-0.6078123080702615 17:-0.5807558119620478 18:-0.4847699086565833 19:-0.40066079568340185 20:-0.5069033565943504 21:-0.402440752128978 22:-0.3571410007392276 23:-0.5472649207758474 24:-0.7548761569405312 25:-0.8754647012140396 26:-0.9432704021338192 27:-0.3584905660377359 28:0.19860292154941872 29:0.5408916502995746 30:0.6511206525889883 
-4.0 1:-0.9282993101174921 2:-0.6377358490566036 3:-0.1724137931034483 4:-0.6433333333333333 5:-0.6153846153846153 6:-0.5529282449296924 7:-0.8635746507248281 8:-0.24831678078524033 9:-0.9165045229561358 10:-0.5660834040776183 11:-0.780909673286355 12:-0.6811610896734435 13:-0.6717897170427701 14:-0.6530192231904364 15:-0.1430670677106055 16:-0.7815815833562327 17:-0.4529531961613532 18:-0.4879227053140096 19:-0.5153847586364061 20:-0.4024737874904669 21:-0.4533140022780573 22:-0.35448896070069535 23:-0.6351703802523612 24:-0.8608760376664802 25:-0.986446488921479 26:-0.9965428534596112 27:0.6603773584905659 28:0.1209637545971125 29:0.36864133248654074 30:0.4762316406570386 
-4.0 1:-0.9989594471141042 2:-0.6922169811320753 3:-0.2823275862068966 4:-0.5052083333333333 5:-0.7247596153846154 6:-0.6273660028078508 7:-0.8642224331593102 8:-0.26617000122577383 9:-0.9184135061997658 10:-0.7635751178980462 11:-0.7823932027377862 12:-0.7306976077925796 13:-0.8760194663534147 14:-0.8330720990190913 15:-0.2461500390230904 16:-0.7905662695000614 17:-0.5030750077535067 18:-0.47856983105282225 19:-0.506752331563411 20:-0.7130729615780341 21:-0.6356774064218089 22:-0.6252899179326905 23:-0.7446671354828353 24:-0.8482884378320544 25:-0.9738713703282145 26:-0.9964297865288364 27:0.6226415094339621 28:0.2123794738592799 29:0.4823774575547295 30:0.4513895171009945 
4.0 1:-0.8497634053189609 2:-0.540880503144654 3:-0.22126436781609182 4:-0.41666666666666663 5:-0.5705128205128205 6:-0.545987783499839 7:-0.8636363636363636 8:-0.2732082767041448 9:-0.9185312679288583 10:-0.6418527192297685 11:-0.780005275652862 12:-0.5461968199398365 13:-0.7570656276845913 14:-0.736114461991038 15:-0.15891755523582407 16:-0.6704367572811252 17:-0.49570517596140196 18:-0.46340195424178765 19:-0.3762965128552128 20:-0.5196770457026173 21:-0.5053078829585075 22:-0.42675616970248753 23:-0.5493967633765044 24:-0.79279204791613 25:-0.9154764209621321 26:-0.9734056166722515 27:0.5471698113207546 28:0.2022498079742967 29:0.5102959181215476 30:0.5076080202713198 
4.0 1:-0.8195590342379333 2:-0.5849056603773584 3:-0.1724137931034483 4:-0.3222222222222222 5:-0.5705128205128205 6:-0.5036629350905435 7:-0.8637570351491982 8:-0.26076402384916053 9:-0.9187716099203858 10:-0.6351922549092996 11:-0.7754700652977735 12:-0.6258466406288623 13:-0.7103917046695911 14:-0.6648919114028452 15:0.003330902497191257 16:-0.6314079394912455 17:-0.5191947594667397 18:-0.5121747218481632 19:-0.4626075274431012 20:-0.6572831028845738 21:-0.6041138295628725 22:-0.5328547726945221 23:-0.6552173501163714 24:-0.8815544667449691 25:-0.9729782770117091 26:-0.9951104156107016 27:0.6981132075471697 28:0.054263142137986 29:0.45703052132085165 30:0.4155169620842456 
-0.7290879789490313 1:-0.8791785021293218 2:-0.5849056603773584 3:-0.1724137931034483 4:-0.36944444444444424 5:-0.6153846153846153 6:-0.5780198934191969 7:-0.8637507058883926 8:-0.16327117950892933 9:-0.9183856043759425 10:-0.6792567704692538 11:-0.775186846038864 12:-0.6177594825051453 13:-0.7233597705320269 14:-0.6998259330687877 15:-0.06706260826528099 16:-0.685206136579626 17:-0.46965544069251675 18:-0.47654784474937273 19:-0.47989624939535525 20:-0.6171476384635785 21:-0.6114873016102971 22:-0.5363326753033096 23:-0.6520148504095464 24:-0.9045067569695544 25:-0.9778051963095582 26:-0.995765643289865 27:0.6226415094339621 28:0.0809321285343867 29:0.4521593603714533 30:0.4172161886128136 
-4.0 1:-0.9952801098932904 2:-0.8490566037735848 3:-0.2633769322235433 4:-0.5583333333333332 5:-0.8846153846153846 6:-0.6365532429133156 7:-0.8637812230835487 8:-0.26712833357890065 9:-0.9190952101005011 10:-0.6488992974238876 11:-0.7822067209212202 12:-0.7696444421239492 13:-0.8036122293548037 14:-0.7892280071813282 15:-0.1831068001581918 16:-0.8182592553901045 17:-0.44858112074826284 18:-0.44661402854899135 19:-0.5399097214952993 20:-0.7418761769163256 21:-0.6408967767884638 22:-0.634119519983821 23:-0.7536227143181233 24:-0.8078421072200744 25:-0.9665885055483628 26:-0.9891134618657001 27:0.6981132075471697 28:0.3196380058759072 29:0.36281117427624077 30:0.42305192963321203 
-4.0 1:-0.929020979020979 2:-0.6683217477656405 3:-0.1826981246218996 4:-0.5367231638418078 5:-0.7004048582995952 6:-0.721050869128436 7:-0.863484292125663 8:-0.14108240987026255 9:-0.9172609462464535 10:-0.6396470036177586 11:-0.7748406891668633 12:-0.6595226003047234 13:-0.8398799655456659 14:-0.8210343077603093 15:-0.2302085442397248 16:-0.815055108262331 17:-0.5137266940657577 18:-0.5491359655329653 19:-0.5234226714449044 20:-0.5618092173395008 21:-0.6466121018682331 22:-0.5950894816652532 23:-0.7087728553596517 24:-0.7966285243714772 25:-0.963144901339428 26:-0.9896255690487842 27:0.6226415094339621 28:0.059816889544413776 29:0.4283934169459527 30:0.3786386311544727 
4.0 1:-0.9884753940697996 2:-0.7190775681341719 3:-0.2561576354679803 4:-0.48412698412698396 5:-0.7521367521367521 6:-0.5986746040660451 7:-0.8641749723145071 8:-0.2619107463229876 9:-0.9185773074661964 10:-0.7791395012876077 11:-0.7798350933024736 12:-0.6825669674831686 13:-0.8530290317167308 14:-0.8114653054132985 15:-0.23868806274151477 16:-0.7728244813369491 17:-0.528212153788573 18:-0.5034119295061297 19:-0.5223830120504026 20:-0.7352933270533459 21:-0.6544006863769388 22:-0.6305535053032747 23:-0.7634658109565731 24:-0.8414166879821169 25:-0.9669041027797981 26:-0.995239715371782 27:0.6603773584905659 28:0.18317449090722637 29:0.4757520913271909 30:0.4580371893818522 
0.01968165713427895 1:-0.7419025419025419 2:-0.5094339622641507 3:-0.09913793103448276 4:-0.2648809523809522 5:-0.5384615384615383 6:-0.4768291681493442 7:-0.863690754903491 8:-0.3078382013172868 9:-0.9185999185999186 10:-0.6406732490599373 11:-0.7846337817638266 12:-0.4686530105524518 13:-0.6921379809213796 14:-0.6676541291744156 15:0.07036212158706578 16:-0.5693130792012993 17:-0.4906808748403576 18:-0.47612301176852034 19:-0.30384782932724486 20:-0.560193551251519 21:-0.4601390994341714 22:-0.3957212781524124 23:-0.5160666094904973 24:-0.8398006744238886 25:-0.9748916894304507 26:-0.9961562355232164 27:0.6603773584905659 28:0.16926725689829114 29:0.5524393615064038 30:0.5117057567297654 
-4.0 1:-0.8635620602833716 2:-0.6289308176100625 3:-0.1724137931034483 4:-0.41666666666666663 5:-0.66025641025641 6:-0.478144373226857 7:-0.8634088901972329 8:-0.2332310426247851 9:-0.9177497399719622 10:-0.6058067615444666 11:-0.779372197309417 12:-0.7124375183769479 13:-0.7559418843708869 14:-0.6965973937847065 15:-0.03387645059195887 16:-0.6968819296737112 17:-0.5102572170704771 18:-0.5066530774021856 19:-0.407730533853382 20:-0.6312248783513705 21:-0.5188112997390072 22:-0.45726976694686794 23:-0.6055775591227164 24:-0.8842314771658254 25:-0.9761658951396466 26:-0.996365684219207 27:0.6603773584905659 28:0.0651972308478288 29:0.4768206106310673 30:0.4329083205273352 
0.09848730011449536 1:-0.9699459116934845 2:-0.5149833518312985 3:-0.3793103448275862 4:-0.45833333333333326 5:-0.5441176470588236 6:-0.8500753374555321 7:-0.861970346955671 8:-0.15387057427860107 9:-0.9144620811287478 10:-0.8966401362160451 11:-0.771142178844632 12:-0.6060489308418417 13:-0.7521110537058838 14:-0.8021956472493549 15:-0.2794716227632288 16:-0.6217273994129333 17:-0.5217308408430774 18:-0.5149142491389296 19:-0.571912557288732 20:-0.6735477123877532 21:-0.7981465530058148 22:-0.7306947265225875 23:-0.7413039987231794 24:-0.6475013995655896 25:-0.8705937556870997 26:-0.9422516274442896 27:-1.0 28:0.3939005775588955 29:0.5412620454762904 30:0.5196199023274555 
-2.4113025430887784 1:-0.9765237733152172 2:-0.6096698113207546 3:-0.41971982758620685 4:-0.5494791666666665 5:-0.640625 6:-0.6852843568462184 7:-0.8642753908816188 8:0.1973397417984688 9:-0.9176799000198559 10:-0.7152473258524665 11:-0.7589026642046953 12:-0.5542185933247386 13:-0.7360524448349268 14:-0.7902510077571898 15:-0.23431380078334996 16:-0.7288226050345421 17:-0.43286474235496175 18:-0.4305306029251481 19:-0.5172206029468343 20:-0.6633402734409239 21:-0.7883830073859648 22:-0.6209035283031824 23:-0.6879362856187906 24:-0.6762234608944344 25:-0.8740009116220467 26:-0.9422516274442896 27:-0.3207547169811321 28:0.4082447393642954 29:0.5392693362337 30:0.5940619437275285 
0.0626081066906003 1:-0.35369893264630115 2:-0.2781497261107728 3:0.10177975528364858 4:-0.051075268817204256 5:-0.30272952853598023 6:-0.28865644912207855 7:-0.864358946879577 8:-0.16153430578065897 9:-0.9196244855967078 10:-0.23654829467050043 11:-0.7814491385414208 12:-0.16910371629827559 13:-0.24544392423738504 14:-0.22992129725473687 15:0.20286627287692438 16:-0.24930986106711317 17:-0.5076896767563062 18:-0.5050212300951094 19:0.01800768559149435 20:-0.03810965954096912 21:-0.06744875734827627 22:-0.03905297340223046 23:-0.0814031160485752 24:-0.34684113142494777 25:-0.5175451888582179 26:-0.6060433609977054 27:-0.3584905660377359 28:0.24917607788841178 29:0.5924664678133778 30:0.5672310380132488 
1.8307657926608942 1:-0.6552015104051304 2:-0.5633423180592989 3:-0.07670654468684013 4:-0.27210884353741505 5:-0.5934065934065932 6:-0.24213812876206475 7:-0.8640205164072974 8:-0.17951935309597256 9:-0.9180782850033496 10:-0.3312190446250528 11:-0.7830925095499086 12:-0.5599484314568114 13:-0.5678282113925679 14:-0.5261176049160543 15:-0.036148706527325825 16:-0.41636351610556244 17:-0.5634113426154503 18:-0.5835323805551141 19:-0.19904619238961918 20:-0.5533973446327114 21:-0.3546407590421363 22:-0.31439387904486715 23:-0.40116727035196287 24:-0.749061276072932 25:-0.8875141598444973 26:-0.952667997871226 27:-0.3584905660377359 28:-0.01156585398271992 29:0.5346807271153449 30:0.5372437957790897 
4.0 1:-0.7404313404313404 2:-0.5849056603773584 3:-0.025862068965517127 4:-0.3222222222222222 5:-0.6153846153846153 6:-0.3805656537654596 7:-0.8641281199420734 8:-0.22402383699121686 9:-0.9171968834416092 10:-0.32062087852233545 11:-0.7792846986765831 12:-0.5313143193178478 13:-0.659833346258908 14:-0.6131067819657428 15:0.037405059676774544 16:-0.6900179785820371 17:-0.517617585950392 18:-0.48159616899591207 19:-0.33417484551389165 20:-0.5516574908077307 21:-0.4017180946412927 22:-0.36808010779462563 23:-0.5020913600615422 24:-0.8290900892595547 25:-0.9670382875199198 26:-0.9945529103051296 27:-0.3207547169811321 28:0.20225368554124423 29:0.6522843567620256 30:0.6174445430003295 
3.4754351594266204 1:-0.801224596999245 2:-0.7041996348143638 3:0.007230255839821842 4:-0.3252688172043011 5:-0.7369727047146402 6:-0.5813246471226925 7:-0.8638776541961577 8:-0.18865339000146053 9:-0.9175354559969945 10:-0.44483653707756987 11:-0.7772008496577767 12:-0.6098129706096671 13:-0.7413700829542413 14:-0.6918345634683156 15:-0.052138655702130166 16:-0.7647277544096117 17:-0.5665966278890996 18:-0.5421739336218729 19:-0.37638390276508416 20:-0.6151013113372614 21:-0.46283835833787157 22:-0.4342203998905352 23:-0.5754325259624282 24:-0.8612849520425047 25:-0.9764165090845658 26:-0.9964014816907446 27:-0.6226415094339623 28:0.2170265915042644 29:0.5895770944614118 30:0.5440654503576929 
0.9344945858111696 1:-0.5526678046363085 2:-0.3955144179423281 3:0.17046193884189975 4:-0.01572327044025168 5:-0.37155297532656006 6:-0.24404911049862177 7:-0.8633185903837923 8:-0.27912680541013457 9:-0.9179964726631393 10:-0.30568948891031844 11:-0.7834019288654095 12:-0.4011173184357544 13:-0.3831822618881604 14:-0.3822193138960197 15:0.12694877505567903 16:-0.45991892887851615 17:-0.5244326591553428 18:-0.5158479388083193 19:-0.2127187162801405 20:-0.4007736282115585 21:-0.24942851698324509 22:-0.22178600032942986 23:-0.377890844974791 24:-0.6981888338456632 25:-0.853211382876263 26:-0.9325420320186146 27:-1.0 28:0.19784469233100843 29:0.6859095172476206 30:0.7445509002070427 
3.5551788510555897 1:-0.9173299427844882 2:-0.7169811320754715 3:-0.025862068965517127 4:-0.463888888888889 5:-0.7051282051282053 6:-0.4973506637516616 7:-0.8636711647047565 8:-0.11645297430877588 9:-0.9190091927522095 10:-0.5414389799635702 11:-0.7878923766816144 12:-0.6133880456815148 13:-0.7612358094448188 14:-0.7544508917275292 15:-0.1666436722707294 16:-0.7217145161658511 17:-0.6923076923076923 18:-0.5443349753694582 19:-0.5320652945055577 20:-0.6157339817923868 21:-0.5455585292691711 22:-0.49346105921225025 23:-0.6926233919269109 24:-0.6896050687617765 25:-0.8720119040523381 26:-0.9635970026677662 27:-0.28301886792452835 28:0.1812490813086305 29:0.3704056267291358 30:0.38749709998342996 
1.1119824020483118 1:-0.8881951381951382 2:-0.5036284470246732 3:-0.2175066312997347 4:-0.3076923076923077 5:-0.5325443786982247 6:-0.6978842034216626 7:-0.8642672572905131 8:-0.031697046394766115 9:-0.916919959473151 10:-0.7330773396347168 11:-0.7839145723779721 12:-0.6143818937115026 13:-0.8257016751589099 14:-0.8473307759862058 15:-0.10437248967315793 16:-0.6241862179093478 17:-0.4734383992094555 18:-0.4907112358169603 19:-0.4968503656412029 20:-0.7656084485323995 21:-0.7772873157849878 22:-0.7315734268379788 23:-0.6907420723139714 24:-0.6840501067786788 25:-0.8755212649232164 26:-0.9422815488828556 27:-0.6981132075471699 28:0.24555607780647049 29:0.6384185373183682 30:0.5919853924298191 
-4.0 1:-0.7332081498748163 2:-0.605623381428043 3:-0.2068965517241379 4:-0.38888888888888895 5:-0.6365007541478132 6:-0.40678870026829883 7:-0.8646115017126375 8:-0.22658022690437585 9:-0.9180572513905847 10:-0.5628054608739564 11:-0.7823932027377862 12:-0.616387337057728 13:-0.6050906956776906 14:-0.5770439165861068 15:0.10754763672358303 16:-0.5479507022069359 17:-0.5565981598809029 18:-0.5341076844481392 19:-0.26165797281983394 20:-0.5112198202783522 21:-0.30218171104761216 22:-0.21314396912092148 23:-0.4193952129223236 24:-0.8173640101727704 25:-0.9604957653199031 26:-0.9942648866812296 27:-0.6981132075471699 28:0.23060325676967497 29:0.6199150693842794 30:0.559801912510423 
2.121935230105741 1:-0.917008065680632 2:-0.5271226415094339 3:-0.37669801462904917 4:-0.45959595959595934 5:-0.5564903846153846 6:-0.799086405951853 7:-0.8642564571273823 8:-0.0755179815147401 9:-0.9128416165453203 10:-0.9004840109240456 11:-0.7795791652293894 12:-0.6181853207474475 13:-0.7684587571385122 14:-0.7988080614462544 15:-0.19668228246678443 16:-0.6485012008183355 17:-0.4763031971148409 18:-0.4251684349726026 19:-0.5544833887647296 20:-0.8330075235119315 21:-0.7990186323828283 22:-0.6834664526674501 23:-0.6976704467984912 24:-0.6255146826933549 25:-0.8506782007979833 26:-0.9324284506693492 27:-0.3584905660377359 28:0.46044154333712495 29:0.6597566259317551 30:0.6431978579964757 
4.0 1:-0.9087406100393113 2:-0.6922169811320753 3:-0.328125 4:-0.4609374999999999 5:-0.7247596153846154 6:-0.7574890324038335 7:-0.7973421926910299 8:-0.062490901503314045 9:-0.9169143050421589 10:-0.8606619501661212 11:-0.7760485360063308 12:-0.6224036670964046 13:-0.7233305709425565 14:-0.783451003929373 15:-0.13422039479945957 16:-0.6981562787724758 17:-0.41707939986318054 18:-0.3997220096388643 19:-0.6297314913820806 20:-0.791762506101018 21:-0.8483552569679855 22:-0.6692205747765674 23:-0.7734914816674712 24:-0.6795777044875532 25:-0.8714327609393251 26:-0.9421675728278214 27:-0.3584905660377359 28:0.3455876738188135 29:0.6268728109415387 30:0.6361392767462053 
-4.0 1:-0.9661281870584196 2:-0.6329331046312179 3:-0.22570532915360508 4:-0.5847457627118644 5:-0.6643356643356644 6:-0.4928589325983461 7:-0.8631702196382429 8:-0.21030823500076978 9:-0.917290032232561 10:-0.7012750455373407 11:-0.7748406891668633 12:-0.6201117318435754 13:-0.8572938586708818 14:-0.8165597315831297 15:-0.1058648849294731 16:-0.7725241139763159 17:-0.5383054432170571 18:-0.5383817242448985 19:-0.5496064240796967 20:-0.6338167453051302 21:-0.6394276149159474 22:-0.6074670133076294 23:-0.7341107333809878 24:-0.8151693339651779 25:-0.9628982543005792 26:-0.988430030228837 27:0.6603773584905659 28:0.17143493402527987 29:0.4799826674409249 30:0.43773261937082464 
-4.0 1:-0.929020979020979 2:-0.6683217477656405 3:-0.1826981246218996 4:-0.5367231638418078 5:-0.7004048582995952 6:-0.721050869128436 7:-0.863484292125663 8:-0.14108240987026255 9:-0.9172609462464535 10:-0.6396470036177586 11:-0.7748406891668633 12:-0.6595226003047234 13:-0.8398799655456659 14:-0.8210343077603093 15:-0.2302085442397248 16:-0.815055108262331 17:-0.513436168372722 18:-0.5506962306404255 19:-0.5234226714449044 20:-0.5618092173395008 21:-0.6466121018682331 22:-0.5950894816652532 23:-0.7087728553596517 24:-0.7966285243714772 25:-0.963144901339428 26:-0.9896255690487842 27:0.6981132075471697 28:0.19728909755094626 29:0.4283934169459527 30:0.3786386311544727 
3.2218422713050634 1:-0.9947815897182987 2:-0.5849056603773584 3:-0.3739224137931034 4:-0.5937499999999999 5:-0.6153846153846153 6:-0.6851489926408492 7:-0.864146401897278 8:-0.23818653078470564 9:-0.9148967881362248 10:-0.8548792182291429 11:-0.7779063599980713 12:-0.5461968199398365 13:-0.80222380761802 14:-0.8534856624463952 15:-0.20884015761521346 16:-0.6588925497835166 17:-0.5331140583554377 18:-0.4598709441823913 19:-0.5302877284403937 20:-0.7212785477614972 21:-0.7833394188788979 22:-0.6442989415349024 23:-0.6885032148963653 24:-0.6941252017635418 25:-0.8872948167408337 26:-0.9501215768554784 27:-0.6981132075471699 28:0.5511509958932737 29:0.56035743007834 30:0.5966774531086683 
4.0 1:-0.9473564783299296 2:-0.5683962264150941 3:-0.3739224137931034 4:-0.41666666666666663 5:-0.5985576923076923 6:-0.7709961481775057 7:-0.858139534883721 8:0.18178331498138012 9:-0.9165931804820694 10:-0.9159981661152622 11:-0.7786272635938151 12:-0.6910036601810825 13:-0.7930964329309642 14:-0.8140953820817752 15:-0.23431380078334996 16:-0.6752750022237377 17:-0.5510511481650422 18:-0.5286831954823605 19:-0.5486888038789721 20:-0.7928848222322847 21:-0.7493385949312972 22:-0.697468036792009 23:-0.7258684600090977 24:-0.6234632845311567 25:-0.8568359239635099 26:-0.9399480488679196 27:-0.28301886792452835 28:0.3752790997775559 29:0.6465237910856989 30:0.5990143983946787 
0.12530067637103437 1:-0.9994382116684276 2:-0.5036284470246732 3:-0.3978779840848805 4:-0.3948717948717949 5:-0.5325443786982247 6:-0.6854243887828071 7:-0.8561046511627907 8:0.005264906328960928 9:-0.9145376669186193 10:-0.8663909811450794 11:-0.7703542189492739 12:-0.6424581005586594 13:-0.7640572206626435 14:-0.8140953820817752 15:-0.24184010444666315 16:-0.7058736324013399 17:-0.5135163799833105 18:-0.4268982554294598 19:-0.6092129862010003 20:-0.6652300113381386 21:-0.8992636840203448 22:-0.6973572801508772 23:-0.7613893954203651 24:-0.6609931509121512 25:-0.8730548203053057 26:-0.9422516274442896 27:-0.28301886792452835 28:0.27355702449423114 29:0.608065384196721 30:0.6182289726147541 
-2.0514606301192644 1:-0.8217803920451578 2:-0.594873620505518 3:-0.0344827586206895 4:-0.38888888888888895 5:-0.625544267053701 6:-0.6085487959919054 7:-0.8639762881896945 8:-0.21030823500076978 9:-0.9177725735102784 10:-0.704539251238003 11:-0.7800171310525521 12:-0.6749820233419991 13:-0.7297183206692762 14:-0.733041583877649 15:-0.011356369489955775 16:-0.6802737883418608 17:-0.4980387796938116 18:-0.46185647382636363 19:-0.39902486633772527 20:-0.5759717236459749 21:-0.5729509270333603 22:-0.5133763061369105 23:-0.5480495871837949 24:-0.6850592496662556 25:-0.8686919868715446 26:-0.9409653169088336 27:-0.3207547169811321 28:-0.013292819659940669 29:0.5250406857477277 30:0.552253880725863 
4.0 1:-0.7415685881943552 2:-0.4951940192239229 3:-0.09195402298850575 4:-0.33333333333333326 5:-0.5239477503628447 6:-0.6072807335022319 7:-0.863957747678678 8:-0.21030823500076978 9:-0.9200725915701761 10:-0.7369385579101693 11:-0.7799241117626767 12:-0.4984235853752974 13:-0.625621807098425 14:-0.6795799571486079 15:0.031863988180555136 16:-0.5968092080059253 17:-0.5936551724137931 18:-0.5325519506256724 19:-0.32328357419319753 20:-0.4807973096791086 21:-0.5599439275080677 22:-0.482559284579375 23:-0.4812968644723643 24:-0.644398000226559 25:-0.8554427608221986 26:-0.9382465166847492 27:-0.3207547169811321 28:0.04064468077741479 29:0.605478760017669 30:0.5687599415975506 
-2.7311255213287153 1:-0.8364068030734697 2:-0.6009148084619782 3:-0.328125 4:-0.41666666666666663 5:-0.6317016317016317 6:-0.7167877724880982 7:-0.7932816537467701 8:-0.06943388649044036 9:-0.9177819275858492 10:-0.8122553311394904 11:-0.7776244682074278 12:-0.5542185933247386 13:-0.6593290397000864 14:-0.7314084941651704 15:-0.09691051339158241 16:-0.6408515432739348 17:-0.4882829115933722 18:-0.5128582301576563 19:-0.6029521417785157 20:-0.7277285486498613 21:-0.8179813553711093 22:-0.6503068531218641 23:-0.7518501094728488 24:-0.6287384956659315 25:-0.8549736342564587 26:-0.938695455462057 27:-0.3584905660377359 28:0.3421940868472748 29:0.6536169323353498 30:0.6740161107700322 
-4.0 1:-0.9505679505679507 2:-0.5683962264150941 3:-0.3957307060755335 4:-0.37239583333333326 5:-0.5985576923076923 6:-0.802851497837347 7:-0.8590116279069767 8:-0.04073473797947047 9:-0.9166363746516418 10:-0.8848164437928534 11:-0.7795896181546406 12:-0.6910036601810825 13:-0.7630188296370198 14:-0.775088335056807 15:-0.24936640810997635 16:-0.667625344679337 17:-0.4278406812387058 18:-0.35349460076944406 19:-0.5795848568004168 20:-0.7743083820967948 21:-0.7273142140152706 22:-0.6735650688929229 23:-0.7285020977128481 24:-0.6740518354102718 25:-0.8749764425955988 26:-0.9417166962704786 27:-0.28301886792452835 28:0.33750818393080384 29:0.6552585265064652 30:0.6383446548480065 
0.6739465507988579 1:-0.9136211256352599 2:-0.5849056603773584 3:-0.2701149425287357 4:-0.2749999999999998 5:-0.6153846153846153 6:-0.6292435758233803 7:-0.863798851267221 8:-0.21397203709557022 9:-0.9183166394906437 10:-0.6580183986162772 11:-0.7797020772125148 12:-0.5692686177028343 13:-0.7956515584274996 14:-0.7670999308953392 15:-0.17899225248891182 16:-0.7217145161658511 17:-0.543657421052057 18:-0.5662431167623663 19:-0.42559677253675654 20:-0.6183289746592107 21:-0.5280401085623505 22:-0.4727109882866084 23:-0.605710265770947 24:-0.6826919891432583 25:-0.8645618905285843 26:-0.9446714553756032 27:-0.6226415094339623 28:0.07337934113270861 29:0.42198065471022095 30:0.43768987549413496 
-4.0 1:-0.9245284803094134 2:-0.6377358490566036 3:-0.1724137931034483 4:-0.6433333333333333 5:-0.6153846153846153 6:-0.5614961249017185 7:-0.8635658914728682 8:-0.23179296622787926 9:-0.9165045229561358 10:-0.5971536418899641 11:-0.7869532109315509 12:-0.6908368369521396 13:-0.675191120332786 14:-0.663880348386094 15:-0.12506601152618668 16:-0.7815815833562327 17:-0.4407030773723225 18:-0.4975688816855752 19:-0.5148002601802961 20:-0.43025772300840825 21:-0.47399372668676976 22:-0.3654981502496949 23:-0.6313453508596449 24:-0.8636712739069763 25:-0.9864781481488841 26:-0.9965452689334714 27:0.6981132075471697 28:0.15043090536551107 29:0.3586867412441783 30:0.46172573850329646 
-4.0 1:-0.9656886323552989 2:-0.4858490566037734 3:-0.5113146551724137 4:-0.5494791666666665 5:-0.5144230769230769 6:-0.6574311809414319 7:-0.8644176854490302 8:-0.227339517812435 9:-0.9150725817392484 10:-0.8488692299312696 11:-0.7810604062252704 12:-0.4725486418801773 13:-0.765446050567578 14:-0.828553381152559 15:-0.2192611934567239 16:-0.6523260295905356 17:-0.51833395043369 18:-0.46542098408923616 19:-0.5437584534357052 20:-0.7352558966625748 21:-0.8234887490020606 22:-0.6790390677885945 23:-0.709763965634599 24:-0.6510106865556353 25:-0.881383347872402 26:-0.9496934280313656 27:-0.6226415094339623 28:0.5266679281817366 29:0.5768020932216968 30:0.6162610570023364 
1.6379568184855722 1:-0.5765300326703835 2:-0.4951940192239229 3:0.004554326610279658 4:-0.17610062893081757 5:-0.5239477503628447 6:-0.2266671867990402 7:-0.8636634683146311 8:-0.3654709484947146 9:-0.9168751623531985 10:-0.530558234222651 11:-0.782728193259077 12:-0.6778749868240752 13:-0.4448439257333555 14:-0.44306035078027883 15:0.30814808589317955 16:-0.4231249695809469 17:-0.5219773614900006 18:-0.5710729406240798 19:-0.20344363247401143 20:-0.517885331360112 21:-0.2706296586896335 22:-0.2951236644576719 23:-0.39328172658137805 24:-0.7386150094707284 25:-0.8774938618619339 26:-0.9371749813092218 27:-0.24528301886792458 28:0.06001720484490192 29:0.48010439705134456 30:0.5034571632405747 
4.0 1:-0.9074059120248498 2:-0.7433962264150942 3:-0.2896551724137929 4:-0.5299999999999998 5:-0.7769230769230768 6:-0.6308192465930353 7:-0.8643760039108876 8:-0.1987034035656401 9:-0.9181757209926225 10:-0.7225647387877125 11:-0.779992249349499 12:-0.6841713221601489 13:-0.7757518326090036 14:-0.7844650839225953 15:-0.12894554949696646 16:-0.7133605312745833 17:-0.4932605269720317 18:-0.47150552039169225 19:-0.34697081687442466 20:-0.6036162442240178 21:-0.4540398359931199 22:-0.3878643438100685 23:-0.5168537503843743 24:-0.8427509681619407 25:-0.9724221989367489 26:-0.9962216623486496 27:-0.3584905660377359 28:0.06531238627976932 29:0.5197958276933072 30:0.46229984510714806 
-4.0 1:-0.8226969880513189 2:-0.4829526646805692 3:-0.33696309739866903 4:-0.39181286549707584 5:-0.5114709851551955 6:-0.5429475619926014 7:-0.8638589995757646 8:-0.2129383771854202 9:-0.9196271101033006 10:-0.6812331457140202 11:-0.7854032624943134 12:-0.47550494198538906 13:-0.6370329120614635 14:-0.6822676136385017 15:-0.15007709439780714 16:-0.5827435676962761 17:-0.4583016769156505 18:-0.4247475494585061 19:-0.4509867240077545 20:-0.5773729564590566 21:-0.621572058886908 22:-0.5243242524749667 23:-0.6001590747928229 24:-0.617740980686122 25:-0.837617356985014 26:-0.9307914591919942 27:-0.6226415094339623 28:0.233822310102334 29:0.5115659249328794 30:0.5380155658518835 
2.9093846230713063 1:-0.017186203626881613 2:0.1374663072776281 3:0.4018296973961999 4:0.19047619047619047 5:0.12087912087912067 6:0.17137942392855843 7:-0.8636714152360079 8:-0.22840394431905953 9:-0.9188496121011458 10:0.21761422466261315 11:-0.7788472055124138 12:0.2338387869114127 13:0.1248802299584797 14:0.11645295091494057 15:0.43992940286590776 16:0.058311544738273824 17:-0.1339144438098624 18:-0.18935757560620614 19:0.17847801963824028 20:0.17696543279551746 21:0.22136380847071946 22:0.2710673352796815 23:0.09466169538209135 24:-0.023566724284703744 25:-0.21874957638328862 26:-0.345756309912406 27:-0.3584905660377359 28:0.4859091192670033 29:0.9491411802849548 30:0.9169441073390203 
4.0 1:-0.6645053732848164 2:-0.4453542185831255 3:0.11515940143135972 4:-0.2295597484276729 5:-0.4731494920174165 6:-0.39649449356289734 7:-0.8646851061877896 8:-0.2544570502431117 9:-0.9189987463079833 10:-0.6153098575976071 11:-0.7806140048292515 12:-0.47964884277733444 13:-0.5431514811400167 14:-0.5414038544033299 15:0.15367483296213802 16:-0.5121343464298873 17:-0.5299594718424628 18:-0.49460192868307506 19:-0.2832230156988701 20:-0.5188609260922734 21:-0.3368103604539251 22:-0.240551471643476 23:-0.43823280636730666 24:-0.7881809557077843 25:-0.9567754703827303 26:-0.9935879483802824 27:-0.28301886792452835 28:0.13665015988311624 29:0.5871148592169155 30:0.4896282494181272 
4.0 1:-0.7867741867741868 2:-0.6289308176100625 3:-0.025862068965517127 4:-0.3222222222222222 5:-0.66025641025641 6:-0.4059413680781758 7:-0.8640613761687844 8:-0.22782314259463798 9:-0.914292497625831 10:-0.37852961758739245 11:-0.7778813115135985 12:-0.5930608644516319 13:-0.7058384069109425 14:-0.6483414632471823 15:0.01207361387879513 16:-0.6968819296737112 17:-0.559998460591133 18:-0.5049127222103234 19:-0.3601503595624249 20:-0.6667301300683778 21:-0.44170398452760296 22:-0.39022150991256266 23:-0.5594227077526512 24:-0.8446506891868765 25:-0.9711465198696358 26:-0.994576834551983 27:-0.3584905660377359 28:0.18631316412365195 29:0.6383960909594524 30:0.6095583787250654 
-1.5108303555751008 1:0.36167793954679217 2:0.49201741654571873 3:0.565772669220945 4:0.5277777777777779 5:0.4822485207100591 6:0.35452884288985054 7:-0.8639957018957709 8:-0.2605436928934908 9:-0.9189331353074043 10:0.35097306106797044 11:-0.780318336372148 12:0.5098180209082361 13:0.4365575019040362 14:0.43842539366102384 15:0.5418642086925842 16:0.48823033636123725 17:0.09053161339774696 18:0.06674739511444039 19:0.5073123639679793 20:0.5248932201046197 21:0.527100918130817 22:0.5638420892259781 23:0.49002995187980325 24:0.23307293338177826 25:0.00778493371796074 26:-0.16901042383714882 27:-1.0 28:0.4231487898258546 29:0.9432252042514335 30:0.8712100962556162 
-0.25420915236378894 1:-0.8090716622826714 2:-0.6377358490566036 3:-0.23103448275862082 4:-0.4733333333333333 5:-0.6692307692307692 6:-0.4979237635825644 7:-0.8635842392550801 8:-0.24079194076333932 9:-0.9179721271224539 10:-0.620229514445413 11:-0.7829596412556054 12:-0.6630855178341213 13:-0.6667313790202547 14:-0.6498631005685931 15:0.00222717149220486 16:-0.6162633583097897 17:-0.606562245452077 18:-0.5442757425360405 19:-0.33736467565335915 20:-0.5398337906375061 21:-0.3617015532468061 22:-0.2632335422451805 23:-0.4660599683704165 24:-0.8279585851831557 25:-0.9611144402339025 26:-0.9947822989779304 27:-0.3584905660377359 28:0.1852932284367066 29:0.5293364398253426 30:0.4680020567051122 
4.0 1:-0.8528033852198882 2:-0.5653389238294898 3:-0.03128991060025543 4:-0.3641975308641976 5:-0.5954415954415955 6:-0.5416023772787015 7:-0.8638514891880865 8:-0.2423366922697484 9:-0.9181153943058705 10:-0.614518190630603 11:-0.7840840639850077 12:-0.5541788815753081 13:-0.6798835397206074 14:-0.6848830063551414 15:-0.03728858409226232 16:-0.7303525365434221 17:-0.5201470884207702 18:-0.47568634229251294 19:-0.46336626745371334 20:-0.492214593128941 21:-0.5860182249923362 22:-0.5085201366375267 23:-0.5941128968540086 24:-0.8399825841076651 25:-0.9745088831960035 26:-0.9940478263545836 27:0.6603773584905659 28:0.05082028968036201 29:0.5767101653941569 30:0.563744556465994 
-0.23784022026103946 1:-0.9477803388417916 2:-0.5442670537010158 3:-0.3527851458885942 4:-0.43846153846153846 5:-0.57396449704142 6:-0.6975535380137223 7:-0.8641860465116279 8:-0.18109698882538594 9:-0.9184793258867333 10:-0.8211660537117277 11:-0.7853069811216299 12:-0.5303307460325308 13:-0.7424521306756224 14:-0.772850997962482 15:-0.1566063236441857 16:-0.6829246597681382 17:-0.6134550471700513 18:-0.5399319853370985 19:-0.540610442733473 20:-0.7964989296587115 21:-0.833365397203608 22:-0.6381344019058302 23:-0.7516184611439582 24:-0.6547302288494143 25:-0.8689126355830095 26:-0.9416714042260348 27:-0.28301886792452835 28:0.26166898780083114 29:0.626541129081752 30:0.6569022838295651 
-0.010731979637226947 1:0.11390320835906054 2:0.13642960812772165 3:0.43633952254641906 4:0.34615384615384626 5:0.17159763313609466 6:0.10771650005616085 7:-0.8641504638454696 8:-0.13325347050947778 9:-0.9185563114134543 10:0.29642294411478765 11:-0.7787742899850523 12:0.24962663864151757 13:0.19804878048780483 14:0.23373532883026615 15:0.4467794218174599 16:0.1719435056145342 17:0.04226982553920777 18:-0.04851606867146385 19:0.37704876233076456 20:0.3120000289606124 21:0.3979848461754192 22:0.45380761791196456 23:0.2746481262727325 24:-0.14046116087880167 25:-0.3331831187093003 26:-0.5186892575196216 27:-0.3584905660377359 28:0.49043712268332196 29:0.8159832662182729 30:0.7774433409185539 
1.3415208424991483 1:0.45852042694147976 2:0.4716981132075475 3:0.7655172413793105 4:0.6599999999999999 5:0.5153846153846151 6:0.48424387674089053 7:-0.8643410852713178 8:-0.27195296447244377 9:-0.9197012138188609 10:0.5435614591212075 11:-0.7790690330322744 12:0.5283561875740646 13:0.5004019213802566 14:0.508437671175465 15:0.6648894288092506 16:0.509262878136481 17:0.033213904317769494 18:0.02067285956960041 19:0.6391863581577 20:0.6143963370867522 21:0.6846052644354175 22:0.6686336900707015 23:0.5769620538489517 24:0.11085670402018377 25:-0.11177638058591488 26:-0.32951753026211916 27:-0.3584905660377359 28:0.4378650784031297 29:0.9411365629999013 30:0.8817631193350506 
0.35088173756137137 1:-0.8949074949074951 2:-0.4858490566037734 3:-0.44225506294471817 4:-0.41666666666666663 5:-0.5144230769230769 6:-0.7903289782083487 7:-0.8642417014510038 8:-0.22712683128356692 9:-0.916698617181709 10:-0.7840610490090117 11:-0.7794537301263759 12:-0.5453669813138124 13:-0.7259514166617345 14:-0.7759654327053315 15:-0.21173488979341082 16:-0.5720046253743291 17:-0.4946939937852304 18:-0.4723964048858488 19:-0.5373979371337694 20:-0.7102091525812764 21:-0.7332314278645995 22:-0.6834152137736494 23:-0.6764600629234374 24:-0.6083108590443231 25:-0.850938927888936 26:-0.9337221613725524 27:-0.24528301886792458 28:0.28726515230028093 29:0.6596478726393298 30:0.6329243253635157 
0.848672550835741 1:-0.9153399791697663 2:-0.40080045740423076 3:-0.37669801462904917 4:-0.41666666666666663 5:-0.42773892773892763 6:-0.803120831394447 7:-0.8608174770965469 8:0.0829992322784272 9:-0.9168556311413454 10:-0.8876168961341597 11:-0.7692968228222498 12:-0.5461968199398365 13:-0.7520129105421555 14:-0.7976221900954306 15:-0.23122608645993958 16:-0.6157024478956616 17:-0.5021750906452518 18:-0.490751729798967 19:-0.5608349908467991 20:-0.7015031769979374 21:-0.8113643469429497 22:-0.6903942673565235 23:-0.6962982798036788 24:-0.5588837746244596 25:-0.8356643979911326 26:-0.938695455462057 27:-0.24528301886792458 28:0.355213446060453 29:0.5929165828735135 30:0.5987527041272878 
4.0 1:-0.9451055053149294 2:-0.5271226415094339 3:-0.3957307060755335 4:-0.4609374999999999 5:-0.5564903846153846 6:-0.7711540984728774 7:-0.8641277291800014 8:-0.22712683128356692 9:-0.9161130339075201 10:-0.7982751875689913 11:-0.7800379085571634 12:-0.6465035638605279 13:-0.728904284782627 14:-0.7547434830790786 15:-0.33215574840642037 16:-0.6599756871349365 17:-0.4484703565502509 18:-0.4106576170064429 19:-0.5678525307884492 20:-0.629899535619777 21:-0.7524741213401245 22:-0.6592982278137098 23:-0.7269729353607752 24:-0.6612711119679688 25:-0.8651271194071742 26:-0.9411067291234092 27:-0.24528301886792458 28:0.21344247576728126 29:0.6335584204894782 30:0.6181506907849748 
-4.0 1:-0.7715369296186348 2:-0.6615946439440048 3:0.007230255839821842 4:-0.3709677419354839 5:-0.6935483870967741 6:-0.43077406205550395 7:-0.8641688199827735 8:-0.23042530598558097 9:-0.9184049950333475 10:-0.33367981309891503 11:-0.7819598617951922 12:-0.6098129706096671 13:-0.7196845108239638 14:-0.6709961920236432 15:0.02248110711362372 16:-0.7447421626269434 17:-0.6227653580118288 18:-0.5677754139899762 19:-0.3258169237022922 20:-0.6008120500648262 21:-0.40016171255640065 22:-0.3923770075402435 23:-0.5482015249520227 24:-0.8484703273425831 25:-0.973639523955638 26:-0.9969996554056364 27:-0.28301886792452835 28:0.381329530419086 29:0.6446635236395872 30:0.5958409110845209 
1.2033736292579786 1:-0.8931038713252871 2:-0.44457547169811307 3:-0.2823275862068966 4:-0.37239583333333326 5:-0.47235576923076916 6:-0.6360051424498578 7:-0.8626917367639783 8:0.03989450053857069 9:-0.9157124430756272 10:-0.8282881253309218 11:-0.7690084703537619 12:-0.4996356570318192 13:-0.7233884149002626 14:-0.8012362488402636 15:-0.13117071753655474 16:-0.6454745971812029 17:-0.5183251231527093 18:-0.45552738248625446 19:-0.5576851848614268 20:-0.6394140156047964 21:-0.8275333525777362 22:-0.6540968311115296 23:-0.7355486781579921 24:-0.6421521757398201 25:-0.8685344974145817 26:-0.941762627277849 27:-0.3584905660377359 28:0.30338436667355073 29:0.6338479468360472 30:0.6793428591329722 
0.3153566351623873 1:0.4046231546231547 2:0.501601993592026 3:0.66818477553676 4:0.5723270440251573 5:0.4920174165457185 6:0.574342704925562 7:-0.8638913872114438 8:-0.2678593691559654 9:-0.9188046986789125 10:0.5345907864359623 11:-0.7771645394963781 12:0.4748603351955305 13:0.49101852023851555 14:0.5202842978625943 15:0.6092056421677801 16:0.47814764770912666 17:0.08392593586475239 18:0.0787909030773799 19:0.5562353076137427 20:0.5529057562760198 21:0.6096998498198254 22:0.6506968788222571 23:0.5258571107442693 24:0.1483327200771547 25:-0.03952562577950214 26:-0.18760833479071903 27:-0.6981132075471699 28:0.6169756644352831 29:0.9460523602088384 30:0.9007550030708182 
3.2397999975314513 1:-0.8528033852198882 2:-0.5653389238294898 3:-0.03128991060025543 4:-0.3641975308641976 5:-0.5954415954415955 6:-0.5416023772787015 7:-0.8638514891880865 8:-0.2423366922697484 9:-0.918039968995383 10:-0.614518190630603 11:-0.7848762208980895 12:-0.5541788815753081 13:-0.6798835397206074 14:-0.6848830063551414 15:-0.03728858409226232 16:-0.7303525365434221 17:-0.5201470884207702 18:-0.47568634229251294 19:-0.46336626745371334 20:-0.492214593128941 21:-0.5860182249923362 22:-0.5085201366375267 23:-0.5941128968540086 24:-0.8399825841076651 25:-0.9745088831960035 26:-0.9940478263545836 27:0.6603773584905659 28:0.18347514392331443 29:0.5381068763522561 30:0.5296246582038651 
4.0 1:-0.6487358795051102 2:-0.594873620505518 3:-0.09195402298850575 4:-0.33333333333333326 5:-0.625544267053701 6:-0.37317317475215117 7:-0.8643410852713178 8:-0.2477235180356876 9:-0.9190772280796612 10:-0.531620897288643 11:-0.7802040683694027 12:-0.5658419792498004 13:-0.5314595975726606 14:-0.4947677475029012 15:0.18930957683741645 16:-0.5483531331707231 17:-0.5502643029903751 18:-0.529382194741869 19:-0.1919590688426771 20:-0.5019549550403386 21:-0.2531800147166229 22:-0.16820935520971236 23:-0.36344809093843977 24:-0.7907942955971852 25:-0.9569573975824888 26:-0.9947822989779304 27:-0.3207547169811321 28:0.08254941069897659 29:0.586964275446912 30:0.5379591189669588 
4.0 1:-0.7521859739054307 2:-0.5538290788013318 3:-0.32183908045976994 4:-0.4968553459119496 5:-0.583710407239819 6:-0.40769175632949184 7:-0.8647058823529412 8:-0.2477235180356876 9:-0.9180132513465847 10:-0.5259730370207917 11:-0.7802040683694027 12:-0.5965508865678892 13:-0.6033243581317447 14:-0.6009556256096353 15:0.053428671902473246 16:-0.5480578713222922 17:-0.5852036938689184 18:-0.5424744778040533 19:-0.27192870655365176 20:-0.4824878606077784 21:-0.28991648438799145 22:-0.21953592483733653 23:-0.4242469384886237 24:-0.8120368100753933 25:-0.9573765107939257 26:-0.9947822989779304 27:-0.6226415094339623 28:0.0776797277848742 29:0.5496246509650999 30:0.5134584038556751 
4.0 1:-0.8706913054739144 2:-0.650943396226415 3:-0.26436781609195403 4:-0.5000000000000001 5:-0.6826923076923077 6:-0.6681211972220515 7:-0.8638027562446167 8:-0.24155111351221548 9:-0.917989417989418 10:-0.6996113979900933 11:-0.7824672469884815 12:-0.7338211301725415 13:-0.7224955683341259 14:-0.707278632806611 15:-0.09691051339158241 16:-0.6560619088564058 17:-0.5215979127835881 18:-0.5002740994035002 19:-0.3512337427064466 20:-0.5581208442190841 21:-0.4275118104441751 22:-0.38751191825772624 23:-0.48798798143115785 24:-0.8342263923612868 25:-0.9577891983870216 26:-0.994389454832747 27:-0.3584905660377359 28:0.12218369870402923 29:0.394813915720192 30:0.39107256803779644 
2.104132960359726 1:-0.6459532029152282 2:-0.5538290788013318 3:-0.09195402298850575 4:-0.38888888888888895 5:-0.583710407239819 6:-0.4538299408964286 7:-0.8645715482924785 8:-0.29317486043580043 9:-0.9179404271996865 10:-0.5911628180269111 11:-0.77745889387145 12:-0.6999201915403034 13:-0.5270053951502933 14:-0.4883655437040163 15:0.03786191536748329 16:-0.5009604654140978 17:-0.5492474364055815 18:-0.5104393094973153 19:-0.1287036509452938 20:-0.409637676007235 21:-0.23329370965385476 22:-0.10646612401385536 23:-0.3126593682643377 24:-0.7715316066157312 25:-0.9534527603911674 26:-0.9935479975163832 27:-1.0 28:0.050396829900582585 29:0.5993142657777883 30:0.5550638624208728 
-4.0 1:-0.907092247686307 2:-0.6142557651991613 3:-0.08556832694763727 4:-0.41666666666666663 5:-0.6452991452991452 6:-0.5717408613825552 7:-0.863846280719116 8:-0.21745241749257738 9:-0.9188046986789125 10:-0.6966760970946531 11:-0.7853258276881977 12:-0.582056529675314 13:-0.7342907095242102 14:-0.722086306173896 15:-0.002712297955853482 16:-0.7303525365434221 17:-0.43918839036080415 18:-0.44836542481086483 19:-0.5001164171087302 20:-0.5634066477544419 21:-0.6276708823157959 22:-0.5524859832748422 23:-0.626815489108027 24:-0.8341572503797974 25:-0.9746775675940156 26:-0.99405353131466 27:0.6226415094339621 28:0.06336225625726044 29:0.5702878972259338 30:0.5449028184286733 
2.167507991129733 1:-0.5814454245826794 2:-0.34770889487870615 3:-0.01688951442646036 4:-0.09863945578231281 5:-0.37362637362637363 6:-0.13578834821095542 7:-0.8636066911464708 8:-0.2250511184511964 9:-0.9195862529195863 10:-0.3379287355500793 11:-0.7806383539963071 12:-0.16834648390255125 13:-0.40072741968074366 14:-0.4355720581034761 15:0.36996303354533566 16:-0.43852993059187484 17:-0.4925779829813912 18:-0.4605211756224551 19:-0.17337131563276442 20:-0.443795201371161 21:-0.31538369208317474 22:-0.2705953592753797 23:-0.3792454030808007 24:-0.5850404659121998 25:-0.8169937370142508 26:-0.91155888469687 27:-0.6226415094339623 28:-0.03235518955003913 29:0.6399875246624882 30:0.6403983812017977 
-1.904745484802579 1:-0.9477493380406 2:-0.5566037735849056 3:-0.2038177339901477 4:-0.41666666666666663 5:-0.5865384615384616 6:-0.6304123301819338 7:-0.8639193477125758 8:-0.18109698882538594 9:-0.9201034041216689 10:-0.6503827875700181 11:-0.7878649217534548 12:-0.5893327711605354 13:-0.7526977416842807 14:-0.7786283809485304 15:-0.06248686809261683 16:-0.7579779035999934 17:-0.49805750907441015 18:-0.45939232791050333 19:-0.5968787209069443 20:-0.6401677428081479 21:-0.7214801454328882 22:-0.6148412647576531 23:-0.7335928699941001 24:-0.7791839476647839 25:-0.9605838585867886 26:-0.9921615926903457 27:0.6981132075471697 28:0.059868899474907034 29:0.5052531781081779 30:0.5104095712599794 
4.0 1:-0.9213175830511983 2:-0.7452830188679244 3:-0.30268199233716464 4:-0.5216049382716047 5:-0.7788461538461537 6:-0.7207251669792386 7:-0.8647264155220091 8:-0.2924709002504787 9:-0.9163695948565925 10:-0.7369983290909039 11:-0.7823693023783845 12:-0.7609615710174369 13:-0.7805758597837804 14:-0.7943204023131016 15:-0.04942520978155718 16:-0.755430109536805 17:-0.5593567032735978 18:-0.5401943980155647 19:-0.37552648475419204 20:-0.6980250823086169 21:-0.4469327789628591 22:-0.3743836855612286 23:-0.5384000558483075 24:-0.7854095234176771 25:-0.9513444692912866 26:-0.9938985353971036 27:-0.5849056603773586 28:0.08034827959371915 29:0.4999737382614391 30:0.45074545875794136 
-0.8440856258631151 1:-0.8697931560385094 2:-0.7306441119063107 3:-0.06123662306777633 4:-0.31896551724137934 5:-0.7175066312997347 6:-0.3547988023558055 7:-0.8637381567614126 8:-0.2420120398240333 9:-0.9180206887062679 10:-0.4879910264280787 11:-0.7791691344445385 12:-0.6805073229654235 13:-0.6955445544554455 14:-0.6903580103495616 15:0.032564858845482325 16:-0.7087680974181405 17:-0.4729907325308814 18:-0.44234840663500574 19:-0.43062152135760934 20:-0.7120247693571276 21:-0.490056755507134 22:-0.4874093435841025 23:-0.616423122336454 24:-0.7686940012904593 25:-0.8892644519489415 26:-0.9485097177832108 27:-1.0 28:0.004257467847111229 29:0.4727582928572742 30:0.5162632864874519 
1.4595547989143292 1:-0.668793493611012 2:-0.44856968959220944 3:-0.229143492769744 4:-0.27956989247311836 5:-0.47642679900744433 6:-0.3312388772173286 7:-0.8636215940212598 8:-0.22624164200552477 9:-0.9162375073486184 10:-0.44857099189974026 11:-0.7771645394963781 12:-0.5261778810500815 13:-0.505053809728799 14:-0.5124806776512341 15:0.034235370636813256 16:-0.43901566744534637 17:-0.5385070831317809 18:-0.5385070831317809 19:-0.49518578510788647 20:-0.6294367111867512 21:-0.5202676142551481 22:-0.5155442770608243 23:-0.660548520802429 24:-0.7130245896832075 25:-0.8644616467396233 26:-0.9299036825466798 27:-1.0 28:-0.04330228918266976 29:0.44853569180100106 30:0.4763468219254785 
-4.0 1:-0.9416111135856359 2:-0.7347226133483526 3:-0.22490993309315488 4:-0.5143678160919541 5:-0.7175066312997347 6:-0.6489748994060165 7:-0.8637218476216687 8:-0.2672445838847336 9:-0.9186115709633093 10:-0.6032944767518353 11:-0.7808539676350166 12:-0.6962290502793296 13:-0.8309090168276086 14:-0.7849635890504909 15:-0.1913511507052712 16:-0.8671539122957865 17:-0.5608402695204121 18:-0.46466370775008525 19:-0.43584859161166334 20:-0.7272080492161002 21:-0.5526659210322642 22:-0.5230226340030598 23:-0.6639651414038206 24:-0.86765407109226 25:-0.9664785489508038 26:-0.9890707855885488 27:-1.0 28:0.08879612676849935 29:0.4275873266383139 30:0.399996249696458 
4.0 1:-0.7606143856143857 2:-0.5763846622032867 3:-0.07758620689655182 4:-0.41666666666666663 5:-0.6066997518610422 6:-0.4094589922297234 7:-0.8640629056785727 8:-0.3017950521390782 9:-0.9172445677300046 10:-0.4797814207650273 11:-0.7795896181546406 12:-0.4909602780099417 13:-0.6582512471195969 14:-0.6704357944978052 15:0.14757203233782845 16:-0.6790998309959377 17:-0.575560446726991 18:-0.5297750061139642 19:-0.359508514273704 20:-0.5698535812638426 21:-0.490275031733731 22:-0.47458306690689467 23:-0.5417761859285718 24:-0.6001612475106621 25:-0.7538756318510293 26:-0.8182537025483421 27:0.5849056603773584 28:-0.05772569211442702 29:0.4643641412112691 30:0.4376809507459616 
2.969838768185972 1:-0.6847119125600138 2:-0.4858490566037734 3:-0.08731924360400445 4:-0.4571428571428571 5:-0.47235576923076916 6:-0.3923871568171241 7:-0.8638850889192886 8:-0.2376637831715842 9:-0.9169244706585326 10:-0.3452558370591159 11:-0.7764253683536195 12:-0.47780064686856805 13:-0.5748347680721073 14:-0.5834763072573229 15:0.04573470761899823 16:-0.6168005013334887 17:-0.553346010851341 18:-0.4813862760132618 19:-0.3213315281939728 20:-0.49404737206693283 21:-0.4145442563329771 22:-0.4072516390928663 23:-0.5022322954721695 24:-0.6319376906521736 25:-0.7552074768233108 26:-0.8099157396020669 27:0.6226415094339621 28:-0.12137689915188521 29:0.49317477088382855 30:0.46240669841252346 
-3.5349692740385374 1:-0.8088752695494267 2:-0.3902681231380336 3:-0.1826981246218996 4:-0.1929824561403508 5:-0.4170040485829959 6:-0.5467502302120697 7:-0.8639851289352951 8:-0.23710633032273676 9:-0.919407050208738 10:-0.6827375531268975 11:-0.7834080717488789 12:-0.4874686074522063 13:-0.6109217479124962 14:-0.6577374544716937 15:-0.1483376472240615 16:-0.6302192210906621 17:-0.4294532718704127 18:-0.3808675165770524 19:-0.48343906312165286 20:-0.527286740975879 21:-0.6052448226566864 22:-0.5404584897617704 23:-0.6096798500672643 24:-0.6804398257622037 25:-0.8625291139799638 26:-0.9432747560212817 27:-0.3584905660377359 28:0.07599142791131563 29:0.5384362684097201 30:0.5601203769658578 
-4.0 1:-0.9359350327092263 2:-0.594014313597918 3:-0.3139120095124851 4:-0.41666666666666663 5:-0.6246684350132627 6:-0.5686866879049288 7:-0.8636046511627907 8:-0.24899100645120276 9:-0.9186080181105056 10:-0.8927436777227096 11:-0.7835486245900543 12:-0.689385474860335 13:-0.7281630159386173 14:-0.7744409988575156 15:0.07322254582833643 16:-0.7908543734854996 17:-0.4815164973471582 18:-0.45400019544547854 19:-0.4956616962817715 20:-0.74926908882908 21:-0.7029758551000163 22:-0.6072359492132238 23:-0.6650946816712016 24:-0.7113555642041511 25:-0.882963645295036 26:-0.9525852447808462 27:-0.3584905660377359 28:0.07436904258599775 29:0.46249414013139845 30:0.4757805420331309 
-0.8367237180685997 1:-0.9282241921647126 2:-0.6395575797007156 3:-0.2633769322235433 4:-0.41666666666666663 5:-0.6710875331564987 6:-0.4213324950337437 7:-0.8631346578366446 8:-0.27125031731463944 9:-0.9179590099130329 10:-0.4769748177858618 11:-0.7770133300571288 12:-0.8301675977653631 13:-0.6849379307903978 14:-0.6297982388646661 15:-0.15338877423836883 16:-0.7360511805122784 17:-0.6339075313844754 18:-0.5205758980599163 19:-0.4512809366474462 20:-0.6053742791934399 21:-0.48876245502912175 22:-0.44828860918360725 23:-0.635345320719724 24:-0.7043225821133537 25:-0.8667553635537131 26:-0.944488130224035 27:-1.0 28:0.16593459328540794 29:0.364611238268606 30:0.5281831142078923 
2.2429041160599383 1:-0.9224319983813657 2:-0.6844407984686902 3:-0.2318840579710144 4:-0.31400966183574863 5:-0.7094017094017093 6:-0.5986068837032685 7:-0.8637612158945248 8:-0.278283394977074 9:-0.9170583192929562 10:-0.7426928712350974 11:-0.7769805680119581 12:-0.6086703910614526 13:-0.8042951214552735 14:-0.8012362488402636 15:-0.03547935981768291 16:-0.7902882744263926 17:-0.5110449648131032 18:-0.3996315567479406 19:-0.46665635051953824 20:-0.627479589605275 21:-0.5921891976016438 22:-0.5333537182967455 23:-0.6681156039465168 24:-0.8227293804461155 25:-0.9635350610359182 26:-0.994769822435965 27:0.5094339622641508 28:0.0862984375775957 29:0.4721358465706702 30:0.468747069182774 
-4.0 1:-0.932553358390679 2:-0.6729559748427674 3:-0.26865671641791056 4:-0.3955223880597014 5:-0.6877152698048219 6:-0.5498778501628663 7:-0.863827402633791 8:-0.2423366922697484 9:-0.9180943982531284 10:-0.7015114894213257 11:-0.7743144894508565 12:-0.6532874946282767 13:-0.8230000676605244 14:-0.7922150322350535 15:0.1739592256296043 16:-0.7396931710186901 17:-0.5623563591241876 18:-0.5397363847251226 19:-0.5175364387202699 20:-0.6952857370763617 21:-0.5968293635691333 22:-0.5733963467025297 23:-0.6806362280681074 24:-0.8987397797964332 25:-0.9749349339824288 26:-0.9959494982563606 27:0.6603773584905659 28:0.022296729412933702 29:0.41583483228423956 30:0.3763495281864906 
-4.0 1:-0.9637746220024701 2:-0.6661828737300435 3:-0.2175066312997347 4:-0.41666666666666663 5:-0.6982248520710059 6:-0.5590888852435967 7:-0.8638013933863212 8:-0.22142763870432536 9:-0.9193281611243614 10:-0.6431700845383302 11:-0.7749306000427076 12:-0.6983240223463687 13:-0.8351776354105998 14:-0.8090189841014123 15:0.057658995298193405 16:-0.7727915062245317 17:-0.5626882328327576 18:-0.5430648029197851 19:-0.5322949401678722 20:-0.6643836646437238 21:-0.6042535260505598 22:-0.5767299362528727 23:-0.6865470826658888 24:-0.9060948140260049 25:-0.9774968057590401 26:-0.9959911826861706 27:0.5849056603773584 28:0.04007200515494547 29:0.41076637830559637 30:0.37815635136501413 
-4.0 1:-0.9918061736243556 2:-0.6661828737300435 3:-0.33228840125391856 4:-0.4820512820512818 5:-0.6982248520710059 6:-0.5011664391793051 7:-0.8639001067632177 8:-0.17978698772864077 9:-0.9130019949692081 10:-0.8367381947124772 11:-0.773168908819133 12:-0.6782501657040052 13:-0.8268493516018267 14:-0.8356442989923615 15:0.0582045841151817 16:-0.7784805514668376 17:-0.5561248006776959 18:-0.4743407206749537 19:-0.6077311251842155 20:-0.7552026685092087 21:-0.7724494163520107 22:-0.6926311694530415 23:-0.773094955603626 24:-0.8690264025638513 25:-0.9652107748019383 26:-0.980793337204614 27:0.6226415094339621 28:0.13350522107393759 29:0.4232624662564173 30:0.4016100230024142 
-4.0 1:-0.8883754643471957 2:-0.6661828737300435 3:-0.2625994694960213 4:-0.45959595959595934 5:-0.6982248520710059 6:-0.43214307663941964 7:-0.8635189100305379 8:-0.2477235180356876 9:-0.9176594064119626 10:-0.5947519070901298 11:-0.7757847533632287 12:-0.6871508379888268 13:-0.7994466113277993 14:-0.7680118648036843 15:0.14773570898292498 16:-0.7070405293148927 17:-0.5325619917121285 18:-0.4675232273669352 19:-0.4031244823209119 20:-0.7238844875476964 21:-0.5209956950793295 22:-0.4483703329606996 23:-0.5851739497093433 24:-0.8796787222430789 25:-0.9772139125191153 26:-0.9959858067721102 27:0.6226415094339621 28:0.058880018728669326 29:0.43722272900770065 30:0.395296516244636 
-4.0 1:-0.9638520104410286 2:-0.7068214804063857 3:-0.1724137931034483 4:-0.4820512820512818 5:-0.739644970414201 6:-0.6215765472312702 7:-0.8640453286012266 8:-0.17997698788771077 9:-0.9160842206109696 10:-0.6847727864121307 11:-0.7732774000675057 12:-0.6916561542620292 13:-0.753098497100706 14:-0.7673871256288419 15:-0.00682520295998279 16:-0.8534379940642942 17:-0.4806611388836587 18:-0.44955857814297007 19:-0.6101617399174053 20:-0.6646864939859184 21:-0.6409089755757165 22:-0.6246243372384909 23:-0.7979736422968855 24:-0.7670980960604054 25:-0.9604540808022451 26:-0.99473625482226 27:0.5849056603773584 28:0.0904546748648607 29:0.39042953783659406 30:0.45309743000306324 
4.0 1:-0.8751237067026542 2:-0.5513626834381551 3:-0.24346917450365713 4:-0.41666666666666663 5:-0.5811965811965812 6:-0.6250767124581031 7:-0.864267953780898 8:-0.20850624254189865 9:-0.9136380721080175 10:-0.7970208569670277 11:-0.7778544325629527 12:-0.6705343074058157 13:-0.7205254818453902 14:-0.7619902539112591 15:-0.016286191536748484 16:-0.7007738607050731 17:-0.34392386228838256 18:-0.3365893747831675 19:-0.47320441265782387 20:-0.6747457977886018 21:-0.6640736524096731 22:-0.5812466362484014 23:-0.6207836755138358 24:-0.5474279327293099 25:-0.8318054248769151 26:-0.928468917010127 27:-0.5849056603773586 28:0.11329495769248243 29:0.6725405036531154 30:0.6833584756006104 
4.0 1:-0.8910128726079647 2:-0.5313098167897181 3:-0.3124034997426658 4:-0.3955223880597014 5:-0.5607580824972128 6:-0.6456368935367733 7:-0.8620930232558139 8:-0.14238941873060607 9:-0.9162450597973713 10:-0.9155152386247047 11:-0.7732222934016656 12:-0.572800279329609 13:-0.737250060883951 14:-0.8081511119067843 15:0.039643652561247134 16:-0.6021782745772427 17:-0.545426043335888 18:-0.5182254284641645 19:-0.5221596438323273 20:-0.7004346130920938 21:-0.7481452129230566 22:-0.7144178139296093 23:-0.6848840130644094 24:-0.5679074172887948 25:-0.8371039074662018 26:-0.9408184767872068 27:-0.3584905660377359 28:0.285778999274255 29:0.5331546125741755 30:0.5024891040469197 
-1.677551370144514 1:-0.9777048909792273 2:-0.625544267053701 3:-0.3793103448275862 4:-0.5025252525252524 5:-0.6568047337278107 6:-0.6525669481998212 7:-0.8640461745871251 8:0.23803349540788776 9:-0.9169704095630021 10:-0.793393837013936 11:-0.7659192825112108 12:-0.6981346463403086 13:-0.7626777906217017 14:-0.832000230127399 15:0.024638084632516488 16:-0.6969817227770796 17:-0.5184098771870104 18:-0.4359322556616315 19:-0.6468953617942406 20:-0.6025987044850225 21:-0.8264630666382689 22:-0.6635311368654627 23:-0.8029354334156503 24:-0.6173909607814136 25:-0.8571059680685978 26:-0.9425093774504296 27:-0.5849056603773586 28:0.2882103698881717 29:0.5285345819482614 30:0.577151725601404 
0.8946008999207158 1:-0.843747650199263 2:-0.5513626834381551 3:-0.2625994694960213 4:-0.3941798941798942 5:-0.5811965811965812 6:-0.5424714616897026 7:-0.48062015503875966 8:-0.06610013579219409 9:-0.9137701804368471 10:-0.6589021429484143 11:-0.7771885357769546 12:-0.6825669674831686 13:-0.6231051190225403 14:-0.6762372031192181 15:0.2224387527839644 16:-0.7576559296249752 17:-0.49278176445757704 18:-0.4978241651322397 19:-0.423497330793271 20:-0.5597774127643265 21:-0.6043953702513596 22:-0.46487326986177224 23:-0.5749723427600166 24:-0.6441895089245653 25:-0.853087948929433 26:-0.9354806837020933 27:-0.3584905660377359 28:0.16864715916823547 29:0.6589761095683564 30:0.6933121987114139 
4.0 1:-0.858863058863059 2:-0.5932914046121592 3:-0.2175066312997347 4:-0.3941798941798942 5:-0.6239316239316239 6:-0.5503697187284526 7:-0.8630490956072352 8:-0.13219028121356857 9:-0.9143718146342819 10:-0.6667867651474209 11:-0.7767812655705032 12:-0.6585016473284631 13:-0.6351236146632563 14:-0.6722727804260644 15:0.2292594654788418 16:-0.7614480675529685 17:-0.4677654889856482 18:-0.4770589966871227 19:-0.41548069127968923 20:-0.5722808538882338 21:-0.6199278879762893 22:-0.4751006311100813 23:-0.5884284137528636 24:-0.651882937732299 25:-0.8547198043390636 26:-0.9366076586592618 27:-0.3584905660377359 28:0.09862585049527928 29:0.6794698214408841 30:0.7149672149507382 
1.969591796173146 1:-0.3748377748377747 2:-0.24070897655803303 3:0.02298850574712641 4:-0.11616161616161602 5:-0.26456876456876466 6:-0.16705777964577984 7:-0.8639793281653747 8:-0.20107589916893687 9:-0.9180797522260937 10:-0.14506895654436636 11:-0.7769296822822249 12:-0.1327297245232132 13:-0.24407504798302193 14:-0.2415594807607867 15:0.4358745931129002 16:-0.22777003587630062 17:-0.4133587362246711 18:-0.45089465576490095 19:-0.02605337547379738 20:-0.05500169492414797 21:-0.08297724317886657 22:-0.07669870741987139 23:-0.14757498481571596 24:-0.25246342359358276 25:-0.47733939539594217 26:-0.5877967465424883 27:-1.0 28:0.2117817049323485 29:0.5686722347164883 30:0.5421040264617889 
-0.6710939667147336 1:-0.7392686166879714 2:-0.6142557651991613 3:-0.2823275862068966 4:-0.3641975308641976 5:-0.6452991452991452 6:-0.42589387607034623 7:-0.864280523255814 8:-0.23365345073659238 9:-0.9170827433738232 10:-0.5198838982925349 11:-0.7789945716308709 12:-0.6229050279329609 13:-0.6110281797410511 14:-0.6327321690876447 15:-0.08285423248908008 16:-0.5297721410146172 17:-0.5056051558104485 18:-0.5139247664969087 19:-0.23164937723697 20:-0.500122019948578 21:-0.29643607544486117 22:-0.32126454279700145 23:-0.40879788078533297 24:-0.7408505340548007 25:-0.8851423646594384 26:-0.9530720460127672 27:-1.0 28:-0.04867669673939112 29:0.5069177984696918 30:0.5066480684100012 
0.2554881875777413 1:-0.9185290234241286 2:-0.7747641509433961 3:-0.104447776111944 4:-0.41666666666666663 5:-0.8088942307692307 6:-0.6259123134003378 7:-0.8635896218952698 8:-0.2207350865268991 9:-0.9178634416729655 10:-0.4903324469380398 11:-0.773542600896861 12:-0.6742732695767448 13:-0.8222133771166061 14:-0.798105683779066 15:0.0788278413973309 16:-0.8311205677893234 17:-0.6079796836275739 18:-0.5464267866066967 19:-0.42163543688183325 20:-0.6901441122844625 21:-0.5305682561311948 22:-0.5297239838932303 23:-0.6464343750075817 24:-0.8740115885106517 25:-0.9789299351773578 26:-0.9969214976976882 27:-0.3584905660377359 28:0.07746344117799708 29:0.5399892727798203 30:0.49881597519026455 
4.0 1:-0.9466955808419222 2:-0.761006289308176 3:-0.1345939933259176 4:-0.45959595959595934 5:-0.7948717948717949 6:-0.5875503347097899 7:-0.8635818748501558 8:-0.22127035579223586 9:-0.918673087212413 10:-0.49171514190022925 11:-0.7722969606377679 12:-0.6822270618312658 13:-0.8324518787282454 14:-0.804201015609843 15:0.0582045841151817 16:-0.8348805689552152 17:-0.45051757104239465 18:-0.40215928006835977 19:-0.4475167570603066 20:-0.6709755418164527 21:-0.5364089654837882 22:-0.5332058209242887 23:-0.6584134022544728 24:-0.8527988327987692 25:-0.9756354280736479 26:-0.9969214976976882 27:-0.3584905660377359 28:0.1464159142744328 29:0.5377200507768285 30:0.5138376800852531 
-0.5959218029109485 1:-0.6633340617715617 2:-0.44082332761578047 3:-0.01253918495297801 4:-0.1333333333333333 5:-0.4195804195804196 6:-0.4184002895403546 7:-0.8627710725149642 8:-0.20240489048198662 9:-0.9198265726043504 10:-0.39818946272785793 11:-0.7808539676350166 12:-0.5716243280278276 13:-0.4964955100161178 14:-0.48483652048243 15:0.019876455015337857 16:-0.5235808497866608 17:-0.56187462247551 18:-0.4590044599236499 19:-0.2502163912210714 20:-0.46786025796387054 21:-0.2585566355539798 22:-0.2765385134537732 23:-0.4207080379335748 24:-0.6546588628207272 25:-0.8418860163481344 26:-0.934256744378329 27:-0.3584905660377359 28:0.11214853923349355 29:0.6542783008543762 30:0.7093883574445865 
4.0 1:-0.8342673874588769 2:-0.5036284470246732 3:-0.3168415792103948 4:-0.39613526570048296 5:-0.5325443786982247 6:-0.5813246471226925 7:-0.8633720930232558 8:-0.01707798687833062 9:-0.9174458215554107 10:-0.7084628263100272 11:-0.7799561998122849 12:-0.5542185933247386 13:-0.6804987666002096 14:-0.725615095666521 15:0.004175946547884113 16:-0.643891791785171 17:-0.44468234607088686 18:-0.4133606689636189 19:-0.484862641653089 20:-0.6625738885960746 21:-0.6657768707046137 22:-0.5977537848109625 23:-0.6479112097011801 24:-0.6502257449330344 25:-0.8581029206972668 26:-0.9425391653397606 27:-0.3584905660377359 28:0.17070650477768967 29:0.6249530213290035 30:0.5752998864982619 
-4.0 1:-0.9093931709316326 2:-0.6981132075471694 3:-0.3569604086845465 4:-0.5684523809523809 5:-0.7307692307692306 6:-0.6090543825129382 7:-0.8645404208194906 8:-0.2966946613624084 9:-0.9175963111706084 10:-0.722496891895799 11:-0.7815093979582102 12:-0.7066745074977949 13:-0.7626914930298998 14:-0.7685305334842281 15:-0.02009143125073265 16:-0.6976603158799836 17:-0.46905576338044574 18:-0.4854846350373325 19:-0.3908939424133241 20:-0.6574643668197145 21:-0.45278995677143774 22:-0.3489110850304785 23:-0.5346716992653364 24:-0.7856481743656005 25:-0.9515391840665691 26:-0.9938916579221386 27:-0.3584905660377359 28:0.1869766967820714 29:0.5564958543210885 30:0.49559136581484364 
4.0 1:-0.8281940672098844 2:-0.5313098167897181 3:-0.30268199233716464 4:-0.43846153846153846 5:-0.5607580824972128 6:-0.5808130571365644 7:-0.8642718715393134 8:-0.1269160284319022 9:-0.913725205962649 10:-0.822341857335128 11:-0.7794959022730787 12:-0.6167946927374299 13:-0.7167747231575949 14:-0.7671387725247686 15:-0.014082576666095581 16:-0.643891791785171 17:-0.46987300939555576 18:-0.4379835354133351 19:-0.5055729805712961 20:-0.7381133968656628 21:-0.7292891295946549 22:-0.5881064072477558 23:-0.6641614983757821 24:-0.5482795257076017 25:-0.7957669100526733 26:-0.9219367527145538 27:-1.0 28:0.2791262046083909 29:0.6491633203399605 30:0.6248806921717802 
1.6217883075187114 1:-0.9253095389459025 2:-0.5471698113207546 3:-0.3739224137931034 4:-0.4609374999999999 5:-0.5769230769230769 6:-0.5670913019640724 7:-0.7558139534883721 8:-0.05186385737439203 9:-0.9160944125483133 10:-0.7704417747396812 11:-0.7779663071142892 12:-0.6543887889404411 13:-0.7620109436001246 14:-0.8124063874603993 15:0.059270385525111546 16:-0.7592433361994839 17:-0.5321282751983176 18:-0.5103191891851202 19:-0.5525044753053904 20:-0.6869094997493999 21:-0.7416861191568308 22:-0.6107735758506676 23:-0.6812597315866858 24:-0.6391038950727206 25:-0.8537523709091905 26:-0.9371469017003407 27:-1.0 28:0.23483107845683082 29:0.6150016979990758 30:0.6176087960438448 
-4.0 1:-0.9894746279361665 2:-0.6851008458035133 3:-0.3139120095124851 4:-0.6120689655172412 5:-0.7175066312997347 6:-0.5981312859989254 7:-0.8636156365294532 8:-0.21931819729512558 9:-0.9165071860107321 10:-0.6308833036904695 11:-0.7680973734785395 12:-0.7088647623063138 13:-0.8979976355844539 14:-0.8785201464932217 15:-0.169559188132958 16:-0.7872775353266601 17:-0.6068586585827965 18:-0.5919732441471571 19:-0.5792043590896933 20:-0.7844584140781115 21:-0.6959871239493302 22:-0.6613155290607908 23:-0.7707444715543066 24:-0.8187632023182195 25:-0.9648141875025655 26:-0.9896722208059378 27:0.6226415094339621 28:0.12277808018170178 29:0.43475260339655364 30:0.3908514493153872 
4.0 1:-0.941526988320749 2:-0.6661828737300435 3:-0.28787878787878807 4:-0.4820512820512818 5:-0.6982248520710059 6:-0.5402512796649603 7:-0.86403237977636 8:-0.24413230085839488 9:-0.9162450597973713 10:-0.7151105415874981 11:-0.7745889387144993 12:-0.5988047291152399 13:-0.7006739329395124 14:-0.7324871612876285 15:-0.11669342725436371 16:-0.6694405176559746 17:-0.4549850237085067 18:-0.40234603707937233 19:-0.6102091643583161 20:-0.6503478244107718 21:-0.7807154664196105 22:-0.675768654708693 23:-0.7603362555660582 24:-0.6657994738148694 25:-0.8910973542019164 26:-0.9527783084949666 27:-0.3584905660377359 28:0.3293761894627949 29:0.5428639139361788 30:0.5771956092811024 
4.0 1:-0.8834416901200733 2:-0.5513626834381551 3:-0.3527851458885942 4:-0.4820512820512818 5:-0.5384615384615383 6:-0.5908749231224801 7:-0.8558139534883721 8:0.17599389836972068 9:-0.9153214482301532 10:-0.8438705627352556 11:-0.7769582163362809 12:-0.6063601203266008 13:-0.7548454336095748 14:-0.8403924444332058 15:0.01099665924276172 16:-0.6666446193531318 17:-0.5298152710026669 18:-0.5028947914997093 19:-0.4420639016857052 20:-0.7296430963648071 21:-0.6607940854870824 22:-0.6026734094399127 23:-0.6282656067537047 24:-0.5827918897600954 25:-0.8443610958561909 26:-0.9408537021343858 27:-0.5471698113207547 28:0.2608953245049359 29:0.6349582059314212 30:0.579432253425757 
2.7270255412904256 1:-0.8524559045731684 2:-0.5094339622641507 3:-0.2625994694960213 4:-0.43846153846153846 5:-0.5384615384615383 6:-0.4970355962786773 7:-0.8588612670408982 8:0.005838589365566138 9:-0.9154168947272395 10:-0.6818719652001433 11:-0.7720787162287366 12:-0.5141097264002292 13:-0.6076274294096076 14:-0.6774808034322028 15:0.16787305122494423 16:-0.643891791785171 17:-0.4756624771048261 18:-0.4046865605388156 19:-0.4598969658281933 20:-0.47040426887931 21:-0.6690496719670223 22:-0.5200701991183527 23:-0.596421712684287 24:-0.5571190165747051 25:-0.8363672308655491 26:-0.93433669091152 27:-0.5471698113207547 28:0.16421204810725332 29:0.6042109334360686 30:0.6073017583597722 
-4.0 1:-0.9225259588895951 2:-0.650943396226415 3:-0.2038177339901477 4:-0.46726190476190455 5:-0.6826923076923077 6:-0.657361294317172 7:-0.8637538172421894 8:-0.20720819712661043 9:-0.9158926121889085 10:-0.6874700412232768 11:-0.7757847533632287 12:-0.6839867503831513 13:-0.7547747097166531 14:-0.8092277775013109 15:-0.019847448607525298 16:-0.7268726923271458 17:-0.47035108340521825 18:-0.47035108340521825 19:-0.42723346562185205 20:-0.5979377523038029 21:-0.5440811037364375 22:-0.5273364518229204 23:-0.5866084779779384 24:-0.6838394428105605 25:-0.8659443852253923 26:-0.9421486874784578 27:-0.5094339622641509 28:-0.07771845847458947 29:0.4983681843736838 30:0.5209318517741133 
2.3241070937474992 1:-0.7730930869617001 2:-0.5669971218420209 3:-0.14260666277030964 4:-0.3926553672316384 5:-0.5971316818774445 6:-0.69907968605037 7:-0.8638592080452545 8:-0.20720819712661043 9:-0.918140589569161 10:-0.7606752805526117 11:-0.7767703148869068 12:-0.5594008009096754 13:-0.7096740924092408 14:-0.756905123601712 15:0.049687604706624366 16:-0.6392606852890371 17:-0.4766812485540797 18:-0.4766812485540797 19:-0.357943607039402 20:-0.5614330301955897 21:-0.5308245647680446 22:-0.5185082415923585 23:-0.5308378568914043 24:-0.6284898874776652 25:-0.8505431051510539 26:-0.9395760681833822 27:-0.5094339622641509 28:-0.058731213395748605 29:0.5782139463333633 30:0.5369493018510636 
-4.0 1:-0.8524559045731684 2:-0.49302707136997515 3:-0.3492063492063493 4:-0.4391534391534393 5:-0.5217391304347825 6:-0.5647173649737178 7:-0.8259337561663143 8:-0.1226611805900627 9:-0.9160944125483133 10:-0.7270328924125843 11:-0.778560751654922 12:-0.5874650837988826 13:-0.6858106291622179 14:-0.759658250691676 15:0.12012806236080165 16:-0.7183205328125684 17:-0.5350565502911373 18:-0.493636372012093 19:-0.5240618697919222 20:-0.6086995821126362 21:-0.6917251884000821 22:-0.5825326015098391 23:-0.6601748272326214 24:-0.6094795405998289 25:-0.8492011519483766 26:-0.9354806837020933 27:-0.8490566037735849 28:0.2560690480364842 29:0.6424861897875374 30:0.6547986866985622 
-4.0 1:-0.906874211602758 2:-0.5608919382504286 3:-0.3623118018455562 4:-0.41666666666666663 5:-0.5909090909090908 6:-0.651673712662 7:-0.8604651162790697 8:-0.047629006117007155 9:-0.9145880574452003 10:-0.8397282528430069 11:-0.7768829504896129 12:-0.6424581005586594 13:-0.7389022560173035 14:-0.811535555821032 15:-0.04224719877073957 16:-0.6818131710651056 17:-0.5131169984157812 18:-0.4368079449792803 19:-0.4942461185176493 20:-0.740142488042087 21:-0.6993929528206737 22:-0.6377543901714098 23:-0.6669938707716536 24:-0.5989070387005158 25:-0.8463834235445902 26:-0.941442807111357 27:-0.5471698113207547 28:0.23470968337167375 29:0.6427823426888937 30:0.6173007082807884 
4.0 1:-0.791307726090335 2:-0.5375950436496761 3:-0.2561576354679803 4:-0.3492063492063491 5:-0.5671641791044777 6:-0.5682558483861415 7:-0.8638565891472868 8:-0.2544570502431117 9:-0.9178935664442911 10:-0.5982741602303835 11:-0.7754398068299413 12:-0.49426639223757707 13:-0.6136906794127688 14:-0.6505986170061884 15:-0.0032430742781229815 16:-0.6618545503914557 17:-0.4855488627849489 18:-0.4855488627849489 19:-0.44856703133043707 20:-0.6101550136707907 21:-0.5324519167925634 22:-0.5094289060077738 23:-0.6112287120897437 24:-0.6304812134291405 25:-0.8551357919297479 26:-0.9453032779167022 27:-0.3584905660377359 28:-0.04110445171591848 29:0.40540358639936236 30:0.41934481340566876 
4.0 1:-0.9268938883649916 2:-0.5608919382504286 3:-0.33228840125391856 4:-0.45959595959595934 5:-0.5909090909090908 6:-0.5368474094336566 7:-0.8638842220060718 8:-0.172466393364477 9:-0.9154299479502732 10:-0.7683555753813365 11:-0.7779722191840752 12:-0.5508030726256983 13:-0.7047096601552048 14:-0.773329193720387 15:-0.05038975501113585 16:-0.7121502744890533 17:-0.4625189101210382 18:-0.4403227421256468 19:-0.5812371428331573 20:-0.6833013554852658 21:-0.7820081185649119 22:-0.661171706467419 23:-0.7206642976499209 24:-0.6106251562234166 25:-0.8671437456830544 26:-0.949554796880524 27:-0.3584905660377359 28:0.3740557607472135 29:0.5624977075759963 30:0.596624726480991 
-0.7356022343861749 1:-0.912576140815986 2:-0.650943396226415 3:-0.2561576354679803 4:-0.41666666666666663 5:-0.6826923076923077 6:-0.3327759532870931 7:-0.8639299976509278 8:-0.3135181166387385 9:-0.9151700325409245 10:-0.6322176021071972 11:-0.7773741272634387 12:-0.8091160653683498 13:-0.6967958788498777 14:-0.6908797861755751 15:0.15958620402556023 16:-0.6523975217171187 17:-0.5533690157532858 18:-0.5533690157532858 19:-0.419604509042233 20:-0.6792125135225484 21:-0.46284899367897814 22:-0.4675871404657146 23:-0.6383259787930997 24:-0.7766242711891704 25:-0.8866161181211321 26:-0.9399017325434698 27:-0.4339622641509434 28:-0.0398847672551218 29:0.44128446713358715 30:0.46683564534576316 
-4.0 1:-0.9738057904997349 2:-0.6409376786735276 3:-0.1894052973513244 4:-0.45959595959595934 5:-0.6724941724941724 6:-0.6980758889664933 7:-0.8638163907789174 8:-0.21189701461145394 9:-0.9162375073486184 10:-0.6843040561553158 11:-0.7747041979577503 12:-0.6987709497206704 13:-0.7450592730938443 14:-0.756923288648121 15:-0.08258351893095772 16:-0.8759107571163505 17:-0.46949831112146034 18:-0.4488658412867259 19:-0.6004664861935065 20:-0.6257060552594338 21:-0.6838137953808948 22:-0.6040551071330629 23:-0.7856460886871657 24:-0.7783283552773133 25:-0.9722866956907019 26:-0.996872563694915 27:0.6226415094339621 28:0.103146371099893 29:0.32396949832462507 30:0.4044182453649736 
4.0 1:-0.7652755279873924 2:-0.34392585236676576 3:-0.13127646702964302 4:-0.1929824561403508 5:-0.369770580296896 6:-0.46289945328531046 7:-0.8639683959451401 8:-0.1987034035656401 9:-0.9199370662200399 10:-0.6463707099980296 11:-0.7805267769702593 12:-0.43580544308338875 13:-0.5586678667866785 14:-0.6178259106967046 15:-0.009215177458572699 16:-0.5610214014688364 17:-0.42187617855729953 18:-0.4236780741019609 19:-0.4339072972301834 20:-0.5232309104120322 21:-0.6013820065458839 22:-0.5391833298249866 23:-0.566194672108647 24:-0.6476187212238435 25:-0.8589043766556471 26:-0.9466115350788534 27:-0.3584905660377359 28:0.14870041887388186 29:0.4902411294474145 30:0.5155006015912202 
0.43200991679831696 1:0.13977066704339425 2:0.2662473794549267 3:0.5114942528735633 4:0.4228395061728394 5:0.25213675213675213 6:0.2395474358369134 7:-0.8636434108527131 8:-0.27240350303628935 9:-0.9166247918575665 10:0.3384956439474167 11:-0.7771955459263364 12:0.2824212182025274 13:0.2222928908422961 14:0.22750901019143188 15:0.43209289251194694 16:0.25694345891525927 17:-0.22041318211326222 18:-0.22076785953882416 19:0.35217545489816215 20:0.3323661683077628 21:0.3307750529046618 22:0.3599316319521142 23:0.26749040703836124 24:0.2722543252927898 25:0.177020863249169 26:0.10296188886736157 27:-1.0 28:0.3964965983465871 29:0.9317310430648 30:0.8916515690421327 
-4.0 1:-0.9734061165931835 2:-0.7452830188679244 3:-0.3569604086845465 4:-0.5692307692307691 5:-0.7788461538461537 6:-0.7410544094583182 7:-0.8643861546782045 8:-0.2609400324149107 9:-0.9177986117557267 10:-0.7717689424868625 11:-0.7808071748878924 12:-0.7192483494159472 13:-0.8212662949661699 14:-0.8482398801789379 15:-0.09351870599086642 16:-0.7182521691550066 17:-0.4651389463392622 18:-0.4521573655442337 19:-0.4459233507411485 20:-0.7020171744577592 21:-0.5298528143901333 22:-0.41114796040547064 23:-0.5770865535803282 24:-0.781426781306368 25:-0.9544190545209774 26:-0.9931706659420396 27:-0.4716981132075472 28:0.13356487841945652 29:0.5222878848399823 30:0.42674481578299917 
0.22885561468610016 1:-0.846153846153846 2:-0.7068214804063857 3:-0.12732095490716167 4:-0.3948717948717949 5:-0.739644970414201 6:-0.4983310386513984 7:-0.8631262293185237 8:-0.2058346839546189 9:-0.9137762100725064 10:-0.5371517919029887 11:-0.7757847533632287 12:-0.6797020484171322 13:-0.7448984335053224 14:-0.7020060885176802 15:0.25454856947061844 16:-0.7616711344899095 17:-0.48438772739614444 18:-0.4647676161919039 19:-0.4263570481932596 20:-0.7224662911845192 21:-0.5106559766573786 22:-0.4883463576217526 23:-0.6495759374749392 24:-0.8369385015501924 25:-0.9712527100720997 26:-0.9953605273385442 27:-1.0 28:-0.00600208134066349 29:0.5900581941439982 30:0.5635209947221549 
-4.0 1:-0.9780288581941474 2:-0.6631726065688328 3:-0.3569604086845465 4:-0.5740740740740741 5:-0.695156695156695 6:-0.6351482779381568 7:-0.8638430557360011 8:-0.2242873280150426 9:-0.917340521114106 10:-0.7158585412462941 11:-0.7741953794630186 12:-0.6424581005586594 13:-0.8479756886579746 14:-0.8914305827848686 15:-0.18258756833367096 16:-0.8279621668099741 17:-0.5387204357005171 18:-0.5014247417007587 19:-0.6292326136082975 20:-0.6873115151927824 21:-0.842036940869703 22:-0.7984017889283408 23:-0.7847319376201853 24:-0.6365323068403429 25:-0.8373576647689903 26:-0.9115102762341302 27:-0.018867924528301883 28:0.2029684814617787 29:0.3137384844814599 30:0.299581626111022 
-4.0 1:0.49107513491075117 2:0.5597484276729563 3:0.6743295019157087 4:0.632716049382716 5:0.5512820512820513 6:0.5956840390879481 7:-0.8638541544933972 8:-0.2430321226452693 9:-0.9178935664442911 10:0.5525576255548419 11:-0.7775094860296654 12:0.610414251080426 13:0.5101414816092056 14:0.5367534803847711 15:0.684358403289361 16:0.5353915540485732 17:-0.05141393634940172 18:-0.1589138063239165 19:0.6613527123518981 20:0.5699900306528898 21:0.6310955178495987 22:0.6701910626487404 23:0.6070943516245755 24:0.2978343029885957 25:0.1000784060308304 26:-0.036527365392926225 27:-0.3584905660377359 28:0.31545068084797445 29:0.9258101788354556 30:0.8463789868087293 
-4.0 1:-0.9799198622728033 2:-0.6981132075471694 3:-0.33228840125391856 4:-0.5380952380952382 5:-0.7307692307692306 6:-0.5833352315437006 7:-0.8632457027300303 8:-0.29900905101278097 9:-0.9175485008818343 10:-0.6807393914862041 11:-0.7846502757589815 12:-0.7499999999999998 13:-0.7795440094468162 14:-0.7851489761446948 15:0.005127673900657603 16:-0.7608555460017197 17:-0.5068486889415157 18:-0.43343140024190796 19:-0.48744808569264064 20:-0.7231080030983633 21:-0.5284894134342382 22:-0.43681451463523513 23:-0.6154664448960223 24:-0.7748244757582635 25:-0.9433505468057867 26:-0.992735124383841 27:-1.0 28:0.16557288114858681 29:0.46861457088780356 30:0.40957897670185517 
4.0 1:-0.9634945474106313 2:-0.6395575797007156 3:-0.2823275862068966 4:-0.5632183908045976 5:-0.6710875331564987 6:-0.708896894392073 7:-0.8639193477125758 8:-0.23738960738266135 9:-0.9196911196911197 10:-0.6464600972797695 11:-0.7831706673700871 12:-0.7100653347220907 13:-0.8009817788501539 14:-0.7989027784266484 15:-0.1031577493482504 16:-0.783091873651422 17:-0.5317646756978653 18:-0.48808012352812513 19:-0.5465114609474013 20:-0.48863913572320605 21:-0.6022925994941046 22:-0.5556035247180373 23:-0.651032711058406 24:-0.7712225253618521 25:-0.9562937077287437 26:-0.9918603588277932 27:0.6226415094339621 28:0.1318803281154064 29:0.5318657363159882 30:0.5224372495426897 
-1.794219960288816 1:-0.9285540167893107 2:-0.5932914046121592 3:-0.33228840125391856 4:-0.4391534391534393 5:-0.6239316239316239 6:-0.4880770020835167 7:-0.8634354850394842 8:-0.19061699679562505 9:-0.9167548500881835 10:-0.6994173032832196 11:-0.7796011830932164 12:-0.6277932960893855 13:-0.7380768585333108 14:-0.7619902539112591 15:0.2087973273942092 16:-0.7121502744890533 17:-0.5652241685496605 18:-0.5099357771152486 19:-0.4677311225652171 20:-0.6521569667268612 21:-0.6426912817379208 22:-0.5408020475630315 23:-0.6663533333597023 24:-0.5678135797069768 25:-0.8381252193063908 26:-0.9365882074932326 27:-0.4716981132075472 28:0.15971825335346357 29:0.6166116993994446 30:0.6403622037404222 
-1.8592181841839854 1:0.16507152977741235 2:0.21733053808525526 3:0.5114942528735633 4:0.37037037037037046 5:0.25213675213675213 6:0.3030446487242717 7:-0.8642789039505866 8:-0.2423366922697484 9:-0.9178326474622771 10:0.35058902145913495 11:-0.7770659833440102 12:0.2828080531253294 13:0.23353822371084676 14:0.26927026767441675 15:0.5222927259738626 16:0.1670533266276224 17:-0.08634648532057354 18:-0.21089772886256586 19:0.44455451873064433 20:0.341228439644343 21:0.3846337340023902 22:0.42488759729716663 23:0.3120855924764694 24:-0.01684976520874948 25:-0.1687271066913919 26:-0.277055456415642 27:-1.0 28:0.40284760134816033 29:0.798419092957156 30:0.7516970573412958 
1.6789660557773358 1:0.40318851162224667 2:0.36408106219427006 3:0.6447230929989551 4:0.5707070707070707 5:0.4289044289044288 6:0.42629172518901504 7:-0.8641498939757362 8:-0.30483685145769457 9:-0.9185710533228264 10:0.44905689231886803 11:-0.7749306000427076 12:0.4314568113450792 13:0.3940146135254432 14:0.4261489470442543 15:0.660109828456791 16:0.4411336728619617 17:-0.06816829680397896 18:-0.16856330870709224 19:0.649397436547908 20:0.4870056639427196 21:0.6078637516425018 22:0.5799159574377792 23:0.5423477464934388 24:0.07238845830444518 25:-0.12738473635136272 26:-0.2532496485024438 27:-1.0 28:0.3611146513011123 29:0.9195960543653401 30:0.852456879197683 
-4.0 1:-0.8272053150101931 2:-0.48084619782732974 3:-0.3739224137931034 4:-0.37239583333333326 5:-0.5093240093240092 6:-0.662187839305103 7:-0.8643410852713178 8:-0.2338075514736777 9:-0.9149714636257079 10:-0.8055068755838517 11:-0.7770279270079474 12:-0.49806617963042543 13:-0.7021487076734766 14:-0.7971476408528836 15:-0.145879732739421 16:-0.6249311021452035 17:-0.43067098091157263 18:-0.41570514933737723 19:-0.4629633223290853 20:-0.6715191701633547 21:-0.6855373431585905 22:-0.599378678459701 23:-0.626680395114929 24:-0.4978118531049204 25:-0.7921557766872896 26:-0.9268413560949896 27:-0.4339622641509434 28:0.14407868322322215 29:0.6470532743174147 30:0.6119302574312424 
-4.0 1:-0.8867576085885945 2:-0.44082332761578047 3:-0.3124034997426658 4:-0.3955223880597014 5:-0.46853146853146865 6:-0.6815587365149568 7:-0.8623635500711913 8:-0.060736752465455957 9:-0.9155569759596606 10:-0.8497267759562842 11:-0.7754463152550978 12:-0.5471368715083799 13:-0.6920959892599428 14:-0.7706780466921723 15:-0.08449331848552344 16:-0.6287232400731969 17:-0.53082196315307 18:-0.5385588802457217 19:-0.5444007331008791 20:-0.611764359095369 21:-0.7080224179739679 22:-0.6041873589898765 23:-0.6537464485821012 24:-0.4757273151271658 25:-0.7760617339018515 26:-0.9256196528268672 27:-0.4339622641509434 28:0.22771450295290419 29:0.581472562977094 30:0.5810295012528486 
-1.2695196385170775 1:-0.8900852234185568 2:-0.7209834190966264 3:-0.061969015492253976 4:-0.3308080808080808 5:-0.7132867132867133 6:-0.5055256144506958 7:-0.8638969638242894 8:-0.2544570502431117 9:-0.9180482069370959 10:-0.4205901639344263 11:-0.7764659136061759 12:-0.6822270618312658 13:-0.8177293215702892 14:-0.7824156332949133 15:0.16132087052592792 16:-0.8048005596280803 17:-0.558295140776939 18:-0.5236723743391462 19:-0.36196583634120993 20:-0.6733381962245224 21:-0.45956468538508055 22:-0.4793444111004068 23:-0.6115247389998908 24:-0.8601512308999142 25:-0.9748978752142303 26:-0.9971594661997772 27:-0.5471698113207547 28:0.3152202100093606 29:0.593952361960741 30:0.549929511184245 
3.649926340105733 1:-0.9603566024618657 2:-0.5926748057713652 3:-0.293103448275862 4:-0.45833333333333326 5:-0.6233031674208147 6:-0.5009503089267924 7:-0.8637873754152824 8:0.05621839058014899 9:-0.9160290814967074 10:-0.7146673605689999 11:-0.7726193616460038 12:-0.4096687634716053 13:-0.7458151984864296 14:-0.7861283250241031 15:0.05979098852150089 16:-0.7020166622108861 17:-0.5376265801839962 18:-0.44740939536516455 19:-0.5071896994630232 20:-0.5095221829401577 21:-0.71969051789601 22:-0.5956230087231005 23:-0.6527195388061977 24:-0.5597104272650631 25:-0.8357415808465873 26:-0.934349075127417 27:-1.0 28:0.19411810186752176 29:0.6240514698532216 30:0.6640185016988844 
0.17550857794549762 1:0.2855477855477857 2:0.31516422082459816 3:0.565772669220945 4:0.47530864197530853 5:0.3019943019943019 6:0.43102912817697914 7:-0.8638759689922481 8:-0.26070745906345616 9:-0.9191425858092525 10:0.4263563381231872 11:-0.7794586417418553 12:0.3497206703910616 13:0.33256768146412385 14:0.3670712346246865 15:0.5842613214550851 16:0.33447979363714553 17:0.04839974623726828 18:-0.08067554856011605 19:0.5107756755401929 20:0.40071855183894134 21:0.49297577002448834 22:0.528046601774385 23:0.4256520242249835 24:0.1606848168944004 25:0.0049906023308492475 26:-0.08040302287238599 27:-0.3584905660377359 28:0.36642283169986056 29:0.9184310648833209 30:0.8652865703206796 
-4.0 1:-0.7393127518800771 2:-0.4629898403483307 3:-0.30268199233716464 4:-0.43846153846153846 5:-0.49112426035502954 6:-0.5300584403142361 7:-0.8641349167079004 8:0.07382214351420191 9:-0.9152625152625152 10:-0.6842289578827923 11:-0.7796446614065959 12:-0.5060879530153275 13:-0.5528530706562989 14:-0.6255371876780997 15:0.18151447661469922 16:-0.6325153780011905 17:-0.48209735194302616 18:-0.4463332854281037 19:-0.33990978142115813 20:-0.46701638323878814 21:-0.5575896930800865 22:-0.43490505471901675 23:-0.4818083071811293 24:-0.5786113992303981 25:-0.8388399888341931 26:-0.9337902212663403 27:-0.3584905660377359 28:0.1621123655937049 29:0.6712424867479225 30:0.6687260966733553 
-4.0 1:-0.9664844577125278 2:-0.6395575797007156 3:-0.33228840125391856 4:-0.5632183908045976 5:-0.6710875331564987 6:-0.6638977491743967 7:-0.8638242894056848 8:-0.23738960738266135 9:-0.9199882422104644 10:-0.6598819751542313 11:-0.7785280928514904 12:-0.7266867211001289 13:-0.7845122915333359 14:-0.7974042552547874 15:-0.014082576666095581 16:-0.783091873651422 17:-0.4804899340611024 18:-0.4307881206493862 19:-0.5465114609474013 20:-0.48863913572320605 21:-0.6022925994941046 22:-0.5556035247180373 23:-0.651032711058406 24:-0.7881158340679266 25:-0.9599884161589748 26:-0.9918603588277932 27:0.6226415094339621 28:0.100210386639483 29:0.49457705429425136 30:0.48963336318493655 
-3.1534153137049206 1:-0.8708960530994428 2:-0.6981132075471694 3:-0.36083743842364535 4:-0.5178571428571428 5:-0.7307692307692306 6:-0.657898613589118 7:-0.8646519918749741 8:-0.22934279498298937 9:-0.9177895355673134 10:-0.7459854858761963 11:-0.7813038978958262 12:-0.6471982393770102 13:-0.73277207960317 14:-0.7474566128067024 15:-0.03178781129783359 16:-0.7500716537689882 17:-0.5486666005021155 18:-0.5325820214007684 19:-0.3251595188838733 20:-0.6491489341856598 21:-0.410737185419748 22:-0.30588773814628 23:-0.4818611627891153 24:-0.7805015862143059 25:-0.9551489348996967 26:-0.99435453185116 27:-0.5849056603773586 28:0.0616101760845873 29:0.5262150032848623 30:0.4764919550269282 
4.0 1:-0.954372509211219 2:-0.6981132075471694 3:-0.36083743842364535 4:-0.5684523809523809 5:-0.7307692307692306 6:-0.7075679161361794 7:-0.8642960158644313 8:-0.24820664142276738 9:-0.917243250576584 10:-0.6883143039080666 11:-0.7792897273336425 12:-0.724701952427576 13:-0.7819570789566265 14:-0.8032396667540797 15:-0.12769116555308102 16:-0.7404153850245099 17:-0.6050346078181441 18:-0.5529837590095072 19:-0.4387805527155202 20:-0.6588479577358424 21:-0.45654080502052574 22:-0.3924181968897952 23:-0.5850795060018534 24:-0.8036704997817952 25:-0.955417960063549 26:-0.993648848332555 27:-0.3584905660377359 28:0.07569353462980599 29:0.48893289443943844 30:0.45402138714867135 
-4.0 1:-0.8414333226048709 2:-0.650943396226415 3:-0.2789968652037619 4:-0.5684523809523809 5:-0.6826923076923077 6:-0.6146595540449102 7:-0.8645664323057509 8:-0.2966946613624084 9:-0.9185413573902783 10:-0.5643859680148078 11:-0.7770077456176111 12:-0.7514812933807347 13:-0.6834813916174226 14:-0.6725892440264669 15:-0.07523150861563732 16:-0.6738841553974829 17:-0.5328761817477592 18:-0.5078828644529183 19:-0.28969837936621157 20:-0.5372303551695381 21:-0.3839555894295763 22:-0.24422659535029223 23:-0.4645222028989542 24:-0.7397651891175165 25:-0.9459225048061202 26:-0.9932129532468206 27:-0.3584905660377359 28:0.0429640530925226 29:0.5376845262713181 30:0.49302135811807735 
-4.0 1:-0.9819381666140018 2:-0.6851008458035133 3:-0.2823275862068966 4:-0.5632183908045976 5:-0.7175066312997347 6:-0.719947262292539 7:-0.8637525873615001 8:-0.2651789053733947 9:-0.9198180636777128 10:-0.7287798491333539 11:-0.7854432562952742 12:-0.7339267114856546 13:-0.8177151048438175 14:-0.8224459979472363 15:-0.0760863935360232 16:-0.8207628287285647 17:-0.44950341287672246 18:-0.47436982755002965 19:-0.5836337621235398 20:-0.5608928158148407 21:-0.644715071455869 22:-0.5877741314250164 23:-0.6838794775774177 24:-0.7682778841625375 25:-0.9560714786648142 26:-0.9924936865254717 27:0.5849056603773584 28:-0.00774143754910106 29:0.5250903624503089 30:0.503942458521764 
-0.5066815107781981 1:-0.5237694532300343 2:-0.3696715583508038 3:-0.028433151845129956 4:-0.14327485380116967 5:-0.39601139601139623 6:-0.2716946462874802 7:-0.8638133711831714 8:-0.21020812430861024 9:-0.9173448023350558 10:-0.37275320479774543 11:-0.7831706673700871 12:-0.2605980939861978 13:-0.3709077988303192 14:-0.4115847815288093 15:0.33237259268963726 16:-0.422386323402964 17:-0.47278143202002076 18:-0.47278143202002076 19:-0.08650127322541745 20:-0.3217182153132059 21:-0.22257381406374643 22:-0.3023350188917502 23:-0.2837155082193058 24:-0.406066643024092 25:-0.6846061762057413 26:-0.8210917382682186 27:-0.3584905660377359 28:-0.04032272810234683 29:0.6146611811465128 30:0.6117809311189684 
4.0 1:-0.6923683691579571 2:-0.625544267053701 3:-0.12732095490716167 4:-0.3076923076923077 5:-0.6568047337278107 6:-0.4811305234758001 7:-0.8647820637794179 8:-0.28947818509076984 9:-0.9172817732488514 10:-0.5963122122600082 11:-0.7802690582959642 12:-0.6182687323619189 13:-0.5612851081026471 14:-0.5521645970196274 15:0.23495511216219334 16:-0.5986207018819085 17:-0.5798868483651767 18:-0.5437689193583748 19:-0.21858379040511444 20:-0.5371338621819133 21:-0.2883791595818813 22:-0.224483716514997 23:-0.3926292857088206 24:-0.7437465198230759 25:-0.9348975020746713 26:-0.9909103987592358 27:-0.3207547169811321 28:0.12119251572433387 29:0.5661676689932973 30:0.4929139948768737 
-4.0 1:-0.8779886779886779 2:-0.625544267053701 3:-0.2625994694960213 4:-0.3076923076923077 5:-0.57396449704142 6:-0.44906840390879466 7:-0.8637381567614126 8:-0.2682574578365453 9:-0.9172113289760349 10:-0.5909387105877522 11:-0.7791356625437342 12:-0.6829127335773455 13:-0.7780305057532778 14:-0.7937122879010812 15:-0.01047595479666763 16:-0.7020488036291399 17:-0.5562952114676252 18:-0.49336403785587646 19:-0.40584153239023035 20:-0.7441819903869865 21:-0.537035743184112 22:-0.5244279361190407 23:-0.5962725539775993 24:-0.7419755554540293 25:-0.8886690196369705 26:-0.9468950304145562 27:-0.3584905660377359 28:0.06243135852299986 29:0.49404871390384164 30:0.5077209289851314 
-2.6507193172681998 1:-0.8801374064531957 2:-0.49685534591194935 3:-0.4166666666666665 4:-0.41666666666666663 5:-0.5256410256410254 6:-0.47406860749185653 7:-0.8641037810473027 8:-0.2667919278266232 9:-0.9162375073486184 10:-0.5844959347111559 11:-0.7761833582461385 12:-0.6253936008125953 13:-0.7215368595683098 14:-0.7494317729568147 15:-0.08734561652156314 16:-0.5528804815133277 17:-0.5893867582337864 18:-0.5930461165356408 19:-0.518009003881729 20:-0.7511483852161291 21:-0.6307609711197297 22:-0.6110770334382952 23:-0.6762970287880885 24:-0.7092912185643713 25:-0.8623833127947718 26:-0.9277055272150669 27:-0.3584905660377359 28:0.003182168152055409 29:0.4619736750215264 30:0.46451639015477597 
-4.0 1:-0.8969938107869144 2:-0.6981132075471694 3:-0.3272608978529603 4:-0.44339622641509413 5:-0.7307692307692306 6:-0.6335998420688974 7:-0.8633982820029331 8:-0.32511259326755737 9:-0.915451620286226 10:-0.76387447833806 11:-0.7861428661656035 12:-0.7659511908262275 13:-0.788028802880288 14:-0.7860028572176982 15:-0.1058648849294731 16:-0.6897605239567517 17:-0.5453948592841614 18:-0.5095336288928469 19:-0.420202174107718 20:-0.6828776400754617 21:-0.534656771249177 22:-0.5348514617356208 23:-0.6754003248422754 24:-0.788087337485516 25:-0.94210675307052 26:-0.992894838200956 27:-0.6226415094339623 28:0.3012370745743578 29:0.37302532128294397 30:0.29357342640180084 
-4.0 1:-0.8465841850457233 2:-0.6729559748427674 3:-0.18368700265251992 4:-0.362179487179487 5:-0.6568047337278107 6:-0.6097913374399326 7:-0.8631121194932879 8:-0.27337797106125816 9:-0.9168136390358612 10:-0.5958427086681666 11:-0.7842551071250623 12:-0.6509903504316912 13:-0.7591084669005015 14:-0.7102291853680429 15:0.07139096983194992 16:-0.7437106482123539 17:-0.5004907450181761 18:-0.4630084536663416 19:-0.4026276367351851 20:-0.6669100506999783 21:-0.5461427655885118 22:-0.5080473850520639 23:-0.646792435374963 24:-0.7832545650490672 25:-0.9525254715008623 26:-0.9880008333677246 27:-0.3584905660377359 28:0.2736615170117278 29:0.46826665046925586 30:0.41653782295364294 
2.635171148916957 1:-0.7447130164521468 2:-0.5683962264150941 3:-0.18186874304783085 4:-0.4623655913978494 5:-0.5985576923076923 6:-0.4921954397394136 7:-0.8643030855753154 8:-0.3344315434280095 9:-0.9181128747795415 10:-0.5676496832665945 11:-0.775418687654434 12:-0.4361394721633598 13:-0.6780647136878637 14:-0.6860171116533684 15:-0.008524690883956798 16:-0.595319451194437 17:-0.5256085192697768 18:-0.47761597414501844 19:-0.26237400490466456 20:-0.47036209372614557 21:-0.4603651456590474 22:-0.45898264384549825 23:-0.4530419237644062 24:-0.5999069106787955 25:-0.749108305924261 26:-0.811382772092074 27:0.6226415094339621 28:-0.1210405253546597 29:0.48484188782075877 30:0.432633750525542 
4.0 1:-0.8690580253080255 2:-0.605623381428043 3:-0.26436781609195403 4:-0.33333333333333326 5:-0.6365007541478132 6:-0.652678380370432 7:-0.8640756079430817 8:-0.24118237246276142 9:-0.9168800136542072 10:-0.7865148245090385 11:-0.7792982293930008 12:-0.6373572990041291 13:-0.7143037708026121 14:-0.7552694369492432 15:-0.23365933959523577 16:-0.5528804815133277 17:-0.514183571881101 18:-0.5237705256751731 19:-0.3484968150182677 20:-0.7320243061123585 21:-0.5398827437682252 22:-0.5194940248881741 23:-0.5745309193009189 24:-0.6810030312395228 25:-0.8525935704143845 26:-0.935572337824768 27:-0.3584905660377359 28:-0.03491958850816268 29:0.5237109032468836 30:0.5102924735108756 
-2.800655476456179 1:-0.6710465202085315 2:-0.4528301886792452 3:-0.025862068965517127 4:-0.36944444444444424 5:-0.4358974358974359 6:-0.3896489323199418 7:-0.8642351844791799 8:-0.26668372714606603 9:-0.9162311595849428 10:-0.3831989504120654 11:-0.7745889387144993 12:-0.39163937584280484 13:-0.5609295095432827 14:-0.5767508875750026 15:-0.06792873051224946 16:-0.5888545467221304 17:-0.47089014631130655 18:-0.36903181103229 19:-0.32639801891027775 20:-0.5005299784125163 21:-0.47698084601509094 22:-0.44058853855150704 23:-0.5066832240923882 24:-0.6529495749744383 25:-0.7613108564905483 26:-0.8051484515903928 27:0.6603773584905659 28:-0.01541854349065852 29:0.5171515734059331 30:0.46125268239288775 
