svm_type epsilon_svr
kernel_type rbf
gamma 0.25
nr_class 2
total_sv 104
rho -0.6278958248500198
SV
1.0 1:-0.8911678011510775 2:-0.8601626016260161 3:-0.4263414634146343 4:-0.5537488708220417 5:-0.8082422203532379 6:-0.3285150406430799 7:-0.8525073746312685 8:-0.7612732095490716 9:-0.7087912087912088 10:-0.5775217679403866 11:-0.2323170731707317 12:-0.6826038613160821 13:-0.6618140229127494 14:-0.6974951021550518 15:-0.46153846153846134 16:-0.7585513078470826 17:-0.49931353456669925 18:-0.7283671210289355 19:-0.37725727214759786 20:-0.45193514012065483 21:-0.41217172842858274 22:-0.3861210013850169 23:-0.47811854890557093 24:-0.9041197793871096 25:-0.9425003795813444 26:-0.9836148715891886 27:-0.4716981132075472 28:0.07697395415212904 29:-0.9964372446335723 30:-0.9053199050708637 
1.0 1:-0.07456465103523935 2:-0.3333333333333335 3:0.2963636363636364 4:-0.01346801346801385 5:-0.21316614420062685 6:0.394393217402067 7:-0.5339233038348083 8:-0.7386282682834409 9:-0.7597402597402597 10:0.12693982360165235 11:-0.23351063829787222 12:-0.18480468283359208 13:-0.05942180969587996 14:0.024565715826118106 15:0.15795454545454568 16:-0.21986464239985382 17:-0.08903508771929847 18:-0.03748330740238848 19:0.1284760645064702 20:0.06483314673841578 21:0.22900052320943454 22:0.23400197428010494 23:0.04759503082488892 24:-0.2191992074950304 25:-0.26604112903356203 26:-0.33564826522277724 27:-1.0 28:0.27863949693150003 29:0.12739252074421303 30:0.09292269351304983 
-1.0 1:-0.04576979254976876 2:-0.11746031746031749 3:0.18095238095238098 4:0.014109347442680553 5:-0.12972085385878485 6:0.3088568712060267 7:-0.6814159292035398 8:-0.7852905714974681 9:-0.7674603174603175 10:-0.05625717566016064 11:-0.22499999999999998 12:0.029646485689561075 13:-0.019076157380139014 14:-0.10450456344662895 15:0.20060975609756104 16:-0.191637630662021 17:-0.3225950846781094 18:-0.467786699306436 19:0.1603967769140835 20:0.14364479171751365 21:0.14250101375746005 22:0.06604512565452847 23:0.1328812891648825 24:-0.538570223034204 25:-0.70102090747976 26:-0.7953152250103364 27:-1.0 28:0.20747680147756586 29:0.09004031031620796 30:-0.032492241250978715 
0.3526650415352186 1:-0.3471448337758499 2:-0.5689922480620158 3:-0.6000000000000002 4:-0.6296296296296299 5:-0.5862068965517242 6:0.08310379183027594 7:-0.5221238938053098 8:-0.6455041277978125 9:-0.724025974025974 10:-0.36094674556213 11:-0.1499999999999999 12:-0.26794887110261634 13:-0.34103975004735687 14:-0.3765702835161475 15:-0.652173913043478 16:-0.28589720139015906 17:-0.6321534567039105 18:-0.45813295166452395 19:0.1698154937624763 20:0.18912524981364598 21:0.17869975041030295 22:0.1457912392258518 23:0.16363411189287458 24:0.11579218061402674 25:0.0633352683410402 26:0.02087647784096669 27:-1.0 28:0.40689897440703326 29:0.04575045906261632 30:-0.09265459186768765 
0.12129668607626119 1:1.0 2:1.0 3:1.0 4:1.0 5:1.0 6:1.0 7:1.0 8:-0.7612732095490716 9:-0.7633928571428572 10:1.0 11:-0.2295454545454545 12:1.0 13:1.0 14:1.0 15:1.0 16:0.9999999999999998 17:0.6183132530120479 18:0.3384753667511473 19:1.0 20:1.0 21:1.0 22:1.0 23:0.9999999999999998 24:1.0 25:1.0 26:1.0 27:-1.0 28:0.518998876299744 29:0.5864598749692382 30:0.4739154976299713 
0.15177208785342428 1:-0.9520628973085439 2:-1.0 3:-0.72 4:-0.7310789049919486 5:-0.9985007496251874 6:-0.046507249105629755 7:-0.8569563325112433 8:-0.7677168920230317 9:-0.7665505226480837 10:-0.8329391627633044 11:-0.22624999999999995 12:-0.9579500657030223 13:-1.0 14:-0.9635338432740969 15:-0.6379310344827585 16:-0.9641989870256018 17:-0.4233727810650888 18:-0.5783702151118846 19:-0.8737490672350516 20:-0.8914781701227423 21:-0.7476239909737484 22:-0.77836697113701 23:-0.8914863161316521 24:-0.8903316215839454 25:-0.9761702571205615 26:-0.9967916947545102 27:0.6603773584905659 28:-0.19220684687868883 29:-0.5702997508675791 30:-0.6102645807569914 
-0.5517159019949672 1:0.1711848796700437 2:-0.11746031746031749 3:0.5085714285714285 4:0.08994708994708978 5:-0.059113300492610654 6:0.49260596180717275 7:-0.7742283617526441 8:-0.7492645285748735 9:-0.7705357142857143 10:0.20791459252997724 11:-0.23409090909090902 12:0.09630185845691752 13:0.08618768574163838 14:0.12457664694949955 15:0.4910714285714284 16:-0.03219315895372232 17:2.2556390977435115E-4 18:-0.15130180934803694 19:0.3211787111224933 20:0.27164466866909986 21:0.3079115454607171 22:0.2894122487667765 23:0.25507958324565605 24:-0.22807667561688305 25:-0.3654752901929538 26:-0.47043283885389164 27:-0.4716981132075472 28:0.14218749411446896 29:0.21669007472682544 30:0.1231422968585596 
-0.675762002758563 1:-0.4930793045963324 2:-0.43407407407407417 3:-0.29955555555555546 4:-0.48641975308641994 5:-0.38390804597701145 6:0.07348980377068126 7:-0.2711182622687047 8:-0.7684135063445409 9:-0.7595238095238095 10:-0.2637362637362637 11:-0.1875 12:-0.38501971090670195 13:-0.4541655983868397 14:-0.4350089788244368 15:-0.33218390804597675 16:-0.3894400888087145 17:-0.4735265899122808 18:-0.31358481170360675 19:-0.42803215778412906 20:-0.40037500074550947 21:-0.2796405587885269 22:-0.2747112816050158 23:-0.43613782182229943 24:-0.5562235423076405 25:-0.7223827267279992 26:-0.8019557616035125 27:-1.0 28:0.2747505657173146 29:-0.17443768570727403 30:-0.23413888325721 
-0.3866348434024451 1:0.0794024669931197 2:0.09743589743589731 3:0.47076923076923083 4:0.2649572649572649 5:0.08753315649867366 6:0.364544675992007 7:0.2920353982300885 8:-0.7957329027793796 9:-0.5 10:0.19759209221192342 11:-0.17499999999999993 12:0.07626806833114319 13:0.05403631590461622 14:0.07687322972083166 15:-0.17799999999999994 16:0.07331991951710237 17:-0.1829571234929015 18:-0.20314690034099026 19:0.3888824805119142 20:0.4715141536096439 21:0.5685881881142447 22:0.3958199198845289 23:0.4012153365772999 24:0.1470143797302319 25:0.0433553961980675 26:-0.10176108921162641 27:-1.0 28:0.2085672536949612 29:-0.09068377911985281 30:-0.1710909728303921 
0.42919106640544025 1:-0.17650745085751685 2:-0.40000000000000013 3:0.061818181818181994 4:-0.08585858585858619 5:-0.28056426332288387 6:0.34942792609323514 7:0.9410029498525074 8:-0.7386282682834409 9:-0.75 10:-0.13556702973655443 11:-0.21578947368421053 12:-0.2783418946362439 13:-0.16692189892802445 14:-0.07202739991144302 15:0.09318181818181803 16:-0.33976586793488195 17:-0.09903508771929836 18:-0.048407260194262225 19:0.07909675420339513 20:0.2039888861605974 21:0.13584837282552553 22:0.10924036296587136 23:0.14519886622620293 24:0.07066855601276001 25:0.012784957614528247 26:-0.07290949123060264 27:-1.0 28:0.24715253975774165 29:0.22776466082292401 30:0.19875272878907535 
-0.6043978229784034 1:-0.9412755557023487 2:-0.8903703703703701 3:-0.6053333333333334 4:-0.6987654320987655 5:-0.9111111111111108 6:0.026548672566371723 7:-0.8619469026548673 8:-0.7612732095490716 9:-0.7678571428571429 10:-0.7257591155603256 11:0.0625 12:-1.0 13:-0.8315742381747165 14:-0.8342931230399968 15:-0.39770114942528734 16:-0.8745576909734265 17:-0.5837209302325582 18:-0.6885548638763613 19:-0.7832407914641426 20:-0.8149450710717694 21:-0.6265501530307149 22:-0.6646529005967977 23:-0.8237960457669129 24:-0.9393587555316025 25:-0.9832426052036279 26:-0.9984375208016056 27:0.6603773584905659 28:-0.13946882055715848 29:-0.674370213315221 30:-0.6838188587409444 
-0.9770323418667899 1:-0.14623064893725313 2:-0.2666666666666666 3:0.061818181818181994 4:-0.08585858585858619 5:-0.14576802507836983 6:0.4187361116525672 7:-0.23893805309734517 8:-0.7945745937632347 9:-0.7636054421768708 10:-0.06317071533378704 11:-0.2268292682926829 12:-0.1588221239995221 13:-0.06919083741620169 14:-0.018034318421021434 15:0.006818181818181834 16:-0.19901225535028355 17:-0.2504881418374396 18:-0.12732325543746847 19:0.04035232393214416 20:-0.0808722506432672 21:0.10717110950952113 22:0.20159355969154413 23:-0.01567161977265108 24:-0.22435379676469647 25:-0.26639026239377106 26:-0.33564826522277724 27:-0.4716981132075472 28:0.15120939246767673 29:-0.04885544734304481 30:-0.07288177080486069 
-0.937817543065304 1:-0.6668131868131868 2:-0.8418604651162789 3:-1.0 4:-1.0 5:-0.8620689655172411 6:-0.0591756424704859 7:-0.017699115044247815 8:-0.7289232934553131 9:-0.7631578947368421 10:-0.7672957738579318 11:-0.1499999999999999 12:-0.5719448094612353 13:-0.6879521773696144 14:-0.7366078925272878 15:-0.85546875 16:-0.6773138832997988 17:-0.8013958125623132 18:-0.6765033094953465 19:-0.10660640012001288 20:-0.13254741550253346 21:-0.13164791430307954 22:-0.09916815115830901 23:-0.12503417590384236 24:-0.42274349500353026 25:-0.5310904159899124 26:-0.6699467882477546 27:-1.0 28:0.21978320408287555 29:-0.2699742133187568 30:-0.4328121151424803 
-1.0 1:-0.04576979254976876 2:-0.11746031746031749 3:0.18095238095238098 4:0.014109347442680553 5:-0.12972085385878485 6:0.3088568712060267 7:-0.5575221238938053 8:-0.7547230199267818 9:-0.7674603174603175 10:-0.05625717566016064 11:-0.17916666666666659 12:0.029646485689561075 13:-0.019076157380139014 14:-0.10450456344662895 15:0.20060975609756104 16:-0.191637630662021 17:-0.33054221002059037 18:-0.46537118162302427 19:0.1603967769140835 20:0.14364479171751365 21:0.14250101375746005 22:0.06604512565452847 23:0.1328812891648825 24:-0.538570223034204 25:-0.6598899607983136 26:-0.729991921951537 27:-1.0 28:0.16178306578994994 29:0.1561218992126241 30:0.02895022378666523 
-0.36215036082826696 1:-0.8225841278676413 2:-0.9100775193798449 3:-0.7600000000000001 4:-0.6296296296296299 5:-0.8620689655172411 6:0.059864653826132486 7:-0.8325958702064897 8:-0.8183384615384616 9:-0.7706349206349207 10:-0.5859507821478434 11:-0.21458333333333324 12:-0.7759985331418269 13:-0.7422014306991965 14:-0.735321226240907 15:-0.23720930232558135 16:-0.7763324130831499 17:-0.6488081149619611 18:-0.7188125292714657 19:-0.5126664438847801 20:-0.5798276715087902 21:-0.4250140983331657 22:-0.437702241134343 23:-0.5887830747768283 24:-0.9438415791379244 25:-0.9831825153586806 26:-0.99835065113652 27:0.6603773584905659 28:0.04520844958019832 29:-0.6556044694704064 30:-0.6833429416872219 
0.13560177367557744 1:-0.34192271616899783 2:-0.39682539682539675 3:-0.0647619047619048 4:-0.2134038800705469 5:-0.34154351395730687 6:0.20911922880213263 7:-0.6125860373647984 8:-0.6666376341106142 9:-0.7667050691244239 10:-0.4238370757637071 11:-0.21602564102564104 12:-0.054004679337200656 13:-0.2911086306136683 14:-0.36263914845210043 15:0.050000000000000044 16:-0.4210138882072926 17:-0.33404255319148957 18:-0.4687658513458929 19:-0.08621784417342171 20:-0.017645013408245314 21:-0.12175343148282292 22:-0.16334888663385938 23:-0.13869036546398894 24:-0.5900155772076501 25:-0.7284163477130954 26:-0.8058619595994985 27:-0.4716981132075472 28:0.24695897354987673 29:-0.10686811364621218 30:-0.19925506154560813 
0.4482387077728529 1:0.06758431879539151 2:-0.08070175438596505 3:0.39649122807017556 4:0.21767381416504206 5:-0.04053236539624916 6:0.26308824745678616 7:-0.7358747447243023 8:-0.5763395225464192 9:-0.7613636363636364 10:0.2530951897706517 11:-0.23706896551724133 12:0.010547370134778467 13:0.1688232135399057 14:0.25167866983597653 15:0.2685840707964604 16:0.01550898310215243 17:-0.7307554397793441 18:-0.7038817949118263 19:0.28219328631362584 20:0.24552994292689156 21:0.49849146039782877 22:0.4245899032634737 23:0.2178370672722778 24:-0.30179386173295164 25:-0.51616577067332 26:-0.6352846574855672 27:-1.0 28:0.2067384579719329 29:-0.4574084909727917 30:-0.36239172239273043 
-0.19920310737959707 1:-0.777134655471124 2:-0.8526315789473685 3:-0.3760000000000001 4:-0.5087719298245617 5:-0.7689050211736239 6:-0.13132226600348806 7:-0.5929203539823009 8:-0.6049152817625725 9:-0.767102615694165 10:-0.6619773502096475 11:1.0 12:-0.6976498087053598 13:-0.7396365527985752 14:-0.7077042033708558 15:-0.1685840707964601 16:-0.7314862627089973 17:-0.7067529411764708 18:-0.8172481987338174 19:-0.43864263412713533 20:-0.668838526395743 21:-0.3314206481149109 22:-0.41715387094221923 23:-0.5488849002646532 24:-0.8362140123886234 25:-0.9503675297015741 26:-0.987447376714639 27:-1.0 28:0.12087253515767382 29:-0.7056171162354077 30:-0.6336117224168785 
1.0 1:-0.9824510385526567 2:-0.9040935672514621 3:-0.6898245614035088 4:-0.7322936972059779 5:-0.7689050211736239 6:-0.3742842269651223 7:-0.6519174041297935 8:-0.6408823825672365 9:-0.7634615384615385 10:-0.7379900391875225 11:-0.2239130434782608 12:-0.8028676752758946 13:-0.8360636527065715 14:-0.8519485476904662 15:-0.46283185840707974 16:-0.914175317391072 17:-0.6427148548662495 18:-0.7820409118004843 19:-0.7257950111851188 20:-0.7759482516653078 21:-0.6071448305516984 22:-0.6262984539678843 23:-0.790449024060287 24:-0.9114631240177626 25:-0.9716517581343836 26:-0.99095043437567 27:-1.0 28:0.05855618647537386 29:-0.7727927265752086 30:-0.7063337947560043 
-0.18906423977410938 1:-0.853835630853415 2:-0.857777777777778 3:-0.72 4:-0.9111111111111112 5:-0.7793103448275861 6:0.044436076068536945 7:-0.8309969457279349 8:-0.6926251592556236 9:-0.759367681498829 10:-0.8623481781376517 11:-0.30499999999999994 12:-0.8010927450031122 13:-0.9857349640227402 14:-0.9975944148588461 15:-0.9666666666666668 16:-1.0 17:-0.8016593337523571 18:-0.8130639919064442 19:-0.7897831693567551 20:-0.7035426455310635 21:-0.6758199153358083 22:-0.7163678135190238 23:-0.7748422061717255 24:-0.9857820728499339 25:-0.9985080812200059 26:-0.9987207511018203 27:-1.0 28:0.20414134462887867 29:-0.5770856139470089 30:-0.7760531270967729 
-1.0 1:-0.29347720153150025 2:-0.6761904761904761 3:-0.10571428571428554 4:-0.023809523809523836 5:-0.5886699507389161 6:0.38808547377509184 7:-0.8028036651264782 8:-0.6947212829287059 9:-0.7395833333333333 10:-0.29151068711508266 11:-0.23906249999999996 12:-0.6250234653651212 13:-0.40897489442665536 14:-0.30452659653281966 15:0.18571428571428594 16:-0.4499856280540385 17:-0.5662780133252574 18:-0.7018250833056566 19:-0.012998210220065642 20:-0.26353228944839335 21:0.09073612269212994 22:-0.01915414841843832 23:-0.17220275257696738 24:-0.7707981727650108 25:-0.9578961775927948 26:-0.9934747020158154 27:-1.0 28:0.3258664506197686 29:-0.15443898873251427 30:-0.2950245809829153 
0.9136998038903001 1:-0.537860042924909 2:-0.7195402298850573 3:-0.30482758620689643 4:-0.6475095785440614 5:-0.7384066587395954 6:0.23598820058997072 7:-0.8117949064378842 8:-0.6560644116335298 9:-0.7628737541528239 10:-0.8442736271636342 11:-0.2437499999999999 12:-0.46413998201812023 13:-0.654547860775528 14:-0.6508294970902457 15:0.13482142857142865 16:-0.8068410462776658 17:-0.7893411764705882 18:-0.8263063547049131 19:-0.32069872600108684 20:-0.47100535643461394 21:-0.34232436294796853 22:-0.36128160091063066 23:-0.42374325577942495 24:-0.8899061834377323 25:-0.985036784214517 26:-0.9986932372251504 27:-1.0 28:0.2227396128367909 29:-0.25933396459157665 30:-0.44790645329084267 
-0.002746642550949123 1:-0.38573264063460166 2:-0.8857142857142856 3:-0.10571428571428554 4:-0.13756613756613756 5:-0.8004926108374385 6:0.44685528036232003 7:-0.8160831088880338 8:-0.7113909962716329 9:-0.7363945578231292 10:-0.30177514792899396 11:-0.241 12:-0.809795318381256 13:-0.5184012469140511 14:-0.34819836388440084 15:0.21964285714285725 16:-0.5319057200344928 17:-0.6508086253369273 18:-0.6977357206567031 19:-0.040965233471613516 20:-0.4331158706951397 21:0.1360857882109927 22:2.7445285315175205E-4 23:-0.2460640974000161 24:-0.8505090896081813 25:-0.9682219502999616 26:-0.9960848212094892 27:-1.0 28:0.3044868255817703 29:-0.1628922573116507 30:-0.28468903722884453 
1.0 1:-0.5746606334841632 2:-0.7809523809523812 3:-0.4742857142857144 4:-0.47883597883597906 5:-0.8004926108374385 6:0.07449846631174406 7:-0.8133244281182167 8:-0.6630203652147226 9:-0.7583333333333333 10:-0.867716142621565 11:-0.23777777777777775 12:-0.8091154298360883 13:-0.712432917129191 14:-0.6937538787281421 15:0.10089285714285734 16:-0.7203219315895373 17:-0.7984313725490196 18:-0.8794161319412588 19:-0.2905889541662878 20:-0.5574272711296197 21:-0.3670517653411157 22:-0.4268392457708501 23:-0.405810476070691 24:-0.9115035669625215 25:-0.9879895091594459 26:-0.997386474450301 27:-1.0 28:0.2704926759424544 29:-0.2504971860803402 30:-0.43671089860497647 
-1.0 1:0.07252048428519009 2:-0.04761904761904756 3:0.14000000000000012 4:0.08994708994708978 5:-0.059113300492610654 6:0.5404666130329845 7:-0.8043594464572074 8:-0.7011469861886035 9:-0.7510504201680672 10:0.22042856322169269 11:-0.07499999999999996 12:0.011920405481509189 13:-0.06014175554621959 14:0.017632241813602123 15:0.21964285714285725 16:-0.05676918654785856 17:-0.5536571428571431 18:-0.741597191610994 19:0.20119048842346365 20:0.06957652813644133 21:0.2018408785409036 22:0.25201004187430986 23:0.15883344664948673 24:-0.3505479217472308 25:-0.4345433409321594 26:-0.5021197638067176 27:-1.0 28:0.33418445371190164 29:-0.13765712896108284 30:-0.29439721459631574 
-0.41708000186473454 1:-0.7060880296174417 2:-0.5438596491228069 3:-0.6294736842105264 4:-0.5087719298245617 5:-0.5607985480943738 6:-0.7165439437951767 7:-0.8353212774143901 8:-0.7684135063445409 9:-0.7474489795918368 10:-0.36094674556213 11:-0.23939393939393927 12:-0.6005256241787124 13:-0.44436223480220916 14:-0.5054734407426769 15:-0.5199999999999999 16:-0.43524001149755664 17:-0.7625723121702748 18:-0.7745055815141921 19:-0.28053838779378637 20:-0.07369243549275017 21:-0.12706229611746012 22:-0.22350656464087626 23:-0.31745036375349567 24:-0.8552548255791168 25:-0.9588210616476317 26:-0.9951581424934486 27:0.47169811320754707 28:0.22645096060192582 29:-0.7782926579547339 30:-0.6691218909653298 
1.0 1:-0.6977062605135163 2:-0.857777777777778 3:-0.4906666666666667 4:-0.6987654320987655 5:-0.87816091954023 6:0.14380530973451333 7:-0.8360908041554445 8:-0.6194443668853833 9:-0.7629513343799058 10:-0.41135218058294987 11:-0.2528846153846154 12:-0.8843626806833116 13:-0.762801890584219 14:-0.685873392772947 15:-0.6379310344827585 16:-0.8824672170956777 17:-0.7862628145386766 18:-0.8066477726459158 19:-0.55391668549195 20:-0.5462954119287724 21:-0.4429377785597899 22:-0.3792414277344899 23:-0.6360206119558655 24:-0.9423239337457854 25:-0.9942631235680529 26:-1.0 27:-1.0 28:0.1120233053232833 29:-0.5442810598371063 30:-0.6718402832026745 
1.0 1:-0.6504718810601164 2:-0.857777777777778 3:-0.4906666666666667 4:-0.48641975308641994 5:-0.87816091954023 6:0.1685201836164878 7:-0.8355374366113155 8:-0.6361301130811112 9:-0.756043956043956 10:-0.48409505896566396 11:-0.2416666666666667 12:-0.9316688567674115 13:-0.8113039157023622 14:-0.7260095880393272 15:-0.47413793103448265 16:-0.7559147991396657 17:-0.6569590431315695 18:-0.7815260738914448 19:-0.491797735508932 20:-0.7429501089499835 21:-0.3980626698393015 22:-0.4370873092899791 23:-0.5717455041914115 24:-1.0 25:-1.0 26:-1.0 27:-1.0 28:0.1438974030786102 29:-0.5287854685190413 30:-0.6811835457057016 
0.8128302676279938 1:-0.7781119941915491 2:-0.703225806451613 3:-0.5535483870967743 4:-0.6439665471923537 5:-0.7219132369299222 6:0.0023288309268747476 7:-0.8315902386698847 8:-0.6426993044967524 9:-0.7607816711590296 10:-0.8058716431497494 11:-0.11999999999999988 12:-0.7930700601701361 13:-0.8093532807162209 14:-0.8170101850837804 15:-1.0 16:-0.8148893360160966 17:-0.7119565217391304 18:-0.8354518874267356 19:-0.6883510550392045 20:-0.6016064811168665 21:-0.5381445229776616 22:-0.5923775114172573 23:-0.6693974927101285 24:-0.9233349185921003 25:-0.9881541576880598 26:-0.9974398299826804 27:-1.0 28:0.16450769291991252 29:-0.5948435532897196 30:-0.7418662021878109 
0.09079179004406132 1:-0.1684912178270812 2:-0.2753623188405798 3:0.25217391304347836 4:-0.10789049919484717 5:-0.28935532233883066 6:0.23137726608815212 7:-0.8141592920353982 8:-0.7404160268044115 9:-0.7525510204081632 10:0.38433361510284625 11:-0.24 12:-0.17305604753470827 13:-0.13235337150437476 14:-0.027340244970324723 15:-0.5695652173913043 16:-0.14688128772635833 17:-0.580914060791603 18:-0.694505275939064 19:0.12752193940675527 20:0.19113684416118626 21:0.2521667529787226 22:0.27485163768919607 23:0.14637498129244908 24:0.04004000089133375 25:-0.056702449531951804 26:-0.17898284215518123 27:-1.0 28:0.06779849021552153 29:-0.8615318988605697 30:-0.9340702186540147 
-0.19597775082778782 1:0.4431551752460312 2:0.31384015594541914 3:0.5775438596491227 4:0.4598223954949099 5:0.42770719903206267 6:0.6526597511184045 7:-0.8645404363445194 8:-0.915921588924112 9:-0.7685025817555938 10:0.5297886578111253 11:-0.2367948717948717 12:0.4304131126126476 13:0.45012559918776507 14:0.49964735516372816 15:0.5784023668639056 16:0.4231662162323049 17:-0.4012458471760798 18:-0.552493745713507 19:0.5222479678422369 20:0.4659710945946349 21:0.6226862901839518 22:0.5976423818646561 23:0.4874877814720773 24:0.11278566203041995 25:-0.08274163418370262 26:-0.21204620462046198 27:0.9245283018867925 28:0.24222557868374062 29:0.07170980193980947 30:0.13633660697223515 
0.16923029273791035 1:-0.3762910646955002 2:-0.5011764705882356 3:-0.15341176470588247 4:-0.31154684095860574 5:-0.43042596348884365 6:0.18336030941920844 7:-0.8549914609532682 8:-0.8493368700265252 9:-0.7575187969924813 10:-0.1899343260290004 11:-0.23641025641025637 12:-0.3369766784973044 13:-0.3188139413254266 14:-0.2856204139743731 15:-0.1453271028037384 16:-0.3326689106602231 17:-0.4378660878276842 18:-0.6651649735122808 19:-0.3320770420572867 20:-0.2841658172918814 21:-0.16796269856942658 22:-0.15514160678726652 23:-0.30841359678876756 24:-0.5753943073815351 25:-0.8274193342854329 26:-0.9256647042308006 27:0.9622641509433962 28:0.3290331612464219 29:0.21971837729543853 30:0.2836263476314944 
-0.42114533879908655 1:-0.3716519314032519 2:-0.498901098901099 3:-0.15296703296703307 4:-0.31154684095860574 5:-0.43042596348884365 6:0.2089579194509663 7:-0.8549914609532682 8:-0.8493368700265252 9:-0.7578125 10:-0.14252319380524492 11:-0.2364973262032085 12:-0.3369766784973044 13:-0.3082798276876655 14:-0.258668673588499 15:-0.13724637681159424 16:-0.31974455428221493 17:-0.7076291417987242 18:-0.8742767377341502 19:-0.31443052387094284 20:-0.2679816009278503 21:-0.14547977295444958 22:-0.13362764144439876 23:-0.2982696209982537 24:-0.5697832522747024 25:-0.8274193342854329 26:-0.9256647042308006 27:1.0 28:0.28055545820054073 29:0.22286439096259203 30:0.2908634470150415 
-0.0532010752595868 1:-0.5525588757970821 2:-0.6183908045977011 3:-0.10571428571428554 4:-0.36507936507936534 5:-0.48275862068965514 6:0.1362333291786113 7:-0.7109144542772862 8:0.8655870445344127 9:-0.7380952380952381 10:-0.42090835117434666 11:-0.2320833333333333 12:-0.5202987758489521 13:-0.5257811032910416 14:-0.5633516433492155 15:-0.20833333333333315 16:-0.4607645875251508 17:-0.9191592139502887 18:-0.8902495404102181 19:-0.3531334860683697 20:-0.5470552820514218 21:-0.3396351006189763 22:-0.3606658278867195 23:-0.4197349307442052 24:-0.8117002981769084 25:-0.9144713406324578 26:-0.975993246994976 27:-1.0 28:0.17241560776268194 29:-0.5115414030079961 30:-0.47540278247129897 
-0.3325874818610691 1:0.4809745414727622 2:0.4617737003058102 3:0.558165137614679 4:0.47400611620795075 5:0.45586839607719076 6:0.6564384715480516 7:-0.8090927514692967 8:0.27056703868675225 9:-0.7642857142857143 10:0.5123517014474026 11:-0.23612804878048776 12:0.4779956859147598 13:0.5224891451220615 14:0.5464250822463004 15:0.5250000000000004 16:0.4806575300861773 17:-0.6116979591836735 18:-0.393940458554622 19:0.5696367490730967 20:0.6212893026031896 21:0.6706460403235963 22:0.6803638758878687 23:0.5795897200861901 24:0.40202538409188593 25:0.28960898479290065 26:0.22595309502881578 27:-1.0 28:0.48806588708453114 29:-0.36724160393208594 30:-0.34196948272835315 
-1.0 1:-0.5924023645702106 2:-0.5909604519774012 3:-0.18620689655172418 4:-0.4278416347381867 5:-0.5581531268264173 6:0.05374685394170653 7:-0.7216411906677394 8:0.533906967716892 9:-0.7357142857142858 10:-0.5281436376853508 11:-0.20714285714285707 12:-0.5806433182882934 13:-0.5153126223079127 14:-0.5275637391134615 15:-0.14 16:-0.48197008135771147 17:-0.8214663532177491 18:-0.7843333617186733 19:-0.527010298513948 20:-0.5054642627571302 21:-0.5332568391399728 22:-0.5181480637512733 23:-0.5127493551057539 24:-0.7303511605048703 25:-0.8128452654643241 26:-0.8941672275133759 27:-1.0 28:0.23470697076162716 29:-0.4941859730105099 30:-0.4239241664065969 
0.785300692824702 1:-0.6439985135637311 2:-0.5412429378531074 3:-0.06758620689655148 4:-0.3180076628352494 5:-0.5078901227352424 6:0.03933358636808548 7:-0.4601769911504425 8:0.4347914154810706 9:-0.7053571428571428 10:-0.4439753268563713 11:-0.22833333333333328 12:-0.5090670170827858 13:-0.480320803271183 14:-0.5171626763166777 15:-0.32999999999999996 16:-0.4700026244423059 17:-0.8572719449225474 18:-0.8816393177517782 19:-0.5519160964441787 20:-0.4642960062757494 21:-0.5435985252474174 22:-0.5064213808925998 23:-0.5435095807399972 24:-0.7132486992492766 25:-0.808228865976292 26:-0.8941672275133759 27:-0.4716981132075472 28:0.13758340749661446 29:-0.4671585943754256 30:-0.40925615760137257 
-0.33261242311297745 1:-0.6913386061559335 2:-0.5714285714285714 3:-0.35142857142857165 4:-0.36507936507936534 5:-0.5886699507389161 6:0.06870836233469224 7:-0.5170670037926676 8:1.0 9:-0.7467532467532467 10:-0.6610529509937791 11:-0.22499999999999998 12:-0.5497152869031976 13:-0.5621925141067562 14:-0.6039872326306294 15:-0.46018518518518514 16:-0.6141292197630225 17:-0.3766946894796046 18:-0.613244295370521 19:-0.6775168449537481 20:-0.5777059361558082 21:-0.5720515543939422 22:-0.523424094544118 23:-0.6495500478308467 24:-0.8608544374682152 25:-0.9574438798804271 26:-0.9828941445416056 27:-0.3584905660377359 28:0.12813823467809393 29:-0.6255397848233799 30:-0.6820621405148833 
1.0 1:-0.45949874569197957 2:-0.5481481481481483 3:0.04444444444444451 4:-0.5041152263374487 5:-0.40038314176245204 6:0.1631274673052816 7:-0.8362831858407079 8:-0.7612732095490716 9:-0.7731829573934837 10:-0.18211409970875425 11:-0.07499999999999996 12:-0.295663600525624 13:-0.4330114823093668 14:-0.4349397278413356 15:-0.04236111111111096 16:-0.48457411133467476 17:-0.1083887043189371 18:-0.2630170744493038 19:-0.23916167471762073 20:-0.31758332451463966 21:-0.20019038156386604 22:-0.23919423456533073 23:-0.2979020900647733 24:-0.9136372450121781 25:-0.9646081403592189 26:-0.9941789958767888 27:-1.0 28:0.15645050502974023 29:-0.9602083605979087 30:-1.0 
-1.0 1:-0.6392213247628311 2:-0.925 3:-0.35142857142857165 4:-0.5925925925925928 5:-0.9461206896551724 6:0.23565515272623494 7:-0.8164881229622729 8:-0.7099555368967425 9:-0.7536630036630036 10:-0.6494267290353996 11:-0.245 12:-0.8373380889806645 13:-0.646819662230658 14:-0.5486109523787754 15:-0.051785714285714324 16:-0.7612819775797641 17:-0.5453071073413279 18:-0.6592239420080064 19:-0.2495442896294212 20:-0.5355728625493558 21:-0.09903668108441965 22:-0.14652050263793104 23:-0.42232496123242935 24:-0.9563828389422103 25:-0.9958187278155112 26:-1.0 27:-1.0 28:0.2952568220270444 29:-0.27091595738241236 30:-0.3561153391360644 
0.1686672112346848 1:0.7423668011903306 2:0.6857142857142855 3:0.7780645161290325 4:0.7945041816009553 5:0.6822660098522166 6:0.8533733863765529 7:-0.8399439740243204 8:-0.7327633914088889 9:-0.7142857142857143 10:0.7370494538600587 11:1.0 12:0.6896940116388213 13:0.7133764372115039 14:0.7449354446705188 15:0.8303571428571428 16:0.7788157516527736 17:0.2937192118226599 18:-0.13835389083605232 19:0.7874678996434041 20:0.7263605436502916 21:0.8219460357799304 22:0.7632500826383746 23:0.7650369489937274 24:0.404713865873056 25:0.28482602375086397 26:0.1636784268363216 27:-1.0 28:0.43551093825037435 29:0.10151387840758685 30:0.019502851491684847 
0.3613512211237298 1:-0.5222554820744867 2:-0.7809523809523812 3:-0.35142857142857165 4:-0.47883597883597906 5:-0.8004926108374385 6:0.1796875 7:-0.8105991252161531 8:-0.6135053724767343 9:-0.7418831168831168 10:-0.5390459493023594 11:-0.25080645161290316 12:-0.7638445654214381 13:-0.4927312727821752 14:-0.4386704632570364 15:-0.03482142857142867 16:-0.5400977292325382 17:-0.6380849181777974 18:-0.6794927270857025 19:-0.2404615666515928 20:-0.4420027647613838 21:-0.09224107339897603 22:-0.1213884419210347 23:-0.35866703626410845 24:-0.8726492850907944 25:-0.9830660636145849 26:-0.9986923831317424 27:-1.0 28:0.27569617126630086 29:-0.23974300512892943 30:-0.3217251305019204 
-1.0 1:-0.5858494446729745 2:-0.7777777777777778 3:-0.5636363636363638 4:-0.4478114478114481 5:-0.7074190177638454 6:0.2642225031605565 7:-0.8053097345132743 8:-0.7062334217506632 9:-0.5357142857142858 10:-0.46671980868872043 11:-0.19999999999999996 12:-0.840798236040892 13:-0.6508094508860206 14:-0.5564143274186716 15:-0.13660714285714282 16:-0.6629778672032194 17:-0.71986536612172 18:-0.8464387258993783 19:-0.30595974886137556 20:-0.34771725269717635 21:-0.11332373669482732 22:-0.18194051289003055 23:-0.3912279618936011 24:-0.8692935588901309 25:-0.9803489242684766 26:-0.9973847662634848 27:-1.0 28:0.2885695128767707 29:-0.2754808906401909 30:-0.376417728630979 
-1.0 1:-0.6354072398190047 2:-0.925 3:-0.29000000000000004 4:-0.4930555555555557 5:-0.9461206896551724 6:0.2779437461247958 7:-0.825937480104412 8:-0.6871476823845963 9:-0.751984126984127 10:-0.7420118343195266 11:-0.24296874999999996 12:-0.7681997371879106 13:-0.639118627828301 14:-0.5416720292706247 15:0.06696428571428603 16:-0.7858580051739006 17:-0.597700451232211 18:-0.701141947567121 19:-0.2679574054382845 20:-0.5552116549880917 21:-0.057184562207505896 22:-0.11359373917599447 23:-0.43479797228812245 24:-0.929298978822794 25:-0.9944050645009519 26:-1.0 27:-1.0 28:0.2954098364376936 29:-0.2749337263644098 30:-0.349888765269319 
1.0 1:0.1842441118459217 2:-0.15238095238095262 3:0.2628571428571429 4:0.2037037037037035 5:-0.059113300492610654 6:0.6914897338137047 7:-0.8278058059713838 8:-0.6633147557595446 9:-0.7580782312925171 10:0.200201912560644 11:-0.2408730158730159 12:-0.0534071710155809 13:0.07560388664486073 14:0.1687657430730478 15:0.6946428571428576 16:0.11526300661109512 17:-0.36699507389162567 18:-0.407999626859336 19:0.4398615311492482 20:-0.010643650070285227 21:0.5312179070284826 22:0.5089154905954936 23:0.3044133605267394 24:-0.6364961566504684 25:-0.8137085951986919 26:-0.8980058842759072 27:-1.0 28:0.4270576797270713 29:-0.13238431900437742 30:-0.2549687133321451 
0.05343161275105733 1:-0.7107304460245638 2:-0.8206896551724139 3:-0.72 4:-0.6475095785440614 5:-0.8406658739595719 6:0.23757658270932613 7:-0.8151883103519243 8:-0.6719692158254567 9:-0.7600446428571429 10:-0.9551629302441871 11:-0.24864864864864866 12:-0.7930700601701361 13:-0.8343258059516836 14:-0.7662082342305973 15:-0.23839285714285707 16:-0.8229376257545272 17:-0.743169416395961 18:-0.7556894790422394 19:-0.4689860241868462 20:-0.6702985490227722 21:-0.3468291675400097 22:-0.38567550536044426 23:-0.5363377349694654 24:-0.9423236646003114 25:-0.9938785468078496 26:-1.0 27:-1.0 28:0.31296636687908475 29:-0.3461456947390702 30:-0.47489317583675106 
1.0 1:-0.5357801240154181 2:-0.7809523809523812 3:-0.35142857142857165 4:-0.47883597883597906 5:-0.8004926108374385 6:0.22534571423379535 7:-0.8220606826801518 8:-0.6214073958495865 9:-0.736842105263158 10:-0.5765422696115765 11:-0.24318181818181817 12:-0.7066829359864841 13:-0.4853010439851758 14:-0.4311434116529711 15:0.10089285714285734 16:-0.581057775222765 17:-0.5931770780158396 18:-0.7021618437780068 19:-0.26400129139774675 20:-0.39981012429315865 21:-0.06702967208323463 22:-0.08794650334434118 23:-0.38633290724365654 24:-0.8702446137736013 25:-0.9830660636145849 26:-0.9986923831317424 27:-1.0 28:0.3232805024240184 29:-0.24798636303623034 30:-0.31199630929367794 
-1.0 1:-0.5385165522837616 2:-0.8857142857142856 3:-0.4742857142857144 4:-0.47883597883597906 5:-0.8004926108374385 6:0.3965172709106479 7:-0.817109144542773 8:-0.7120790267995977 9:-0.75 10:-0.2937831399369861 11:-0.1428571428571428 12:-0.926056259604891 13:-0.555235264090322 14:-0.41329487887782923 15:0.016071428571428736 16:-0.6465938488071286 17:-0.6686565812120664 18:-0.737691964302943 19:-0.25339037573854306 20:-0.3172179631574956 21:-0.002002689636530164 22:-0.03556550301597983 23:-0.38515370469178944 24:-0.8616104321248732 25:-0.9788463829271546 26:-0.9973847662634848 27:-1.0 28:0.3408200656568321 29:-0.2737367424731125 30:-0.3450372422987864 
1.0 1:-0.5768596439294627 2:-0.7195402298850573 3:-0.4742857142857144 4:-0.47883597883597906 5:-0.7384066587395954 6:0.2194690265486725 7:-0.8077154394707449 8:-0.5451169520135039 9:-0.7490601503759399 10:-0.7740341106856945 11:-0.23928571428571432 12:-0.6486617331765683 13:-0.6912970308280888 14:-0.6106235361704009 15:-0.22142857142857142 16:-0.6138258120149467 17:-0.7642857142857145 18:-0.7932283744613267 19:-0.33248950069918426 20:-0.43363763284425805 21:-0.21928537287304806 22:-0.29300368580038083 23:-0.39163887487125737 24:-0.8992962052055742 25:-0.9690544929628292 26:-0.9947695325269696 27:-1.0 28:0.3220675343673052 29:-0.31837321675016483 30:-0.4453445322159104 
1.0 1:-0.8496604648967235 2:-0.6761904761904761 3:-0.5288888888888889 4:-0.5673133450911232 5:-0.6945812807881772 6:-0.11271395677865015 7:-0.6674429436422915 8:-0.9001777461784572 9:-0.775 10:-0.8266637092792797 11:-0.2240384615384614 12:-0.6377039197461618 13:-0.681269379595864 14:-0.6896725440806044 15:-0.37222222222222223 16:-0.6784516623550828 17:-0.8418032114232569 18:-0.8513795252205711 19:-0.5629800572970816 20:-0.5110780005487733 21:-0.47516979434834694 22:-0.5165865187875265 23:-0.5956094557555127 24:-0.8320452141507801 25:-0.9274646322246982 26:-0.9792328157593504 27:0.8867924528301887 28:0.23286202617130458 29:-0.7554513916821719 30:-0.685979225141978 
-1.0 1:0.7103490419170388 2:0.674074074074074 3:0.7269841269841271 4:0.6460905349794237 5:0.6704980842911876 6:0.7985405236437324 7:-1.0 8:-0.828856948985257 9:-0.7678571428571429 10:0.697567389875082 11:-0.2583333333333333 12:0.6957678565610714 13:0.7155169926992284 14:0.7251950055135992 15:0.6702479338842979 16:0.7137535959559005 17:-0.10816970546984583 18:-0.39108211600873266 19:0.8572875961756281 20:0.8529652379999288 21:0.8974029507832924 22:0.9047637937954747 23:0.8558602486731572 24:0.7528625252363621 25:0.6976340751148873 26:0.6503916043303406 27:-1.0 28:0.47983543769620574 29:-0.2794441776875396 30:-0.24036674665418878 
-1.0 1:-0.745797993733837 2:-0.8280193236714974 3:-0.39594202898550734 4:-0.43102522812667754 5:-0.6761619190404795 6:0.05697930716847055 7:-0.8948464341488808 8:-0.8505772032726865 9:-0.7678571428571429 10:-0.7044169379479264 11:-0.22187499999999993 12:-0.517682682968634 13:-0.658087102889692 14:-0.6745071958913993 15:-0.38258928571428585 16:-0.6521739130434782 17:-0.5221090851113172 18:-0.6651576410012868 19:-0.5160758168343433 20:-0.6253604787221991 21:-0.6340172829785988 22:-0.551723531806858 23:-0.5708991186398374 24:-0.7973039692120658 25:-0.8655560282297454 26:-0.9118384195783575 27:-1.0 28:-0.16152818331938446 29:-0.9528541757497194 30:-0.942576598929372 
1.0 1:-0.6311044075749961 2:-0.5794871794871792 3:-0.5876923076923077 4:-0.7150997150997149 5:-0.5968169761273207 6:-0.16868898823100076 7:-0.8532014575741801 8:-0.6178552482000759 9:-0.7360248447204969 10:-0.4681728527882374 11:-0.2397058823529412 12:-0.5653492368341253 13:-0.568642464642825 14:-0.5465582029153075 15:0.2692307692307694 16:-0.44683485528555933 17:-0.5943255362426035 18:-0.673703770539982 19:-0.3995311859494668 20:-0.3499791639165011 21:-0.26104591688490875 22:-0.2640718018140886 23:-0.3648350337941736 24:-0.7921775697716863 25:-0.925007467213121 26:-0.9887218045112782 27:0.5094339622641508 28:0.15787847011526557 29:-0.8799462445795698 30:-0.8375322196477869 
-1.0 1:-0.8885843972836517 2:-0.6133333333333333 3:-0.6626666666666665 4:-0.6987654320987655 5:-0.6310344827586206 6:-0.15808104331625517 7:-0.8126335062557217 8:-0.7751779980455118 9:-0.7628205128205128 10:-0.7685733070348454 11:-0.21999999999999997 12:-0.6482431583157172 13:-0.7468251834360107 14:-0.7723661571003657 15:-0.7182608695652175 16:-0.6814276966144694 17:-0.7540275049115914 18:-0.7348861701026181 19:-0.7732055113231664 20:-0.4993321354362714 21:-0.6853526807163257 22:-0.604995092233332 23:-0.7055230965083006 24:-0.858071531420558 25:-0.9442599840255732 26:-0.9750522570633484 27:0.8867924528301887 28:0.22840530066681075 29:-0.8834155011650996 30:-0.8471665912265334 
-0.6143701772825322 1:0.6425339366515836 2:0.5111111111111111 3:1.0 4:0.7345679012345674 5:0.5057471264367814 6:0.7439949431099873 7:-0.5221238938053098 8:-0.6455041277978125 9:-0.724025974025974 10:0.8398886181691612 11:-0.23249999999999993 12:0.61892247043364 13:0.6408495367147742 14:0.6776362676880057 15:0.7150000000000003 16:0.5985915492957745 17:-0.0916988416988419 18:-0.06069758917759349 19:0.709803796686475 20:0.7464986866336523 21:0.7711436380484633 22:0.6942456324630764 23:0.6868532803500305 24:0.49759706200930554 25:0.46319018404907975 26:0.4246141669964385 27:-1.0 28:0.39101911983882287 29:0.22135684435460012 30:0.09955738809652437 
0.6168342326174235 1:-0.72061659461299 2:-0.9782945736434109 3:-0.8400000000000003 4:-1.0 5:-1.0 6:-0.08896134140661371 7:-0.9710378117457763 8:-0.7478397698152228 9:-0.7566137566137566 10:-0.6763979779771934 11:-0.18999999999999995 12:-0.6282403536017203 13:-0.7375731916043599 14:-0.8109568073233617 15:-0.9287878787878785 16:-0.5917322114505212 17:-0.6216041275797375 18:-0.5111123086797729 19:-0.17710161310493755 20:-0.12353160244233619 21:-0.15133495018607057 22:-0.13281946201638606 23:-0.18215869755250425 24:-0.44424859424158936 25:-0.500634867481454 26:-0.5683961113127913 27:-0.4716981132075472 28:0.14643686934359246 29:-0.20423412390336526 30:-0.34888993501135734 
0.29907009926059014 1:-0.491975412091607 2:-0.493827160493827 3:-0.30592592592592605 4:-0.38614540466392355 5:-0.4553001277139207 6:0.02189101071262245 7:-0.8675169182717335 8:-0.7843578584120935 9:-0.7346938775510203 10:-0.35071406326467036 11:-0.2363805970149253 12:-0.35026575401572946 13:-0.4254300756754339 14:-0.43363498161483593 15:-0.4226368159203978 16:-0.3728340190396109 17:-0.7984061393152303 18:-0.8576246359366109 19:-0.5627830678101337 20:-0.45566538547292657 21:-0.3593894447890339 22:-0.3687681234935499 23:-0.4313173862199311 24:-0.5845274779399622 25:-0.7485807033329749 26:-0.8571263765659998 27:0.6603773584905659 28:0.27106295672003644 29:-0.49741691740812377 30:-0.4453949300758875 
-1.0 1:-0.9285936223581679 2:-0.8595238095238094 3:-0.5664285714285716 4:-0.7347883597883602 5:-0.7475369458128078 6:-0.14546318719869633 7:-0.8417193426042984 8:-1.0 9:-0.7410714285714286 10:-0.6527976277932868 11:-0.23357142857142854 12:-0.7834428383705652 13:-0.7887244058760139 14:-0.7979286204978899 15:-0.7859999999999997 16:-0.793722334004024 17:-0.8927094049488332 18:-0.9535676693447943 19:-0.8794092448187368 20:-0.7632118429645052 21:-0.7114794940385667 22:-0.6589288864081986 23:-0.8452204397710305 24:-0.7513166555613632 25:-0.8917111653380122 26:-0.931259417966972 27:-0.018867924528301883 28:0.21353930846651026 29:-0.7612352243627739 30:-0.6981996923156524 
1.0 1:-0.7057797525445947 2:-0.6839506172839508 3:-0.49703703703703717 4:-0.5925925925925928 5:-0.6749680715197957 6:-0.04892433599379531 7:-0.6994956703777715 8:-0.7217607753759034 9:-0.7671541057367829 10:-0.4263375801837338 11:-0.238 12:-0.5800498166199226 13:-0.6038656536671669 14:-0.6048231868886782 15:-0.5927860696517414 16:-0.5759632421394035 17:-0.8240816326530611 18:-0.8733163291421228 19:-0.6912209945785819 20:-0.5708452596272322 21:-0.5245771111232742 22:-0.5238850687270914 23:-0.6332493414957354 24:-0.6468410290721589 25:-0.7895541153416039 26:-0.8651689315275164 27:0.6226415094339621 28:0.2369848584214609 29:-0.4673766419597273 30:-0.4018317195201141 
1.0 1:-0.701558293220201 2:-0.660377358490566 3:-0.4279245283018869 4:-0.5324947589098534 5:-0.6506180871828234 6:-0.04786410974146782 7:-0.7072271386430679 8:-0.6925530120666659 9:-0.7677095631641087 10:-0.4234130747414304 11:-0.23799342105263155 12:-0.5663992782473966 13:-0.6006595628053584 14:-0.604193614269181 15:-0.5786069651741292 16:-0.5736808913180574 17:-0.8240816326530611 18:-0.8733163291421228 19:-0.6928398770411242 20:-0.5702031618027181 21:-0.5245857435078891 22:-0.522845953493543 23:-0.6340436523695261 24:-0.6293540616039324 25:-0.7876893170107762 26:-0.8651689315275164 27:0.6603773584905659 28:0.24069011751225822 29:-0.4690044977741692 30:-0.40064182844842333 
-1.0 1:-0.766435775914449 2:-0.6761904761904761 3:-0.43333333333333324 4:-0.5395061728395062 5:-0.6945812807881772 6:-0.06924851777213092 7:-0.7904918707552995 8:-0.9839060590707239 9:-0.7875 10:-0.7727899076687275 11:-0.1875 12:-0.5113922359072587 13:-0.6083295599660143 14:-0.59063312320199 15:-0.29618644067796596 16:-0.6172970023531015 17:-0.8774700246086183 18:-0.8589848036941699 19:-0.5315932165458801 20:-0.4820598981081565 21:-0.43685469783117004 22:-0.48671776101486997 23:-0.5622773656705355 24:-0.826819952351042 25:-0.9239653145569868 26:-0.9782753055063994 27:0.8867924528301887 28:0.29505606816967433 29:-0.7305885852850484 30:-0.645436056613458 
0.3215168526311354 1:0.1711848796700437 2:-0.11746031746031749 3:0.5085714285714285 4:0.08994708994708978 5:-0.059113300492610654 6:0.49260596180717275 7:0.1504424778761062 8:-0.7886033110765572 9:-0.7673319327731093 10:0.20791459252997724 11:-0.2109375 12:0.09630185845691752 13:0.08618768574163838 14:0.12457664694949955 15:0.4910714285714284 16:-0.03219315895372232 17:-2.081034651324476E-4 18:-0.15107627749982822 19:0.3211787111224933 20:0.27164466866909986 21:0.3079115454607171 22:0.2603731284673465 23:0.25507958324565605 24:-0.21588099323148047 25:-0.24530544969049706 26:-0.29389376949333135 27:-0.4716981132075472 28:0.1666924269566743 29:0.27769730088397937 30:0.17155605407416608 
0.063420587336775 1:-0.6212634054227386 2:-0.5794871794871792 3:-0.22857142857142843 4:-0.36507936507936534 5:-0.5968169761273207 6:0.059324811537200706 7:-0.6762103071317023 8:-0.32896069447793597 9:-0.7619047619047619 10:-0.761225200139227 11:-0.09999999999999998 12:-0.5806433182882934 13:-0.6740508000211227 14:-0.6692843384205067 15:-0.3217391304347824 16:-0.4660134721371708 17:-0.921020697866105 18:-0.9391697654948373 19:0.016922833842863527 20:-0.4707036875372409 21:-0.055110987858015825 22:-0.16873383710114342 23:-0.17155028521559623 24:-0.22346724510351013 25:-0.5958398315145703 26:-0.8799420349507738 27:0.9622641509433962 28:-0.8509939441821786 29:-0.4126664270180551 30:-0.5752667580129988 
-0.702645456533953 1:-0.6472036199095024 2:-0.5794871794871792 3:0.14000000000000012 4:-0.06172839506172867 5:-0.5968169761273207 6:0.02189101071262245 7:-0.663716814159292 8:-0.315450928381963 9:-0.75 10:-0.40428899860551004 11:0.2250000000000001 12:-0.5607610123978748 13:-0.6548316110517715 14:-0.653502183809766 15:-0.1978260869565216 16:-0.5856880412912255 17:-0.8850739669497615 18:-0.9765874914319262 19:0.0641485336511789 20:-0.41245197342997786 21:0.005064449297401463 22:-0.13001290469750637 23:-0.14881728939227157 24:-0.22346724510351013 25:-0.6004917996616989 26:-0.8845596489911288 27:0.9245283018867925 28:-0.8924355995463565 29:-0.38221815451285046 30:-0.5549567588145932 
-1.0 1:-0.18446420990504997 2:-0.3933333333333333 3:0.05400000000000005 4:-0.19444444444444464 5:-0.18620689655172418 6:0.3396226415094339 7:-0.887905604719764 8:-0.9257694810069566 9:-0.7631578947368421 10:-0.07519636126260787 11:-0.2407407407407407 12:-0.23469119579500675 13:-0.2052846056012667 14:-0.12790372236216052 15:0.29937499999999995 16:-0.18128772635814883 17:-1.0 18:-0.9002288233644026 19:0.028575864459179368 20:-0.12181139809522035 21:0.07544059348908494 22:0.10507290870207231 23:-0.06853790469741228 24:-0.6334313941058405 25:-0.8029990927362529 26:-0.8947368421052632 27:-1.0 28:0.1175970131279096 29:-0.8407804880391705 30:-0.9056901164551066 
0.07492612886538451 1:0.6227592182535862 2:0.5809523809523804 3:0.6723809523809525 4:0.6966490299823629 5:0.5763546798029553 6:0.7895008162213251 7:-0.5339233038348083 8:-0.7612732095490716 9:-1.0 10:0.6195202646815554 11:-0.2380681818181818 12:0.6406983292660033 13:0.6129020796395719 14:0.595739334546814 15:0.7059523809523813 16:0.6504742742167289 17:-0.2097869413658887 18:-0.355155398194698 19:0.7329192682944681 20:0.5503576048725849 21:0.6810803748456526 22:0.6534337203880434 23:0.66721629531809 24:0.11282207799040056 25:-0.11542415621223912 26:-0.35902255639097735 27:0.320754716981132 28:-0.059941379930122385 29:-0.45078611226544096 30:-0.5240902544546397 
-0.7081538567259581 1:-0.8128192012590991 2:-0.7701149425287357 3:-0.6013793103448277 4:-0.7024265644955304 5:-0.7128418549346016 6:-0.09173009383306474 7:-0.8508609453248268 8:-0.9153846153846154 9:-0.8010204081632654 10:-0.5370924197888988 11:-0.23135245901639345 12:-0.6828817158764657 13:-0.6990772445177322 14:-0.7197260083033822 15:-0.7154028436018957 16:-0.6926011042558669 17:-0.595138888888889 18:-0.6737812234825429 19:-0.653343437504013 20:-0.4901503399300612 21:-0.5667226881449122 22:-0.5853683329322226 23:-0.6476441409477944 24:-0.6683017358428301 25:-0.8222762243718986 26:-0.9002569994304898 27:0.35849056603773577 28:0.24350617350415327 29:-0.6046278981708746 30:-0.5418793180190455 
-0.3996441141899282 1:0.13272601429880226 2:0.12274143302180662 3:0.3570093457943926 4:0.22602976808584252 5:0.16854656783757638 6:0.4835849704742121 7:-0.6155149689324044 8:-0.7573300605724692 9:-0.7671614100185529 10:0.38335169104399913 11:-0.23465909090909087 12:0.21915057149232653 13:0.24807794842959408 14:0.27927340428709413 15:0.21132075471698109 16:0.1603963403059867 17:-0.30563829787234054 18:-0.30703128096348564 19:0.17121668764576548 20:0.27875727196362754 21:0.3078849013058613 22:0.31850639061597175 23:0.17360731675910812 24:-0.048490192674614185 25:-0.2372535578377003 26:-0.3562123129606194 27:-0.3584905660377359 28:0.4560212857145298 29:-0.07591609639529362 30:0.003556229689379853 
-0.46975794502160945 1:0.1208608477367572 2:0.12274143302180662 3:0.3570093457943926 4:0.22602976808584252 5:0.1408314534321624 6:0.48294781436128686 7:-0.6353982300884955 8:-0.75932585587758 9:-0.7673745173745175 10:0.3879183834131277 11:-0.23470149253731343 12:0.2040512731510178 13:0.2515349450374609 14:0.2858773973361757 15:0.19339622641509435 16:0.14741277855814117 17:-0.30563829787234054 18:-0.30703128096348564 19:0.15928183815137098 20:0.2863273413653744 21:0.30290452549450353 22:0.3155111917182598 23:0.1631898220734036 24:-0.062162370485573826 25:-0.2557726815621446 26:-0.375418744882007 27:-1.0 28:0.4839971307752087 29:-0.07854332357075555 30:0.00544731610718574 
0.46272865652256967 1:0.6875525985078061 2:0.5243243243243241 3:0.8760360360360364 4:0.7704371037704365 5:0.5992544268406339 6:0.8389670680400407 7:-0.8902654867256637 8:-0.8222403591103856 9:-0.7684573829531813 10:0.7451010024683895 11:-0.23743718592964824 12:0.6333416202010158 13:0.686179206838152 14:0.7290688489294128 15:0.854504504504505 16:0.6425036706726845 17:0.5951084685842838 18:0.19316341927868774 19:0.7793199101594519 20:0.6764023381533215 21:0.8326862175073027 22:0.8184811897546562 23:0.7246922662999209 24:0.30762397729243784 25:0.15014768459993966 26:0.04511278195488733 27:-0.8490566037735849 28:0.5541924298575678 29:-0.4764442766872349 30:-0.5093707415476054 
0.05516486743834346 1:-0.2476396927286123 2:-0.2974358974358974 3:-0.25692307692307703 4:-0.28632478632478653 5:-0.2546419098143238 6:0.20073785228944363 7:-0.8455816339617802 8:-0.7490797796368089 9:-0.7657867494824017 10:-0.3470392605709842 11:-0.04166666666666652 12:-0.17211425409779357 13:-0.23709270821062545 14:-0.2589015070657047 15:-0.21999999999999997 16:-0.2193158953722334 17:-0.4975323149236194 18:-0.6972143342342304 19:0.049616031632966795 20:0.09054188010130448 21:0.06757495690899651 22:0.05129630673316532 23:0.03354575407270666 24:-0.396006254600477 25:-0.5485158369392872 26:-0.6939195514174548 27:0.9245283018867925 28:0.2321297433979459 29:-0.08571258161137585 30:-0.23496162618109517 
0.41453649538846365 1:0.2603690043136411 2:0.20555555555555527 3:0.355 4:0.33641975308641947 5:0.19683908045976994 6:0.5074713477440882 7:-0.8526176494913572 8:-0.867593970369412 9:-0.7673583399840384 10:0.08484677715446964 11:-0.24624999999999997 12:0.3140604467805521 13:0.22330700247570112 14:0.2427237897677963 15:0.5348958333333333 16:0.22107645875251491 17:-0.6206769309072402 18:-0.7155677027064953 19:0.3747652112313802 20:0.27898112372863326 21:0.4062439594400613 22:0.3201664860810396 23:0.32189196167824874 24:-0.09752994099695333 25:-0.33361967371811385 26:-0.5317363175380312 27:0.9245283018867925 28:0.4420703668845529 29:0.15237737307776755 30:0.005304367463388138 
-1.0 1:0.0036727424563913758 2:-0.03888888888888886 3:0.06833333333333336 4:-0.06172839506172867 5:-0.050287356321839005 6:0.4701342818811771 7:-0.8537494177922683 8:-0.8532291865117165 9:-0.766692546583851 10:-0.06121442659904175 11:-0.2517857142857143 12:0.004434954007884295 13:0.017607900740694626 14:0.0053700627043251625 15:0.33697916666666683 16:-0.03697183098591561 17:-0.6065964751659418 18:-0.7909912636196057 19:0.12530340949140273 20:-0.04114470402072945 21:0.1935924370392832 22:0.17730103926115937 23:0.10167470185930072 24:-0.4128452015531089 25:-0.6248900697555085 26:-0.7492568630879524 27:0.9245283018867925 28:0.29790552111323665 29:0.02872022065905333 30:-0.09693655303014914 
1.0 1:-0.30676335740613125 2:-0.35934959349593487 3:-0.1117073170731705 4:-0.2818428184281845 5:-0.32001682085786354 6:0.21872221690306515 7:-0.8570456092579987 8:-0.7461285036070893 9:-0.7589285714285714 10:-0.08023937983452156 11:-0.23665048543689315 12:-0.2087636778955383 13:-0.1985321914331185 14:-0.17576973248858052 15:-0.0861370716510903 16:-0.2140506590947555 17:-0.4322983100046054 18:-0.5947351983187972 19:-0.24629048862752867 20:-0.1678073759117482 21:-0.09740360062427778 22:-0.08054066934410864 23:-0.22043338085337805 24:-0.5565399992688047 25:-0.8024139193478426 26:-0.9146449074587736 27:-1.0 28:0.33255695861571666 29:0.2612621233422743 30:0.35051152146896625 
0.019983450213748855 1:-0.314632890536505 2:-0.3666666666666668 3:-0.11409090909090902 4:-0.28493265993266026 5:-0.3311128526645768 6:0.216605860149218 7:-0.857066237597211 8:-0.6901448683942054 9:-0.7573891625615764 10:-0.046332086342863676 11:-0.23646341463414622 12:-0.2187853510826715 13:-0.2000017451778553 14:-0.1651144213435518 15:-0.12072463768115949 16:-0.21203744204356567 17:-0.7011764705882354 18:-0.6952579228638596 19:-0.24629266128815308 20:-0.15471802296383985 21:-0.08229676592313495 22:-0.06512138955819946 23:-0.22335893417309338 24:-0.5747377439634695 25:-0.8122019280769982 26:-0.9211214546844386 27:-0.1320754716981133 28:0.2725622412001041 29:0.2486896640763534 30:0.34866073027649214 
0.48028213949099907 1:-0.9636802413273001 2:-0.7254901960784315 3:-0.41647058823529404 4:-0.8736383442265797 5:-0.7444219066937119 6:-1.0 7:-0.8375845913586674 8:-0.716889124668435 9:-0.7452380952380953 10:-0.5818333901298056 11:-0.23508064516129024 12:-0.6005256241787124 13:-0.7388517590742674 14:-0.8429026522447772 15:-0.6051724137931034 16:-0.9220148477069311 17:-0.7982150825524319 18:-0.7770688372608607 19:-0.9727995028427299 20:-0.48262251506038867 21:-0.8343282212677768 22:-0.8287598466407 23:-0.9825111215934333 24:-0.966090393124094 25:-0.999428290938579 26:-1.0 27:0.09433962264150941 28:0.03225525472912305 29:-1.0 30:-0.9714981227417545 
-0.8083081431697725 1:1.0 2:1.0 3:1.0 4:1.0 5:1.0 6:1.0 7:-0.6150442477876106 8:-0.6361301130811112 9:-0.5357142857142858 10:1.0 11:-0.2212962962962962 12:1.0 13:1.0 14:1.0 15:1.0 16:0.9999999999999998 17:0.46022407447499436 18:0.1999824230392151 19:1.0 20:1.0 21:1.0 22:1.0 23:0.9999999999999998 24:1.0 25:1.0 26:1.0 27:0.9622641509433962 28:0.5210638631569295 29:0.1486001169993323 30:0.07861716473916802 
1.0 1:1.0 2:1.0 3:1.0 4:1.0 5:1.0 6:1.0 7:-0.6150442477876106 8:-0.6361301130811112 9:-0.5357142857142858 10:1.0 11:-0.2212962962962962 12:1.0 13:1.0 14:1.0 15:1.0 16:0.9999999999999998 17:0.46022407447499436 18:0.18713810032023703 19:1.0 20:1.0 21:1.0 22:1.0 23:0.9999999999999998 24:1.0 25:1.0 26:1.0 27:0.9245283018867925 28:0.5184617533035154 29:0.1486001169993323 30:0.07861716473916802 
0.14979153445332596 1:1.0 2:1.0 3:1.0 4:1.0 5:1.0 6:1.0 7:-0.6150442477876106 8:-0.6361301130811112 9:-0.5357142857142858 10:1.0 11:-0.22672413793103452 12:1.0 13:1.0 14:1.0 15:1.0 16:0.9999999999999998 17:1.0 18:1.0 19:1.0 20:1.0 21:1.0 22:1.0 23:0.9999999999999998 24:1.0 25:1.0 26:1.0 27:-0.3584905660377359 28:0.9902680548425431 29:0.14697854607667948 30:0.0834833990732573 
0.55437393165572 1:0.8398552036199092 2:0.733333333333333 3:1.0 4:0.71043771043771 5:0.7304075235109715 6:0.9012440682313709 7:-0.7951959544879899 8:-0.7612732095490716 9:-0.7650200267022698 10:0.9436849622526013 11:-0.2384615384615385 12:0.8337116234619522 13:0.8361479453214871 14:0.9047688582241205 15:1.0 16:0.8123285165538687 17:-0.2894738370404787 18:-0.27499523090097133 19:0.8684715809784329 20:0.8716976396463749 21:0.9512219325198406 22:0.9318979337401672 23:0.8587283974093565 24:0.8260980791177315 25:0.7743225865477965 26:0.7243107769423558 27:-1.0 28:0.5365143148109497 29:0.8595470533652676 30:0.940446666351088 
0.9382158516074744 1:-0.19419918003330883 2:-0.2995780590717301 3:0.04202531645569607 4:-0.12892639474917977 5:-0.2575294631165431 6:0.31126873304575997 7:-0.8498429917213817 8:-0.7805104169349232 9:-0.7666217430368374 10:-0.0740583979661339 11:-0.23078512396694206 12:-0.1807880553809823 13:-0.17437987212431116 14:-0.1579259616786577 15:-0.007667731629392938 16:-0.2421493819144903 17:-0.7911186992888695 18:-0.8217891332573228 19:-0.09507780853023673 20:-0.16645697301383833 21:0.005986618346614181 22:-0.03928705014458711 23:-0.11080114949089548 24:-0.4084726972095065 25:-0.5697244360733331 26:-0.6677946589403447 27:0.9622641509433962 28:0.3585871091118933 29:-0.2768403321320745 30:-0.3083186433439692 
-0.8782237724447827 1:-0.9903710407239821 2:-0.857777777777778 3:-0.5805405405405404 4:-0.5925925925925928 5:-0.7793103448275861 6:-0.00491642084562427 7:-0.8096442116669677 8:-0.6910452271430011 9:-0.7619047619047619 10:-0.6303007889546349 11:-0.23671874999999998 12:-0.7529566360052564 13:-0.9361656220562774 14:-0.9013955027671037 15:-0.6666666666666667 16:-0.8712273641851106 17:-0.3756097560975611 18:-0.5754136677931996 19:-0.8454379369086439 20:-1.0 21:-0.7967108035337409 22:-0.7816341524731849 23:-0.9450077110813809 24:-0.9631641639727542 25:-0.9977615581431268 26:-1.0 27:-1.0 28:-0.016948179149481546 29:-0.7943239480681722 30:-0.7931144655535094 
-1.0 1:-0.32280287002808317 2:-0.39209039548022584 3:0.12542372881355934 4:-0.13370998116760857 5:-0.30683810637054365 6:-0.065037951207226 7:-0.7268596029657977 8:-0.8440793380577221 9:-0.7665505226480837 10:-0.10790639588474904 11:-0.23850574712643668 12:-0.31129755045655183 13:-0.2006488955797232 14:-0.20250418283108707 15:0.009401709401709368 16:-0.22137955940772835 17:-0.7896687262711234 18:-0.8172651587432714 19:-0.1717049541907958 20:-0.17550710411564074 21:-0.13908050371909275 22:-0.1702407101862652 23:-0.22645287754551457 24:-0.6340163512168155 25:-0.8243912785171756 26:-0.9446255065884046 27:-1.0 28:0.29959305897554955 29:-0.25605437439785983 30:-0.17523230142475077 
0.4586323966208474 1:-0.16234126404904414 2:-0.21379310344827607 3:0.16965517241379313 4:0.011494252873563093 5:-0.022592152199762294 6:0.151312926156971 7:-0.47492625368731567 8:-0.7906277630415562 9:-0.7619047619047619 10:0.11136125096971461 11:-0.23645833333333321 12:-0.19939138252991218 13:-0.028008660294661092 14:0.030346647475111066 15:-0.06666666666666654 16:-0.05030181086519114 17:-0.2610655737704919 18:-0.5629878855628809 19:-0.10108452884494723 20:-0.09302245561718292 21:0.01625850512550242 22:0.03380980536537659 23:-0.14832258187405234 24:-0.6024795359629526 25:-0.7798511924055398 26:-0.8803120516903112 27:-0.4716981132075472 28:0.281591230513494 29:-0.20005468465366583 30:-0.11844599427750524 
-1.0 1:0.3119802119513295 2:0.16190476190476177 3:0.6314285714285717 4:0.3174603174603172 5:0.2586206896551724 6:0.5451451203663591 7:-0.8270054239223523 8:-0.8891075554034398 9:-0.5357142857142858 10:0.2773136388330131 11:-0.23676470588235288 12:0.24056692322132522 13:0.35196973496753126 14:0.4079453303800442 15:0.64375 16:0.30367921816613963 17:-0.2568548387096775 18:-0.5139221188124712 19:0.4578327795410708 20:0.36525338378349215 21:0.5068788042557324 22:0.519192434044881 23:0.37733818107048256 24:-0.3819589063871547 25:-0.6805657891034229 26:-0.849624060150376 27:-0.3584905660377359 28:0.26533497963722574 29:-0.17941300818670824 30:-0.19211969348102464 
-0.3240057698030811 1:-0.9505213456620107 2:-0.857777777777778 3:-0.5805405405405404 4:-0.7217217217217218 5:-0.8434296365330847 6:-0.2068539999294855 7:-0.7584927205252641 8:-0.8333252953942609 9:-0.7602040816326531 10:-0.7886728655959423 11:-0.21923076923076923 12:-0.6905984948034883 13:-0.7936208596707278 14:-0.7474840463664107 15:-0.8280303030303029 16:-0.8072068776294128 17:-0.43266606222561566 18:-0.5635668056277965 19:-1.0 20:-0.8458158634288033 21:-0.9562897086831175 22:-0.8405736760869551 23:-1.0 24:-0.961453090461609 25:-0.9819559725730781 26:-0.9987468671679198 27:-1.0 28:0.01452205054847222 29:-0.7804008510228104 30:-0.7336061804936569 
0.9125292174075836 1:0.5837104072398189 2:0.4942528735632181 3:0.644137931034483 4:0.5606641123882499 5:0.48870392390011874 6:0.7661043721269314 7:-0.5535889872173059 8:-0.6942952142563604 9:-0.6071428571428572 10:0.6384452254897601 11:-0.23384955752212377 12:0.4796320630749016 13:0.6211559951988745 14:0.6669104303783755 15:0.7870689655172414 16:0.5728855893984597 17:-0.06769182617863134 18:-0.40070877265023896 19:0.6906464661237142 20:0.5929658289632183 21:0.8202390325090658 22:0.7432619264719273 23:0.6349258285808346 24:0.1525763072974431 25:-0.049440635149765155 26:-0.20112781954887216 27:-0.4716981132075472 28:0.26059311745526825 29:-0.058057400591161046 30:0.01669825730931418 
1.0 1:-0.1796953872300867 2:-0.11264367816091958 3:0.05103448275862066 4:-0.09833971902937444 5:-0.12485136741973835 6:0.199911302840325 7:-0.607669616519174 8:-0.7734666394613344 9:-0.7 10:0.057552616874650964 11:-0.23106060606060597 12:-0.1592779583650321 13:-0.06415650528670513 14:-0.052896725440806036 15:-0.033333333333333215 16:-0.13078470824949695 17:-0.40801295592170117 18:-0.6671695442927787 19:-0.10361491217995211 20:-0.0081356813933805 21:-0.0030519358852876266 22:-0.0039015287217646355 23:-0.1575070198629167 24:-0.5908039817216794 25:-0.868383726105294 26:-0.955197024696908 27:-0.3584905660377359 28:0.11054955290411494 29:-0.22107568923426835 30:-0.2118737712217823 
1.0 1:0.08324492844616671 2:0.08965517241379328 3:0.2882758620689656 4:0.1213282247765004 5:0.07966706302021409 6:0.4333108456684789 7:-0.8164881229622729 8:-0.7830871437957803 9:-0.7579365079365079 10:0.218466225320757 11:-0.22804878048780486 12:0.09744795629019998 13:0.1259058114017777 14:0.1657810599242977 15:0.1499999999999999 16:0.07847082494969793 17:-0.28025830258302575 18:-0.5090713612644889 19:0.11244013039957435 20:0.08657220276452482 21:0.1433398754519961 22:0.1576597602755161 23:0.08954749500320158 24:-0.4196564558179118 25:-0.6743461521888159 26:-0.8150277162486628 27:-0.28301886792452835 28:0.2378775901706116 29:-0.1539862477952565 30:-0.1426565560883386 
-1.0 1:-0.6876673949466128 2:-0.662222222222222 3:-0.43333333333333324 4:-0.5395061728395062 5:-0.6063218390804598 6:-0.024401639754593196 7:-0.6896480757357482 8:-0.7446748232810699 9:-0.7667173252279635 10:-0.36192937859141683 11:-0.23206521739130437 12:-0.5615148439008291 13:-0.5668872044033607 14:-0.5877239533892921 15:-0.47677725118483427 16:-0.5751952473132635 17:-0.510789582472096 18:-0.5370043979328847 19:-0.5545099884269347 20:-0.3960684768517754 21:-0.45654442198312173 22:-0.4572165482463141 23:-0.5621738948331696 24:-0.639068260550157 25:-0.8087711490735086 26:-0.8953221883078604 27:0.320754716981132 28:0.30732685164811135 29:-0.5129733486112766 30:-0.4449115593070341 
-1.0 1:-0.6886973256248561 2:-0.662222222222222 3:-0.43333333333333324 4:-0.5395061728395062 5:-0.6063218390804598 6:-0.021012826010681995 7:-0.6983195784031022 8:-0.7100734069459009 9:-0.7671957671957672 10:-0.35109908459568917 11:-0.23249999999999993 12:-0.5615148439008291 13:-0.5688853261484206 14:-0.5899029958733051 15:-0.5037914691943126 16:-0.5751952473132635 17:-0.510789582472096 18:-0.5370043979328847 19:-0.5520411615644649 20:-0.41053139391230653 21:-0.45655356460078733 22:-0.4561163852664172 23:-0.563031581062106 24:-0.6371242734210041 25:-0.8087711490735086 26:-0.8953221883078604 27:0.35849056603773577 28:0.3218384706360464 29:-0.514448263591243 30:-0.44503637458819056 
-0.013049343154509997 1:0.957968942240548 2:0.9642276422764229 3:0.9580487804878048 4:0.9611562782294489 5:0.9638351555929352 6:0.9741088796953341 7:-0.8454565076624218 8:-0.7574070000646956 9:-0.765546218487395 10:0.9821431542288006 11:-0.2367499999999999 12:0.9721162783244128 13:0.9737012604547062 14:0.975480404874677 15:0.9478658536585365 16:0.9594395642145555 17:1.0 18:0.7259149797203883 19:0.9600929162782041 20:0.9779500653269195 21:0.9780380413449836 22:0.9806820060637658 23:0.9615193923748233 24:0.9366074945160978 25:0.9166489006106395 26:0.9005243021113787 27:-0.09433962264150941 28:0.870282992783656 29:0.97988903096177 30:0.9883256278783834 
1.0 1:-0.9526261585993822 2:-0.9130434782608697 3:-0.7600000000000001 4:-0.8695652173913043 5:-0.9340329835082459 6:-0.027524629729765326 7:-0.8400976502898994 8:-0.8268243553180032 9:-0.7699579831932774 10:-0.8145956607495068 11:-0.21911764705882353 12:-0.7582128777923783 13:-0.7816147219109053 14:-0.7687215519908083 15:-0.5178160919540229 16:-0.8271005342399225 17:-0.3042006342782654 18:-0.4499097102879325 19:-0.8306801608397854 20:-0.7830191338606671 21:-0.727429265840358 22:-0.6189226731097801 23:-0.8632599303786512 24:-0.9394418579362469 25:-0.9736488093227379 26:-0.9886720258116408 27:0.7358490566037734 28:0.05442265215982389 29:-0.645320871066467 30:-0.6361050996779768 
0.6614566478231437 1:0.5384685267038207 2:0.44734299516908216 3:0.35188405797101474 4:0.39989264626945786 5:0.44127936031984016 6:0.6597282811915741 7:-0.8921196797302992 8:-0.7779006139748845 9:-0.7769320843091335 10:0.4677485500029295 11:-0.24843749999999998 12:0.6103863337713535 13:0.5617845388474785 14:0.5258571942630956 15:0.43759999999999977 16:0.6091428571428572 17:0.26612838976558906 18:0.5563024487336066 19:0.737291920100182 20:0.7449275640223838 21:0.712193728572357 22:0.7158657428530377 23:0.7413522778038129 24:0.7938210840756763 25:0.7887976971441715 26:0.7853571071357124 27:-1.0 28:0.9848405724938223 29:-0.48870165375407426 30:-0.5099072472918558 
-0.23855741768124075 1:0.773354850277927 2:0.6912280701754383 3:0.9094736842105267 4:0.7485380116959064 5:0.7268602540834848 6:0.8889158934621928 7:-0.8260306496870279 8:-0.7727597739591743 9:-0.7644324853228963 10:0.7814158190684153 11:-0.221774193548387 12:0.7593194550107198 13:0.7803442064921569 14:0.8180702509738247 15:0.9000000000000004 16:0.7645875251509053 17:0.8036363636363635 18:0.4669186140846844 19:0.820411669997928 20:0.8180454104787105 21:0.8914124074938976 22:0.8785489789449696 23:0.7999572505442956 24:0.44133704713063593 25:0.31327479668989455 26:0.19940696812453673 27:-0.3584905660377359 28:0.7154505656339545 29:0.44562339768974013 30:0.3482759875593868 
0.34839078974484433 1:-0.07572655190137967 2:-0.1282051282051282 3:-0.058461538461538454 4:-0.10256410256410275 5:-0.08355437665782506 6:0.21375085091899226 7:-0.8481728974775751 8:-0.8105291552398508 9:-0.767983789260385 10:-0.3374821465007142 11:-1.0 12:0.005989349194273519 13:-0.1202886966260851 14:-0.16794909187326001 15:-0.07999999999999985 16:0.041448692152917355 17:-0.6916382653660829 18:-0.7248340365922161 19:0.19074078300827058 20:0.11831727615683407 21:0.11117381767887435 22:0.09207640139321227 23:0.183677278254051 24:-0.2341269599000958 25:-0.40055006198690657 26:-0.5506102084394999 27:-1.0 28:0.21809882300953753 29:0.02276845976745112 30:-0.1548341218309237 
1.0 1:-0.18416926900771158 2:-0.2974358974358974 3:-0.12461538461538446 4:-0.28632478632478653 5:-0.3116710875331564 6:0.2125393730313483 7:-0.842888898209118 8:-0.7857857748366103 9:-0.7659001956947162 10:-0.07666009204470725 11:-0.286111111111111 12:-0.1769278649975794 13:-0.1609285312944132 14:-0.1828908713002101 15:-0.22999999999999998 16:-0.1613682092555334 17:-0.7413354076708153 18:-0.7904468133798637 19:0.08556875729170654 20:0.09892643396555822 21:0.15938031004378028 22:0.14250366977763784 23:0.08617024317479438 24:-0.3770094162470232 25:-0.5395189938770371 26:-0.6992273048610829 27:-1.0 28:0.4476186474921213 29:-0.07632807920099716 30:-0.21799921690227075 
-0.15187853824223635 1:0.20056370072924534 2:0.09743589743589731 3:0.007692307692307887 4:0.019943019943019724 5:0.08753315649867366 6:0.5163722659309573 7:-0.8499340990397288 8:-0.7612732095490716 9:-0.7667173252279635 10:0.11138183083884479 11:-0.825 12:0.26111072688291026 13:0.1949079200534023 14:0.19152985706566605 15:0.18000000000000016 16:0.22494969818913457 17:-0.5081255508911366 18:-0.6771755898611693 19:0.4401910435149545 20:0.4050213561484175 21:0.45935417272642876 22:0.48965499002699575 23:0.4423710994102157 24:0.05242620991932023 25:-0.13416834713846082 26:-0.28416098556937675 27:-1.0 28:0.30857189564475584 29:0.06654473868999822 30:-0.07772823228765091 
0.7555794503870517 1:0.3342573598713754 2:0.2666666666666666 3:0.4983333333333333 4:0.33641975308641947 5:0.3204022988505748 6:0.58116871484361 7:-0.8505408062930186 8:-0.775860441652699 9:-0.7666157372039725 10:0.35041194867751924 11:-0.23906249999999996 12:0.24737187910643899 13:0.3329100212901057 14:0.3153194412640259 15:0.4854166666666666 16:0.3023138832997987 17:-0.5464520676691731 18:-0.6195673968689125 19:0.4336458327587063 20:0.33280494079852874 21:0.42042551291357677 22:0.4161636562037563 23:0.3964001337084777 24:-0.1030582358426847 25:-0.2708736590006888 26:-0.4229760447630704 27:-1.0 28:0.30632693337740724 29:0.16815251339614923 30:0.028356109939076335 
0.05486487560696418 1:0.49375804211297725 2:0.44999999999999996 3:0.6416666666666668 4:0.5354938271604934 5:0.5057471264367814 6:0.63136932072685 7:-0.8522067527196888 8:-0.8208307140338236 9:-0.7684458398744113 10:0.48568872987477674 11:-0.2416666666666667 12:0.5141261498028908 13:0.5006973587343793 14:0.5321365265949649 15:0.6932291666666668 16:0.5316901408450705 17:-0.5372396591145292 18:-0.6515252327930111 19:0.5846114800958762 20:0.5238732282785441 21:0.5775186207024721 22:0.5333349566384726 23:0.5445874104480202 24:0.06127926994256239 25:-0.11335260917785861 26:-0.25931106836859585 27:-1.0 28:0.2727153471532171 29:0.28604660625538214 30:0.1549290604108331 
0.3113569519486389 1:0.23686257321249782 2:0.20555555555555527 3:0.355 4:0.1373456790123453 5:0.19683908045976994 6:0.5548105603076392 7:-0.8475954030352781 8:-0.7612732095490716 9:-0.767379679144385 10:0.3103448275862071 11:-0.234375 12:0.31882391590013137 13:0.279951245429259 14:0.2786142586008138 15:0.4161458333333332 16:0.2258551307847083 17:-0.6701482509965513 18:-0.7347425396352579 19:0.3115439890452192 20:0.26520254252558195 21:0.3449369880479376 22:0.3630924759751597 23:0.3055251584619536 24:-0.09465017084874838 25:-0.27117323477971256 26:-0.42367546773911524 27:-1.0 28:0.3179604407202803 29:0.16518430519029903 30:0.059287366806302755 
-1.0 1:-0.6408278317632226 2:-0.640677966101695 3:-0.22440677966101708 4:-0.457627118644068 5:-0.608416130917592 6:-0.03479485116653258 7:-0.7618664521319388 8:-0.5747854579497582 9:-0.766260162601626 10:-0.5548594191128127 11:-0.23482142857142851 12:-0.5243101182654403 13:-0.5221047874877616 14:-0.5468833150033703 15:0.05833333333333357 16:-0.49295774647887325 17:-0.6944207671445176 18:-0.7777505745822503 19:-0.40136169698506907 20:-0.5647611771081029 21:-0.2529916787274167 22:-0.3457884516764703 23:-0.5070548743987555 24:-0.7797183305353813 25:-0.9242227104714803 26:-0.9725354137120502 27:-1.0 28:0.2886631528986836 29:-0.6428496920591802 30:-0.581849437484306 
-1.0 1:-0.8371737455922029 2:-0.8011695906432751 3:-0.44842105263157883 4:-0.6764132553606239 5:-0.7689050211736239 6:-0.2854193579543396 7:-0.8113349651666353 8:-0.5718973733010964 9:-0.7657657657657658 10:-0.8145956607495068 11:-0.24754901960784315 12:-0.7369112663393043 13:-0.7120820986058354 14:-0.7548216098349563 15:-0.29166666666666663 16:-0.7665995975855132 17:-0.803409090909091 18:-0.767048311659749 19:-0.5528726951373908 20:-0.7760952489538088 21:-0.5114941751906896 22:-0.5563197176257367 23:-0.6624311988996021 24:-0.8777291459154665 25:-0.9672364019640368 26:-0.9898814682097028 27:-1.0 28:0.23047943861601605 29:-0.7081026673041411 30:-0.6648233005836334 
1.0 1:-0.5355936524122109 2:-0.4923976608187134 3:-0.32771929824561397 4:-0.3970110461338534 5:-0.5087719298245612 6:0.14718838049128946 7:-0.8328416912487708 8:-0.7402314499659632 9:-0.7674772036474165 10:-0.3698418223305098 11:-0.2607142857142857 12:-0.38391313368836033 13:-0.3936053038767877 14:-0.4093776287544798 15:0.2583333333333335 16:-0.38832997987927576 17:-0.6583544135268274 18:-0.7463693581209841 19:-0.330262023305848 20:-0.3654273869601078 21:-0.185121238916933 22:-0.2383868698358893 23:-0.3795435076615312 24:-0.5814307906049974 25:-0.7160334819157397 26:-0.7760115606936416 27:-1.0 28:0.1793808711817828 29:-0.6807074479675638 30:-0.6229521774728812 
