svm_type epsilon_svr
kernel_type rbf
gamma 0.25
nr_class 2
total_sv 212
rho -0.70397768759033
SV
0.3714842950512637 1:0.6431650887597216 2:0.5493358633776089 3:0.7818181818181817 4:0.7288135593220337 5:0.5407326407873159 6:0.6510344058439748 7:-0.23298969072164943 8:-0.8396590461631112 9:-0.990962383976551 10:0.6311258528587615 11:-0.9856175972927242 12:0.5315841769225471 13:0.6320680121802815 14:0.6661531285400146 15:0.8396313364055297 16:0.6067297122181696 17:0.30385034831688684 18:0.25975638620052655 19:0.713914687876704 20:0.5459395020122009 21:0.7372766686100944 22:0.6979383202354388 23:0.6348700923217412 24:0.28443538360010123 25:0.1743026066464326 26:0.06973840773317352 27:-1.0 28:0.4250432039697585 29:-0.2069634499405073 30:-0.13617792644354132 
4.0 1:-0.7035447625951431 2:-0.7240300375469338 3:-0.7628626692456477 4:-0.7104219257122251 5:-0.6963577353047243 6:-0.7843455490241542 7:-0.828659793814433 8:-0.813625579479238 9:-0.9911167184265011 10:-0.6666622440991896 11:-0.9857868020304569 12:-0.6435165931963736 13:-0.6450591233407603 14:-0.6330057409749925 15:-0.6296846011131725 16:-0.6592074141160125 17:-0.8378499705923709 18:-0.7840237176826169 19:-0.49515133878599327 20:-0.553981768519447 21:-0.47719440589607254 22:-0.41766753561844006 23:-0.5095934668735151 24:-0.7862378724494834 25:-0.8669283399902087 26:-0.9205240342901716 27:0.35849056603773577 28:0.13807843812086973 29:-0.4173624236748019 30:-0.2972067248428112 
3.7972672749683674 1:-0.6139217170247038 2:-0.6943053817271589 3:-0.5470019342359769 4:-0.6098088712585646 5:-0.6357735304724125 6:-0.7604496181935175 7:-0.8474695407685098 8:-0.8000676098237074 9:-0.9916689598238855 10:-0.7614092953523239 11:-0.9849017310946245 12:-0.49042331174616827 13:-0.6277418076109937 14:-0.6306414156281684 15:-0.6739495798319332 16:-0.6291192622388608 17:-0.8213246878853745 18:-0.852335045825937 19:-0.38797446469505503 20:-0.6000990532874044 21:-0.39351698993356954 22:-0.36842093639611284 23:-0.4636681416440136 24:-0.6632520120856052 25:-0.7874620517445938 26:-0.8635488411321343 27:0.6981132075471697 28:-0.21514278967198097 29:-0.21166331558147822 30:-0.11925506604905689 
-4.0 1:-0.7292615000480167 2:-0.7240300375469338 3:-0.7988394584139266 4:-0.7439596105301121 5:-0.7266498377208797 6:-0.8041059240569867 7:-0.8334020618556701 8:-0.8356893412365028 9:-0.9911906791702189 10:-0.674725934383152 11:-0.9856880992667795 12:-0.6529984196955834 13:-0.658947316965868 14:-0.6524112947569298 15:-0.7231910946196665 16:-0.6852341970825384 17:-0.7469487109160725 18:-0.7125201454513141 19:-0.532056072766902 20:-0.5598962576655735 21:-0.5186210984554592 22:-0.4556330572972396 23:-0.5441439726882372 24:-0.784218356091387 25:-0.8664108968266747 26:-0.9218178156690889 27:0.35849056603773577 28:0.2866175017931172 29:-0.4417593370059497 30:-0.3231721928617024 
-4.0 1:-0.6313805552337927 2:-0.6645807259073846 3:-0.6189555125725337 4:-0.6433465560764514 5:-0.6054814280562565 6:-0.6511459320805222 7:-0.8298969072164948 8:-0.779484128800012 9:-0.9910909575886904 10:-0.7279639112194647 11:-0.9829855235946606 12:-0.47769824611759937 13:-0.6103026464079762 14:-0.591178152935985 15:-0.6134453781512605 16:-0.5636270305910676 17:-0.9967856944660852 18:-1.0 19:-0.395500629032118 20:-0.5504454239834482 21:-0.3634571793630791 22:-0.2952647678920234 23:-0.4347048998493347 24:-0.6020500404330812 25:-0.6957539464215383 26:-0.758674474076064 27:0.6603773584905659 28:-0.24329910863619186 29:-0.2500648673086805 30:-0.13564606585363048 
0.5294459136533107 1:-0.6613534263273269 2:-0.7537546933667085 3:-0.6189555125725337 4:-0.7439596105301121 5:-0.7266498377208797 6:-0.654908650421701 7:-0.7974226804123711 8:-0.8171037349471238 9:-0.9901370510396975 10:-0.7532619532706232 11:-0.9813069051647731 12:-0.6081301688104337 13:-0.6484697801213373 14:-0.629995388365505 15:-0.539495798319328 16:-0.678238435974706 17:-0.9234098624494148 18:-0.8636140141172527 19:-0.38779602885614695 20:-0.6309266935572864 21:-0.40011502937383614 22:-0.3219617565394026 23:-0.4544980113845106 24:-0.7500265063762854 25:-0.8351400409923252 26:-0.8937926938723704 27:0.6603773584905659 28:-0.19409195996237716 29:-0.2753976416244699 30:-0.17079013762569373 
0.6386273689789819 1:0.7166437522716858 2:0.5793801391524349 3:0.9272727272727275 4:0.7966101694915253 5:0.5713504647348282 6:0.7451465769032359 7:-0.8515463917525773 8:-0.8256410256410256 9:-0.9910581311554167 10:0.7515576627270777 11:-0.985993607821019 12:0.6336412556936122 13:0.6923064831770631 14:0.7463006968734149 15:0.9391705069124421 16:0.6848450433529167 17:0.29465547145388427 18:0.2663458926453133 19:0.7858546809637594 20:0.6417945069430437 21:0.8354977298564459 22:0.7910594297167017 23:0.7099896499213474 24:0.3134269386584976 25:0.20311469049351616 26:0.09722049855469828 27:-0.3584905660377359 28:0.6668074312756584 29:-0.19777726633499604 30:-0.1259673383805583 
-3.826544003348439 1:-0.5689505841871756 2:-0.5462592804111939 3:-0.1491615180935567 4:-0.22428830014809953 5:-0.43755142339970354 6:-0.6352956881591243 7:-0.8478758355047015 8:-0.833428814819962 9:-0.9913673597983617 10:-0.6320969949807704 11:-0.9817533269309919 12:-0.43807701904682694 13:-0.6151705042098632 14:-0.5903158229694252 15:-0.30359052711993917 16:-0.6276308024286836 17:0.118001061500002 18:0.10036566915019907 19:-0.574470642002638 20:-0.8909479726582107 21:-0.5940806731697017 22:-0.5744140913363229 23:-0.7046626351501764 24:-0.807055049144374 25:-0.9021371080410178 26:-0.9492744575591742 27:0.6603773584905659 28:-0.1822014466960058 29:-0.4092884799303874 30:-0.3332682195837704 
-1.8074211059680372 1:-0.8031986765514301 2:-0.8327008222643896 3:-0.7454545454545454 4:-0.7288135593220342 5:-0.8064516129032258 6:-0.8390006265512003 7:-0.84633749321758 8:-0.7578523890864626 9:-0.9900737131434283 10:-0.998612212218498 11:-0.9834096818125542 12:-0.7373691166005897 13:-0.795144710942626 14:-0.7757086702800047 15:-0.85 16:-0.7431166779508014 17:-0.363986858564993 18:-0.3915424944452979 19:-0.5194138131728946 20:-0.6378755539851888 21:-0.5247786002058752 22:-0.46372725562477046 23:-0.5644966877626845 24:-0.5765780939652226 25:-0.6536981650591418 26:-0.7122805350882334 27:0.6603773584905659 28:-0.402511264568319 29:-0.32463418422769363 30:-0.22825043161748626 
4.0 1:-0.6672868487482496 2:-0.7240300375469338 3:-0.6189555125725337 4:-0.6098088712585646 5:-0.6357735304724125 6:-0.6765842087427991 7:-0.8480117820324006 8:-0.8122195166305182 9:-0.9905938790381346 10:-0.810744284383814 11:-0.9833737953358346 12:-0.5922238367747223 13:-0.6584266335420075 14:-0.6407277816655002 15:-0.6336134453781517 16:-0.6749638243923164 17:-0.834847592788884 18:-0.845650901698235 19:-0.41599305337790804 20:-0.5909532815988954 21:-0.42372394529778923 22:-0.36921781257127007 23:-0.4738578936958645 24:-0.5964694752224713 25:-0.6996267584435125 26:-0.7804326415150828 27:0.7735849056603772 28:-0.2740493344894336 29:-0.2161548661888577 30:-0.12944124651007427 
0.5314914163466707 1:-0.22083110397717154 2:-0.35199240986717284 3:-0.6363636363636362 4:-0.5254237288135594 5:-0.3778020776380535 6:-0.30306956583193956 7:-0.8795876288659794 8:-0.8146704008846108 9:-0.9901477146042363 10:-0.3617107235855759 11:-0.985053581500282 12:-0.12833735340597208 13:-0.200185080368822 14:-0.22503064518913696 15:-0.5032967032967036 16:-0.14743076828384882 17:-0.9898520189946826 18:-0.9430257902430047 19:0.08974442628813684 20:0.1180444303021917 21:0.1048008029295131 22:0.14569464041216995 23:0.10848666630152315 24:0.23975200938195362 25:0.2243657742401206 26:0.18855594048508428 27:-0.39622641509433965 28:0.6130475605884202 29:-0.2990725796600313 30:-0.24331987002046285 
4.0 1:-0.43140419179795453 2:-0.3970588235294119 3:-0.1836363636363635 4:-0.2610169491525425 5:-0.3288135593220338 6:-0.5632945905044328 7:-0.8317525773195876 8:-0.9666458203043569 9:-0.9905151876116736 10:-0.3616118769883353 11:-0.9849830795262268 12:-0.4667787641255162 13:-0.34848422262194 14:-0.31854179761156487 15:-0.3992277992277994 16:-0.40600315955766175 17:-0.5115026429960607 18:-0.6039678440239656 19:-0.272576973058693 20:-0.28028094731695097 21:-0.2515682047706287 22:-0.2003213551596944 23:-0.2907562202713685 24:-0.7472519975202769 25:-0.8118889335530886 26:-0.8865982930506604 27:0.2075471698113207 28:0.2531346766388698 29:-0.31914100297490666 30:-0.18737855886274957 
-3.885632220764104 1:-0.2740910504468692 2:-0.35049019607843146 3:0.09818181818181815 4:-0.20847457627118637 5:-0.2813559322033896 6:-0.3971827921901343 7:-0.8509458512661395 8:-0.8577766764605237 9:-0.9906363224637681 10:-0.38170165957243307 11:-0.9855370236080896 12:-0.2035598436330367 13:-0.2616049269234303 14:-0.23310319767441856 15:-0.21558441558441566 16:-0.3345232966086048 17:-0.31093747402716154 18:-0.485353933960463 19:-0.09758679569512907 20:-0.2623809132504439 21:-0.07834888143982699 22:-0.035140511275954966 23:-0.14485415191709294 24:-0.6271744677746522 25:-0.7065554566408556 26:-0.8057337248796874 27:0.5471698113207546 28:-0.19490513007185883 29:-0.10281392464695704 30:-0.021544861121415182 
-1.7336991026547879 1:-0.45934796806483 2:-0.35049019607843146 3:-0.1836363636363635 4:-0.2610169491525425 5:-0.3288135593220338 6:-0.5864439783401746 7:-0.8391752577319588 8:-1.0 9:-0.9905326916694325 10:-0.3657360508934725 11:-0.9854840146050405 12:-0.4799337306199154 13:-0.3572938689217757 14:-0.33554561717352416 15:-0.45482625482625505 16:-0.4014895057549086 17:-0.6473981748182814 18:-0.5892568173967951 19:-0.2917573621200841 20:-0.23625818697462564 21:-0.2920502539608545 22:-0.237547043919352 23:-0.3145333572632423 24:-0.7564512384347581 25:-0.8126086786928617 26:-0.887201372765241 27:0.2075471698113207 28:0.3696388616294688 29:-0.34811389375212454 30:-0.2156410947108386 
-0.1941340587178543 1:-0.9051186017478152 2:-0.862745098039216 3:-0.46545454545454545 4:-0.6813559322033897 5:-0.7084745762711864 6:-0.9952375282771759 7:-0.8384020618556701 8:-0.8600488941952357 9:-0.9910635663181068 10:-0.9355281487321735 11:-0.9828680203045685 12:-0.7430330605079004 13:-0.9052990154679786 14:-0.8468252901375629 15:-0.6401544401544401 16:-0.9025050778605281 17:-0.5515064253737549 18:-0.5819522593874584 19:-0.8582347842079111 20:-1.0 21:-0.8335051624807882 22:-0.8114164485062374 23:-0.8618661948722186 24:-0.8283623933252696 25:-0.8185100660635343 26:-0.8522659709775176 27:0.05660377358490565 28:-0.16854373535978928 29:-0.5504356714165818 30:-0.4842685355794467 
-4.0 1:-0.30080678721490595 2:-0.35049019607843146 3:-0.014545454545454639 4:-0.1559322033898306 5:-0.23389830508474574 6:-0.3121189553538748 7:-0.8020618556701031 8:-0.8686043642141202 9:-0.989758733350088 10:-0.4516676088185416 11:-0.9849407783417936 12:-0.2699326291275056 13:-0.2907833838066397 14:-0.24029948950652302 15:-0.1501298701298701 16:-0.2935311134363269 17:-0.7399343413891992 18:-0.8463101519508266 19:-0.09409289617169769 20:-0.320900274871994 21:-0.05056863952857715 22:0.02043165968735683 23:-0.16713085480744738 24:-0.5371184905944713 25:-0.5804372022971671 26:-0.6596847102876202 27:0.5094339622641508 28:-0.21517931516554256 29:-0.1407698251397218 30:-0.05434067239010654 
3.348010933596681 1:-0.287005673055739 2:-0.35049019607843146 3:-0.014545454545454639 4:-0.2610169491525425 5:-0.2813559322033896 6:-0.2972071339976906 7:-0.8501267534223425 8:-0.8764825030569479 9:-0.9903584866220736 10:-0.37198803912960665 11:-0.9766189816951238 12:-0.23453381019712205 13:-0.29497396622707905 14:-0.25658456034126875 15:-0.1127272727272729 16:-0.3481873576660307 17:-0.6101771251999695 18:-0.6759218979192811 19:-0.09381114626727127 20:-0.30706344652406015 21:-0.08247348471631533 22:-0.023159380011660513 23:-0.1575312566449908 24:-0.7146104936516751 25:-0.7569051355096844 26:-0.8474185477945066 27:0.5094339622641508 28:-0.12086130524557126 29:-0.16741430821675374 30:-0.07725942811837838 
-4.0 1:-0.8280590797872476 2:-0.932102628285357 3:-0.834816247582205 4:-0.9116480346195455 5:-0.8781103498016588 6:-0.9409560128871064 7:-0.8510795565065162 8:-0.841195267590189 9:-0.9903407755581669 10:-1.0 11:-0.9867456288776085 12:-0.6765273965639929 13:-0.8511639515294686 14:-0.8412224737600328 15:-0.9357142857142859 16:-0.8405363725268937 17:-0.8264997995696022 18:-0.8671697373045586 19:-0.5171332896261887 20:-0.6648887870672937 21:-0.5504830536784795 22:-0.5125944355021064 23:-0.5540371909895285 24:-0.8237383395899971 25:-0.8609800050654277 26:-0.924744587140061 27:0.5094339622641508 28:-0.24239612614885153 29:-0.4030587228874638 30:-0.3553414586324617 
0.23153645952388194 1:-0.27694436009042744 2:-0.30392156862745123 3:0.041818181818181976 4:-0.1559322033898306 5:-0.18644067796610142 6:-0.30032962632081583 7:-0.8460481099656357 8:-0.8935745097095942 9:-0.9904172913543229 10:-0.40454501010364396 11:-0.9865229910648025 12:-0.23453381019712205 13:-0.21878749785726515 14:-0.18134116053285165 15:-0.05662337662337669 16:-0.3026404874746108 17:-0.5643894947186949 18:-0.687932042132198 19:-0.14268657431741616 20:-0.22183689793916217 21:-0.10353072481817505 22:-0.017489953825059912 23:-0.1583923207435638 24:-0.45466575439636725 25:-0.5340088436962555 26:-0.6405157771224114 27:0.5094339622641508 28:-0.22783101619452506 29:-0.09750986282946417 30:-0.016510837232502462 
-1.4277704236434752 1:-0.051357036580986115 2:-0.0409457900807384 3:0.4032085561497325 4:0.19641076769690935 5:0.05084745762711873 6:-0.0011465813771047717 7:-0.8427098674521355 8:-0.8462857467735516 9:-0.9899864834422167 10:-0.16185694135180928 11:-0.9840714160686155 12:-0.043345139637477104 13:0.0018981794921852924 14:0.04341085271317824 15:0.19547383309759514 16:-0.08884077304142057 17:-0.45320234087793276 18:-0.5297327076644645 19:0.009836582085154255 20:-0.08632510487844103 21:0.03411097656477846 22:0.11460446782304246 23:-0.02458349254892056 24:-0.4235763329871647 25:-0.5060826453826722 26:-0.5923727284285485 27:0.5094339622641508 28:-0.4732252576976571 29:-0.1887285367049074 30:-0.11531814456518474 
3.0878858830851557 1:-0.25634848331477533 2:-0.2573529411764707 3:-0.014545454545454639 4:-0.1033898305084745 5:-0.13898305084745755 6:-0.259425793711074 7:-0.8447422680412371 8:-0.8676950872072823 9:-0.9907909110771248 10:-0.38914866890878885 11:-0.9787192502928543 12:-0.190285286534143 13:-0.20850237129306892 14:-0.17741186023955058 15:-0.05662337662337669 16:-0.2616483043023329 17:-0.24962339383965848 18:-0.573972320831904 19:-0.11013014906112839 20:-0.19601203606802653 21:-0.09170953925232472 22:7.9216098380952E-4 23:-0.12665646199586822 24:-0.49911194811004467 25:-0.5738482844677637 26:-0.6876774380844333 27:0.6226415094339621 28:-0.24317902124311053 29:-0.08355096132584339 30:-0.011376998602322774 
-0.010724184529045402 1:0.5306452556275578 2:0.4662921348314606 3:0.6960163432073545 4:0.5395162826128355 5:0.4880975052370977 6:0.49073505101996684 7:-0.8248507867607162 8:-0.4471544715447153 9:-0.49855072463768124 10:0.6379438965075312 11:-0.33671742808798644 12:0.5365091439908716 13:0.5521222963083428 14:0.5975007413055451 15:0.6215088282504009 16:0.4708374856412556 17:-0.06183350193690118 18:-0.061474262445708194 19:0.5654178408934931 20:0.53709732756076 21:0.6500116555923832 22:0.6390771110251745 23:0.5151555197047455 24:0.1420649674951262 25:-0.01406938590512663 26:-0.1332760949573718 27:-0.4339622641509434 28:0.4021338343991323 29:-0.07571279440482293 30:0.009272633884671366 
0.18203857349255073 1:0.908616262192584 2:0.8587243886318572 3:0.9620020429009193 4:0.8937345267568084 5:0.9040182822319562 6:0.8940546838023808 7:-0.8264742268041236 8:-0.5284114718591775 9:-0.9619092627599244 10:0.8731302187219219 11:-0.9140439932318105 12:0.8742148709355759 13:0.8840437713289857 14:0.9021868674715849 15:0.9711075441412516 16:0.8874122309875014 17:0.5109932703125859 18:0.64658874969972 19:0.922572676407555 20:0.8734168732151462 21:0.942026331931578 22:0.9376267804133884 23:0.9049305301062665 24:0.7034551882228459 25:0.6246461910717249 26:0.5581343206041747 27:-0.39622641509433965 28:0.8432180461721983 29:-0.014217473968944683 30:0.06377812065940147 
0.13393800446792745 1:-0.5988369425231801 2:-0.5057189542483662 3:-0.2212121212121213 4:-0.4011299435028248 5:-0.39209039548022606 6:-0.5164176393115039 7:-0.8263283108643933 8:-0.47267041901188234 9:0.5695652173913042 10:-0.44571954273871583 11:-0.3620981387478849 12:-0.5670620922740386 13:-0.5102459825482686 14:-0.4930546825895663 15:-0.4275862068965519 16:-0.6825891238844533 17:-0.6438665296501483 18:-0.553975513943332 19:-0.6892423395136186 20:-0.6904559910131693 21:-0.569835654461697 22:-0.5614403475042815 23:-0.7338253291462307 24:-0.6995843948695173 25:-0.866304201605334 26:-0.9048933715876232 27:-0.8490566037735849 28:0.015641658406951642 29:-0.508390917891759 30:-0.4052730671771395 
2.6573014321301955 1:-0.6254175663381897 2:-0.5383344348975547 3:-0.31092951991828366 4:-0.523138449819082 5:-0.4717196724433439 6:-0.5378356387306755 7:-0.6734020618556701 8:-0.47595236153030407 9:-0.9735294117647059 10:-0.5734900044334493 11:-0.9848655762361346 12:-0.653788571903851 13:-0.5479437072043863 14:-0.5132467010612571 15:-0.29740259740259745 16:-0.7179710100326214 17:-0.5299478495841149 18:-0.4823521260051091 19:-0.7061868863971781 20:-0.7774205207757681 21:-0.5622787251575783 22:-0.5785059033532207 23:-0.7575816746481331 24:-0.7338071546669926 25:-0.8857079470749788 26:-0.9287296039564906 27:-0.3584905660377359 28:-0.08790008771882618 29:-0.530498607235989 30:-0.432851550764917 
-0.1130669815689543 1:0.4003358430409798 2:0.37210839391936523 3:0.5630234933605722 4:0.4686726337840412 5:0.42410969339173477 6:0.43114345910745033 7:-0.8178457163170991 8:-0.4224167882704466 9:-0.4905797101449275 10:0.4483021416548514 11:-0.985610719051353 12:0.36724611161939635 13:0.42149406913621523 14:0.44624633100022604 15:0.5132394366197182 16:0.3684381168527755 17:6.957736560473382E-4 18:-0.08777098221565094 19:0.4152305572095576 20:0.381598131947519 21:0.4599369742075552 22:0.437535563307232 23:0.3581843742612132 24:0.001964265746094762 25:-0.14472270622451833 26:-0.25272117127656046 27:-1.0 28:0.5213708544299891 29:-0.13207086059445605 30:-0.05106810888077329 
-0.7319417157791193 1:0.56180185501967 2:0.47906281156530417 3:0.7134052388289678 4:0.5903476012640045 5:0.5656420568802067 6:0.5249235388198319 7:-0.7726804123711339 8:-0.4328719600693829 9:-0.9752497062279671 10:0.6431969363949972 11:-0.9852218765351236 12:0.4623929370777571 13:0.54266522904247 14:0.5897833190391473 15:0.6542372881355933 16:0.5343668835515569 17:0.40853366122471924 18:0.2420530370231535 19:0.5964601598744765 20:0.538765182531705 21:0.6686290657147493 22:0.6112684692077244 23:0.5469270639254451 24:0.17638878889660647 25:0.04095207404010015 26:-0.07251659979929048 27:-0.3584905660377359 28:0.5870470343715672 29:-0.15929353688739545 30:-0.08257288099841442 
-0.22999807702295108 1:0.029617344224085906 2:0.02982026143790839 3:0.3424242424242425 4:0.0805084745762712 5:0.05084745762711873 6:-0.07679644553445086 7:-0.684359351988218 8:0.7236306024598713 9:-0.9704893074635321 10:-0.004850515918511489 11:-0.9553722504230119 12:-0.007005712549180698 13:0.022505698422301768 14:0.07044965977934514 15:0.24765270065623413 16:0.051965233701204205 17:0.0632239285755205 18:0.1546559913163621 19:-0.11005795561368914 20:-0.0783639079108488 21:-0.00710383873591558 22:-0.037045388575968174 23:-0.08850001398789786 24:-0.15185475208905597 25:-0.5889328470935393 26:-0.6839384676922864 27:-0.4339622641509434 28:0.6203524993802281 29:-0.3721288417452653 30:-0.23978760368538576 
-0.5851347859370047 1:-0.6328034000134015 2:-0.47923875432525986 3:-0.21638519583183613 4:-0.42051316406511674 5:-0.4516450648055834 6:-0.5186288941825559 7:-0.7345360824742267 8:-0.3461022362277393 9:-0.9616168478260869 10:-0.5089697776036726 11:-0.9842372428533263 12:-0.5943213050070867 13:-0.5654567638151771 14:-0.5448833247494155 15:-0.4738047523618666 16:-0.5788516776274282 17:-0.023086445011478496 18:0.033367538650481254 19:-0.7213439021262281 20:-0.746212916053054 21:-0.6031421416099936 22:-0.5931717245025103 23:-0.7656082366615872 24:-0.2681453330623106 25:-0.8464137867732909 26:-0.8957064013438548 27:-0.3584905660377359 28:0.4927417003817234 29:-0.5643744619718758 30:-0.4312125906263531 
-0.1640010854658544 1:-0.4338383878094999 2:-0.42481495909622147 3:-0.16459963877182404 4:-0.2944213716466494 5:-0.3765854753619935 6:-0.3606235174517113 7:-0.6939963614311704 8:-0.2705274129664371 9:-0.9830052878965923 10:-0.3424183430672725 11:-0.7766497461928934 12:-0.4118731060974742 13:-0.3488047177704311 14:-0.29762438688811643 15:-0.1452887537993922 16:-0.4000009603518727 17:-0.13238750563901436 18:-0.31869972733743224 19:-0.6137920864670006 20:-0.521985894154553 21:-0.45500832765865806 22:-0.4746691353961544 23:-0.5910819132413345 24:-0.42653556665925585 25:-0.8076248535657797 26:-0.8649612305708082 27:0.9245283018867925 28:0.49710634688641764 29:-0.6780852302652572 30:-0.529549911575051 
-0.20285704735583823 1:-0.3273781282202398 2:-0.3655462184873952 3:-0.05522898154477074 4:-0.24442462087421946 5:-0.3380909901873327 6:-0.3476051626060508 7:0.01855670103092777 8:-0.4703146793638132 9:-0.9667814009661836 10:-0.25495935034014416 11:-0.982481119227436 12:-0.3771589332149541 13:-0.26154009291721614 14:-0.21983340881791147 15:-0.16043956043956054 16:-0.29601957163021697 17:-0.22369515208716528 18:-0.13809194741154873 19:-0.36760324241813824 20:-0.3813442838393264 21:-0.2298998640840646 22:-0.24775482861580878 23:-0.4171766602739635 24:-0.30300038904512006 25:-0.7111118254834612 26:-0.796896089683171 27:-0.3584905660377359 28:0.49229788774183514 29:-0.6406820021970654 30:-0.5150705093168684 
-1.809371637292578 1:-0.5026287563081357 2:-0.4635854341736696 3:-0.12727272727272732 4:-0.2009685230024213 5:-0.49152542372881336 6:-0.3999454212311414 7:-0.8515463917525773 8:-0.8564480707418881 9:-0.989181706316653 10:-0.4333912180600349 11:-0.9788494077834179 12:-0.5529124733150351 13:-0.4667019027484144 14:-0.4713020894817611 15:-0.004081632653061273 16:-0.4911177741238676 17:-0.21964762130354576 18:-0.481540057896647 19:-0.5214631497942783 20:-0.4893531351837527 21:-0.42371327845362694 22:-0.5216101346482205 23:-0.5785097823371697 24:-0.8647427790749589 25:-0.9349985699263659 26:-1.0 27:-0.018867924528301883 28:-0.5279241626893703 29:-0.9673315220340502 30:-0.9844034160306471 
-1.1630459968301308 1:-0.48755836026884203 2:-0.19747899159663895 3:-0.2883116883116882 4:-0.2009685230024213 5:-0.22033898305084743 6:-0.36563876651982397 7:-0.8483191393993725 8:-0.7864872441827866 9:-0.9884534706331045 10:-0.2958291172434985 11:-0.9857101311336718 12:-0.3327233912778287 13:-0.3056790843478894 14:-0.35556854037630015 15:-0.4204081632653064 16:-0.28832575684302175 17:-0.19798549885583971 18:-0.4920222728926188 19:-0.6111819062200599 20:-0.3000486681204666 21:-0.514332407881293 22:-0.5011652709868502 23:-0.5626686718688353 24:-0.9120008485951377 25:-0.9489731447133788 26:-0.9981078524124882 27:-0.018867924528301883 28:-0.30358997741659777 29:-1.0 30:-1.0 
0.5221119901346188 1:0.5961976876730175 2:0.4117647058823528 3:0.8220095693779903 4:0.6681534344335416 5:0.5504014272970561 6:0.5177997380640553 7:-0.8454103092783505 8:-0.6689427707603877 9:-0.9855345911949686 10:0.8121914652429878 11:-0.9661590524534687 12:0.47483989021043005 13:0.5540433403805496 14:0.6256825075834174 15:0.6481203007518794 16:0.5253536685315183 17:0.48838290029096654 18:0.09059386506377942 19:0.6791015745640661 20:0.6169461552297089 21:0.6834915684290701 22:0.6493346483479436 23:0.5866817034411385 24:-0.10222641005191635 25:-0.3230904451819522 26:-0.5845155481705606 27:0.320754716981132 28:0.37994930455290277 29:-0.8558741921370474 30:-0.7996101689472008 
0.5384935365332796 1:-0.11433473521226956 2:-0.17647058823529427 3:0.03885167464114847 4:-0.028724353256021518 5:-0.10900981266726117 6:0.019244145606306384 7:-0.8456185567010309 8:-0.8634896810506566 9:-0.9905309364548495 10:-0.017470747231201678 11:-0.9860856103970911 12:-0.20583476773096399 13:-0.09080898388992031 14:-0.0656121751025992 15:0.06440677966101704 16:-0.14214566861365796 17:-0.7872837577845182 18:-0.7666664570639177 19:-0.010693154163003205 20:-0.05628034049594566 21:0.07033129107917269 22:0.09172687368688837 23:-0.0591269238076646 24:-0.49187007427821594 25:-0.6245266515766745 26:-0.7205278974235287 27:0.2075471698113207 28:-0.6400882630149909 29:-0.664262584159176 30:-0.5977768557532259 
-4.0 1:-0.9260675126337872 2:-0.8726533166458073 3:-0.8707930367504837 4:-0.7774972953479984 5:-0.8175261449693472 6:-0.9950281314646371 7:-0.8460885385081868 8:-0.871797922482039 9:-0.9912553121935272 10:-0.8879017217147422 11:-0.9764053393495018 12:-0.7481058907246947 13:-0.8753528220227355 14:-0.8832848837209301 15:-0.8487394957983195 16:-0.8747151309180861 17:-0.8202228215599033 18:-0.7942500327771 19:-0.8002098060502227 20:-0.7073830132263699 21:-0.7676525455864218 22:-0.7047028714827108 23:-0.7758111900169112 24:-0.8225598290668547 25:-0.8847710338715721 26:-0.9348413756763823 27:0.018867924528301883 28:0.2887018102521799 29:-0.5096911941538882 30:-0.4043361896893688 
-1.4807310845241848 1:-0.46745622026520894 2:-0.4862327909887362 3:-0.5470019342359769 4:-0.576271186440678 5:-0.48431301839163343 6:-0.4451424549696321 7:-0.8395501405810684 8:-0.909749148773539 9:-0.9913394109396915 10:-0.46160253206730006 11:-0.9890233849624712 12:-0.3495799717208685 13:-0.40763921906064216 14:-0.4207568769829588 15:-0.5361781076066793 16:-0.41520632380483413 17:-0.8236106197383675 18:-0.78121419419143 19:-0.3053316303813236 20:-0.18741187327451225 21:-0.2452397260784812 22:-0.19116582483515954 23:-0.2742937944554872 24:-0.4720653488258759 25:-0.5884575246361032 26:-0.6832139615275505 27:0.35849056603773577 28:-0.1842935288272176 29:-0.655588619332613 30:-0.591392285344802 
4.0 1:-0.9051186017478152 2:-0.8132040050062581 3:-0.834816247582205 4:-0.8110349801658854 5:-0.7872340425531915 6:-0.9187469407733726 7:-0.7958762886597938 8:-0.8642621025896287 9:-0.9912531969309463 10:-0.7861172506530243 11:-0.9912321181356715 12:-0.7926436204246872 13:-0.8233638651454969 14:-0.8106623533101158 15:-0.8285714285714288 16:-0.8616166845885275 17:-0.829142353931587 18:-0.7119665439957936 19:-0.7636723290847008 20:-0.5835077554752024 21:-0.6927857113683593 22:-0.6025946601155905 23:-0.7294010458480618 24:-0.8534209995105846 25:-0.8896822708010382 26:-0.9478364570193989 27:-0.018867924528301883 28:0.10427566654118414 29:-0.5321829481150988 30:-0.4113215347257859 
4.0 1:-1.0 2:-0.8726533166458073 3:-0.834816247582205 4:-0.8781103498016591 5:-0.8478182473855032 6:-0.9943328979700266 7:-0.8447985004686036 8:-0.8559199499687304 9:-0.9911399787910923 10:-0.8730094412253331 11:-0.9912107539011092 12:-0.7353808250961258 13:-0.9114766181119925 14:-0.929600425857537 15:-0.8285714285714288 16:-0.9336581394011002 17:-0.8806696292927833 18:-0.7451928197790347 19:-0.8199044055836763 20:-0.6729037755264393 21:-0.7852282790589244 22:-0.7346379979024587 23:-0.795653541578827 24:-0.7617364164068148 25:-0.8373829984620136 26:-0.9108004751918013 27:-0.018867924528301883 28:0.16652170944531708 29:-0.5695316486924574 30:-0.4590335970872329 
4.0 1:-0.9420395048824629 2:-0.932102628285357 3:-0.8707930367504837 4:-0.8445726649837721 5:-0.8781103498016588 6:-0.9503080137013761 7:-0.8470618556701031 8:-0.8841698742126199 9:-0.9906559877955758 10:-0.8795797173281943 11:-0.9716582064297801 12:-0.8340000837175372 13:-0.9238349352657591 14:-0.8915298838853983 15:-0.8218487394957985 16:-0.9467565857306589 17:-0.8990316745184087 18:-0.7977013610115603 19:-0.7468403289631639 20:-0.697493684028528 21:-0.6508478153889272 22:-0.6214758524931089 23:-0.7699697387066546 24:-0.9210572534496708 25:-0.9441612915064345 26:-0.9731768656382813 27:-0.018867924528301883 28:0.16128988828390822 29:-0.5156721088561036 30:-0.41764873193989105 
-1.1133682017762625 1:-0.9886306500436097 2:-0.98292220113852 3:-1.0 4:-1.0 5:-0.928922908693275 6:-0.976416812957504 7:-0.8470065260569375 8:-0.787445134860664 9:-0.9905720823798627 10:-0.9903286868600709 11:-0.9898007144200037 12:-0.8860933211344921 13:-0.9792805974788364 14:-0.945568446287644 15:-1.0 16:-0.993624464003611 17:-0.8461574732851072 18:-0.8930895232858002 19:-0.7866659358354402 20:-0.7299611464881417 21:-0.7049089697832196 22:-0.6286478777370104 23:-0.792449995106383 24:-0.9043696318589903 25:-0.9354248571876084 26:-0.9703794480475825 27:-0.018867924528301883 28:-0.045765393621275074 29:-0.5795358820782104 30:-0.48399390294502 
-0.4403684142795915 1:0.46241702821967623 2:0.5343137254901957 3:0.4363636363636365 4:0.47457627118644075 5:0.5254237288135599 6:0.29611185596628986 7:-0.5871134020618556 8:-0.512978220083204 9:-0.930359820089955 10:0.45930222139926036 11:-0.985064427957829 12:0.41862356409474444 13:0.4475891700197774 14:0.4419896640826875 15:0.34285714285714297 16:0.47115022944406837 17:-0.1693318902426938 18:-0.20049835766826052 19:0.4248988345962579 20:0.4681319671384252 21:0.36005820256437926 22:0.43081697056093415 23:0.4209027519982995 24:-0.07588093504146376 25:-0.30176726053019376 26:-0.4822793100938797 27:-0.3584905660377359 28:0.00628570246378457 29:-0.34433869544843065 30:-0.28360869997820704 
0.2719051917061235 1:0.4396709994859369 2:0.5343137254901957 3:0.4363636363636365 4:0.47457627118644075 5:0.5254237288135599 6:0.29140500515512224 7:-0.40309278350515454 8:-0.6215722384093745 9:-0.817391304347826 10:0.6072923538230881 11:-0.985922165820643 12:0.39158279963403486 13:0.48456545648296423 14:0.45793281653746787 15:0.19999999999999973 16:0.5546528247950049 17:-0.05897355124802828 18:-0.04126022740530322 19:0.3891300907657238 20:0.4652027235163321 21:0.40867937614521277 22:0.419457887549022 23:0.3982362828192789 24:-0.07588093504146376 25:-0.30176726053019376 26:-0.4822793100938797 27:-1.0 28:0.11279084727483624 29:-0.34193921548262185 30:-0.2689144155989862 
0.26711746937544806 1:-0.05758881031176577 2:-0.02298296367727426 3:0.24232488822652765 4:0.08696860238955262 5:0.0041678243956655425 6:0.017545475780795128 7:-0.8171588327800104 8:-0.50293143741154 9:-0.7217391304347827 10:0.02044552944766531 11:-0.9856338669790446 12:-0.03616314344874094 13:-0.010948415642633047 14:0.019405405772219275 15:-0.034269885239414544 16:-0.062402826722580906 17:-0.01988149835140285 18:-0.13229068471905137 19:-0.035326933812089845 20:0.004533900862004225 21:0.014730028109090076 22:0.085955339316925 23:-0.006956733338373433 24:-0.055657164093108835 25:-0.09858861438799338 26:-0.22358536315221256 27:-1.0 28:0.3875089670046601 29:-0.2365691770996684 30:-0.16845230332387617 
-4.0 1:-0.8840092543600276 2:-0.8960084033613448 3:-0.6506493506493507 4:-0.6888619854721549 5:-0.830508474576271 6:-0.9620675958691415 7:-0.8428865979381444 8:-0.8085920817628134 9:-0.990879642959977 10:-0.8625362643353648 11:-0.9821630005640158 12:-0.7745501677340654 13:-0.8961232458025878 14:-0.8612368024132729 15:-0.7 16:-0.8509741969457609 17:-0.7606780723829942 18:-0.7554101433775688 19:-0.744717065979177 20:-0.8084465845664147 21:-0.7332919881187421 22:-0.7132113434433967 23:-0.7823354048551647 24:-0.9360861394391433 25:-0.9625825216825269 26:-0.988003695190658 27:0.5471698113207546 28:-0.829487282930623 29:-0.4742245679601088 30:-0.38102046143199664 
0.5920407992779005 1:0.3584001403204671 2:0.23494397759103602 3:0.0740259740259741 4:0.13680387409200967 5:0.22033898305084754 6:0.23235542225138262 7:-0.8429240862230553 8:-0.8797105333690699 9:-0.9913483287258105 10:0.26347285268785026 11:-0.987001999692355 12:0.42431144903303175 13:0.36859175635961505 14:0.35751475182228387 15:0.19133004926108366 16:0.40741951299231927 17:-0.3235491130870488 18:-0.04280003500045704 19:0.5433074432250724 20:0.5811257945892683 21:0.5528107020051143 22:0.5818199553629371 23:0.5575949074061965 24:0.6862766870724097 25:0.6853427742849494 26:0.6823135788182706 27:0.05660377358490565 28:-0.1253457751788032 29:-0.5582781224003788 30:-0.5080438598047747 
4.0 1:-0.9562891427038515 2:-0.906574394463668 3:-0.7903743315508023 4:-0.8173479561316053 5:-0.8759720837487537 6:-1.0 7:-0.8391752577319588 8:-0.7728289483252614 9:-0.9909141583054627 10:-0.8931250952064076 11:-1.0 12:-0.8387719833282503 13:-0.9080264959695983 14:-0.8836227896461679 15:-0.7500000000000001 16:-0.9309975174904087 17:-0.7436858465945002 18:-0.7331382996125655 19:-0.8236678389848375 20:-0.7754993329341093 21:-0.7502577203335045 22:-0.7461793809488546 23:-0.8470434877627516 24:-0.8975264729725587 25:-0.9092981340220009 26:-0.9331611518875667 27:0.5094339622641508 28:-0.46996865209489846 29:-0.5073002557554623 30:-0.3943321639807644 
4.0 1:-0.8616407913344835 2:-0.8079584775086505 3:-0.6710160427807486 4:-0.7060817547357927 5:-0.8089730807577267 6:-0.944462252832297 7:-0.8439722280664843 8:-0.7877923702313945 9:-0.9906547465912015 10:-0.8666098260773769 11:-0.9840822209688538 12:-0.8151113144251295 13:-0.9080264959695983 14:-0.8528528528528525 15:-0.6785714285714285 16:-0.857932746558339 17:-0.7469487109160725 18:-0.7801878261462902 19:-0.693507985503033 20:-0.830889869058168 21:-0.6738828845734586 22:-0.6852486928517034 23:-0.7678209376574963 24:-0.8500029173873432 25:-0.8972689848552404 26:-0.9317843516372797 27:0.5094339622641508 28:-0.8769373200252261 29:-0.47404404164773417 30:-0.3899789544251504 
0.7590701792623501 1:-0.9528167110699255 2:-0.9625350140056024 3:-0.9727272727272726 4:-0.9140435835351092 5:-0.9322033898305085 6:-0.9648356789208999 7:-0.8410785091197462 8:-0.7515044841170061 9:-0.9902239000260349 10:-0.9546029033264938 11:-0.8697123519458545 12:-0.941526888278947 13:-1.0 14:-0.9446299024635868 15:-0.8895238095238098 16:-0.9502495047518743 17:-0.7258015138162748 18:-0.7335183849419722 19:-0.7451433759753234 20:-0.8790900167868033 21:-0.7012829076088871 22:-0.70280681132528 23:-0.7881374404862103 24:-0.8909617027810144 25:-0.8997886110758806 26:-0.9256766074742834 27:0.5094339622641508 28:-1.0 29:-0.5447321543521301 30:-0.4607974101992982 
0.5891292724340113 1:-0.8576882631150895 2:-0.8960084033613448 3:-0.6909090909090908 4:-0.7263922518159807 5:-0.830508474576271 6:-0.9358786098874204 7:-0.8441763544636982 8:-0.7965266753259248 9:-0.9905523255813954 10:-0.8831888403624277 11:-0.983502538071066 12:-0.8218715055403071 13:-0.9436535467242174 14:-0.8880615502712885 15:-0.6571428571428571 16:-0.9136011434589634 17:-0.6851665843149244 18:-0.6843369309390508 19:-0.6978513691807118 20:-0.8095373832657771 21:-0.6739673248724098 22:-0.6788124194358445 23:-0.7596138394066138 24:-0.8815861219107962 25:-0.9082926351098455 26:-0.9331611518875667 27:0.6226415094339621 28:-0.758747467882493 29:-0.4636461307225209 30:-0.38988977559594207 
-0.9037528624368645 1:0.6116340375747356 2:0.5529411764705878 3:0.7970909090909091 4:0.6216949152542373 5:0.5444067796610172 6:0.5622373187794725 7:-0.8521975040694519 8:-0.843664194883707 9:-0.9906870638754697 10:0.6210899075349203 11:-0.9849327209733301 12:0.44999085086916724 13:0.6443017670034299 14:0.6693528816986853 15:0.7531428571428569 16:0.584157075152336 17:0.779823861046324 18:0.42187589656657587 19:0.6643674673958564 20:0.525305745576266 21:0.696290653638755 22:0.6507446166134991 23:0.6026118249947192 24:0.13422741678620898 25:-0.04430461169848132 26:-0.2473036896877957 27:0.5849056603773584 28:0.3844014919919354 29:0.377656764301034 30:0.43558027331617866 
4.0 1:0.4820095044127628 2:0.32941176470588207 3:0.7294545454545458 4:0.55864406779661 5:0.4305084745762713 6:0.4895451048213031 7:-0.8564948453608248 8:-0.8634896810506566 9:-0.9898309178743961 10:0.5348313685102737 11:-0.985053581500282 12:0.29910338517840795 13:0.48728336139560247 14:0.5534529443024523 15:0.6502857142857146 16:0.3937711577522005 17:0.7942286945304968 18:0.43541348370946986 19:0.5643369374748226 20:0.34762878341073966 21:0.6253087667666557 22:0.5981339173224092 23:0.46984727027452755 24:-0.08838753483934625 25:-0.24533225030710581 26:-0.41112162304215283 27:0.35849056603773577 28:0.3544378470430205 29:0.4106353099324518 30:0.45997670773193566 
-3.5043229136079606 1:0.4820095044127628 2:0.32941176470588207 3:0.7294545454545458 4:0.55864406779661 5:0.4305084745762713 6:0.4895451048213031 7:-0.8564948453608248 8:-0.8634896810506566 9:-0.9898309178743961 10:0.5348313685102737 11:-0.985053581500282 12:0.29910338517840795 13:0.48728336139560247 14:0.5534529443024523 15:0.6502857142857146 16:0.3937711577522005 17:0.780296830809341 18:0.4045348467314547 19:0.5643369374748226 20:0.34762878341073966 21:0.6253087667666557 22:0.5981339173224092 23:0.46984727027452755 24:-0.08838753483934625 25:-0.24533225030710581 26:-0.41112162304215283 27:0.35849056603773577 28:0.30269886678713553 29:0.4106353099324518 30:0.45997670773193566 
-0.6301667325815046 1:0.4820095044127628 2:0.32941176470588207 3:0.7294545454545458 4:0.55864406779661 5:0.4305084745762713 6:0.4895451048213031 7:-0.8564948453608248 8:-0.8634896810506566 9:-0.9898309178743961 10:0.5348313685102737 11:-0.985053581500282 12:0.29910338517840795 13:0.48728336139560247 14:0.5534529443024523 15:0.6502857142857146 16:0.3937711577522005 17:0.7858428949655314 18:0.44324213285799474 19:0.5643369374748226 20:0.34762878341073966 21:0.6253087667666557 22:0.5981339173224092 23:0.46984727027452755 24:-0.08838753483934625 25:-0.24533225030710581 26:-0.41112162304215283 27:0.39622641509433953 28:0.5227897075052284 29:0.4106353099324518 30:0.45997670773193566 
1.3193377302651212 1:0.46345639379347237 2:0.2735294117647056 3:0.7970909090909091 4:0.55864406779661 5:0.37355932203389863 6:0.42415141539582324 7:-0.8564948453608248 8:-0.8767878572756621 9:-0.9899068322981367 10:0.5216931411594812 11:-0.9849830795262268 12:0.24069533394327514 13:0.4566299618264016 14:0.5353111800926162 15:0.6194285714285717 16:0.3587000677048069 17:0.5548831499742561 18:0.25318785931127863 19:0.5579483937027543 20:0.34087379755962477 21:0.6234212261421628 22:0.5707525631375561 23:0.45083202577136294 24:-0.1668191477362997 25:-0.29808701829187423 26:-0.4336592031956269 27:0.320754716981132 28:0.39123094248724843 29:0.38310702619258485 30:0.42990443596512806 
-4.0 1:0.873248157545004 2:0.7764705882352938 3:0.9323636363636365 4:0.9369491525423728 5:0.8861016949152543 6:0.9306167400881058 7:-0.8460481099656357 8:-0.8450505925177595 9:-0.9903465346534653 10:0.9172495200363615 11:-0.9923857868020305 12:0.8491125343092407 13:0.8444234448106578 14:0.8849605684194608 15:0.8971428571428568 16:0.8096140825998646 17:0.8897284695556771 18:0.7448012365000094 19:0.9038741433169903 20:0.8193627888523394 21:0.9291779377230351 22:0.9495231815804575 23:0.8702838549129976 24:0.7220563521493515 25:0.6766772174266853 26:0.6245979186376538 27:0.9622641509433962 28:0.7744255119136323 29:0.6240269482431677 30:0.6352289247930103 
3.4578981350922198 1:0.873248157545004 2:0.7764705882352938 3:0.9323636363636365 4:0.9369491525423728 5:0.8861016949152543 6:0.9306167400881058 7:-0.8460481099656357 8:-0.8450505925177595 9:-0.9903465346534653 10:0.9172495200363615 11:-0.9923857868020305 12:0.8491125343092407 13:0.8444234448106578 14:0.8849605684194608 15:0.8971428571428568 16:0.8096140825998646 17:0.945668219506528 18:0.7620628510372822 19:0.9038741433169903 20:0.8193627888523394 21:0.9291779377230351 22:0.9495231815804575 23:0.8702838549129976 24:0.7220563521493515 25:0.6766772174266853 26:0.6245979186376538 27:1.0 28:0.7805991632431786 29:0.6240269482431677 30:0.6352289247930103 
0.6346091489114638 1:0.873248157545004 2:0.7764705882352938 3:0.9323636363636365 4:0.9369491525423728 5:0.8861016949152543 6:0.9306167400881058 7:-0.8460481099656357 8:-0.8450505925177595 9:-0.9903465346534653 10:0.9172495200363615 11:-0.9923857868020305 12:0.8491125343092407 13:0.8444234448106578 14:0.8849605684194608 15:0.8971428571428568 16:0.8096140825998646 17:0.8113500506567008 18:0.6759905751923316 19:0.9038741433169903 20:0.8193627888523394 21:0.9291779377230351 22:0.9495231815804575 23:0.8702838549129976 24:0.7220563521493515 25:0.6766772174266853 26:0.6245979186376538 27:0.9622641509433962 28:0.6151471920430014 29:0.6240269482431677 30:0.6352289247930103 
-0.3649404916394743 1:0.5866252090547195 2:0.47610294117647056 3:0.7886363636363638 4:0.6059322033898304 5:0.4661016949152543 6:0.7643587399218688 7:-0.8477398889770024 8:-0.7658799907837135 9:-0.9906789755807028 10:0.6635856828867122 11:-0.987098138747885 12:0.37637236962488574 13:0.5948406373173447 14:0.6942859426196755 15:0.8714285714285712 16:0.5772681110358835 17:0.29476462499985945 18:0.13263420134061654 19:0.6784468372408843 20:0.48749489851394734 21:0.8483559039317827 22:0.7650534457026408 23:0.5769331236906974 24:-0.41557957747471963 25:-0.5832245229602979 26:-0.8095811473294918 27:0.35849056603773577 28:0.35970963386700583 29:-0.7278731402107466 30:-0.6901587541746499 
2.302902181725387 1:0.1645150266078017 2:0.1419638721630383 3:0.38754473872584105 4:0.2553049512878687 5:0.2376885092753238 6:0.13737751792916675 7:-0.8290534208059981 8:-0.7196647904940587 9:-0.8054347826086956 10:0.22251258843775856 11:-0.9798602412815611 12:0.12042993710873051 13:0.20737448543313053 14:0.24222495146784984 15:0.17250268528463986 16:0.171549053998582 17:-0.6865482199418087 18:-0.7021561479933518 19:0.18729573697469282 20:0.17337620599894366 21:0.27941994173026363 22:0.21011995883120727 23:0.14259834963223028 24:-0.2801961621792526 25:-0.4501983750212645 26:-0.5506824356707732 27:0.9245283018867925 28:0.19113572786730648 29:-0.20220372470443349 30:-0.11604273140504484 
2.9381010168365758 1:-0.1788322857948733 2:-0.14304812834224612 3:0.07768595041322324 4:-0.05084745762711873 5:-0.07858243451463776 6:-0.28791759413621953 7:-0.8250500076934912 8:-0.7885127692362631 9:-0.9894323671497585 10:-0.17034203441154194 11:-0.9768567993588031 12:-0.13251831627176525 13:-0.1541749786263893 14:-0.15939093330165222 15:-0.16220472440944889 16:-0.12629878611145173 17:-0.7981254227704574 18:-0.7903384242342542 19:-0.11904201253413504 20:-0.10808231968899928 21:-0.1453190822263869 22:-0.16012169896304673 23:-0.14470253464030325 24:-0.28538695445226103 25:-0.4013420815101937 26:-0.48250510431224014 27:0.9245283018867925 28:-0.19381796268528562 29:-0.3480661380306109 30:-0.2757426246314769 
-0.9432784094148894 1:0.09661884485022232 2:0.053960166743862725 3:0.3609162491052256 4:0.1808354464166555 5:0.12558387828640072 6:0.06507437572301611 7:-0.8289761548752655 8:-0.6624142443075886 9:-0.9905147380564063 10:0.19247813094067578 11:-0.9714618080734831 12:0.04952777517631879 13:0.15516182384387323 14:0.18844736737847145 15:0.13745781777277832 16:0.07489644363174985 17:-0.7761143274376956 18:-0.8163950974343404 19:0.1245305665010088 20:0.14033579376016814 21:0.21224688311178053 22:0.14699225734664711 23:0.07764072495524377 24:-0.2986347374180961 25:-0.4344936636700737 26:-0.5192991325995001 27:0.9245283018867925 28:0.11067301979294575 29:-0.20448633735731958 30:-0.11816403042866452 
-1.0152258928375022 1:0.14301759640584022 2:0.09796201945345051 3:0.38754473872584105 4:0.20565861470705982 5:0.17042573068196987 6:0.15727628519029713 7:-0.8297770318868377 8:-0.7193426742778066 9:-0.990713703798988 10:0.19334028906436762 11:-0.979953365523503 12:0.11659738781508655 13:0.18517597313766943 14:0.22468510853705737 15:0.2143982002249718 16:0.11434648867943631 17:-0.7138683865806834 18:-0.7282046069821467 19:0.1739063566266501 20:0.14002695937222676 21:0.24718634756085422 22:0.19364557576302044 23:0.12729498115752058 24:-0.27398400651176824 25:-0.428205608614723 26:-0.5154537476381977 27:0.9622641509433962 28:0.1688919440662282 29:-0.20054323018128106 30:-0.11428298849721741 
-0.24208754756199508 1:-0.7107654078585157 2:-0.6790941728804198 3:-0.5241997439180535 4:-0.6724755311530198 5:-0.6309381714012889 6:-0.5532553928636206 7:-0.4494845360824742 8:-0.31877891518456336 9:-0.9406573498964803 10:-0.5751340556582679 11:-0.9858400431763814 12:-0.6726840391787148 13:-0.7167980011531809 14:-0.6783084388983422 15:-0.5298042059463379 16:-0.730665466080579 17:-0.3312067101648214 18:-0.5021794169555076 19:-0.3144965688224305 20:-0.4150738597844099 21:-0.3614236774693823 22:-0.21968980516692072 23:-0.3350211736084727 24:-0.8361898275121944 25:-0.8492505089635425 26:-0.8766873458262031 27:-0.018867924528301883 28:0.05953019216055222 29:-0.5136003674539302 30:-0.4403736339277906 
-1.1545704203735507 1:-0.49036790136731 2:-0.4862327909887362 3:-0.18723404255319143 4:-0.3415073927154705 5:-0.40808344198174706 6:-0.3381057268722467 7:-0.8081261370527593 8:-0.09870653285287423 9:-0.4915760869565218 10:-0.4795431488949138 11:-0.9855525185474424 12:-0.5031483773747377 13:-0.5252926313618316 14:-0.47032839290903794 15:-0.16346604215456684 16:-0.6262472668346337 17:-0.6420674298284623 18:-0.6016223188801667 19:-0.11355435399116964 20:-0.1731145555753959 21:-0.09315367528595042 22:-0.05360247142012442 23:-0.15868458099863092 24:-0.6528313118998013 25:-0.7732864670258792 26:-0.8132324177912188 27:1.0 28:0.2704320739675017 29:-0.4570692626644295 30:-0.39981478344786403 
4.0 1:-0.665763777421081 2:-0.7240300375469338 3:-0.6549323017408124 4:-0.6768842408943384 5:-0.6963577353047243 6:-0.8048160860517286 7:-0.811958762886598 8:-0.8723037514885159 9:-0.9906851953769951 10:-0.5640929535232385 11:-0.9857714197815721 12:-0.6024286783664643 13:-0.5815605814562953 14:-0.5517114142836335 15:-0.663079777365492 16:-0.6331806311494872 17:-0.8504621700335838 18:-0.7702201427753477 19:-0.4312666269689739 20:-0.4699271089115593 21:-0.39920671099375404 22:-0.34205169870380414 23:-0.46160302229031014 24:-0.7517880334906897 25:-0.838112124374891 26:-0.9056639305092368 27:0.35849056603773577 28:0.23459559045713774 29:-0.4025050397395219 30:-0.2700618798470864 
-4.0 1:-0.5806873929994677 2:-0.6645807259073846 3:-0.5110251450676981 4:-0.6098088712585646 5:-0.6054814280562565 6:-0.7022775508748151 7:-0.8466231853566168 8:-0.8374687304565354 9:-0.9911648061104583 10:-0.6346307169321495 11:-0.9855937656395224 12:-0.5031483773747377 13:-0.5893327398835357 14:-0.5849171766625867 15:-0.6873949579831935 16:-0.6029223695797437 17:-0.6526429096788642 18:-0.6903239869218254 19:-0.36487354154114915 20:-0.5147155033239182 21:-0.35198481364780754 22:-0.3091758913080631 23:-0.42350376042664395 24:-0.7008682218918874 25:-0.7890240673470306 26:-0.8635744149244078 27:0.6981132075471697 28:-0.4049719456574947 29:-0.19007204956042956 30:-0.08913807708750998 
-4.0 1:-0.7276455761097109 2:-0.7537546933667085 3:-0.7268858800773692 4:-0.7104219257122251 5:-0.7569419401370356 6:-0.8408945573397755 7:-0.828041237113402 8:-0.8910935876276056 9:-0.9908026755852842 10:-0.5781495390918403 11:-0.9860805159148229 12:-0.7035681610247029 13:-0.6319726784843065 14:-0.6151154721365975 15:-0.763265306122449 16:-0.6819808492117228 17:-0.8257171642956386 18:-0.6597651875567049 19:-0.5055147503038856 20:-0.500308476057485 21:-0.47657879281916893 22:-0.41325385273391546 23:-0.5343254911500805 24:-0.8048802815270438 25:-0.8678050537758518 26:-0.9222646216925188 27:0.35849056603773577 28:0.19373818170870738 29:-0.42745387995747264 30:-0.29722681638019344 
-2.82362592665215 1:-0.6454400152675395 2:-0.7240300375469338 3:-0.6189555125725337 4:-0.6768842408943384 5:-0.6660656328885683 6:-0.6617181997707595 7:-0.8041237113402062 8:-0.8388748212387986 9:-0.9906436487638534 10:-0.7002576556033362 11:-0.9846477652593785 12:-0.5985863695890068 13:-0.6164124879410497 14:-0.5978929514987441 15:-0.6134453781512605 16:-0.6258446506564713 17:-1.0 18:-0.9914217491299554 19:-0.42191751578585834 20:-0.5943383574958155 21:-0.35766713422234586 22:-0.28525547398111917 23:-0.48695974235648076 24:-0.6457246707712447 25:-0.7001031629671559 26:-0.7591530533977738 27:0.6603773584905659 28:-0.2603563620801901 29:-0.22946422909204156 30:-0.10773542434478056 
0.9084983600402624 1:-0.6197214571280064 2:-0.6943053817271589 3:-0.5829787234042553 4:-0.7104219257122251 5:-0.6660656328885683 6:-0.5575833857772186 7:-0.8437219138250066 8:-0.8302755548748579 9:-0.9902173913043478 10:-0.5861224317418756 11:-0.9836001561889887 12:-0.5508673734818723 13:-0.5951147247390305 14:-0.5839493795710411 15:-0.5865546218487397 16:-0.6258446506564713 17:-0.8078017829818651 18:-0.7380763534616175 19:-0.3483507116852885 20:-0.4888448110839523 21:-0.3204096597479814 22:-0.2613379814445632 23:-0.4056666536710406 24:-0.7655571033936736 25:-0.8251614575514068 26:-0.8925078338474126 27:0.6603773584905659 28:-0.22875639745498588 29:-0.2561927126961977 30:-0.14330445136520298 
0.2064769101720096 1:0.8118770032756859 2:0.789690069576217 3:0.8545454545454547 4:0.7966101694915253 5:0.8162930563149264 6:0.7586669220455851 7:-0.23298969072164943 8:-0.843452157598499 9:-0.9910055936943809 10:0.8370879972932581 11:-0.9858714043993232 12:0.7671005125480819 13:0.8123482475747641 14:0.8273205837275934 15:0.8838709677419356 16:0.8087521203252741 17:0.7679559226294048 18:0.5705295919258413 19:0.8228123519973349 20:0.8127444600664491 21:0.8578693336743806 22:0.8463946367800541 23:0.807481001469559 24:0.6152244965535909 25:0.5307316582726995 26:0.4497612404651532 27:-0.3584905660377359 28:0.6547153348298012 29:-0.17940032680378426 30:-0.10251514859579958 
-0.8714636350354019 1:-0.5245897173987061 2:-0.5191319246145061 3:-0.11632833186231217 4:-0.2855027151555045 5:-0.40990620371894015 6:-0.5279387897055416 7:-0.8471368786363173 8:-0.8472277112358721 9:-0.9913374531008607 10:-0.49647074273082425 11:-0.9844291354443638 12:-0.4745169797104568 13:-0.5447259854556182 14:-0.4912337361517385 15:-0.26508785332314777 16:-0.59012161521222 17:0.11813156873828046 18:0.12823035492597779 19:-0.5131872141209448 20:-0.7694015358156061 21:-0.5138424761968383 22:-0.4826028425148561 23:-0.6189365903284548 24:-0.8482554500089998 25:-0.9061198418428081 26:-0.9496274163594911 27:0.6603773584905659 28:-0.4638734308607153 29:-0.3908267565600595 30:-0.3085959077415108 
4.0 1:-0.6371351667193502 2:-0.7240300375469338 3:-0.6189555125725337 4:-0.6433465560764514 5:-0.6357735304724125 6:-0.6697109702374557 7:-0.8472164948453609 8:-0.831897001741791 9:-0.9903010033444816 10:-0.72109786690813 11:-0.9833212472806382 12:-0.5985863695890068 13:-0.6164124879410497 14:-0.6072300896453162 15:-0.6403361344537817 16:-0.6585907664803681 17:-0.8008377401944773 18:-0.8151122648546706 19:-0.4364098621281923 20:-0.5501382264628634 21:-0.4090176971348103 22:-0.33526703554336923 23:-0.4798110882850749 24:-0.6278868209047914 25:-0.7018852086627402 26:-0.7846057602698909 27:0.7735849056603772 28:-0.3898603336267793 29:-0.19528743297791995 30:-0.10119845183821186 
4.0 1:-0.298513673828113 2:-0.44362745098039247 3:0.041818181818181976 4:-0.1559322033898306 5:-0.23389830508474574 6:-0.16477596950537554 7:-0.8484536082474227 8:-0.8543142494362006 9:-0.9911940768746061 10:0.0028849503361283446 11:-0.9853898216842379 12:-0.3898059023235767 13:-0.2575094718774201 14:-0.1386330424616926 15:0.18394332939787472 16:-0.42230453734115947 17:-0.7469487109160725 18:-0.6866621640358532 19:-0.2500951234041595 20:-0.28917096941188747 21:-0.1038671191801056 22:-0.026553011992334286 23:-0.3436471554553414 24:-0.7495599900631684 25:-0.7537187156141834 26:-0.7898602741501872 27:0.018867924528301883 28:-0.40145895247600083 29:-0.12111196884790731 30:0.053581821847148214 
-4.0 1:0.7848556734523742 2:0.7671568627450975 3:0.8309090909090908 4:0.8423728813559321 5:0.8101694915254238 6:0.7854125982106364 7:-0.8444329896907217 8:-0.8295429488791319 9:-0.9908957175547565 10:0.8335493907181746 11:-0.9859524816694868 12:0.732695393937576 13:0.8171324516596967 14:0.8323852644577074 15:0.881967213114754 16:0.765918954016227 17:0.016463050075572916 18:-0.28296647689238774 19:0.7733853184905164 20:0.7838244398789658 21:0.8041085133627397 22:0.8407450328683328 23:0.7750887337534382 24:0.5526796004575092 25:0.4526725984232407 26:0.36964454656034573 27:-1.0 28:0.20491816026688037 29:-0.25773843799614427 30:-0.08533221042889594 
-3.672077855472898 1:-0.8972721495165636 2:-0.8161764705882355 3:-0.5218181818181815 4:-0.7338983050847457 5:-0.7559322033898302 6:-0.7048964504531875 7:-0.8461204557786218 8:-0.8917259795308575 9:-0.9909850543478261 10:-0.8083685430012265 11:-0.9848655762361346 12:-0.7953294437028482 13:-0.8120305804390638 14:-0.7910605310902192 15:-0.3995316159250586 16:-0.9465686981808495 17:-0.7072748943241587 18:-0.7594639124769933 19:-0.9214099418193257 20:-0.9714518831292771 21:-0.8235483669274656 22:-0.8103650451874924 23:-0.9323441853569229 24:-0.9829135090979068 25:-0.9737215190407739 26:-0.9881132485721457 27:0.35849056603773577 28:-0.49573458534651293 29:-0.5564984630231887 30:-0.4397803827111144 
-4.0 1:-0.34174333154397185 2:-0.30392156862745123 3:-0.014545454545454639 4:-0.1559322033898306 5:-0.18644067796610142 6:-0.20975940359200285 7:-0.8439333862014274 8:-0.8197578149555907 9:-0.9903167701863353 10:-0.023437648264475475 11:-0.9840464104423495 12:-0.409918867624931 13:-0.27943427863235404 14:-0.18651371363020108 15:-0.05407319952774514 16:-0.3477732952097451 17:-0.7057606265153071 18:-0.6116273082841794 19:-0.25069343166162406 20:-0.3304369030093608 21:-0.1000835884779151 22:-0.08832357551849523 23:-0.3251724459634632 24:-0.7257565466746867 25:-0.832015895199073 26:-0.8951429566404006 27:-0.018867924528301883 28:-0.3904968579744921 29:-0.1528593462441835 30:0.029646595188281166 
-1.1685299032814724 1:-0.3107730008652757 2:-0.30392156862745123 3:0.041818181818181976 4:-0.1559322033898306 5:-0.13898305084745755 6:-0.08978942269991019 7:-0.8470825805080242 8:-0.8871046540840162 9:-0.9907039337474121 10:-0.004367381526628078 11:-0.9807026025300137 12:-0.3898059023235767 13:-0.19825974525186507 14:-0.08656049882035732 15:0.12443919716646978 16:-0.3560545443354578 17:-0.6869971658438474 18:-0.6640304406448092 19:-0.2223952127183194 20:-0.2487440556029772 21:-0.012150148582606768 22:0.07249812979154058 23:-0.2968780768037358 24:-0.7475326158711697 25:-0.8347579513194044 26:-0.895688462767293 27:-0.018867924528301883 28:-0.33561836507274223 29:-0.1859684935596082 30:0.003122859710072756 
4.0 1:-0.6874606356944702 2:-0.7240300375469338 3:-0.7268858800773692 4:-0.6768842408943384 5:-0.6963577353047243 6:-0.7954688483322847 7:-0.829278350515464 8:-0.8538862908720936 9:-0.9912435862813934 10:-0.6194306407627048 11:-0.9858996051889453 12:-0.6593196373617232 13:-0.6092198745062087 14:-0.5889786254094902 15:-0.6697588126159557 16:-0.6266739354078554 17:-0.7977910106239667 18:-0.7231076654009521 19:-0.45745197183187014 20:-0.5030420633888113 21:-0.4323132723413793 22:-0.3824894842470411 23:-0.4847451347313707 24:-0.7921289616534278 25:-0.8611862857684502 26:-0.9197094516578647 27:0.320754716981132 28:0.2298464214718976 29:-0.3989598364523925 30:-0.26454865637800506 
4.0 1:-0.3673326388372149 2:-0.35049019607843146 3:-0.014545454545454639 4:-0.1559322033898306 5:-0.2813559322033896 6:-0.17896621064010332 7:-0.8508836524300442 8:-0.8647948070992646 9:-0.9909646739130434 10:-0.06919588064909643 11:-0.985630224511958 12:-0.409918867624931 13:-0.2888074235307595 14:-0.17865448504983383 15:-0.020070838252656653 16:-0.3933201654011652 17:-0.6547155646511106 18:-0.6624870103789282 19:-0.22603138718999105 20:-0.31885754839172653 21:-0.06193029497753044 22:-0.09369089859113999 23:-0.3559617647544734 24:-0.8202159502683066 25:-0.8701400926595481 26:-0.9207817446043386 27:-0.018867924528301883 28:-0.3592965247999408 29:-0.12707529608472257 30:0.045067515138017766 
4.0 1:-0.6278558052434455 2:-0.4901960784313727 3:-0.29636363636363616 4:-0.31355932203389825 5:-0.5186440677966101 6:-0.4907488986784141 7:-0.8309278350515463 8:-0.8402606779451749 9:-0.9909754738015608 10:-0.4083721082238173 11:-0.9831662978871101 12:-0.6296889295516928 13:-0.5107078885012712 14:-0.4279519155151106 15:-0.4510204081632655 16:-0.5164667762839734 17:-0.7272565975711809 18:-0.6237081388207113 19:-0.42004866336138025 20:-0.43943192146632726 21:-0.29138426817984386 22:-0.26218124469753146 23:-0.5099613229376974 24:-0.8122601040433648 25:-0.8568982563136561 26:-0.9127367239725349 27:-0.018867924528301883 28:-0.5824502434564945 29:-0.25083203145097765 30:-0.08273538097493538 
4.0 1:-0.3010950715579037 2:-0.2573529411764707 3:-0.014545454545454639 4:-0.1033898305084745 5:-0.18644067796610142 6:-0.09856828193832623 7:-0.8525773195876288 8:-0.8440141593350212 9:-0.99085009733939 10:0.04471824238256805 11:-0.9817185315971456 12:-0.30935404111816 13:-0.2091356918943127 14:-0.10848287450988536 15:-0.03707201889020073 16:-0.33121079695831956 17:-0.7535854133225919 18:-0.6968074015587093 19:-0.19744851138207364 20:-0.2271869079978428 21:-0.039749436671897564 22:-0.056219096463754226 23:-0.2978484304479002 24:-0.8729681520685575 25:-0.9230060562721023 26:-0.9663315061998454 27:0.09433962264150941 28:-0.320038657388686 29:-0.11023726225073105 30:0.05497504953122845 
-0.458654277376879 1:-0.07173108906195436 2:-0.01797075566469508 3:0.07593582887700556 4:-0.046859421734795514 5:4.1810053709845363E-4 6:-0.06355130400963338 7:-0.8434672838207448 8:-0.7461384640085871 9:-0.9904796621723981 10:0.06216508633876949 11:-0.985916193888723 12:-0.04377350818338921 13:0.00514099741806362 14:0.04737102131508486 15:-0.14805194805194832 16:-0.06984537316290873 17:-0.7469487109160725 18:-0.7907921679361352 19:-0.3287316024269097 20:-0.19959626249356044 21:-0.14209927856961135 22:-0.10230885236516996 23:-0.2807314630489014 24:0.1517952713457975 25:-0.10044171380114197 26:-0.12783769371692288 27:-0.018867924528301883 28:0.727817400404964 29:-0.8088248795059648 30:-0.777893107459394 
0.6171866090606631 1:0.6287104622871043 2:0.6399332929047907 3:0.721087160262418 4:0.6424951948278874 5:0.6624148174034596 6:0.6174818616614266 7:-0.8425209103287298 8:-0.7581688895118022 9:-0.9909360139266304 10:0.6983812241344762 11:-0.9859118664018245 12:0.6713292649569422 13:0.6594387941936148 14:0.6849308865886026 15:0.647422680412371 16:0.619073211930006 17:-0.6684407352262538 18:-0.6914339467388564 19:0.6387484753836306 20:0.6948122744423417 21:0.7233916571930312 22:0.7231502278193329 23:0.6418643696002972 24:0.5584136456905369 25:0.469046658989134 26:0.3985797825399713 27:-0.018867924528301883 28:0.6118598768778929 29:-0.7046458948642573 30:-0.6636500957370182 
0.7941947303812962 1:0.7919166575760883 2:0.8447712418300652 3:0.8121212121212122 4:0.8248587570621468 5:0.8418079096045199 6:0.7594713656387664 7:-0.7285627653123105 8:-0.4815623400989253 9:-0.7961352657004831 10:0.8467827310834379 11:-0.9853539015975564 12:0.7836738843143234 13:0.8375702573093384 14:0.8236455761985186 15:0.7714285714285711 16:0.7634093131723465 17:0.27151528973582306 18:0.04472649971656173 19:0.7602816733859548 20:0.8753923663057734 21:0.8046824942854645 22:0.8456608608562335 23:0.7729409989042093 24:0.5715544628249012 25:0.4208517748905103 26:0.23149697984135065 27:-0.3584905660377359 28:0.5370468257476615 29:-0.44241334802618715 30:-0.3723368494958126 
-0.3416226919558252 1:-0.12009485630399197 2:-0.08660130718954251 3:-0.12727272727272732 4:-0.05084745762711873 5:-0.10734463276836126 6:0.019864729869151443 7:0.18762886597938166 8:-0.32440207562158774 9:-0.9402777777777778 10:0.13373313343328297 11:-0.9852204841327394 12:-0.257395547422995 13:-0.07127342234064116 14:-0.06591362126245848 15:0.05714285714285694 16:-0.25253893026404883 17:-0.31184444032738157 18:-0.3584801271840854 19:-0.07800011405593232 20:-0.08683953739944206 21:0.008016488112552844 22:0.0453113419850244 23:-0.19003902783370785 24:-0.7272477076497985 25:-0.8559068122826826 26:-0.9235863474274071 27:0.9245283018867925 28:0.20183490538487425 29:-0.5244669857469835 30:-0.4607241997792262 
-0.2975997265759012 1:-0.7113236267016634 2:-0.6244870041039673 3:-0.5414799154334036 4:-0.6129286558927869 5:-0.6157666535277887 6:-0.6037850071248292 7:-0.4494845360824742 8:-0.31877891518456336 9:-0.9406573498964803 10:-0.5827665734912506 11:-0.9859407565557758 12:-0.692449877160147 13:-0.6897613405434645 14:-0.6656909158352036 15:-0.6133430021754895 16:-0.6912454591382587 17:-0.30936879891289326 18:-0.496830300962229 19:-0.3144965688224305 20:-0.4150738597844099 21:-0.3614236774693823 22:-0.21968980516692072 23:-0.3350211736084727 24:-0.817467431907256 25:-0.8492505089635425 26:-0.8766873458262031 27:-0.3584905660377359 28:0.012248875070265175 29:-0.5218435215062354 30:-0.45058734016380864 
-0.5760294770606682 1:-0.6987155317597968 2:-0.6190214403518419 3:-0.5170773152081565 4:-0.6351972121020115 5:-0.6100110882306353 6:-0.5744009903810473 7:-0.4494845360824742 8:-0.31877891518456336 9:-0.9406573498964803 10:-0.621282545884458 11:-0.9856445621911677 12:-0.6973913366555051 13:-0.6914916040188297 14:-0.6716414723448618 15:-0.5846265409717187 16:-0.714134495427348 17:-0.23442936757261168 18:-0.4206852356101479 19:-0.3144965688224305 20:-0.4150738597844099 21:-0.3614236774693823 22:-0.21968980516692072 23:-0.3350211736084727 24:-0.8355832343188313 25:-0.8492505089635425 26:-0.8766873458262031 27:-1.0 28:-0.015793155195796826 29:-0.527716790788358 30:-0.4658016850695067 
3.386707920274602 1:-0.7836902703514966 2:-0.6821728691476592 3:-0.5011131725417439 4:-0.6245243860255967 5:-0.6416464891041159 6:-0.491059860067375 7:-0.6491096532333646 8:-0.5568094545071978 9:-0.9005175983436853 10:-0.6169359488989998 11:-0.9848217614499986 12:-0.7256924228561923 13:-0.7325344987132638 14:-0.6738253780986088 15:-0.6418640183346068 16:-0.8084786693652041 17:-0.17131917891747794 18:-0.3851437691586054 19:-0.3320303526387631 20:-0.4166416239287847 21:-0.281585899259053 22:-0.2280293261454469 23:-0.3503838586942002 24:-0.7939668714545217 25:-0.834224901130768 26:-0.8668968300108058 27:-0.09433962264150941 28:0.0024434853939530043 29:-0.4980926213873229 30:-0.40066715884035875 
0.5274406312898567 1:-0.1373842398494418 2:-0.08660130718954251 3:-0.12727272727272732 4:-0.05084745762711873 5:-0.10734463276836126 6:0.04124949939927913 7:-0.664742268041237 8:-0.33830866513793334 9:-0.9018840579710145 10:0.28717231342487715 11:-0.9858799717278159 12:-0.3114770763444141 13:-0.035011500127779316 14:-0.016717607973422033 15:-0.08571428571428585 16:-0.1690363349131121 17:-0.24749058299596005 18:-0.29453511105608887 19:-0.09311113563503992 20:-0.09939980393730119 21:0.06046741651431353 22:0.09439939941330877 23:-0.20680253945005656 24:-0.7272477076497985 25:-0.8559068122826826 26:-0.9235863474274071 27:0.9622641509433962 28:0.21068489283614067 29:-0.5217787637167315 30:-0.4466112151548094 
1.7288514386674692 1:-0.7591233320158846 2:-0.7391956782713089 3:-0.5011131725417439 4:-0.6245243860255967 5:-0.6707021791767553 6:-0.5233769516563148 7:-0.6491096532333646 8:-0.4906586731649809 9:-0.9005175983436853 10:-0.5423113943641175 11:-0.985576879575088 12:-0.7799439372408558 13:-0.7543551294863231 14:-0.6831742770017055 15:-0.6194528875379941 16:-0.8041890548697044 17:-0.12556844913413923 18:-0.31460337983510356 19:-0.3320303526387631 20:-0.4166416239287847 21:-0.281585899259053 22:-0.2280293261454469 23:-0.3503838586942002 24:-0.8626198362868094 25:-0.8492505089635425 26:-0.8766873458262031 27:-1.0 28:-0.033519739939208426 29:-0.5182686723181664 30:-0.43412191565430236 
-2.918517901313005 1:-0.7085663554678441 2:-0.6736339205733057 3:-0.47632671896631273 4:-0.6002753161834297 5:-0.6188591585649145 6:-0.499910128374522 7:-0.6491096532333646 8:-0.35523630840704 9:-0.9005175983436853 10:-0.5637010484985522 11:-0.9853814976586787 12:-0.742403301473594 13:-0.707955173010091 14:-0.6455498174402156 15:-0.5373860182370823 16:-0.7628819199354644 17:-0.1697949987775843 18:-0.35954145119043024 19:-0.3320303526387631 20:-0.4166416239287847 21:-0.281585899259053 22:-0.2280293261454469 23:-0.3503838586942002 24:-0.8592216690259411 25:-0.8492505089635425 26:-0.8766873458262031 27:-0.3584905660377359 28:-0.053263715686810764 29:-0.5238280609283583 30:-0.44907143162069285 
-2.0471747754253165 1:0.3444697652879669 2:0.37210839391936523 3:0.49174986862848136 4:0.3986479866758108 5:0.39211578746905373 6:0.36908918599839136 7:-0.7733608247422681 8:-0.4935945395319926 9:-0.9747890979883193 10:0.4332117760748271 11:-0.9858656794269939 12:0.35216422045539497 13:0.3981210848523584 14:0.41349727046094964 15:0.4245962732919253 16:0.3486797562626949 17:-0.08860732959664619 18:-0.14524930471969322 19:0.34050220361124395 20:0.32523249236460616 21:0.44400285179671917 22:0.4193946799968704 23:0.297850423240672 24:0.04423617264996027 25:-0.1285914355760155 26:-0.24197114333058645 27:-0.3584905660377359 28:0.42090323015291653 29:-0.1649816550381732 30:-0.07829419971847162 
2.3100307548564745 1:0.5655713377146492 2:0.5133840052875078 3:0.7150153217568949 4:0.5926490192344316 5:0.5200914111597792 6:0.5052577557494324 7:-0.8278229229836265 8:-0.5412162187165794 9:-0.9571906354515051 10:0.6670638814744314 11:-0.9181591801551575 12:0.580260493230671 13:0.5913560452346156 14:0.6225821000704721 15:0.6330658105939002 16:0.5158725932462553 17:-0.10502437134870013 18:-0.11712331166644441 19:0.5952616235693566 20:0.5744698136224018 21:0.6551117724029767 22:0.6493727469668373 23:0.5524730183533397 24:0.18392268255469424 25:0.009682314610141018 26:-0.10842661912600293 27:-0.3584905660377359 28:0.5992528135636057 29:-0.07346282032924223 30:0.013948391678188177 
-2.134945798429666 1:-0.5883022848412623 2:-0.4963034394085505 3:-0.2587878787878787 4:-0.38361581920903953 5:-0.36926924145595985 6:-0.44058699423652037 7:-0.8300943189295897 8:-0.46486144483577074 9:-0.8203804347826087 10:-0.42507799249102574 11:-0.985247461928934 12:-0.5491370529431432 13:-0.5025522485803395 14:-0.48205194155681763 15:-0.35200323755564566 16:-0.6598802027691844 17:-0.7914619779843792 18:-0.6127490436043771 19:-0.6837911534393311 20:-0.6822784988907888 21:-0.5688802345219282 22:-0.5497443093736714 23:-0.7285133899237786 24:-0.7486700079012578 25:-0.8923403116625247 26:-0.9215328607817528 27:0.16981132075471694 28:0.06066795108606393 29:-0.5137439287081446 30:-0.40309577122029816 
-0.23566238950603857 1:0.6199896406088132 2:0.6712802768166088 3:0.6390194075587334 4:0.629112662013958 5:0.6650049850448654 6:0.5091252359974825 7:-0.8261855670103093 8:-0.44242338961851135 9:-0.8831521739130435 10:0.6068585425597062 11:-0.9225888324873096 12:0.4703191432108065 13:0.6977987812461142 14:0.702524106636415 15:0.6067226890756303 16:0.6463419491019158 17:0.7519299023411212 18:0.4542370496636712 19:0.6013789419293127 20:0.7396954280813892 21:0.7978788542761115 22:0.6337846834603396 23:0.5960464099734948 24:0.42644045865360813 25:0.41173930281710924 26:0.3654998423210343 27:0.16981132075471694 28:0.41068121122003554 29:-0.0995394228640274 30:-0.015143380147090824 
0.08733263462594057 1:-0.7226672776810577 2:-0.626426690079017 3:-0.3628222523744913 4:-0.5645079686314194 5:-0.6256008095117631 6:-0.6856389493117885 7:1.0 8:-0.21528883480102978 9:-0.9689578005115089 10:-0.5981718319876718 11:-0.982816010651577 12:-0.7413821384179657 13:-0.678203942873995 14:-0.6318762317698066 15:-0.5102615694164991 16:-0.6724040928032653 17:-0.37829917824871784 18:-0.3049274864254956 19:-0.9755705169337368 20:-0.7978717364649397 21:-0.755694751612787 22:-0.7661980296418336 23:-0.9173414678370893 24:-0.40872197148713896 25:-0.8466030763925722 26:-0.9179416861161016 27:0.9622641509433962 28:0.42672944837964333 29:-0.7596366324545412 30:-0.6316980828833962 
0.946661471947901 1:-0.45983545760241984 2:-0.44523326572008126 3:-0.07285266457680228 4:-0.21753360607831673 5:-0.39427235534774974 6:-0.3400596845246554 7:-0.7417525773195877 8:-0.2993723029170887 9:-0.9721290699941509 10:-0.33308580128027554 11:-0.7766497461928934 12:-0.4851399364410205 13:-0.3838471325580658 14:-0.30383908333184595 15:-0.11943462897526524 16:-0.4401984731728673 17:-0.09413208792275429 18:-0.2813735769988851 19:-0.6122184261656196 20:-0.5607476375944427 21:-0.4601756396242864 22:-0.4625279969093984 23:-0.6360921545164777 24:-0.4025793362097433 25:-0.8429768622752059 26:-0.8837976231033436 27:0.9622641509433962 28:0.50596612242285 29:-0.6758372400539984 30:-0.5294181467917582 
-0.3976343810708091 1:-0.7105676208626144 2:-0.6461468308253535 3:-0.15815691158156908 4:-0.4662987780843517 5:-0.6223886480094598 6:-0.6417551904306018 7:-0.23298969072164943 8:-0.18385947739076036 9:-0.9693134365020879 10:-0.59672410051214 11:-0.9585448392554992 12:-0.7087646068641271 13:-0.639517067724541 14:-0.5777605579232855 15:-0.2555160142348757 16:-0.6733206918901207 17:-0.19622964083281524 18:-0.3274947310326636 19:-0.9460003862467268 20:-0.8502046969230239 21:-0.7438455227076681 22:-0.7164065810137443 23:-0.9206097937170565 24:-0.45210833417552265 25:-0.866059557745307 26:-0.9062285898538079 27:0.9622641509433962 28:0.3571512815081179 29:-0.7401316911509922 30:-0.5867938782785258 
2.2281905900619146 1:0.8576552893788423 2:0.7579898100972671 3:0.9201145311381533 4:0.8510609902575736 5:0.8206325904177236 6:0.8687137436210584 7:-0.8407803732219757 8:-0.6427936446362474 9:-0.9909054216415109 10:0.9020552537801447 11:-0.9781944217018722 12:0.7949586127900525 13:0.8180594496226008 14:0.859590777522707 15:0.9433070866141731 16:0.8007772725091828 17:-0.564936103089598 18:-0.6611858679497701 19:0.8807718824203372 20:0.8354250319359082 21:0.9098226507784208 22:0.8919759305229011 23:0.8544391344071103 24:0.5563130612098042 25:0.42909457099458437 26:0.32403802906462764 27:-1.0 28:0.18054633830343958 29:0.07974692615060253 30:0.15099510818301298 
-1.569564166302613 1:0.8338057413127848 2:0.7799907364520609 3:0.8934860415175374 4:0.8262378219671693 5:0.8206325904177236 6:0.822391210019636 7:-0.8435500615659479 8:-0.6915486464754756 9:-0.9908107345771044 10:0.9033225017308146 11:-0.864424703891709 12:0.804539986024162 13:0.826717976364084 14:0.862991747936984 15:0.8866141732283463 16:0.8106397837711046 17:-0.5552222305199066 18:-0.390123012929545 19:0.848018968957674 20:0.8484903771893209 21:0.9041121962036129 22:0.8866184003550484 23:0.8300560493545286 24:0.5954166353044112 25:0.46547781877732675 26:0.34810862788281094 27:-0.3584905660377359 28:0.6640210571804084 29:0.08217010286882864 30:0.15410374583662612 
-0.21604128486407664 1:0.9159506499228902 2:0.88999536822603 3:0.946743020758769 4:0.9007073268383823 5:0.9103162952088619 6:0.9373755936953734 7:-0.8424454328097283 8:-0.6907023411371237 9:-0.9779503105590062 10:0.9492775569555245 11:-0.9703891708967851 12:0.8907723451311496 13:0.9072829050528954 14:0.9199077356286254 15:0.9190101237345332 16:0.9053198918855523 17:-0.2755338169595365 18:-0.2516197493569987 19:0.9243917099635903 20:0.9272692601068895 21:0.9427458556765314 22:0.9449628122924341 23:0.9140549311378883 24:0.7940926426428736 25:0.7244307353342088 26:0.6724817180390752 27:0.16981132075471694 28:0.6480686787012011 29:0.07161428230005762 30:0.13896204478282925 
-4.0 1:-0.32543613246599634 2:-0.44362745098039247 3:0.041818181818181976 4:-0.20847457627118637 5:-0.2813559322033896 6:-0.20758650839022086 7:-0.8439862542955326 8:-0.8669882962565889 9:-0.9912955107811948 10:0.04241093281784192 11:-0.9855118443316413 12:-0.3817607162030351 13:-0.2844730212656008 14:-0.1807629903898157 15:0.06493506493506485 16:-0.41816391277830334 17:-0.6795874243180666 18:-0.6302111705174196 19:-0.2811973684088992 20:-0.22966540890704779 21:-0.13312396507187485 22:-0.094844951037524 23:-0.375780739642944 24:-0.738214430362645 25:-0.7524149054877243 26:-0.7898602741501872 27:0.018867924528301883 28:-0.23297753216816586 29:-0.15800205680058 30:0.011588106883249072 
-4.0 1:-0.599164124314805 2:-0.5833333333333333 3:-0.014545454545454639 4:-0.1559322033898306 5:-0.4711864406779661 6:-0.5434056807639536 7:-0.8434167893961708 8:-0.8628333459857498 9:-0.9907608695652174 10:-0.46427044542245033 11:-0.9820219966159053 12:-0.5989807414576607 13:-0.6035195143561445 14:-0.5480286738351252 15:-0.21558441558441566 16:-0.6624607619868281 17:-0.8089675506459608 18:-0.7943099380390224 19:-0.5205033775960521 20:-0.626147574688886 21:-0.49985793144338087 22:-0.5034745072114484 23:-0.5787074034805444 24:-0.9196894308464653 25:-0.9500024612008713 26:-0.9832502495055424 27:0.6981132075471697 28:-0.4990730231368997 29:-0.33185135861245896 30:-0.24708003734337391 
-1.3767037356518999 1:0.37547436565220615 2:0.30147058823529393 3:0.6618181818181821 4:0.5796610169491527 5:0.3830508474576273 6:0.34589416754166247 7:-0.8454095299943177 8:-0.8027557921375278 9:-0.9903563255966003 10:0.3686972813722502 11:-0.9854118077468331 12:0.3753583409576089 13:0.41294802265479746 14:0.471837905079171 15:0.5199999999999998 16:0.3737305348679756 17:-0.5964727212925589 18:-0.5553386457374302 19:0.43516486993521486 20:0.3554164928930079 21:0.5561480337850391 22:0.4996893161259368 23:0.3704926683182841 24:-0.07516263004533397 25:-0.2599238748986531 26:-0.4151887847252085 27:-0.5094339622641509 28:0.36166875984620206 29:0.25854954304994426 30:0.4147024959869834 
-0.615837004683938 1:0.44299498508220614 2:0.3946078431372546 3:0.6054545454545455 4:0.47457627118644075 5:0.4305084745762713 6:0.5625448212273334 7:-0.8206185567010309 8:-0.8174722510921844 9:-0.9905700740055504 10:0.5659229208924945 11:-0.9824542043698963 12:0.4605367490088439 13:0.4714587737843554 14:0.521705426356589 15:0.6485714285714286 16:0.39878131347325674 17:-0.6705625724070596 18:-0.6484372258952433 19:0.4789730657807558 20:0.4861419567103873 21:0.568612158465686 22:0.6029222909705008 23:0.4351653322833178 24:0.044770675067691945 25:-0.17637742153871017 26:-0.38574008772684276 27:-0.5094339622641509 28:0.6228738158864819 29:0.1893308371592073 30:0.33454516919094424 
-2.484445233775719 1:-0.5982373836827675 2:-0.6645807259073846 3:-0.5470019342359769 4:-0.6098088712585646 5:-0.6054814280562565 6:-0.738085702843412 7:-0.846485473289597 8:-0.8353458090793926 9:-0.9911963720126692 10:-0.6907019327358457 11:-0.9850955826763149 12:-0.49678584456045327 13:-0.5876869495365205 14:-0.5862427632224512 15:-0.6739495798319332 16:-0.5930985348325746 17:-0.7403364081507535 18:-0.6882207047864655 19:-0.4041369510464987 20:-0.5137171343418564 21:-0.3846265675759114 22:-0.3329220754557858 23:-0.44659995153327725 24:-0.71350569287239 25:-0.7910728202428987 26:-0.8636255232127984 27:0.6603773584905659 28:-0.23384696670713345 29:-0.18682136507186642 30:-0.08352879245330747 
2.4008361411055894 1:0.13053629771296493 2:0.022058823529411686 3:0.3912727272727272 4:0.14881355932203388 5:0.003389830508474745 6:-0.005928303555344572 7:-0.8455899198167239 8:-0.8402413971640287 9:-0.9908621960206337 10:0.2674074824202395 11:-0.9849496838543058 12:0.07989099324334226 13:0.1664149803684689 14:0.2335198963439884 15:0.17494270435446913 16:0.10111912063403561 17:-0.1851974451611278 18:-0.002283566756762445 19:0.25799690695910527 20:0.26589054213847607 21:0.4075968996556447 22:0.42881742769407416 23:0.21338219511228407 24:0.08528441715497825 25:0.009872840105892067 26:-0.08680927319688492 27:-0.5094339622641509 28:0.8740857179664094 29:-0.06635616072983486 30:0.043240205273266774 
-3.5077289099903592 1:0.1996449680269501 2:0.06862745098039191 3:0.3800000000000001 4:0.3169491525423729 5:0.2406779661016949 6:0.01495315505367012 7:-0.8458415682922921 8:-0.8152511986658328 9:-0.9905815217391304 10:0.11802676067823814 11:-0.9832033345714167 12:0.2172794935832445 13:0.17788859270153523 14:0.21172565868739923 15:0.14749034749034728 16:0.17625818099751767 17:-0.3297953744819575 18:-0.31237543394346357 19:0.3744248659249654 20:0.29231515165506683 21:0.43209408752470213 22:0.39602819475121986 23:0.35036728108202175 24:-0.09155393834041925 25:-0.23123706851183068 26:-0.35598478141426826 27:-0.5094339622641509 28:0.5622693304494293 29:0.16595225490295085 30:0.2907927884143313 
-3.07094061785667 1:0.5197579564645689 2:0.3480392156862744 3:0.8872727272727274 4:0.6847457627118645 5:0.5728813559322037 6:0.5077177445839893 7:-0.8377198302001213 8:-0.8223209681489527 9:-0.9904800116720164 10:0.5674211549794881 11:-0.9846848019436852 12:0.5132662397072278 13:0.517949189334427 14:0.5989053620483569 15:0.657142857142857 16:0.4488828706838186 17:-0.22121977720578945 18:-0.1329691586962115 19:0.5656477506397872 20:0.43157668622518996 21:0.6730647090590043 22:0.6550834274974249 23:0.5084439660917071 24:-0.10821643728780894 25:-0.2755307198314777 26:-0.43362862303259664 27:-0.5471698113207547 28:0.6274646385346194 29:0.3330932926725034 30:0.45274570517320156 
-4.0 1:-0.9004870330239549 2:-0.8247298919567829 3:-0.4493506493506494 4:-0.6406087858872365 5:-0.830508474576271 6:-0.713232802439851 7:-0.6969072164948453 8:-0.8186320153799828 9:-0.9885515122873346 10:-0.8059298110142255 11:-0.9866655129980003 12:-0.858796765658614 13:-0.8940856604811963 14:-0.8624205030849548 15:-0.4844787644787646 16:-0.9539607312119162 17:-0.7427591588487091 18:-0.46829312770486853 19:-0.6250006356940003 20:-0.5200464358147683 21:-0.6530353895993304 22:-0.6400384163903718 23:-0.6148137863462941 24:-0.7021569909256706 25:-0.7685064748041579 26:-0.8805737262134776 27:-0.5094339622641509 28:0.4793696691892917 29:-0.5849079147850647 30:-0.4710056304748498 
-4.0 1:-0.923796235098284 2:-0.8161764705882355 3:-0.5218181818181815 4:-0.7338983050847457 5:-0.7084745762711864 6:-0.8072728679685388 7:-0.8460070780120018 8:-0.9013383364602876 9:-0.9912968515742129 10:-0.8038134585100396 11:-0.9844543147208121 12:-0.7474539918707723 13:-0.8158365781568483 14:-0.7948722162872872 15:-0.4585480093676816 16:-0.9219285880772945 17:-0.726815729361967 18:-0.7732875552115188 19:-0.9604573424238475 20:-0.8663906784945776 21:-0.8240080004484466 22:-0.8307409637755735 23:-0.9595528001284749 24:-0.9789246110216094 25:-0.9730753504608761 26:-0.9881132485721457 27:0.35849056603773577 28:-0.03998928172483318 29:-0.5795946304595369 30:-0.4611105563179635 
-4.0 1:-0.3681366429218378 2:-0.30392156862745123 3:-0.014545454545454639 4:-0.20847457627118637 5:-0.23389830508474574 6:-0.253493596289057 7:-0.8422680412371134 8:-0.834051837954277 9:-0.9903872282608696 10:0.015605833446912687 11:-0.9840499651637304 12:-0.3898059023235767 13:-0.3062829089658312 14:-0.22843485670345198 15:-0.1730814639905549 16:-0.34363267064688885 17:-0.8724286889742184 18:-0.8052101684761742 19:-0.2815753883159683 20:-0.2696964045317666 21:-0.1293938655197343 22:-0.15582759607812224 23:-0.35732956817878614 24:-0.7086350220538011 25:-0.8333192865652431 26:-0.9055075730513543 27:-0.018867924528301883 28:-0.031964398669534266 29:-0.18902958512266987 30:-0.014016271451579687 
-4.0 1:-0.33804316510716126 2:-0.30392156862745123 3:0.041818181818181976 4:-0.20847457627118637 5:-0.18644067796610142 6:-0.13438954508906853 7:-0.844918998527246 8:-0.8911483138500024 9:-0.9907137966449846 10:0.03502585441972883 11:-0.9796954314720813 12:-0.3696929370222226 13:-0.2252188921356214 14:-0.12925866845772827 15:0.0054309327036596855 16:-0.35191391977260145 17:-0.6928570913020347 18:-0.755375858470051 19:-0.25417972205157846 20:-0.18814097890878023 21:-0.04253453673036711 22:0.002177097098770897 23:-0.3297218355624768 24:-0.7222716769980406 25:-0.8347579513194044 26:-0.9065985853051388 27:-0.018867924528301883 28:-0.1663401362826844 29:-0.21914103768020254 30:-0.036482873662362914 
-4.0 1:-0.7131487426431247 2:-0.7240300375469338 3:-0.7628626692456477 4:-0.7104219257122251 5:-0.7266498377208797 6:-0.8092697152075451 7:-0.8342268041237113 8:-0.8600488941952357 9:-0.9915798094103633 10:-0.621934343785659 11:-0.9857946720182583 12:-0.690925725692423 13:-0.6157484930807915 14:-0.6005239835689102 15:-0.7499072356215215 16:-0.6429406747619342 17:-0.8243055432673309 18:-0.7159232768636978 19:-0.48644826852524037 20:-0.47730649304034545 21:-0.47417440893379614 22:-0.4045393902307154 23:-0.5194012526802281 24:-0.8061728520362321 25:-0.8632479355098877 26:-0.9214336098413619 27:0.320754716981132 28:0.27330898232529766 29:-0.4234730538969973 30:-0.29128142949769265 
-4.0 1:-0.9455375207842636 2:-1.0 3:-0.8155023923444975 4:-0.8583407671721677 5:-0.8883140053523639 6:-0.9775972372877607 7:-0.8309278350515463 8:-0.897871284056352 9:-0.9910389282103135 10:-0.8205999639476451 11:-0.9844089920232052 12:-0.8542986158250451 13:-0.9380295550520973 14:-0.8841507618283881 15:-0.8049769585253459 16:-0.9701225238604845 17:-0.7811416073450984 18:-0.7659526126368156 19:-0.6769313020236374 20:-0.7058932119450078 21:-0.6614331710872944 22:-0.620597657377649 23:-0.7711067975073065 24:-0.8833622012815303 25:-0.9167290969923535 26:-0.9497780741334565 27:-0.018867924528301883 28:-0.31840699304074116 29:-0.46519157454802673 30:-0.34429675313794084 
-4.0 1:-0.45933961858022276 2:-0.44362745098039247 3:-0.014545454545454639 4:-0.20847457627118637 5:-0.3288135593220338 6:-0.3085754719134466 7:-0.8471801091570649 8:-0.8694657845363878 9:-0.9913178503915744 10:-0.12455078993166735 11:-0.985682676038006 12:-0.4622125774084519 13:-0.381329682910008 14:-0.27148059256807067 15:-0.13907910271546642 16:-0.46371078296972323 17:-0.6734022058088817 18:-0.5466629507767908 19:-0.33245634965480786 20:-0.3360362684031941 21:-0.16855511330427952 22:-0.2109300766691271 23:-0.45520931090701755 24:-0.8516747080471316 25:-0.8802413757473664 26:-0.9218727568581232 27:-0.018867924528301883 28:-0.24598660926433968 29:-0.16737320979979387 30:2.7660098811144174E-4 
-4.0 1:-0.6994332305856619 2:-0.5833333333333333 3:-0.35272727272727267 4:-0.41864406779661 5:-0.5661016949152542 6:-0.6247732573205496 7:-0.8462444771723122 8:-0.8394041730627096 9:-0.991225845410628 10:-0.4673179714490583 11:-0.9830109297114373 12:-0.686184812442818 13:-0.5906976744186049 14:-0.4997918392013786 15:-0.4877551020408164 16:-0.5835670761195474 17:-0.7402874281302697 18:-0.6402524985044344 19:-0.5254919646204573 20:-0.4546604354471624 21:-0.4028967645629895 22:-0.38579360902752113 23:-0.6046662057564541 24:-0.8439487139183175 25:-0.8665035305166481 26:-0.9133332124540783 27:-0.018867924528301883 28:-0.41647766727865654 29:-0.2862837136072619 30:-0.12409060623811863 
3.6656766139814407 1:-0.39364587369236714 2:-0.35049019607843146 3:-0.014545454545454639 4:-0.1559322033898306 5:-0.23389830508474574 6:-0.22795948488569917 7:-0.8515463917525773 8:-0.8472127981542867 9:-0.9906323048153343 10:-0.0106446776611695 11:-0.9811054709531867 12:-0.3616477509016808 13:-0.30159248559432006 14:-0.20147596899224796 15:-0.15608028335301083 16:-0.4016014145268776 17:-0.6863235529778673 18:-0.570234047605969 19:-0.304321814317271 20:-0.24563304754228288 21:-0.14657318691899512 22:-0.1736094908419944 23:-0.3975696058040793 24:-0.9198305465713948 25:-0.9350546905276367 26:-0.9674225184536299 27:0.09433962264150941 28:-0.1830623038223964 29:-0.1502883283394797 30:0.010323055751432664 
0.09040848167912227 1:-0.6685454859057756 2:-0.5833333333333333 3:-0.24 4:-0.41864406779661 5:-0.5661016949152542 6:-0.5806999895938119 7:-0.7943298969072164 8:-0.8130248071711486 9:-0.9909537166900421 10:-0.4694942605033362 11:-0.9529046813310773 12:-0.6593196373617232 13:-0.6050020687740814 14:-0.5543503154212903 15:-0.2070838252656435 16:-0.7162888813039612 17:-0.7429233928897946 18:-0.7745937127446632 19:-0.6137041794139387 20:-0.5875910416588528 21:-0.5196434339700924 22:-0.541748951997404 23:-0.6549465396628105 24:-0.8759631018734726 25:-0.8871842038315948 26:-0.9180797651229727 27:0.6603773584905659 28:-0.12546660386382402 29:-0.3643935198917595 30:-0.26897286916462915 
3.9472115463267716 1:-0.7367369071488923 2:-0.6764705882352942 3:-0.014545454545454639 4:-0.4711864406779661 5:-0.6135593220338981 6:-0.6227728050730942 7:-0.8424742268041236 8:-0.8817131077293678 9:-0.9906832298136646 10:-0.6182191680509361 11:-0.9835730400451212 12:-0.5949581483973899 13:-0.6963405439888651 14:-0.6761932797846838 15:-0.07107438016528922 16:-0.7908201234353756 17:-0.8092060846449218 18:-0.740821968798832 19:-0.676243009115425 20:-0.7060720965899949 21:-0.6754239254873384 22:-0.6987627810778156 23:-0.7231638265753115 24:-0.9291087210890938 25:-0.945863707023085 26:-0.98215953010165 27:0.6603773584905659 28:-0.46479717472343407 29:-0.4053536255936968 30:-0.31221106385551245 
4.0 1:-0.5776271396291824 2:-0.6299019607843138 3:-0.0709090909090907 4:-0.2610169491525425 5:-0.5661016949152542 6:-0.5426419276944916 7:-0.8457246816252274 8:-0.8450505925177595 9:-0.9906896997929606 10:-0.4912948588996642 11:-0.9841672709693015 12:-0.6593196373617232 13:-0.6332840435542412 14:-0.5653276955602538 15:-0.12207792207792223 16:-0.6251951409211214 17:-0.678562918058021 18:-0.7310475781983484 19:-0.46005143800084225 20:-0.6524118364083745 21:-0.4305748051140572 22:-0.4710110969777177 23:-0.5616064418761586 24:-0.8202307411369603 25:-0.8790431530302661 26:-0.9169890457190802 27:0.6603773584905659 28:-0.5022373442673052 29:-0.3181453668156101 30:-0.24664567501024504 
-0.9507933896861535 1:-0.5681802705296066 2:-0.6299019607843138 3:-0.0709090909090907 4:-0.2610169491525425 5:-0.5186440677966101 6:-0.530125123532269 7:-0.8472938144329897 8:-0.8547553759561264 9:-0.9905860666158149 10:-0.47650859708684734 11:-0.9848161011666221 12:-0.647251858180911 13:-0.6332840435542412 14:-0.5664892625649732 15:-0.1305785123966945 16:-0.6831638848011101 17:-0.8296404972225901 18:-0.7943201246319844 19:-0.4651787702099057 20:-0.6274240822577251 21:-0.43067327971728087 22:-0.46353886598908745 23:-0.5519368294707985 24:-0.8543320062339919 25:-0.8853331529843295 26:-0.9180797651229727 27:0.7735849056603772 28:-0.506458665601738 29:-0.309465050048351 30:-0.24727270872549567 
1.846801609927488 1:-0.5679470550546171 2:-0.5151201325600666 3:-0.2384122919334184 4:-0.4652661733110529 5:-0.5039388875626643 6:-0.539580707520598 7:-0.8425773195876288 8:-0.875882603618412 9:-0.9941304347826087 10:-0.3089601209581966 11:-0.9857066524178466 12:-0.5529562050095809 13:-0.5457592971137708 14:-0.4859270153506754 15:-0.7000539083557953 16:-0.638226389545356 17:-0.8609133350530229 18:-0.8612053188383705 19:-0.589763288039862 20:-0.4216771611368326 21:-0.4575701747471441 22:-0.4184936978898637 23:-0.607271555706451 24:-0.7195462129135706 25:-0.8374665583012582 26:-0.9049851640118283 27:0.05660377358490565 28:0.4369980640747917 29:-0.6092556147207904 30:-0.5434440144427529 
1.9151353823775645 1:-0.07337170000913495 2:-0.19189633895516267 3:0.03038779402415792 4:-0.08024179210619908 5:-0.1748251748251748 6:-0.020323136024704036 7:-0.8445963164600949 8:-0.8831709818636648 9:-0.9936392914653784 10:0.008264838912752648 11:-0.9858056025568716 12:-0.1409557536900914 13:-0.10454329723432709 14:-0.021596390800584397 15:-0.20065181966322676 16:-0.1553838193234155 17:-0.7433683266715467 18:-0.7432069835334689 19:-0.06524031257432084 20:-0.07203453896040057 21:0.0668363949260844 22:0.09506491842688347 23:-0.07581111099937221 24:-0.2703112479174484 25:-0.45555147299247245 26:-0.5823583373251016 27:0.2075471698113207 28:0.6486926529401618 29:-0.4986192334497337 30:-0.4538707344743971 
-0.9766882426405461 1:-0.35578297639247025 2:-0.4426150895140667 3:-0.43359683794466386 4:-0.4392041267501844 5:-0.43920412675018417 6:-0.2846316053197486 7:-0.8478808705612829 8:-0.8732826897930087 9:-0.9519021739130434 10:-0.32142403374583906 11:-0.9857849426377345 12:-0.37328453796889305 13:-0.35857717524534993 14:-0.2868517946647028 15:-0.5461966604823749 16:-0.4070729541277952 17:-0.7287815760457013 18:-0.7059287732341597 19:-0.8376360537149972 20:-0.529322548959423 21:-0.5004291677400583 22:-0.4377391751935089 23:-0.6013961468251094 24:-0.36354375061211863 25:-0.5634546590292233 26:-0.6864812517619551 27:-1.0 28:0.45610282287566917 29:-0.5840192751389672 30:-0.5361399110291764 
0.1847503088486261 1:0.28342865845404086 2:0.0819327731092434 3:0.009610389610389847 4:0.00920096852300234 5:0.06440677966101704 6:0.332751025368373 7:-0.8489868467827941 8:-0.8931718216001183 9:-0.9784057971014493 10:0.29610331612309304 11:-0.985802292605038 12:0.2598428769101646 13:0.2808787951439595 14:0.30933524887013264 15:0.1286894923258557 16:0.2401953927158582 17:-0.34126156381078876 18:-0.04407926899959713 19:0.42867526718357296 20:0.4673901392362394 21:0.4713342131735143 22:0.49741075798643886 23:0.4215012319729716 24:0.34255449373068037 25:0.23893192426629595 26:0.16651069457264023 27:0.24528301886792447 28:0.3126007557100745 29:-0.47590659504591837 30:-0.45133871550703786 
-0.12076297131972798 1:0.5369136916804131 2:0.4212184873949576 3:0.5168831168831167 4:0.48208232445520594 5:0.4305084745762713 6:0.5260417386565355 7:-0.8466554783025653 8:-0.8724202626641651 9:-0.9454968944099379 10:0.5571232788513718 11:-0.9857142857142858 12:0.4627561325070344 13:0.5210769297148032 14:0.558757738982524 15:0.4682479784366578 16:0.4866953666917897 17:-0.7149965138171392 18:-0.7061865397671561 19:0.625387500129307 20:0.6442250696448049 21:0.6791588042326597 22:0.6693937322020966 23:0.6038941444719743 24:0.3307933697675902 25:0.18199703044753934 26:0.0745301028028289 27:0.9622641509433962 28:0.7581276828849011 29:-0.4099445565937977 30:-0.3746463839522777 
-0.057521913574014635 1:-0.5581906669587804 2:-0.5151201325600666 3:-0.19078104993597933 4:-0.4430651706851275 5:-0.4838863690618286 6:-0.5329535507755886 7:-0.8435935198821797 8:-0.8774669853305619 9:-0.9915081521739131 10:-0.3323428426631755 11:-0.9856809051877943 12:-0.5364256244713356 13:-0.51732723706666 14:-0.45360699605506327 15:-0.6418328840970352 16:-0.6438982639465514 17:-0.8467383404790984 18:-0.8484858801616996 19:-0.5839060952038873 20:-0.44213724409058175 21:-0.45816608881222076 22:-0.39174959223679895 23:-0.6012476258103894 24:-0.6823029384376578 25:-0.8029228732169295 26:-0.8832381211518523 27:0.16981132075471694 28:0.5162793771598473 29:-0.5973458196907283 30:-0.5323194344677853 
4.0 1:-0.34304506320398254 2:-0.2995896032831741 3:0.05623678646934449 4:-0.1974773354355539 5:-0.2802522664564445 6:-0.2864739063725016 7:-0.8452395391146149 8:-0.8691837265547604 9:-0.9912905888827738 10:-0.14806452195588948 11:-0.9855503636221019 12:-0.362069474367677 13:-0.30334085355501506 14:-0.26327572241360797 15:-0.3645161290322584 16:-0.42425797715508773 17:-0.9066247984484184 18:-0.8996771380998174 19:-0.42363687070113076 20:-0.4502073034339309 21:-0.3975869971210658 22:-0.2980212634276854 23:-0.44520145512189657 24:-0.5517600834105751 25:-0.7206472752703564 26:-0.8196595962589195 27:-0.09433962264150941 28:0.2110970800361065 29:-0.5818018580102435 30:-0.5156921480032757 
3.940940011332024 1:-0.6490735265129113 2:-0.6271626297577856 3:-0.5118716577540106 4:-0.6133599202392823 5:-0.5912263210368893 6:-0.6015177116649569 7:-0.8436738519212745 8:-0.845865497997317 9:-0.9918254913639071 10:-0.5610016163552347 11:-0.9859175104521974 12:-0.6055569260169433 13:-0.6196976046892624 14:-0.5897420931066395 15:-0.6990736226231111 16:-0.7005460288704388 17:-0.9164089572197546 18:-0.8916890181679876 19:-1.0 20:-0.8813419058519647 21:-0.937385309709809 22:-0.8153849746018101 23:-0.9222474519026969 24:-0.5772178171341755 25:-0.7441888316343415 26:-0.843334555642025 27:0.05660377358490565 28:0.20620027753104453 29:-0.669281090770643 30:-0.609356563385754 
-4.0 1:-0.35729178732769595 2:-0.32005558128763345 3:0.014745884037222545 4:-0.19151207793941016 5:-0.27799279327372195 6:-0.32970375261124174 7:-0.8414948453608248 8:-0.8240834678052382 9:-0.993664596273292 10:-0.0901645951217942 11:-0.9855757609564716 12:-0.35701372369624895 13:-0.32386590636690527 14:-0.25934262271204556 15:-0.39062857142857155 16:-0.4309004739336493 17:-0.7771222427048501 18:-0.8347189625351666 19:-0.39974882187795924 20:-0.3461526512716998 21:-0.31268574820313033 22:-0.2760184888447481 23:-0.4463725549811376 24:-0.5714133972771311 25:-0.7429905214858696 26:-0.8433940215197007 27:0.8113207547169812 28:0.3861588891424257 29:-0.545776813482483 30:-0.48332156698380235 
0.04920058601845352 1:0.8094881398252185 2:0.821176470588235 3:0.8647272727272728 4:0.8486779661016948 5:0.863322033898305 6:0.836578087253091 7:-0.8445876288659794 8:-0.8308735586469653 9:-0.9915664508171447 10:0.8570171436021119 11:-0.9859307359307359 12:0.8286697163769441 13:0.8421316974144599 14:0.8589824482580113 15:0.8271999999999999 16:0.8216384563303996 17:-0.1335808198551618 18:-0.24331105645229933 19:0.79167162788782 20:0.8566902741241262 21:0.8484926631436671 22:0.8558686544285312 23:0.8052899983225592 24:0.6590936240047629 25:0.5693238042748585 26:0.481929990539262 27:-0.1320754716981133 28:1.0 29:-0.5154114663393012 30:-0.44407901520012805 
0.15770503742722836 1:0.3326703202917256 2:0.1351540616246496 3:0.053896103896103886 4:0.09927360774818395 5:0.16949152542372903 6:0.2256840161622149 7:-0.8404774823657081 8:-0.8521086168365718 9:-0.9904589371980677 10:0.2124846667575302 11:-0.9860928328215413 12:0.3485127160342445 13:0.294749222521268 14:0.30261565391347833 15:0.20471281296023558 16:0.3328400886909706 17:0.6713902322448451 18:0.6782155807865893 19:-0.37506192580858544 20:0.1653681809406533 21:0.07960185780808549 22:0.11898317543034542 23:0.10943613786311679 24:0.3599777019363173 25:0.28599046476190226 26:0.2300981115501739 27:0.2075471698113207 28:0.9988978671563573 29:-0.5333891767714554 30:-0.49757385219741357 
-1.8255460038286015 1:0.14796909766850486 2:0.039522058823529216 3:0.39232954545454546 4:0.2364936440677965 5:0.08792372881355948 6:0.26284584117392784 7:-0.8450419810819428 8:-0.8752553679382947 9:-0.9935009057971015 10:0.22929994077694227 11:-0.9856448883794553 12:0.1227016497948823 13:0.11810817873007595 14:0.20470551694684946 15:0.18294930875576032 16:0.07069692270731864 17:-0.20393100838956557 18:-0.26551919784834555 19:0.11238130195582086 20:0.04929951560299606 21:0.24139725667008438 22:0.27583559633179755 23:0.09391169501635765 24:-0.17579704398263485 25:-0.36988078677482794 26:-0.48750586081524616 27:0.9622641509433962 28:0.665666847042274 29:-0.4347464876944457 30:-0.39482945260385904 
-1.132236086027136 1:-0.355646755586697 2:-0.32124943000455997 3:0.05623678646934449 4:-0.1974773354355539 5:-0.2802522664564445 6:-0.3303236611206175 7:-0.8457426498663612 8:-0.8491982800453602 9:-0.9907966675344962 10:-0.2325779556265034 11:-0.9853577947426623 12:-0.39935956084172 13:-0.33466165756612465 14:-0.2866967371565814 15:-0.347926267281106 16:-0.44850066612794026 17:-0.8189410859676913 18:-0.8375127551258471 19:-0.43823911909732893 20:-0.5254325557743078 21:-0.4326793324392837 22:-0.31935518700930243 23:-0.4560108470914567 24:-0.506540999188388 25:-0.6646129739314228 26:-0.7586076845048076 27:-0.3584905660377359 28:0.3363463978717869 29:-0.5711885910269361 30:-0.5069505755686153 
0.8529792707799967 1:-0.4173005479355383 2:-0.570657848938392 3:-0.6408821947283485 4:-0.6229064286430648 5:-0.5669441380002006 6:-0.3913656387665202 7:-0.8639175257731959 8:-0.8434039325119715 9:-0.9528985507246377 10:-0.42478103053736316 11:-0.9862521150592216 12:-0.37006539934261806 13:-0.42126667275396323 14:-0.3761587501122384 15:-0.6495238095238096 16:-0.41583289450588035 17:-0.0861191800063168 18:-0.2829787055526982 19:-0.5879754167199185 20:-0.5181887265359475 21:-0.49841348932433316 22:-0.4301520973863292 23:-0.5341241566605948 24:-0.26456657878592105 25:-0.36820652033217716 26:-0.4534819067874791 27:0.24528301886792447 28:0.16019657953373145 29:-0.5978464221261595 30:-0.5693750555620296 
-1.1924402699057264 1:-0.15413083832475316 2:-0.32265924121127754 3:-0.2406670252824098 4:-0.3057867816668338 5:-0.3310600742152239 6:-0.06814847269293156 7:-0.8451840942562592 8:-0.8268901561825976 9:-1.0 10:-0.10113705824572528 11:-0.9858762262959944 12:-0.14706369106538975 13:-0.16307932086962162 14:-0.0979267300765233 15:-0.2392003900536327 16:-0.2012404075228591 17:-0.131301350598947 18:-0.2730063491818603 19:-0.7218243937145901 20:-0.4246257170334631 21:-0.36221329677242364 22:-0.3202789043844382 23:-0.45986778604314793 24:-0.27348546481965674 25:-0.4708576347885237 26:-0.588844804883148 27:0.9622641509433962 28:0.5456403813025881 29:-0.5280087004688605 30:-0.4881959640300013 
-3.1358652732452827 1:-0.6170799674810501 2:-0.6107266435986161 3:-0.4919786096256683 4:-0.5948155533399798 5:-0.5912263210368893 6:-0.5888196081944806 7:-0.8489419424850786 8:-0.8652659717377512 9:-0.990323435843054 10:-0.5339218824569292 11:-0.9859508793518946 12:-0.5739939859296985 13:-0.5940371920438365 14:-0.5625204364218745 15:-0.716626036079961 16:-0.6680569644676855 17:-0.801229933997151 18:-0.8378229435947736 19:-0.9636550043707147 20:-0.870870294833511 21:-0.9174422556931237 22:-0.786893741460251 23:-0.87999968547929 24:-0.5141818768797344 25:-0.6869378956784898 26:-0.7878160365704351 27:0.16981132075471694 28:0.2143404549213368 29:-0.6586180026570465 30:-0.5992244587807394 
-1.6853889440305343 1:0.47334461730529154 2:0.2847058823529409 3:0.32363636363636394 4:0.2686101694915255 5:0.2938305084745765 6:0.47740058722082734 7:-0.8481724461105904 8:-0.8285750299363459 9:-0.39891304347826095 10:0.4641648248040928 11:-0.985916193888723 12:0.44786809129784655 13:0.4382242131927243 14:0.45113737450756153 15:0.40641913152926334 16:0.44711717703763143 17:0.06138672825999847 18:-0.10631725320760887 19:0.5712013303760435 20:0.5029681765505378 21:0.5473868963212063 22:0.5514553758473748 23:0.5502343164748771 24:0.391073554918125 25:0.31337049593141697 26:0.2601749384287504 27:1.0 28:0.3561377578803986 29:-0.41943227493156987 30:-0.399615619992316 
2.365825183592357 1:-0.4749305303854052 2:-0.49606299212598437 3:-0.33142448103078004 4:-0.4645669291338581 5:-0.4797811290537837 6:-0.41665231271634173 7:-0.8451134020618557 8:-0.8843716978283841 9:-0.9935394978567055 10:-0.28001188454012904 11:-0.9856175972927242 12:-0.4762827927822628 13:-0.4627222028096797 14:-0.39148210517340587 15:-0.5994965387035874 16:-0.6100918936169578 17:-0.7816696829656238 18:-0.5936780682312962 19:-0.5007604633866285 20:-0.36268628277549586 21:-0.36586702523420445 22:-0.2770778325183828 23:-0.49713875837820354 24:-0.5458050002410211 25:-0.6857938073403833 26:-0.7960888774386685 27:-0.018867924528301883 28:0.1316768293937618 29:-0.5914791389264221 30:-0.5420077681291721 
0.8763051550010169 1:-0.3234673472318893 2:-0.27605372857804544 3:0.04137437365783825 4:-0.16668890964900573 5:-0.2555718670759374 6:-0.3062002761522784 7:-0.8445678033306899 8:-0.8403110471176267 9:-0.9921986791414419 10:-0.1090138640548931 11:-0.9855319240077963 12:-0.3258627630375116 13:-0.295876617944545 14:-0.24188766489868063 15:-0.35771428571428576 16:-0.4108598510494246 17:-0.7901468793578389 18:-0.7498723709353351 19:-0.36877451741047407 20:-0.3543037003181392 21:-0.30349211505722273 22:-0.25682500419190324 23:-0.4140502481685029 24:-0.5144385340641255 25:-0.7019381034314687 26:-0.8198141112243265 27:0.9245283018867925 28:0.43656568172522325 29:-0.5328929401626843 30:-0.47264111371073114 
-0.44768762743696217 1:0.8657466757157579 2:0.7850678733031675 3:1.0 4:0.7574967405475881 5:0.7809647979139507 6:0.8367452707955427 7:-0.5154639175257731 8:-0.2566238252649401 9:-0.9668478260869565 10:0.899438340531227 11:-0.9860820808865001 12:0.7940741783376735 13:0.8056332264884407 14:0.8247470264512691 15:0.8021978021978022 16:0.8265715327326704 17:0.47815746817742033 18:0.3186002116853255 19:0.8738042852596739 20:0.8032102872144959 21:0.8638196949404278 22:0.8728059575439748 23:0.8626456520594212 24:0.34962930255779945 25:0.09910276094079395 26:-0.24881740775780503 27:0.018867924528301883 28:0.17288300985482286 29:0.9466898212872419 30:0.9417787842733432 
-1.410603679578909 1:-0.08432542894868433 2:-0.11475160012191421 3:0.21149317004239276 4:0.08527267937121263 5:-0.03275665232282399 6:-0.04245896916589109 7:-0.7991318502441671 8:-0.2640956153151274 9:-0.966304347826087 10:0.0773823100182407 11:-0.8284686971235194 12:-0.11923414150655698 13:-0.08839940053509732 14:-0.020081899246067736 15:0.016964285714285765 16:-0.15729378244188652 17:-0.6282272543320466 18:-0.6692538362242058 19:-0.12616448957061455 20:-0.09059268416376054 21:-0.06004121993851741 22:-0.05277921878046732 23:-0.16972604891123966 24:-0.47088900552072666 25:-0.6534582474638907 26:-0.7622834901417285 27:-1.0 28:0.2376542871857259 29:0.4501093439085053 30:0.5075302716351775 
