svm_type epsilon_svr
kernel_type rbf
gamma 1.0
nr_class 2
total_sv 4729
rho -0.6698013079531926
SV
0.11321033734058458 1:0.3048518397915989 2:0.5047619047619047 3:0.39495798319327724 4:0.4122448979591835 5:0.5047619047619047 6:0.22043010752688175 7:-0.8437001594896332 8:-0.7124238306926134 9:-0.9488636363636364 10:0.252605102407474 11:-0.9603792273949342 12:0.448031844316674 13:0.3550184931853879 14:0.3084135310396101 15:0.06987951807228887 16:0.45715528490648083 17:0.15999712757849793 18:0.07764626821601284 19:0.7297951904009499 20:0.7694137861806902 21:0.691277030237311 22:0.6900553667448437 23:0.7494194230883608 24:0.7650690921591281 25:0.7495200048853301 26:0.7320508075688774 27:-1.0 28:0.11405738551167466 29:-0.11496714712249045 30:-0.06808239460270171 
0.1016920786977729 1:0.8787586710478275 2:0.8470588235294116 3:0.9999999999999998 4:1.0 5:0.8470588235294116 6:0.9722222222222221 7:-0.8370015948963317 8:-0.6981350871086522 9:-0.94375 10:0.9788703778951646 11:-0.9566192969334331 12:0.8457736035590706 13:0.9236206110351115 14:0.9656748437645744 15:0.8905740609496811 16:0.8483228001944578 17:-0.1959648220281649 18:-0.3558457960787459 19:0.9122459784607886 20:0.9438033571001099 21:0.9605142077109319 22:0.9626650544342104 23:0.891493966508466 24:0.5731997427275219 25:0.5121275121275122 26:0.4486215538847118 27:0.8545454545454545 28:0.25140433199291645 29:0.036699460926077565 30:0.12972074230461828 
-4.0 1:0.4553944078199592 2:0.5047619047619047 3:0.8235294117647056 4:0.5428571428571427 5:0.5047619047619047 6:0.6636141636141635 7:-0.838206627680312 8:-0.7124238306926134 9:-0.9387755102040817 10:0.5825573180913237 11:-0.956020942408377 12:0.448031844316674 13:0.5408571479827067 14:0.5980454153492383 15:0.672735385988398 16:0.5026017753290482 17:-0.01989559407480901 18:-0.07567719276953067 19:0.7297951904009499 20:0.7694137861806902 21:0.691277030237311 22:0.6900553667448437 23:0.7494194230883608 24:0.7650690921591281 25:0.7495200048853301 26:0.7320508075688774 27:-0.8545454545454545 28:0.08205540008165535 29:0.13670514066826733 30:0.22573629051884958 
1.502692866375477 1:0.1356275764684447 2:0.22962962962962963 3:0.5294117647058825 4:0.3714285714285712 5:0.22962962962962963 6:0.35960018596001864 7:-0.842842400117942 8:-0.671957122699363 9:-0.9488636363636364 10:0.20950891460744447 11:-0.9567824845311756 12:0.22315592903828207 13:0.23904425158041365 14:0.2818598337010012 15:0.5004908522980811 16:0.2718089990817263 17:0.011479055133629235 18:-0.02823444139133524 19:0.3047178660674754 20:0.33243013931972265 21:0.3261852316688123 22:0.3119272167323359 23:0.25028876629714203 24:0.031320702461313576 25:0.017606046925050522 26:-0.010256681389212985 27:-0.8545454545454545 28:0.35916763787359507 29:-0.19064062075017074 30:-0.10553179702741355 
4.0 1:-0.3073632905914777 2:-0.2518518518518521 3:0.23529411764705888 4:0.02857142857142847 5:-0.20370370370370372 6:0.2159479808350444 7:-0.8394249512670565 8:-0.8520132689945729 9:-0.9459325396825397 10:-0.24264090177133646 11:-0.9616055846422339 12:-0.06411453470277007 13:-0.13711046112736058 14:-0.08728952124150191 15:0.36269522534582754 16:-0.13406795224977042 17:-0.2428076097518722 18:-0.3022456681979999 19:-0.025002371498838327 20:-0.13932898241140657 21:-0.08891112744860452 22:-0.09086283728342914 23:-0.1753563361368693 24:-0.560095906533765 25:-0.7344627802088792 26:-0.8505462783300755 27:-1.0 28:0.16860375482614742 29:-0.2695874443380364 30:-0.18388970666256 
-0.8196389009024165 1:-0.6604159655381305 2:-0.5052631578947369 3:-0.17027863777089802 4:-0.299248120300752 5:-0.5052631578947369 6:-0.18240343347639465 7:-0.8383458646616542 8:-0.8148551853005295 9:-0.9450431034482759 10:-0.2083958020989507 11:-0.9554973821989529 12:-0.35947712418300637 13:-0.4468976631748588 14:-0.3954496208017333 15:-0.05930388219544869 16:-0.4086317722681361 17:-0.4135511018231244 18:-0.3554890823828991 19:-0.07212310114271947 20:-0.16400406470808115 21:-0.060157543940785096 22:-0.250293056483212 23:-0.29746250521353046 24:-0.6447524970576095 25:-0.8219390042928978 26:-0.9686752597821318 27:-1.0 28:0.08100607648709857 29:-0.06711510345762461 30:0.03396528055894632 
-4.0 1:-0.8831952085799847 2:-0.642105263157895 3:-0.33746130030959753 4:-0.299248120300752 5:-0.642105263157895 6:-0.2464440321583179 7:-0.8387196060326254 8:-0.6762908229219042 9:-0.9431818181818181 10:-0.59768115942029 11:-0.9324787867846182 12:-0.5172735760971054 13:-0.541727434775563 14:-0.4669146957214988 15:0.06987951807228887 16:-0.6473829201101928 17:-0.31055897477811323 18:-0.3564038932149778 19:-0.30040845336870436 20:-0.6506062013590502 21:-0.3356405868509813 22:-0.3855576701785851 23:-0.5521456704192855 24:-0.8017915205078452 25:-0.9627683877263272 26:-0.9958701224419434 27:0.2727272727272727 28:0.12858914683199574 29:-0.2033032861358961 30:-0.0573619545080255 
4.0 1:-0.9364686487279954 2:-0.7482758620689656 3:-0.31440162271805294 4:-0.4896551724137932 5:-0.6586206896551725 6:-0.15808580858085797 7:-0.8399460188933874 8:-0.7420580590697465 9:-0.9505912162162162 10:-0.592961274163509 11:-0.946033024567056 12:-0.5617802676626205 13:-0.7613115227674863 14:-0.7259401623590833 15:0.1646140116019632 16:-0.6951331496786042 17:-0.4845686607720673 18:-0.4710903778848404 19:-0.4292465518892872 20:-0.8392456038716689 21:-0.6157910631292064 22:-0.7334829826899711 23:-0.6853800064723731 24:-0.8865827203445256 25:-0.9885550428158802 26:-0.9987604807101204 27:-0.054545454545454564 28:0.294071410561767 29:-0.3901861406410906 30:-0.30909382359521753 
-4.0 1:-0.7510411588550737 2:-0.30000000000000016 3:-0.42941176470588227 4:-0.38857142857142857 5:-0.30000000000000016 6:-0.11882716049382702 7:-0.8445214833490913 8:-0.7737224807138398 9:-0.9460227272727273 10:-0.47531319086219603 11:-0.9525523560209425 12:-0.43230625583566773 13:-0.5158371040723981 14:-0.45574682663884547 15:-0.007630522088353686 16:-0.39669421487603296 17:-0.37299992324750186 18:-0.42966346271214395 19:-0.2673567617313809 20:-0.5329128783877826 21:-0.42444271858865146 22:-0.39729221190230324 23:-0.433727170580683 24:-0.7956808049111248 25:-0.947161252009183 26:-0.9883982443637525 27:0.3090909090909091 28:0.408067372905482 29:-0.11368452082324221 30:0.019100767044153866 
4.0 1:-0.7599074263154313 2:-0.44444444444444464 3:-0.23529411764705876 4:-0.19999999999999996 5:-0.30000000000000016 6:-0.34430290162774235 7:-0.8407557354925776 8:-0.7479491559901568 9:-0.9471153846153846 10:-0.46758199847444704 11:-0.9203277942180742 12:-0.5793517406962783 13:-0.5705160251069263 14:-0.5581589223816419 15:-0.35531841652323604 16:-0.5409681227863044 17:-0.30609994896227777 18:-0.37346589254206 19:-0.3054963775387798 20:-0.4738023001278552 21:-0.361890045704899 22:-0.45942742794045777 23:-0.45792302570367904 24:-0.899603177661389 25:-0.9830000972769428 26:-0.995184115675035 27:0.2727272727272727 28:0.16674690185014263 29:-0.3353735539681937 30:-0.32101533860262277 
4.0 1:-0.9364686487279954 2:-0.7482758620689656 3:-0.31440162271805294 4:-0.4896551724137932 5:-0.6586206896551725 6:-0.15808580858085797 7:-0.8399460188933874 8:-0.7420580590697465 9:-0.9270833333333334 10:-0.592961274163509 11:-0.946033024567056 12:-0.5617802676626205 13:-0.7613115227674863 14:-0.7259401623590833 15:0.1646140116019632 16:-0.6951331496786042 17:-0.49390462453066175 18:-0.5046492330595858 19:-0.4292465518892872 20:-0.8392456038716689 21:-0.6157910631292064 22:-0.7334829826899711 23:-0.6853800064723731 24:-0.8757146690904036 25:-0.9877591671984368 26:-0.9987604807101204 27:-0.8545454545454545 28:0.18135378261671997 29:-0.32016222690471474 30:-0.20127081355853838 
-4.0 1:-0.9797267281416171 2:-0.6095238095238098 3:-0.3613445378151262 4:-0.4693877551020409 5:-0.6095238095238098 6:-0.18647717484926796 7:-0.8440320454314978 8:-0.8148551853005295 9:-0.921875 10:-0.750045479352374 11:-0.9535870949483515 12:-0.6762940470305769 13:-0.7984691202684282 14:-0.73030934853836 15:-0.23178117876913085 16:-0.7248157248157248 17:-0.35786578269915714 18:-0.35474475762442514 19:-0.5527042147446577 20:-0.9209231106888539 21:-0.6391555368437027 22:-0.7247093377017749 23:-0.7560953829713037 24:-0.7481628050585727 25:-0.9235353683074696 26:-0.9822604497329592 27:0.5636363636363635 28:0.19570647183367007 29:-0.13611751536185768 30:-0.01718848886765023 
3.3785841311816194 1:-0.9797267281416171 2:-0.6095238095238098 3:-0.3613445378151262 4:-0.4693877551020409 5:-0.6095238095238098 6:-0.18647717484926796 7:-0.8432494279176201 8:-0.8148551853005295 9:-0.921875 10:-0.707807386629266 11:-0.9526040231468724 12:-0.7350469599604549 13:-0.7984691202684282 14:-0.73030934853836 15:-0.23178117876913085 16:-0.7248157248157248 17:-0.26603541638283124 18:-0.26488123300651223 19:-0.5527042147446577 20:-0.8476301466045226 21:-0.6391555368437027 22:-0.7247093377017749 23:-0.7560953829713037 24:-0.7973661615961289 25:-0.9484533816310466 26:-0.9792062550242848 27:0.5999999999999999 28:0.2877500198048908 29:-0.13220748392788273 30:-0.007930944979642973 
-4.0 1:0.3864542917432441 2:0.32592592592592573 3:0.8235294117647056 4:0.48571428571428577 5:0.32592592592592573 6:0.6148071148071148 7:-0.8381877022653722 8:-0.7298162566178761 9:-0.9381944444444444 10:0.6447679244078401 11:-0.9476439790575917 12:0.3485838779956425 13:0.4908413091013375 14:0.5702720903242444 15:0.672735385988398 16:0.4429139883685338 17:-0.015774267828180588 18:-0.10462683704144105 19:0.5802661588348532 20:0.5453722315628236 21:0.6621291847303028 22:0.6114214149359294 23:0.47477080336010213 24:0.06143541113833728 25:0.02011512066290133 26:-0.010256681389212985 27:-0.1636363636363637 28:0.09168648114744427 29:-0.11759663213567617 30:-0.016090557662376992 
4.0 1:1.0 2:1.0 3:0.9999999999999998 4:1.0 5:1.0 6:1.0 7:-0.8421052631578947 8:-0.7681451648376783 9:-0.9467905405405406 10:1.0 11:-0.9582840736362102 12:1.0 13:1.0 14:1.0 15:0.9999999999999998 16:1.0 17:0.973080576732267 18:0.986079593167908 19:0.9961784591385308 20:1.0 21:0.9999999999999998 22:1.0 23:1.0 24:1.0 25:1.0 26:1.0 27:-0.8545454545454545 28:0.2540418312193662 29:-0.09322189799906277 30:-0.017901764787068286 
4.0 1:0.47696294612411916 2:0.4703703703703701 3:0.7647058823529413 4:0.5428571428571427 5:0.4703703703703701 6:0.6735193343122858 7:-0.8401559454191033 8:-0.6891478670724357 9:-0.9407894736842105 10:0.5986622073578596 11:-0.9589877835951135 12:0.47401182695300337 13:0.5628920672473745 14:0.6063803821912104 15:0.6985720660419452 16:0.5503520048974593 17:0.08314734738786966 18:-0.01121597074084335 19:0.6150852997878857 20:0.5867665983466195 21:0.671154390662815 22:0.6552188960846621 23:0.555847795184224 24:0.07130852369436624 25:0.020482134569599575 26:-0.010256681389212985 27:-0.054545454545454564 28:0.20156595642724273 29:-0.09292393648650665 30:0.004041293817138802 
2.073430832129039 1:0.4553944078199592 2:0.5047619047619047 3:0.8235294117647056 4:0.5428571428571427 5:0.5047619047619047 6:0.6636141636141635 7:-0.838206627680312 8:-0.7124238306926134 9:-0.9387755102040817 10:0.5825573180913237 11:-0.956020942408377 12:0.448031844316674 13:0.5408571479827067 14:0.5980454153492383 15:0.672735385988398 16:0.5026017753290482 17:-0.03199050977377316 18:-0.08165677827553541 19:0.7297951904009499 20:0.7694137861806902 21:0.691277030237311 22:0.6900553667448437 23:0.7494194230883608 24:0.7650690921591281 25:0.7495200048853301 26:0.7320508075688774 27:-1.0 28:0.27317072559980327 29:0.13670514066826733 30:0.22573629051884958 
4.0 1:0.4553944078199592 2:0.5047619047619047 3:0.8235294117647056 4:0.5428571428571427 5:0.5047619047619047 6:0.6636141636141635 7:-0.838206627680312 8:-0.7124238306926134 9:-0.9387755102040817 10:0.5825573180913237 11:-0.956020942408377 12:0.448031844316674 13:0.5408571479827067 14:0.5980454153492383 15:0.672735385988398 16:0.5026017753290482 17:-0.03199050977377316 18:-0.08165677827553541 19:0.7297951904009499 20:0.7694137861806902 21:0.691277030237311 22:0.6900553667448437 23:0.7494194230883608 24:0.7650690921591281 25:0.7495200048853301 26:0.7320508075688774 27:-1.0 28:0.0790378017556157 29:0.13670514066826733 30:0.22573629051884958 
-2.0517030448185842 1:1.0 2:1.0 3:0.9999999999999998 4:1.0 5:1.0 6:1.0 7:-0.8421052631578947 8:-0.7681451648376783 9:-0.9467905405405406 10:1.0 11:-0.9582840736362102 12:1.0 13:1.0 14:1.0 15:0.9999999999999998 16:1.0 17:1.0 18:1.0 19:0.9961784591385308 20:1.0 21:0.9999999999999998 22:1.0 23:1.0 24:1.0 25:1.0 26:1.0 27:-1.0 28:0.2678987376161859 29:-0.09322189799906277 30:-0.017901764787068286 
-4.0 1:-0.974793556247462 2:-0.6095238095238098 3:-0.3613445378151262 4:-0.4693877551020409 5:-0.6095238095238098 6:-0.14017094017094012 7:-0.8401559454191033 8:-0.8148551853005295 9:-0.9296875 10:-0.5508444125044916 11:-0.9573452417616262 12:-0.7419940949352714 13:-0.7984691202684282 14:-0.73030934853836 15:-0.23178117876913085 16:-0.7015858834040651 17:-0.40716403051180106 18:-0.44784745942332604 19:-0.4169115753797865 20:-0.961974473894931 21:-0.49814110002120604 22:-0.6424858283417202 23:-0.7230671651057954 24:-0.8529899141696605 25:-0.985087141855523 26:-0.999445500133981 27:0.5999999999999999 28:0.05169467263521765 29:-0.20582576205811776 30:-0.11725066657657535 
3.449650749170638 1:-0.9615115005476451 2:-0.5785714285714288 3:-0.5315126050420167 4:-0.6000000000000004 5:-0.5785714285714288 6:-0.16962054078618483 7:-0.8422128941986868 8:-0.749461156652538 9:-0.8671875 10:-0.8161083392729865 11:-0.9623374429994933 12:-0.6427015250544662 13:-0.8000216661250135 14:-0.7868189730826224 15:0.05265506470325754 16:-0.6506386175807661 17:-0.4050924375725845 18:-0.3638326504556153 19:-0.20052857780688726 20:-0.7685545105231488 21:-0.4783974199736938 22:-0.655153926250508 23:-0.5029234525306101 24:-0.8297860681476557 25:-0.9771116375732976 26:-0.9981490001356492 27:0.16363636363636358 28:0.1783908830922909 29:-0.29663809818930775 30:-0.23212807096112142 
4.0 1:-0.705479984453945 2:-0.48571428571428577 3:-0.5126050420168067 4:-0.4693877551020409 5:-0.48571428571428577 6:-0.21612903225806446 7:-0.8432748538011696 8:-0.8148551853005295 9:-0.9471649484536082 10:-0.38215102974828385 11:-0.9607720559506134 12:-0.43741707209199465 13:-0.47192280053382596 14:-0.41288547612203863 15:-0.32175015852885247 16:-0.40234884732492393 17:-0.4050334742002588 18:-0.4498456891088849 19:-0.4381696300578417 20:-0.36822039128084094 21:-0.4307936959997025 22:-0.47049097469739454 23:-0.5071144806083574 24:-0.851007151338089 25:-0.9345507551787372 26:-0.9706983885937596 27:0.2727272727272727 28:0.0707306550664013 29:-0.25068357175984957 30:-0.16911564077798535 
-3.716141602925824 1:-0.705479984453945 2:-0.48571428571428577 3:-0.5126050420168067 4:-0.4693877551020409 5:-0.48571428571428577 6:-0.21612903225806446 7:-0.8432748538011696 8:-0.8148551853005295 9:-0.9471649484536082 10:-0.38215102974828385 11:-0.9607720559506134 12:-0.43741707209199465 13:-0.47192280053382596 14:-0.41288547612203863 15:-0.32175015852885247 16:-0.40234884732492393 17:-0.2551712250928657 18:-0.3708895896949992 19:-0.4381696300578417 20:-0.36822039128084094 21:-0.4307936959997025 22:-0.47049097469739454 23:-0.5071144806083574 24:-0.851007151338089 25:-0.9345507551787372 26:-0.9706983885937596 27:0.2727272727272727 28:0.12300812384638582 29:-0.25068357175984957 30:-0.16911564077798535 
-1.2456606631078313 1:-0.7718554216867471 2:-0.35652173913043483 3:-0.3931888544891643 4:-0.6099378881987578 5:-0.35652173913043483 6:-0.17601652533159373 7:-0.8413497859481239 8:-0.7711108804226212 9:-0.9449823943661972 10:-0.32837083403823375 11:-0.9575414186330058 12:-0.33277310924369763 13:-0.4408602150537635 14:-0.43179519103571684 15:-0.1690505139825358 16:-0.43966942148760335 17:-0.4547076624884573 18:-0.4479763641462977 19:-0.15151432521614694 20:0.01854685386937338 21:-0.08974638451244121 22:-0.13134369540035917 23:-0.2085242851165987 24:-0.6042571518723163 25:-0.7819380702512968 26:-0.9274149280775638 27:-1.0 28:0.12815529904087652 29:-0.02038211241745147 30:0.05970344817397244 
-4.0 1:-0.8962170041223498 2:-0.5689655172413794 3:-0.20486815415821502 4:-0.4364532019704437 5:-0.5241379310344827 6:-0.1749719416386083 7:-0.8380891989008666 8:-0.7711108804226212 9:-0.9490131578947368 10:-0.42897690620565077 11:-0.9469756043221567 12:-0.6496800555084419 13:-0.6650147238382532 14:-0.6324926301998035 15:-0.006919420802476095 16:-0.6539540526196073 17:-0.4804411703641229 18:-0.5200577937924533 19:-0.27403264248121806 20:-0.6984798308206518 21:-0.4175636167979321 22:-0.5475026192736403 23:-0.5633678786909876 24:-0.8546786710374978 25:-0.976324664870071 26:-0.9981793694253012 27:-0.8545454545454545 28:0.051719182587742996 29:-0.20121639742822772 30:-0.12208973167781467 
0.779741699540608 1:0.4553944078199592 2:0.5047619047619047 3:0.8235294117647056 4:0.5428571428571427 5:0.5047619047619047 6:0.6636141636141635 7:-0.838206627680312 8:-0.7124238306926134 9:-0.9387755102040817 10:0.5825573180913237 11:-0.956020942408377 12:0.448031844316674 13:0.5408571479827067 14:0.5980454153492383 15:0.672735385988398 16:0.5026017753290482 17:5.775705197916814E-4 18:-0.05344873360590452 19:0.7297951904009499 20:0.7694137861806902 21:0.691277030237311 22:0.6900553667448437 23:0.7494194230883608 24:0.7650690921591281 25:0.7495200048853301 26:0.7320508075688774 27:-0.38181818181818183 28:0.0996143897875077 29:0.13670514066826733 30:0.22573629051884958 
-4.0 1:-0.5646227367570842 2:-0.368421052631579 3:-0.17027863777089802 4:-0.299248120300752 5:-0.368421052631579 6:-0.255718954248366 7:-0.8392756083757782 8:-0.7473639720603282 9:-0.9450431034482759 10:-0.10094517958412086 11:-0.9553492047811913 12:-0.23809523809523792 13:-0.35353535353535326 14:-0.3117718657624763 15:-0.11097724230254358 16:-0.3370064279155186 17:-0.31716561169580104 18:-0.3450748742681009 19:-0.06105471423118081 20:-0.05803191384841244 21:-0.025461114496336146 22:-0.1768867519163302 23:-0.21146884063394789 24:-0.6591790046638686 25:-0.822152506762616 26:-0.9686752597821318 27:-1.0 28:-0.07611906282538838 29:-0.09002424487199134 30:0.004657421722498611 
2.178669092306334 1:-0.6604159655381305 2:-0.5052631578947369 3:-0.17027863777089802 4:-0.299248120300752 5:-0.5052631578947369 6:-0.3632478632478633 7:-0.8391812865497076 8:-0.8148551853005295 9:-0.9450431034482759 10:-0.2083958020989507 11:-0.9568586387434554 12:-0.35947712418300637 13:-0.4468976631748588 14:-0.3954496208017333 15:-0.11097724230254358 16:-0.4086317722681361 17:-0.3999659352151591 18:-0.3900620935162755 19:-0.07212310114271947 20:-0.16400406470808115 21:-0.060157543940785096 22:-0.250293056483212 23:-0.29746250521353046 24:-0.6447524970576095 25:-0.8219390042928978 26:-0.9686752597821318 27:-1.0 28:-0.14350815473476253 29:-0.07810897693834729 30:0.024168058385114488 
-4.0 1:-0.9698046422980057 2:-0.43000000000000005 3:-0.5882352941176472 4:-0.542857142857143 5:-0.43000000000000005 6:-0.3120256859311151 7:-0.8403852769177846 8:-0.745957905117824 9:-0.9443359375 10:-0.6121812511465787 11:-0.9558598469593234 12:-0.49299719887955185 13:-0.6548586285342866 14:-0.5899075434200293 15:-0.2143239625167339 16:-0.6115702479338843 17:-0.38856823570439114 18:-0.3672138618273145 19:-0.42865755895662283 20:-0.6064006154148784 21:-0.5535459879265124 22:-0.5621036882031886 23:-0.6317303772842677 24:-0.813999050229712 25:-0.9574201966787363 26:-0.9930389466182514 27:-1.0 28:0.29427742220645503 29:-0.13858758503059987 30:-0.02692697044591985 
1.7978763656347556 1:-0.5646227367570842 2:-0.368421052631579 3:-0.17027863777089802 4:-0.299248120300752 5:-0.368421052631579 6:-0.255718954248366 7:-0.8392756083757782 8:-0.7473639720603282 9:-0.9450431034482759 10:-0.10094517958412086 11:-0.9553492047811913 12:-0.23809523809523792 13:-0.35353535353535326 14:-0.3117718657624763 15:-0.11097724230254358 16:-0.3370064279155186 17:-0.31716561169580104 18:-0.3538937651071784 19:-0.06105471423118081 20:-0.05803191384841244 21:-0.025461114496336146 22:-0.1768867519163302 23:-0.21146884063394789 24:-0.6591790046638686 25:-0.822152506762616 26:-0.9686752597821318 27:-0.8545454545454545 28:-0.08135887433953326 29:-0.09002424487199134 30:0.004657421722498611 
-0.17462955890136916 1:-0.5646227367570842 2:-0.368421052631579 3:-0.17027863777089802 4:-0.299248120300752 5:-0.368421052631579 6:-0.255718954248366 7:-0.8392756083757782 8:-0.7473639720603282 9:-0.9450431034482759 10:-0.10094517958412086 11:-0.9553492047811913 12:-0.23809523809523792 13:-0.35353535353535326 14:-0.3117718657624763 15:-0.11097724230254358 16:-0.3370064279155186 17:-0.31716561169580104 18:-0.33167414309778576 19:-0.06105471423118081 20:-0.05803191384841244 21:-0.025461114496336146 22:-0.1768867519163302 23:-0.21146884063394789 24:-0.6591790046638686 25:-0.822152506762616 26:-0.9686752597821318 27:-0.38181818181818183 28:-0.03877294078134963 29:-0.09002424487199134 30:0.004657421722498611 
-2.4225507665577375 1:0.47696294612411916 2:0.4703703703703701 3:0.7647058823529413 4:0.5428571428571427 5:0.4703703703703701 6:0.6735193343122858 7:-0.8401559454191033 8:-0.6891478670724357 9:-0.9407894736842105 10:0.5986622073578596 11:-0.9589877835951135 12:0.47401182695300337 13:0.5628920672473745 14:0.6063803821912104 15:0.6985720660419452 16:0.5503520048974593 17:0.08314734738786966 18:-0.01121597074084335 19:0.6150852997878857 20:0.5867665983466195 21:0.671154390662815 22:0.6552188960846621 23:0.555847795184224 24:0.07130852369436624 25:0.020482134569599575 26:-0.010256681389212985 27:-0.054545454545454564 28:0.07420189623531881 29:-0.09292393648650665 30:0.004041293817138802 
-0.46331210964552283 1:-0.16430165104863914 2:-0.22352941176470598 3:0.43944636678200677 4:0.27394957983193247 5:-0.22352941176470598 6:-0.025252525252525304 7:-0.8392386194243779 8:-0.7676113360323888 9:-0.9375 10:-0.10364722851844232 11:-0.9130890052356021 12:-0.2513368983957218 13:-0.20847151917146678 14:-0.15082358558128428 15:0.4081051478641837 16:0.08189331329827176 17:-0.34629507568669593 18:-0.3602831456707123 19:0.2562917014378814 20:-0.3231717898500146 21:0.13205053526139143 22:-0.15122813246308553 23:-0.041972104632898466 24:-0.8281031182850105 25:-0.974072173842411 26:-0.9962825813944414 27:-0.38181818181818183 28:0.3349843970478068 29:-0.10112868440739198 30:-0.022928126148218708 
-0.05802745338040711 1:0.9804258128404026 2:0.907142857142857 3:0.9999999999999998 4:1.0 5:1.0 6:0.9759535655058043 7:-0.8415003024803388 8:-0.8256626017997772 9:-0.95375 10:0.9686860171022524 11:-0.9640336899613021 12:0.9687875150060024 13:0.9388964888280893 14:0.9547107890058799 15:0.9999999999999998 16:0.9539551357733176 17:0.8242973516239378 18:0.8108501385515137 19:1.0 20:0.9346902706642917 21:0.99982800064919 22:0.9897984535077893 23:0.9824746375407711 24:0.7689913678104319 25:0.6709092175468152 26:0.5687687112068498 27:-0.38181818181818183 28:0.4221543847659448 29:-0.8559638413659414 30:-0.7970006962518151 
-4.0 1:-0.9438709491905573 2:-0.5000000000000001 3:-0.22171945701357465 4:-0.542857142857143 5:-0.5000000000000001 6:-0.13871742112482854 7:-0.835985312117503 8:-0.7186177145691317 9:-0.9423076923076923 10:-0.6350428277133255 11:-0.9598603839441536 12:-0.5385154061624648 13:-0.7441715648304248 14:-0.7535632959433248 15:0.06266928177827569 16:-0.6940226792235249 17:-0.45665316612646334 18:-0.4225013585252685 19:-0.5603417300872165 20:-0.7582552824204347 21:-0.7807344118764472 22:-0.8973443600193598 23:-0.8183546544819804 24:-0.698243088564807 25:-0.9390672197187448 26:-0.9939403015741802 27:0.3090909090909091 28:-0.04701190741923689 29:-0.43866094989145465 30:-0.38725775989349565 
-4.0 1:-0.9438709491905573 2:-0.5000000000000001 3:-0.22171945701357465 4:-0.542857142857143 5:-0.5000000000000001 6:-0.13871742112482854 7:-0.835985312117503 8:-0.7186177145691317 9:-0.9423076923076923 10:-0.6350428277133255 11:-0.9598603839441536 12:-0.5385154061624648 13:-0.7441715648304248 14:-0.7535632959433248 15:0.06266928177827569 16:-0.6940226792235249 17:-0.45665316612646334 18:-0.4225013585252685 19:-0.5603417300872165 20:-0.7582552824204347 21:-0.7807344118764472 22:-0.8973443600193598 23:-0.8183546544819804 24:-0.698243088564807 25:-0.9390672197187448 26:-0.9939403015741802 27:0.3090909090909091 28:-0.06629047836801627 29:-0.43866094989145465 30:-0.38725775989349565 
4.0 1:-0.9362431457362412 2:-0.5000000000000001 3:-0.22171945701357465 4:-0.5658848614072497 5:-0.5000000000000001 6:-0.09516616314199389 7:-0.8354506957047791 8:-0.704619537008201 9:-0.9388020833333334 10:-0.5198487712665407 11:-0.9455497382198953 12:-0.5749299719887955 13:-0.748226138704509 14:-0.7225267774310535 15:0.08429999066031568 16:-0.7439938497020947 17:-0.4771299565964864 18:-0.4684082505706775 19:-0.6429398878786576 20:-0.7108728372133999 21:-0.7741488844951752 22:-0.8005851382610578 23:-0.8357095150069929 24:-0.6597392070451185 25:-0.9042588477466064 26:-0.9828179501776042 27:0.3090909090909091 28:-0.09571347794194573 29:-0.42497668073890016 30:-0.3738807170751297 
-4.0 1:-0.9454720289609142 2:-0.40833333333333344 3:-0.4558823529411766 4:-0.6714285714285717 5:-0.40833333333333344 6:-0.28734715576820824 7:-0.8413665743305633 8:-0.6450327000934287 9:-0.9351851851851851 10:-0.6885692492099815 11:-0.955012604227264 12:-0.48968678380443065 13:-0.6839572192513368 14:-0.736469578894688 15:-0.13200709816008238 16:-0.7776108189331328 17:-0.3742397604840265 18:-0.43745405116003744 19:-0.4105097116505303 20:-0.5840597248206925 21:-0.6568030404180976 22:-0.560448724986391 23:-0.5437022028640447 24:-0.7781777940143728 25:-0.9479630406336136 26:-0.9964398158333624 27:-0.018181818181818188 28:-0.12154698372723638 29:-0.3619257180351495 30:-0.32273057238622194 
-3.9961489017530125 1:-0.8918038350585442 2:-0.5166666666666667 3:-0.32352941176470584 4:-0.542857142857143 5:-0.5166666666666667 6:-0.41700133868808564 7:-0.8427471116816432 8:-0.7058309177586661 9:-0.9433139534883721 10:-0.808695652173913 11:-0.9565042287555376 12:-0.241405653170359 13:-0.6237056620400967 14:-0.7168198105509633 15:-0.16265060240963858 16:-0.6311044327573254 17:-0.45280120753762576 18:-0.47222535861516945 19:-0.32416342183547475 20:-0.6612002855823571 21:-0.6729881909044719 22:-0.609400583511154 23:-0.5437022028640447 24:-0.6761563522976092 25:-0.8897979245267353 26:-0.9519375137503934 27:-0.018181818181818188 28:-0.06378287028240448 29:-0.4400759621317514 30:-0.4000590595280046 
0.4758764318168867 1:0.4870559159715786 2:0.45833333333333304 3:0.6029411764705881 4:0.6142857142857143 5:0.45833333333333304 6:0.7949494949494949 7:-0.8398471426089977 8:-0.669207048955743 9:-0.9505739795918368 10:0.6564756491012447 11:-0.9610114737662916 12:0.37184873949579833 13:0.5484918605123212 14:0.5863254645242346 15:0.8449799196787147 16:0.4986225895316805 17:-0.082142765941147 18:-0.16682725317992753 19:0.6296235536336794 20:0.5020530669352901 21:0.7003588439578374 22:0.6056679875809161 23:0.5408223178969491 24:0.15524851186245492 25:0.03753724075895448 26:-0.05970710019431458 27:-1.0 28:0.10581541233036607 29:-0.6195380229893865 30:-0.6049626504189429 
-3.8774731525267656 1:-0.9362431457362412 2:-0.6298507462686567 3:-0.2800702370500441 4:-0.5658848614072497 5:-0.6298507462686567 6:-0.09516616314199389 7:-0.8396572827417381 8:-0.704619537008201 9:-0.9523628048780488 10:-0.5639097744360904 11:-0.9455497382198953 12:-0.6107094000390854 13:-0.748226138704509 14:-0.7225267774310535 15:0.08429999066031568 16:-0.7439938497020947 17:-0.4772674698499114 18:-0.4713315483980317 19:-0.6698948778769385 20:-0.8173718264102368 21:-0.7741488844951752 22:-0.8005851382610578 23:-0.8357095150069929 24:-0.6597392070451185 25:-0.9042588477466064 26:-0.9828179501776042 27:0.2727272727272727 28:-0.1468221516683369 29:-0.616864967979136 30:-0.5460071753759155 
4.0 1:-0.9142077744942034 2:-0.5166666666666667 3:-0.32352941176470584 4:-0.542857142857143 5:-0.5166666666666667 6:-0.46464646464646464 7:-0.8452950558213717 8:-0.7785137627865751 9:-0.9440104166666666 10:-0.8286445012787724 11:-0.9620418848167539 12:-0.23147440794499607 13:-0.6214449743861508 14:-0.7015222649025467 15:-0.09923329682365833 16:-0.640871525169046 17:-0.4449083713447596 18:-0.4329249511862995 19:-0.19306267776172348 20:-0.491403713039711 21:-0.5332869287234369 22:-0.49884252036864807 23:-0.41684309670941566 24:-0.6610387145985225 25:-0.8859189736967684 26:-0.9483773295837558 27:-0.054545454545454564 28:-0.05416978098839886 29:-0.49147377062541553 30:-0.4669963058003006 
1.6375288565183588 1:-0.9276881109343036 2:-0.5166666666666667 3:-0.32352941176470584 4:-0.542857142857143 5:-0.5166666666666667 6:-0.4309868875086267 7:-0.8467000835421888 8:-0.7058309177586661 9:-0.94375 10:-0.874252464845644 11:-0.9599205632785701 12:-0.22154316271963304 13:-0.6503490285002891 14:-0.7606708956026236 15:-0.14151150054764516 16:-0.6604057099924867 17:-0.45921579635915266 18:-0.45411828291908074 19:-0.3214041834195134 20:-0.6184093629647998 21:-0.666556377035302 22:-0.6093886044385035 23:-0.5383175458943081 24:-0.6770643914308156 25:-0.8897979245267353 26:-0.9519375137503934 27:-0.054545454545454564 28:-0.023669429235047557 29:-0.5182888793816112 30:-0.504173062252951 
-4.0 1:-0.9142077744942034 2:-0.5166666666666667 3:-0.32352941176470584 4:-0.542857142857143 5:-0.5166666666666667 6:-0.46464646464646464 7:-0.8452950558213717 8:-0.7785137627865751 9:-0.9440104166666666 10:-0.8286445012787724 11:-0.9620418848167539 12:-0.23147440794499607 13:-0.6214449743861508 14:-0.7015222649025467 15:-0.09923329682365833 16:-0.640871525169046 17:-0.44296351462357775 18:-0.45417411957892273 19:-0.19306267776172348 20:-0.491403713039711 21:-0.5332869287234369 22:-0.49884252036864807 23:-0.41684309670941566 24:-0.6610387145985225 25:-0.8859189736967684 26:-0.9483773295837558 27:-0.054545454545454564 28:-0.05713254516485833 29:-0.49147377062541553 30:-0.4669963058003006 
-1.246818708414416 1:-0.8186199342825852 2:-0.43448275862068975 3:-0.42393509127789053 4:-0.7024630541871923 5:-0.43448275862068975 6:-0.46869244935543275 7:-0.8381101268021539 8:-0.7548824232762058 9:-0.9495967741935484 10:-0.6037310064690837 11:-0.9627543243422361 12:-0.6113445378151262 13:-0.6005054828584239 14:-0.6393056010481494 15:0.08925702811244984 16:-0.5757575757575757 17:-0.3433064024427094 18:-0.34278633035848016 19:-0.23152508391384596 20:-0.4386758438354045 21:-0.42255095806931897 22:-0.40626045195911653 23:-0.40646282580079673 24:-0.612291472951948 25:-0.8733925165015218 26:-0.9644409324377716 27:-1.0 28:-0.04856263805592598 29:-0.8208265047777339 30:-0.8220632903436289 
0.5716356541637859 1:-0.24201108230389934 2:-0.19166666666666687 3:0.2058823529411764 4:0.09999999999999987 5:-0.19166666666666687 6:0.26078431372549016 7:-0.8427244582043344 8:-0.8419623119297905 9:-0.9513081395348837 10:0.09719542958895988 11:-0.9661431064572426 12:-0.30182072829131656 13:-0.06284978056931168 14:-0.06289348997209065 15:0.6318273092369477 16:-0.11019283746556485 17:-0.2910650568883105 18:-0.3566443232455019 19:0.2189562988336129 20:-0.09696474488095796 21:0.2131971960626886 22:0.09613814963509393 23:0.017558480284714628 24:-0.435978479733686 25:-0.752234550156696 26:-0.8884934408136236 27:-1.0 28:-0.175372711252055 29:-0.7272084257668734 30:-0.7289729148789035 
0.11682822251941037 1:0.19394501081248072 2:0.13333333333333308 3:0.6029411764705881 4:0.48571428571428577 5:0.13333333333333308 6:0.6450094161958568 7:-0.8407079646017699 8:-0.7034771986839281 9:-0.9512117346938775 10:0.41863354037267086 11:-0.9612457494467533 12:0.21708683473389345 13:0.3074083189761261 14:0.3963214581607293 15:0.7868473895582329 16:0.31060606060606055 17:-0.28540937408595113 18:-0.3633747571166709 19:0.4496410986279069 20:0.26941965307990157 21:0.5021236616059108 22:0.3947367807404447 23:0.2783816632789047 24:-0.05677712121878764 25:-0.24529234938122424 26:-0.4274414975110882 27:-1.0 28:-0.17633910631687577 29:-0.6389962185795226 30:-0.6239094898276745 
-4.0 1:-0.9284148768989002 2:-0.56 3:-0.1435294117647059 4:-0.4811428571428573 5:-0.56 6:-0.07113944545638518 7:-0.8415512465373961 8:-0.6503674378486258 9:-0.9477040816326531 10:-0.46034036923446997 11:-0.9541884816753927 12:-0.5387091006615412 13:-0.7001153402537483 14:-0.6474160950835122 15:0.06987951807228887 16:-0.6955344121119522 17:-0.5108613258056871 18:-0.5391125422861859 19:-0.4892823918805508 20:-0.7118534360191036 21:-0.5374575392195124 22:-0.6565647513564827 23:-0.701370574635221 24:-0.8261196549806984 25:-0.9641793528374434 26:-0.9967500113717664 27:0.2727272727272727 28:-0.11113207283678028 29:-0.4263491348049405 30:-0.3916874920915594 
-2.0823069094154687 1:-0.9362431457362412 2:-0.5000000000000001 3:-0.22171945701357465 4:-0.5658848614072497 5:-0.5000000000000001 6:-0.09516616314199389 7:-0.8354506957047791 8:-0.704619537008201 9:-0.9388020833333334 10:-0.5198487712665407 11:-0.9455497382198953 12:-0.5749299719887955 13:-0.748226138704509 14:-0.7225267774310535 15:0.08429999066031568 16:-0.7439938497020947 17:-0.4772674698499114 18:-0.4712718426253656 19:-0.6429398878786576 20:-0.7108728372133999 21:-0.7741488844951752 22:-0.8005851382610578 23:-0.8357095150069929 24:-0.6597392070451185 25:-0.9042588477466064 26:-0.9828179501776042 27:0.2727272727272727 28:-0.1384111668760174 29:-0.42497668073890016 30:-0.3738807170751297 
-1.5395845625635378 1:-0.8554576515015289 2:-0.48571428571428577 3:-0.3613445378151262 4:-0.32244897959183705 5:-0.30000000000000016 6:-0.2744610281923715 7:-0.847953216374269 8:-0.6052521920686372 9:-0.9303977272727273 10:-0.7584541062801933 11:-0.9636000997257542 12:-0.5941487706193588 13:-0.7175916302916925 14:-0.7000563380281691 15:-0.10236501561802769 16:-0.5200489745944291 17:-0.3620227463435455 18:-0.2798010259027629 19:-0.4450262948253384 20:-0.9046185409070089 21:-0.41782069404362654 22:-0.5554672967689043 23:-0.6405148246809211 24:-0.9347426089140912 25:-0.992402936552148 26:-1.0 27:-1.0 28:-0.008455869452638431 29:-0.13138624597575588 30:-0.01695416352434065 
0.09779371243076845 1:-0.49695926563396453 2:-0.20000000000000018 3:-0.22171945701357465 4:-0.42417582417582445 5:-0.20000000000000018 6:-0.39629629629629626 7:-0.7426900584795322 8:-0.5936817508286603 9:-0.9375 10:-0.26188068756319516 11:-0.8489154824233358 12:-0.4285714285714285 13:-0.3186092280778483 14:-0.25185008355216054 15:0.10565338276181646 16:-0.38842975206611563 17:-0.36911044573862306 18:-0.3328791600350739 19:-0.13607820551275818 20:-0.3827709986522454 21:-0.12610384604957825 22:-0.22823311281805458 23:-0.25904429349951774 24:-0.7171673304916379 25:-0.945945945945946 26:-0.9962406015037594 27:-1.0 28:-0.04992358020105603 29:-0.11402982432508002 30:0.02850646717030547 
4.0 1:-0.4343077972266426 2:-0.20000000000000018 3:-0.22171945701357465 4:-0.18681318681318682 5:0.0 6:-0.02083333333333315 7:-0.368421052631579 8:-0.892123163075526 9:-0.9330357142857143 10:-0.003487561032318065 11:-0.9639325189063409 12:-0.24369747899159666 13:-0.09081899907977631 14:-0.03871813879226782 15:0.1772011121408712 16:-0.2727272727272725 17:-0.30265177281997235 18:-0.3174294715783734 19:-0.22668338855119086 20:-0.23592109239397585 21:-0.22931368452113998 22:-0.1223228958428666 23:-0.32573848782283776 24:-0.807861707212831 25:-0.937937937937938 26:-0.9887218045112782 27:-1.0 28:-0.08795962401772717 29:-0.3940041173337815 30:-0.19522042292074315 
0.017843916867240857 1:-0.48517218480220126 2:-0.20000000000000018 3:-0.22171945701357465 4:-0.42417582417582445 5:-0.20000000000000018 6:-0.36944444444444446 7:0.4035087719298245 8:-0.6535347243849267 9:0.078125 10:-0.3102766798418971 11:0.02617801047120416 12:-0.39495798319327724 13:-0.2992889463477698 14:-0.23098591549295766 15:-0.0016682113067655324 16:-0.3553719008264462 17:-0.3310588294105179 18:-0.35307626122285063 19:-0.09381275640184972 20:-0.3968287103415321 21:-0.09054448397587167 22:-0.1826368307896321 23:-0.2289420685181358 24:-0.7171673304916379 25:-0.945945945945946 26:-0.9962406015037594 27:-0.12727272727272732 28:0.04982340666138385 29:-0.1021981019669187 30:0.06947954242751742 
-4.0 1:-0.4343077972266426 2:-0.20000000000000018 3:-0.22171945701357465 4:-0.18681318681318682 5:0.0 6:-0.02083333333333315 7:-0.368421052631579 8:-0.892123163075526 9:-0.9330357142857143 10:-0.003487561032318065 11:-0.9639325189063409 12:-0.24369747899159666 13:-0.09081899907977631 14:-0.03871813879226782 15:0.1772011121408712 16:-0.2727272727272725 17:-0.30265177281997235 18:-0.3174294715783734 19:-0.22668338855119086 20:-0.23592109239397585 21:-0.22931368452113998 22:-0.1223228958428666 23:-0.32573848782283776 24:-0.807861707212831 25:-0.937937937937938 26:-0.9887218045112782 27:-1.0 28:-0.08795962401772717 29:-0.3940041173337815 30:-0.19522042292074315 
-2.697442207352235 1:-0.6201878379660375 2:-0.3999999999999999 3:0.02262443438914019 4:-0.5011583011583014 5:-0.3999999999999999 6:0.06312516896458509 7:-0.8421052631578947 8:-0.8352691942435533 9:-0.92578125 10:-0.2043884599756196 11:-0.9504997620180866 12:-0.5126050420168067 13:-0.41332200750336223 14:-0.43019110513704617 15:0.39184430027803496 16:-0.5105464413469841 17:-0.19250236528522413 18:-0.3168540049599021 19:-0.30908875876730857 20:-0.2991449100098209 21:-0.2605574556135152 22:-0.311642807125624 23:-0.39012520191562317 24:-0.7906934138889301 25:-0.9686286253676172 26:-0.9957467261282013 27:0.8909090909090909 28:0.17364170276228763 29:-0.27833050251544933 30:-0.15549551712375298 
0.11015034561444295 1:-0.6784088735895967 2:-0.3999999999999999 3:-0.4660633484162897 4:-0.42417582417582445 5:-0.3999999999999999 6:-0.39629629629629626 7:0.4035087719298245 8:0.026944310749978717 9:-0.71875 10:-0.4984833164812943 11:-0.9455497382198953 12:-0.6974789915966386 13:-0.572563597929878 14:-0.44951062306039635 15:0.1772011121408712 16:-0.4876033057851239 17:-0.2938401993544737 18:-0.32340155008991656 19:-0.21378445745850105 20:-0.7469830238153428 21:-0.2261651077326039 22:-0.4107153394319931 23:-0.42150162169300387 24:-0.8691361662936027 25:-0.9906145071323078 26:-1.0 27:-0.38181818181818183 28:-0.09927881915603398 29:-0.13213964139801437 30:0.011159556151332461 
1.7439721493305127 1:-0.6784088735895967 2:-0.3999999999999999 3:-0.4660633484162897 4:-0.42417582417582445 5:-0.3999999999999999 6:-0.39629629629629626 7:-0.8421052631578947 8:-0.44005398110661287 9:-0.93125 10:-0.4984833164812943 11:-0.9581151832460733 12:-0.6974789915966386 13:-0.572563597929878 14:-0.44951062306039635 15:0.1772011121408712 16:-0.4876033057851239 17:-0.3185925849709583 18:-0.34940552578109996 19:-0.21378445745850105 20:-0.7469830238153428 21:-0.2261651077326039 22:-0.4107153394319931 23:-0.42150162169300387 24:-0.8691361662936027 25:-0.9906145071323078 26:-1.0 27:-0.018181818181818188 28:-0.02299046220501011 29:-0.1688223748790353 30:-0.03081738735064532 
-0.06091894020968016 1:-0.48517218480220126 2:-0.20000000000000018 3:-0.22171945701357465 4:-0.42417582417582445 5:-0.20000000000000018 6:-0.36944444444444446 7:0.4035087719298245 8:-0.6535347243849267 9:-0.71875 10:-0.3102766798418971 11:-0.9455497382198953 12:-0.39495798319327724 13:-0.2992889463477698 14:-0.23098591549295766 15:-0.0016682113067655324 16:-0.3553719008264462 17:-0.3584017550824484 18:-0.3587537009878524 19:-0.09381275640184972 20:-0.3968287103415321 21:-0.09054448397587167 22:-0.1826368307896321 23:-0.2289420685181358 24:-0.7171673304916379 25:-0.945945945945946 26:-0.9962406015037594 27:-0.38181818181818183 28:0.10598050025206707 29:-0.10247356272952368 30:0.06944895248523819 
-0.08614853358795672 1:-0.48517218480220126 2:-0.20000000000000018 3:-0.22171945701357465 4:-0.42417582417582445 5:-0.20000000000000018 6:-0.36944444444444446 7:0.4035087719298245 8:-0.6535347243849267 9:-0.71875 10:-0.3102766798418971 11:-0.912041884816754 12:-0.39495798319327724 13:-0.2992889463477698 14:-0.23098591549295766 15:-0.0016682113067655324 16:-0.3553719008264462 17:-0.3659741260182835 18:-0.34194577097598744 19:-0.09381275640184972 20:-0.3968287103415321 21:-0.09054448397587167 22:-0.1826368307896321 23:-0.2289420685181358 24:-0.7171673304916379 25:-0.945945945945946 26:-0.9962406015037594 27:-0.018181818181818188 28:0.05488865385734076 29:-0.1037559587187522 30:0.0662072465044985 
1.2155165337147968 1:-0.49695926563396453 2:-0.20000000000000018 3:-0.22171945701357465 4:-0.42417582417582445 5:-0.20000000000000018 6:-0.39629629629629626 7:-0.8410087719298246 8:-0.7293275271426884 9:-0.9375 10:-0.26188068756319516 11:-0.8287210172026926 12:-0.4285714285714285 13:-0.3186092280778483 14:-0.25185008355216054 15:0.10565338276181646 16:-0.38842975206611563 17:-0.36911044573862306 18:-0.3331233550067123 19:-0.13607820551275818 20:-0.3827709986522454 21:-0.12610384604957825 22:-0.22823311281805458 23:-0.25904429349951774 24:-0.7171673304916379 25:-0.945945945945946 26:-0.9962406015037594 27:-0.018181818181818188 28:-0.007841955297734127 29:-0.11370404257739464 30:0.028482742359031032 
-4.0 1:-0.8501566961487569 2:-0.5736842105263158 3:-0.5046439628482974 4:-0.62406015037594 5:-0.5736842105263158 6:-0.0893508388037928 7:-0.8508771929824561 8:-0.7008183077567416 9:-0.94921875 10:-0.31225296442687744 11:-0.9545157068062827 12:-0.630252100840336 13:-0.49286987522281633 14:-0.5244407622203812 15:-0.39518072289156636 16:-0.6242100145843463 17:-0.4699547668610279 18:-0.477305298213451 19:-0.5456214968511868 20:-0.5926277438812995 21:-0.4073711690218269 22:-0.31738494266276707 23:-0.6050789033602945 24:-0.7570272453189565 25:-0.9485162964158244 26:-0.9926704144860758 27:-0.38181818181818183 28:-0.127970277059282 29:-0.2940660179134571 30:-0.09497698997789983 
-1.218605218896283 1:-0.867716535433071 2:-0.6000000000000002 3:-0.22171945701357465 4:-0.6615384615384614 5:-0.6000000000000002 6:-0.03894080996884741 7:-0.22807017543859653 8:-0.8888940535565709 9:-0.9375 10:-0.33596837944664026 11:-0.9606691354871664 12:-0.680672268907563 13:-0.5180827886710239 14:-0.4105901230165804 15:0.10565338276181646 16:-0.5371900826446282 17:-0.4322645809023442 18:-0.4097102724246491 19:-0.5312092509593579 20:-0.762073658610471 21:-0.517074582761569 22:-0.41472521623976644 23:-0.7124914687105981 24:-0.9916350784214559 25:-1.0 26:-1.0 27:0.3090909090909091 28:-0.059374127290028444 29:-0.6100011048348453 30:-0.47588997896663143 
4.0 1:-0.9147469879518073 2:-0.49696969696969717 3:-0.25133689839572193 4:-0.49610389610389627 5:-0.49696969696969717 6:-0.13170731707317074 7:-0.847953216374269 8:-0.8148551853005295 9:-0.9375 10:-0.3779970173224735 11:-0.9562113279390766 12:-0.6823529411764706 13:-0.6824518042511121 14:-0.6500323039152345 15:-0.21631139944392974 16:-0.7261707988980715 17:-0.4404748373595627 18:-0.48216190208892984 19:-0.6617878851443735 20:-0.741660606348571 21:-0.6854875705662544 22:-0.589060271544355 23:-0.7739642662254734 24:-0.8442352472536291 25:-0.9757449757449758 26:-0.997593984962406 27:-1.0 28:-0.11185139659622023 29:-0.4639547917324286 30:-0.3186343212696132 
2.7014154603178344 1:-0.9147469879518073 2:-0.49696969696969717 3:-0.25133689839572193 4:-0.49610389610389627 5:-0.49696969696969717 6:-0.13170731707317074 7:-0.847953216374269 8:-0.8148551853005295 9:-0.9375 10:-0.3779970173224735 11:-0.9562113279390766 12:-0.6823529411764706 13:-0.6824518042511121 14:-0.6500323039152345 15:-0.21631139944392974 16:-0.7261707988980715 17:-0.4404748373595627 18:-0.4430100006429374 19:-0.6617878851443735 20:-0.741660606348571 21:-0.6854875705662544 22:-0.589060271544355 23:-0.7739642662254734 24:-0.8442352472536291 25:-0.9757449757449758 26:-0.997593984962406 27:-0.38181818181818183 28:-0.1697197692025374 29:-0.4639547917324286 30:-0.3186343212696132 
0.5352246345634486 1:-0.4343077972266426 2:-0.20000000000000018 3:-0.22171945701357465 4:-0.18681318681318682 5:0.0 6:-0.02083333333333315 7:-0.368421052631579 8:-0.892123163075526 9:-0.9330357142857143 10:-0.003487561032318065 11:-0.9639325189063409 12:-0.24369747899159666 13:-0.09081899907977631 14:-0.03871813879226782 15:0.1772011121408712 16:-0.2727272727272725 17:-0.30555252409033196 18:-0.31899171268425064 19:-0.22668338855119086 20:-0.23592109239397585 21:-0.22931368452113998 22:-0.1223228958428666 23:-0.32573848782283776 24:-0.807861707212831 25:-0.937937937937938 26:-0.9887218045112782 27:-0.38181818181818183 28:-0.19022789463660483 29:-0.3940041173337815 30:-0.19522042292074315 
-1.224694851700176 1:-0.4343077972266426 2:-0.20000000000000018 3:-0.22171945701357465 4:-0.18681318681318682 5:0.0 6:-0.02083333333333315 7:-0.368421052631579 8:-0.892123163075526 9:-0.9330357142857143 10:-0.003487561032318065 11:-0.9639325189063409 12:-0.24369747899159666 13:-0.09081899907977631 14:-0.03871813879226782 15:0.1772011121408712 16:-0.2727272727272725 17:-0.2995874453501566 18:-0.3283558045823537 19:-0.22668338855119086 20:-0.23592109239397585 21:-0.22931368452113998 22:-0.1223228958428666 23:-0.32573848782283776 24:-0.807861707212831 25:-0.937937937937938 26:-0.9887218045112782 27:-0.018181818181818188 28:0.007948089167557626 29:-0.3940041173337815 30:-0.19522042292074315 
1.7095722996821026 1:-0.7993752788933512 2:-0.30000000000000016 3:-0.3613445378151262 4:-0.32244897959183705 5:-0.11428571428571455 6:-0.2576530612244897 7:-0.8499025341130604 8:-0.7939243660045177 9:-0.9234913793103449 10:-0.6498237367802585 11:-0.9517414067835193 12:-0.513227513227513 13:-0.620414019266243 14:-0.6659959758551306 15:-0.24016064257028114 16:-0.4563820018365473 17:-0.39402969284480016 18:-0.3173067343596201 19:-0.4732270734068913 20:-0.7072769787659073 21:-0.5208909012773872 22:-0.5204733633539638 23:-0.6089221970619134 24:-0.8735349081203333 25:-0.9910605596692462 26:-1.0 27:-0.38181818181818183 28:-0.048878014884143006 29:-0.12370717458065461 30:0.018518474700911502 
-4.0 1:-0.7738263398421273 2:-0.30000000000000016 3:-0.1911764705882354 4:-0.3500000000000002 5:-0.30000000000000016 6:-0.44258484425848443 7:-0.8385964912280702 8:-0.7966844740435522 9:-0.9338942307692307 10:-0.3101449275362319 11:-0.9510400452808829 12:-0.3485946102578962 13:-0.5730134158926729 14:-0.5741262389149713 15:-0.25085168259243884 16:-0.48931319464234835 17:-0.48902084361885956 18:-0.4043804118460307 19:-0.2063907351405665 20:-0.39455447987906367 21:-0.2856837798519637 22:-0.2769332520789203 23:-0.34832335994191976 24:-0.710681750457041 25:-0.9464133575910696 26:-0.9935879483802824 27:0.3090909090909091 28:0.06892112629965164 29:-0.2847086774590962 30:-0.1919377709089667 
-1.3283154881714647 1:-0.5588170865279303 2:-0.34193548387096784 3:-0.12713472485768507 4:-0.2940092165898618 5:-0.34193548387096784 6:0.14320045236075774 7:-0.6929824561403509 8:-0.9077503945356378 9:-0.9296875 10:0.0042802432980402205 11:-0.9547834364588291 12:-0.5580658492905359 13:-0.32877635505920844 14:-0.26520283223843966 15:-0.2198301402330637 16:-0.4125457255114482 17:-0.5300772296082096 18:-0.4664902809599135 19:-0.4282750971604866 20:-0.5539145041998159 21:-0.42123157162634794 22:-0.3438144523847255 23:-0.4952561762026484 24:-0.7559964116437262 25:-0.9421960673259516 26:-0.9917424785204976 27:-0.018181818181818188 28:-0.12479647906153557 29:-0.30690398687490783 30:-0.12046267766654928 
0.14316701042227634 1:-0.35137760343700386 2:0.0 3:-0.12713472485768507 4:-0.18681318681318682 5:0.0 6:0.1470588235294117 7:-0.8191632928475034 8:-0.7293275271426884 9:-0.796875 10:0.0360633636670038 11:-0.9609075043630018 12:-0.19327731092436962 13:0.08525780682643447 14:0.048671777500445934 15:0.39184430027803496 16:-0.1900826446280992 17:-0.3337021323449757 18:-0.33656126462719615 19:-0.04057785933452818 20:0.19519993786552003 21:0.05813705784830292 22:0.09114464050311977 23:-0.13020331988295364 24:-0.6447198013033066 25:-0.870791209316833 26:-0.9398380577921962 27:-0.018181818181818188 28:-0.20070361123108404 29:-0.126987047890742 30:0.03739546070201816 
-0.8483069174169711 1:-0.6505626466261087 2:-0.34193548387096784 3:-0.12713472485768507 4:-0.2940092165898618 5:-0.34193548387096784 6:0.05670696603339098 7:-0.8421052631578947 8:-0.7863459659145826 9:-0.9270833333333334 10:-0.17803203661327227 11:-0.9554973821989529 12:-0.5630252100840338 13:-0.4315679760276202 14:-0.37705940439686103 15:-0.3594068582020392 16:-0.47548209366391203 17:-0.5116100145933467 18:-0.47211970844749296 19:-0.4148862436352224 20:-0.5924002218599992 21:-0.4074131180172491 22:-0.3276483440598186 23:-0.47779282887268104 24:-0.751910647979112 25:-0.9500498503490526 26:-0.992781954887218 27:-1.0 28:-0.10614866615750096 29:-0.2843353821532487 30:-0.10695349883060412 
-4.0 1:-0.8501566961487569 2:-0.5736842105263158 3:-0.5046439628482974 4:-0.62406015037594 5:-0.5736842105263158 6:-0.0893508388037928 7:-0.8508771929824561 8:-0.7863459659145826 9:-0.955078125 10:-0.31225296442687744 11:-0.9554973821989529 12:-0.5630252100840338 13:-0.5014005602240894 14:-0.5072190464965525 15:-0.3594068582020392 16:-0.6242100145843463 17:-0.479045945704868 18:-0.47388402263385965 19:-0.5456214968511868 20:-0.5924002218599992 21:-0.4074131180172491 22:-0.3276483440598186 23:-0.6050789033602945 24:-0.751910647979112 25:-0.9485162964158244 26:-0.9926704144860758 27:-0.38181818181818183 28:-0.1372267412834829 29:-0.2881585860025133 30:-0.0964731990250639 
-1.1530666411704573 1:-0.8530606576160551 2:-0.5736842105263158 3:-0.5046439628482974 4:-0.62406015037594 5:-0.5736842105263158 6:-0.09162430404260458 7:-0.8513931888544892 8:-0.7293275271426884 9:-0.9490131578947368 10:-0.31225296442687744 11:-0.9559593470896212 12:-0.5630252100840338 13:-0.48593669677608864 14:-0.4469483568075119 15:-0.4667284522706213 16:-0.6242100145843463 17:-0.5602392044448734 18:-0.4789917509273779 19:-0.5461872273016646 20:-0.6095836677140378 21:-0.370421857678667 22:-0.3375972992091034 23:-0.6075272360667596 24:-0.7486341128382337 25:-0.9460538383769768 26:-0.9926704144860758 27:-0.12727272727272732 28:-0.2566140579260654 29:-0.28958531134139953 30:-0.07832715925397793 
3.874868621683129 1:-0.6505626466261087 2:-0.34193548387096784 3:-0.12713472485768507 4:-0.2940092165898618 5:-0.34193548387096784 6:0.05670696603339098 7:-0.8421052631578947 8:-0.7863459659145826 9:-0.9270833333333334 10:-0.17803203661327227 11:-0.9554973821989529 12:-0.5630252100840338 13:-0.4315679760276202 14:-0.37705940439686103 15:-0.3594068582020392 16:-0.47548209366391203 17:-0.5180696707836431 18:-0.4839477615995371 19:-0.4148862436352224 20:-0.5924002218599992 21:-0.4074131180172491 22:-0.3276483440598186 23:-0.47779282887268104 24:-0.751910647979112 25:-0.9500498503490526 26:-0.992781954887218 27:-0.34545454545454546 28:-0.06978206900878725 29:-0.2843353821532487 30:-0.10695349883060412 
0.9611670340418288 1:-0.35137760343700386 2:0.0 3:-0.22171945701357465 4:-0.18681318681318682 5:0.0 6:-0.06769596199524952 7:-0.8443935926773456 8:-0.7293275271426884 9:-0.796875 10:-0.025278058645096135 11:-0.9607329842931938 12:-0.19327731092436962 13:0.08525780682643447 14:0.048671777500445934 15:0.39184430027803496 16:-0.1900826446280992 17:-0.3724945084428962 18:-0.3416335800039466 19:-0.04057785933452818 20:0.19519993786552003 21:0.05813705784830292 22:0.09114464050311977 23:-0.13020331988295364 24:-0.7119751363160072 25:-0.933933933933934 26:-0.9849624060150376 27:-0.12727272727272732 28:-0.13056495865827933 29:-0.13608060935130994 30:0.04086532092898443 
-1.2396148498969723 1:-0.3409823911028731 2:0.0 3:-0.22171945701357465 4:-0.18681318681318682 5:0.0 6:-0.04741266088783813 7:-0.8362573099415205 8:-0.8148551853005295 9:-0.71875 10:-0.11744127936031967 11:-0.9611069558713538 12:-0.09243697478991608 13:0.059547066058895926 14:-0.0017753580305360783 15:0.3202965708989802 16:-0.14049586776859502 17:-0.2811651444087878 18:-0.2700924389534456 19:-0.023323094155971447 20:0.04263419022142112 21:-0.05561848391501911 22:0.03171510091672536 23:-0.10152053438574149 24:-0.6850531569578884 25:-0.8849187802236076 26:-0.9465987341128386 27:0.16363636363636358 28:-0.1304132353562063 29:-0.13263391128841384 30:0.05427289753278264 
-2.3734861140524743 1:-0.8840517626059798 2:-0.30000000000000016 3:-0.5882352941176472 4:-0.542857142857143 5:-0.30000000000000016 6:-0.3793503480278423 7:-0.839766081871345 8:-0.7553755189557478 9:-0.921875 10:-0.7362478981503724 11:-0.9613241006586726 12:-0.5294117647058825 13:-0.5985191279308926 14:-0.6623085124291568 15:-0.17126282909415447 16:-0.5041322314049588 17:-0.43770124248115605 18:-0.350859501170259 19:-0.42040525266612705 20:-0.6789836403744228 21:-0.6133248753135654 22:-0.3375972992091034 23:-0.5329397393030737 24:-0.6777350483415912 25:-0.916493132285375 26:-0.9929112102136686 27:-1.0 28:-0.006294768718128396 29:-0.16176622550581876 30:-0.06217006590564156 
1.7114442250134378 1:-0.8840517626059798 2:-0.30000000000000016 3:-0.5882352941176472 4:-0.542857142857143 5:-0.30000000000000016 6:-0.32082082082082075 7:-0.839766081871345 8:-0.7553755189557478 9:-0.9264705882352942 10:-0.7362478981503724 11:-0.9613241006586726 12:-0.5294117647058825 13:-0.5985191279308926 14:-0.6623085124291568 15:-0.17126282909415447 16:-0.5041322314049588 17:-0.3975065866431333 18:-0.33007151777051036 19:-0.42040525266612705 20:-0.6789836403744228 21:-0.6133248753135654 22:-0.3375972992091034 23:-0.5329397393030737 24:-0.6777350483415912 25:-0.916493132285375 26:-0.9929112102136686 27:-0.38181818181818183 28:-6.543026562294552E-4 29:-0.159796899327164 30:-0.06191955914106373 
-4.0 1:-0.8840517626059798 2:-0.30000000000000016 3:-0.5882352941176472 4:-0.542857142857143 5:-0.30000000000000016 6:-0.32082082082082075 7:-0.839766081871345 8:-0.7553755189557478 9:-0.9264705882352942 10:-0.7362478981503724 11:-0.9613241006586726 12:-0.5294117647058825 13:-0.5985191279308926 14:-0.6623085124291568 15:-0.17126282909415447 16:-0.5041322314049588 17:-0.3975065866431333 18:-0.33007151777051036 19:-0.42040525266612705 20:-0.6789836403744228 21:-0.6133248753135654 22:-0.3375972992091034 23:-0.5329397393030737 24:-0.6777350483415912 25:-0.916493132285375 26:-0.9929112102136686 27:-0.38181818181818183 28:-6.543026562294552E-4 29:-0.159796899327164 30:-0.06191955914106373 
-0.5106690723010197 1:-0.7777060999905134 2:-0.3999999999999999 3:-0.4660633484162897 4:-0.6615384615384614 5:-0.3999999999999999 6:-0.35838779956427 7:-0.8395989974937343 8:-0.9155051250456989 9:-0.9201388888888888 10:-0.7151424287856072 11:-0.9554973821989529 12:-0.5630252100840338 13:-0.47674252182624843 14:-0.4591075866966505 15:0.2487488415199257 16:-0.6363636363636362 17:-0.27141319257773666 18:-0.3101005213789715 19:-0.3971614278710801 20:-0.7800120179768287 21:-0.5771816179052219 22:-0.5088696719747594 23:-0.5513083353131105 24:-0.8512457878129792 25:-0.983983983983984 26:-1.0 27:-1.0 28:-0.34209968715934846 29:-0.2524027205142846 30:-0.07949364445142015 
-4.0 1:-0.8344187561055032 2:-0.37647058823529433 3:-0.16470588235294126 4:-0.4521008403361346 5:-0.22352941176470598 6:0.03898635477582846 7:-0.8326585695006747 8:-0.7922040246925166 9:-0.9296875 10:-0.20183066361556046 11:-0.958602215999026 12:-0.649956534337873 13:-0.5337911814471982 14:-0.462270831694075 15:-0.2711646586345384 16:-0.6449130806497578 17:-0.3401229347281389 18:-0.4415680300098417 19:-0.38801370174948835 20:-0.5213819962445851 21:-0.4390364244645316 22:-0.4848574967349253 23:-0.4617897827153322 24:-0.7275428806297126 25:-0.9484326659286532 26:-0.9907913919444242 27:0.5999999999999999 28:-0.09514640398693552 29:-0.31792578881398714 30:-0.17474224176212638 
1.91341744626941 1:-0.7777060999905134 2:-0.3999999999999999 3:-0.4660633484162897 4:-0.6615384615384614 5:-0.3999999999999999 6:-0.42112159329140453 7:-0.8395989974937343 8:-0.884165024047203 9:-0.9201388888888888 10:-0.7151424287856072 11:-0.9535870949483515 12:-0.5630252100840338 13:-0.47674252182624843 14:-0.4591075866966505 15:0.2487488415199257 16:-0.6363636363636362 17:-0.3274853197832014 18:-0.30505337528127074 19:-0.3971614278710801 20:-0.7800120179768287 21:-0.5771816179052219 22:-0.5088696719747594 23:-0.5513083353131105 24:-0.8512457878129792 25:-0.983983983983984 26:-1.0 27:-1.0 28:-0.30761355134592383 29:-0.2486185451172508 30:-0.0792527833066875 
0.08117236315982891 1:-0.48517218480220126 2:-0.20000000000000018 3:-0.22171945701357465 4:-0.42417582417582445 5:-0.20000000000000018 6:-0.36944444444444446 7:0.4035087719298245 8:-0.6535347243849267 9:-0.71875 10:-0.3102766798418971 11:-0.9455497382198953 12:-0.39495798319327724 13:-0.2992889463477698 14:-0.23098591549295766 15:-0.0016682113067655324 16:-0.3553719008264462 17:-0.3584017550824484 18:-0.3587537009878524 19:-0.09381275640184972 20:-0.3968287103415321 21:-0.09054448397587167 22:-0.1826368307896321 23:-0.2289420685181358 24:-0.7171673304916379 25:-0.945945945945946 26:-0.9962406015037594 27:-1.0 28:0.09504740805802969 29:-0.10296440915785265 30:0.068867863271179 
-0.24322684003229686 1:1.0 2:1.0 3:0.9999999999999998 4:1.0 5:1.0 6:1.0 7:-0.835672514619883 8:-0.6486268267644787 9:-0.9392361111111112 10:1.0 11:-0.9633507853403142 12:1.0 13:1.0 14:1.0 15:0.9999999999999998 16:1.0 17:1.0 18:1.0 19:0.9961784591385308 20:1.0 21:0.9999999999999998 22:1.0 23:1.0 24:1.0 25:1.0 26:1.0 27:-1.0 28:0.9506269699963623 29:-0.11798541041510757 30:-0.050452195124660704 
2.970559282739136 1:-0.7800898509291405 2:-0.45600000000000007 3:0.11058823529411743 4:-0.35771428571428576 5:-0.45600000000000007 6:-0.10287416754293732 7:-0.8374800637958533 8:-0.6629087511678606 9:-0.9459134615384616 10:-0.5781317262160999 11:-0.9630932967127285 12:-0.5199123127511874 13:-0.6669962102488055 14:-0.6557120500782473 15:0.13427247451343827 16:-0.41070786920589286 17:-0.3452218460998032 18:-0.30801776902385014 19:-0.1658418119305023 20:-0.68904475970414 21:-0.3556509227195165 22:-0.4295538925449186 23:-0.4513904592003857 24:-0.7143162916854211 25:-0.9622780809064526 26:-0.9949885733617926 27:-0.018181818181818188 28:-0.06750639082488996 29:-0.11967494988857819 30:-0.07762962653757555 
4.0 1:-0.7390207639066906 2:-0.5166666666666667 3:-0.1911764705882354 4:-0.2857142857142858 5:-0.5166666666666667 6:0.03634475597092446 7:-0.8385964912280702 8:-0.7165369043911554 9:-0.94765625 10:-0.30349808808950574 11:-0.9476439790575917 12:-0.34892217756667865 13:-0.6100125156445556 14:-0.5837245696400626 15:0.23163960188580401 16:-0.6255839022637443 17:-0.2732689127215434 18:-0.34845764980876615 19:-0.23518134497628118 20:-0.5323305067354092 21:-0.4612674650995392 22:-0.4235836341281588 23:-0.44641374891208585 24:-0.8208943972241743 25:-0.9631117219853506 26:-0.9933062871088764 27:-1.0 28:0.1120289749312895 29:-0.08131055676437227 30:-0.09486489847716018 
4.0 1:-0.998249246987952 2:-0.6714285714285714 3:-0.47478991596638664 4:-0.542857142857143 5:-0.6714285714285714 6:-0.17632850241545894 7:-0.8367071524966262 8:-0.7352733001697042 9:-0.9464285714285714 10:-0.5839625097630826 11:-0.9476439790575917 12:-0.5643697478991596 13:-0.8443675509419453 14:-0.8338505609930771 15:-0.2091566265060243 16:-0.8135537190082645 17:-0.3885302159855506 18:-0.4072831596986207 19:-0.3344327031895511 20:-0.6221147359424071 21:-0.5777816947622083 22:-0.5353632324509273 23:-0.5387215653184207 24:-0.8208943972241743 25:-0.9666363089329614 26:-0.9939774294818436 27:-0.38181818181818183 28:0.11392859349867401 29:-0.1774924764011946 30:-0.18009500192339367 
1.0134071974424932 1:-0.998249246987952 2:-0.6714285714285714 3:-0.47478991596638664 4:-0.542857142857143 5:-0.6714285714285714 6:-0.17632850241545894 7:-0.8367071524966262 8:-0.7352733001697042 9:-0.9464285714285714 10:-0.5839625097630826 11:-0.9476439790575917 12:-0.5643697478991596 13:-0.8443675509419453 14:-0.8338505609930771 15:-0.2091566265060243 16:-0.8135537190082645 17:-0.3885302159855506 18:-0.4072831596986207 19:-0.3344327031895511 20:-0.6221147359424071 21:-0.5777816947622083 22:-0.5353632324509273 23:-0.5387215653184207 24:-0.8208943972241743 25:-0.9666363089329614 26:-0.9939774294818436 27:-0.38181818181818183 28:0.11392859349867401 29:-0.1774924764011946 30:-0.18009500192339367 
-4.0 1:0.8364204291915136 2:0.792 3:0.9999999999999998 4:0.8714285714285712 5:0.792 6:0.9449192782526115 7:-0.8349577647823262 8:-0.6311291048133152 9:-0.9434523809523809 10:0.9345729064728088 11:-0.9508936631160859 12:0.7989915966386554 13:0.8138026864289025 14:0.8602068844602886 15:0.9999999999999998 16:0.8452892561983472 17:0.7802460152849746 18:0.7600885419907724 19:0.8743252976301534 20:0.8648241700602313 21:0.9177768533050379 22:0.8918122802554158 23:0.8535559307391869 24:0.6910527842644345 25:0.662526766595289 26:0.6375939849624059 27:-1.0 28:0.44380374804704514 29:-0.10422153936645129 30:-0.04036683442475453 
2.302792749261669 1:-0.8186199342825852 2:-0.6000000000000002 3:-0.34389140271493235 4:-0.42417582417582445 5:-0.6000000000000002 6:-0.267950260730044 7:-0.8370118845500849 8:-0.6081633447524135 9:-0.9386574074074074 10:-0.6236597148580181 11:-0.9551559298884589 12:-0.6716826265389877 13:-0.7057483585689399 14:-0.6929719017623326 15:-0.16460463703553718 16:-0.4841437632135305 17:-0.3608800206653987 18:-0.33610443559610337 19:-0.15187039102991517 20:-0.6243756380957641 21:-0.2698133603834879 22:-0.37702316186431795 23:-0.3626687649832886 24:-0.7235178180234544 25:-0.9625502528093216 26:-0.9944679157339702 27:-0.38181818181818183 28:-0.06248000310418966 29:-0.1271778024619421 30:-0.08959321129448561 
4.0 1:-0.998249246987952 2:-0.6714285714285714 3:-0.47478991596638664 4:-0.542857142857143 5:-0.6714285714285714 6:-0.17632850241545894 7:-0.8367071524966262 8:-0.7352733001697042 9:-0.9464285714285714 10:-0.5839625097630826 11:-0.9476439790575917 12:-0.5643697478991596 13:-0.8443675509419453 14:-0.8338505609930771 15:-0.2091566265060243 16:-0.8135537190082645 17:-0.3885302159855506 18:-0.4072831596986207 19:-0.3344327031895511 20:-0.6221147359424071 21:-0.5777816947622083 22:-0.5353632324509273 23:-0.5387215653184207 24:-0.8208943972241743 25:-0.9666363089329614 26:-0.9939774294818436 27:-0.38181818181818183 28:0.1120289749312895 29:-0.1774924764011946 30:-0.18009500192339367 
-4.0 1:-0.998249246987952 2:-0.6714285714285714 3:-0.47478991596638664 4:-0.542857142857143 5:-0.6714285714285714 6:-0.17632850241545894 7:-0.8367071524966262 8:-0.7352733001697042 9:-0.9464285714285714 10:-0.5839625097630826 11:-0.9476439790575917 12:-0.5643697478991596 13:-0.8443675509419453 14:-0.8338505609930771 15:-0.2091566265060243 16:-0.8135537190082645 17:-0.3885302159855506 18:-0.4072831596986207 19:-0.3344327031895511 20:-0.6221147359424071 21:-0.5777816947622083 22:-0.5353632324509273 23:-0.5387215653184207 24:-0.8208943972241743 25:-0.9666363089329614 26:-0.9939774294818436 27:-0.38181818181818183 28:0.1120289749312895 29:-0.1774924764011946 30:-0.18009500192339367 
4.0 1:-0.672009198620207 2:-0.5000000000000001 3:-0.09954751131221717 4:-0.42417582417582445 5:-0.5000000000000001 6:-0.11579430670339763 7:-0.8361244019138756 8:-0.5230549398208364 9:-0.9389204545454546 10:-0.3742540494458655 11:-0.9622015068318223 12:-0.5108170927945646 13:-0.5543446852425178 14:-0.4808853118712273 15:-0.09289156626506057 16:-0.41269562159310713 17:-0.359574835753557 18:-0.34842136945453717 19:0.010960037927509658 20:-0.397418141363052 21:-0.1365943963391808 22:-0.2266620263260647 23:-0.24163618506528384 24:-0.7679090021816948 25:-0.9650417829634338 26:-0.9918686004445734 27:-1.0 28:-0.06238594028989608 29:-0.080258373936545 30:-0.052103933509997646 
2.8171712196980825 1:-0.7633427326326585 2:-0.6250000000000001 3:-0.1911764705882354 4:-0.2857142857142858 5:-0.6250000000000001 6:-0.07654889912954421 7:-0.8380402225074882 8:-0.5761095299080535 9:-0.94609375 10:-0.4240542066629024 11:-0.9540694907187054 12:-0.4344172451589331 13:-0.6862745098039216 14:-0.6557120500782473 15:0.1305395495023569 16:-0.6349263384836508 17:-0.3224694967444225 18:-0.356708241023283 19:-0.18995285689599484 20:-0.6873728244808266 21:-0.49127378637498 22:-0.5029727888833777 23:-0.46822334048336667 24:-0.8566069015606866 25:-0.9630013328766918 26:-0.9949797153316572 27:-0.38181818181818183 28:0.010475879029724133 29:-0.08422782996053313 30:-0.10499809176430075 
2.840359875379014 1:-0.7633427326326585 2:-0.6250000000000001 3:-0.1911764705882354 4:-0.2857142857142858 5:-0.6250000000000001 6:-0.07654889912954421 7:-0.8380402225074882 8:-0.5761095299080535 9:-0.94609375 10:-0.4240542066629024 11:-0.9540694907187054 12:-0.4344172451589331 13:-0.6862745098039216 14:-0.6557120500782473 15:0.1305395495023569 16:-0.6349263384836508 17:-0.3224694967444225 18:-0.36473398719481087 19:-0.18995285689599484 20:-0.6873728244808266 21:-0.49127378637498 22:-0.5029727888833777 23:-0.46822334048336667 24:-0.8566069015606866 25:-0.9630013328766918 26:-0.9949797153316572 27:-1.0 28:-0.02242485930804805 29:-0.08422782996053313 30:-0.10499809176430075 
0.09824568482586495 1:-0.9585137753812454 2:-0.693939393939394 3:-0.3957219251336901 4:-0.49610389610389627 5:-0.693939393939394 6:-0.4243156199677939 7:-0.8395674721394681 8:-0.6950338284610418 9:-0.9424342105263158 10:-0.6253819036427732 11:-0.9641494365072323 12:-0.6444051304732419 13:-0.7772603017110459 14:-0.7654007536681188 15:-0.6142586876431346 16:-0.7076989995650282 17:-0.4419945947098983 18:-0.4765125816943735 19:-0.5317451029214534 20:-0.7637272156551788 21:-0.7233874006531253 22:-0.8185895665070387 23:-0.74631392986046 24:-0.7510833980258675 25:-0.9447050148876356 26:-0.9810930908900756 27:0.3090909090909091 28:-0.1445855209614625 29:-0.4556473820918189 30:-0.39908305882544437 
-2.5821939300350616 1:0.5731226793968325 2:0.56 3:0.8045248868778279 4:0.6202197802197802 5:0.56 6:0.7777777777777779 7:-0.8413328919783736 8:-0.704619537008201 9:-0.9514973958333334 10:0.6415694591728527 11:-0.9508936631160859 12:0.573109243697479 13:0.592643258853929 14:0.6341860687937146 15:0.8569045412418903 16:0.6165289256198347 17:0.2548883153511805 18:0.020795423818706027 19:0.6635241801395364 20:0.5712328686992711 21:0.6821832557894545 22:0.6590068345199773 23:0.6103728719383279 24:0.2704079592419859 25:0.08182796223618771 26:-0.029801879943284426 27:-0.38181818181818183 28:0.39409722074088305 29:-0.3315035548895766 30:-0.24382903221438368 
4.0 1:-0.7633427326326585 2:-0.6250000000000001 3:-0.1911764705882354 4:-0.2857142857142858 5:-0.6250000000000001 6:-0.07654889912954421 7:-0.8380402225074882 8:-0.5761095299080535 9:-0.94609375 10:-0.4240542066629024 11:-0.9540694907187054 12:-0.4344172451589331 13:-0.6862745098039216 14:-0.6557120500782473 15:0.1305395495023569 16:-0.6349263384836508 17:-0.3224694967444225 18:-0.356708241023283 19:-0.18995285689599484 20:-0.6873728244808266 21:-0.49127378637498 22:-0.5029727888833777 23:-0.46822334048336667 24:-0.8566069015606866 25:-0.9630013328766918 26:-0.9949797153316572 27:-0.38181818181818183 28:0.010475879029724133 29:-0.08422782996053313 30:-0.10499809176430075 
4.0 1:-0.7633427326326585 2:-0.6250000000000001 3:-0.1911764705882354 4:-0.2857142857142858 5:-0.6250000000000001 6:-0.07654889912954421 7:-0.8380402225074882 8:-0.5761095299080535 9:-0.94609375 10:-0.4240542066629024 11:-0.9540694907187054 12:-0.4344172451589331 13:-0.6862745098039216 14:-0.6557120500782473 15:0.1305395495023569 16:-0.6349263384836508 17:-0.3224694967444225 18:-0.356708241023283 19:-0.18995285689599484 20:-0.6873728244808266 21:-0.49127378637498 22:-0.5029727888833777 23:-0.46822334048336667 24:-0.8566069015606866 25:-0.9630013328766918 26:-0.9949797153316572 27:-0.38181818181818183 28:0.010475879029724133 29:-0.08422782996053313 30:-0.10499809176430075 
-4.0 1:-0.5544207450268441 2:-0.30000000000000016 3:-0.043697478991596816 4:-0.366530612244898 5:-0.2628571428571431 6:0.07239057239057245 7:-0.8371569950517319 8:-0.7259554689357486 9:-0.9451219512195121 10:-0.17719242568496762 11:-0.9622549616461707 12:-0.3277310924369746 13:-0.34536922772216905 14:-0.28798887747083357 15:0.30598702502316955 16:-0.3553719008264462 17:-0.4095530059097978 18:-0.4464763324507779 19:-0.26379024251436534 20:-0.4823276468751123 21:-0.4069910567097538 22:-0.39137966632063914 23:-0.46238470034009027 24:-0.564260250827588 25:-0.8343558123165448 26:-0.927372882081454 27:-0.018181818181818188 28:0.09990136378099557 29:-0.13411664032140913 30:-0.08311034107506599 
-4.0 1:-0.7055901694427114 2:-0.34814814814814854 3:-0.1344537815126049 4:-0.45469387755102053 5:-0.34814814814814854 6:-0.05007704160246529 7:-0.8376297887576083 8:-0.6778219208487402 9:-0.9386160714285714 10:-0.2778827977315689 11:-0.9600324459848094 12:-0.5194805194805194 13:-0.49823183302484453 14:-0.43535342675220123 15:0.22728452270620925 16:-0.4162283996994742 17:-0.39061070003882004 18:-0.3922288685817016 19:-0.23769056566491453 20:-0.599265725939012 21:-0.4542876010916028 22:-0.4827132674316428 23:-0.4557670536738867 24:-0.6411810849675463 25:-0.8474144739975971 26:-0.9278492344383662 27:-0.4181818181818182 28:0.031295237114233876 29:-0.06898422950279726 30:-0.00891458759300523 
-2.6697141715327026 1:-0.09529218194363365 2:-0.08333333333333337 3:0.2058823529411764 4:0.22857142857142843 5:-0.08333333333333337 6:0.19444444444444464 7:-0.8404074702886248 8:-0.687660206501689 9:-0.9469476744186046 10:0.02888824044353666 11:-0.9615384615384616 12:-0.05359477124183021 13:-0.0025799793601649634 14:0.06554712892741055 15:0.3799196787148593 16:0.1643709825528008 17:-0.416123371460254 18:-0.47284964340416336 19:0.44310990311957155 20:-0.061878875119139365 21:0.3916664018903411 22:0.2864661502598209 23:0.1846332269303026 24:-0.413894699676292 25:-0.6697184921499739 26:-0.830956827674323 27:0.3090909090909091 28:0.17564369229268162 29:-0.1638726130604713 30:-0.14320798112975952 
-4.0 1:-0.09529218194363365 2:-0.08333333333333337 3:0.2058823529411764 4:0.22857142857142843 5:-0.08333333333333337 6:0.19444444444444464 7:-0.8404074702886248 8:-0.687660206501689 9:-0.9469476744186046 10:0.02888824044353666 11:-0.9615384615384616 12:-0.05359477124183021 13:-0.0025799793601649634 14:0.06554712892741055 15:0.3799196787148593 16:0.1643709825528008 17:-0.39452266467065633 18:-0.43020841304704927 19:0.44310990311957155 20:-0.061878875119139365 21:0.3916664018903411 22:0.2864661502598209 23:0.1846332269303026 24:-0.413894699676292 25:-0.6697184921499739 26:-0.830956827674323 27:0.3090909090909091 28:0.10794009446113106 29:-0.1638726130604713 30:-0.14320798112975952 
-4.0 1:-0.9098677637378783 2:-0.40833333333333344 3:-0.4558823529411766 4:-0.542857142857143 5:-0.40833333333333344 6:-0.31566380133715377 7:-0.8368421052631578 8:-0.5950210889950187 9:-0.9276315789473684 10:-0.7053733575472705 11:-0.9541433471745803 12:-0.7478991596638656 13:-0.7728916809442221 14:-0.8016118098968141 15:-0.2377193814628593 16:-0.6115702479338843 17:-0.4552822889849023 18:-0.4138201483104561 19:-0.2773185863101908 20:-0.6988526458187119 21:-0.49108973618006957 22:-0.5743387150609626 23:-0.4864041610453732 24:-0.763725685938079 25:-0.905792296984144 26:-0.9656743198382248 27:-1.0 28:0.17110813048895257 29:-0.13662853125443808 30:-0.09711775122475907 
-3.4774460783855874 1:-0.6601509773533971 2:-0.3999999999999999 3:0.02262443438914019 4:-0.30549450549450585 5:-0.3999999999999999 6:-0.11621220552773137 7:-0.835985312117503 8:-0.5761095299080535 9:-0.9403409090909091 10:-0.4093732354601921 11:-0.9622015068318223 12:-0.5015197568389058 13:-0.5478275167509351 14:-0.4953537315849119 15:-0.0773895582329317 16:-0.41269562159310713 17:-0.3748988582907301 18:-0.347050818778471 19:-0.017530474224218717 20:-0.41898579576154615 21:-0.13662416906436625 22:-0.23319833165417736 23:-0.24163618506528384 24:-0.75125611316147 25:-0.9633735107765538 26:-0.9918753850928598 27:-0.38181818181818183 28:-0.051608357894205925 29:-0.06463692609578409 30:-0.03787521404317784 
-4.0 1:-0.7970642394907141 2:-0.7333333333333335 3:0.07352941176470607 4:-0.15714285714285725 5:-0.7333333333333335 6:-0.18688362919132162 7:-0.8404124345952602 8:-0.7694640360036885 9:-0.9503865979381443 10:-0.4711137581893985 11:-0.956020942408377 12:-0.5973856209150326 13:-0.636394908840729 14:-0.5771958721301556 15:-0.03346720214190102 16:-0.3990817263544536 17:-0.33323490974454906 18:-0.3868363319009115 19:-0.180325128916344 20:-0.4521354155262147 21:-0.2031273473086841 22:-0.4845298758038057 23:-0.48234772757183497 24:-0.8039537069718498 25:-0.958467334386469 26:-0.9902329048316438 27:-0.38181818181818183 28:0.19473627793237314 29:-0.3356749990265344 30:-0.2750929290258838 
3.9781658412687264 1:-0.7800898509291405 2:-0.45600000000000007 3:0.11058823529411743 4:-0.35771428571428576 5:-0.45600000000000007 6:-0.10685098243783686 7:-0.8375695335900728 8:-0.6629087511678606 9:-0.9459134615384616 10:-0.5622077712688771 11:-0.9630932967127285 12:-0.5199123127511874 13:-0.6669962102488055 14:-0.6557120500782473 15:0.09134383688600556 16:-0.41070786920589286 17:-0.3531811340108493 18:-0.3253235081601089 19:-0.1658418119305023 20:-0.68904475970414 21:-0.3556509227195165 22:-0.4295538925449186 23:-0.4513904592003857 24:-0.7143162916854211 25:-0.9622780809064526 26:-0.9949885733617926 27:-0.38181818181818183 28:-0.03646585420155324 29:-0.12120646035345162 30:-0.07671452534379841 
-4.0 1:-0.8186199342825852 2:-0.6000000000000002 3:-0.34389140271493235 4:-0.42417582417582445 5:-0.6000000000000002 6:-0.15366614664586575 7:-0.8370118845500849 8:-0.6081633447524135 9:-0.9386574074074074 10:-0.547804320618164 11:-0.9551559298884589 12:-0.6716826265389877 13:-0.7057483585689399 14:-0.6929719017623326 15:0.011746987951807286 16:-0.4841437632135305 17:-0.36475688945892704 18:-0.31482602744957966 19:-0.15187039102991517 20:-0.6243756380957641 21:-0.2698133603834879 22:-0.37702316186431795 23:-0.3626687649832886 24:-0.7235178180234544 25:-0.9625502528093216 26:-0.9944679157339702 27:-0.38181818181818183 28:-0.05527095673487248 29:-0.12440409017398224 30:-0.08183358277442687 
-4.0 1:-0.7406790799561886 2:-0.5000000000000001 3:-0.3194570135746606 4:-0.42417582417582445 5:-0.5000000000000001 6:-0.12444797738915381 7:-0.837171052631579 8:-0.6081633447524135 9:-0.9386574074074074 10:-0.5789756543236417 11:-0.9568062827225131 12:-0.5700605823724838 13:-0.6293803562614975 14:-0.6254301628410259 15:0.026950880444856162 16:-0.4241783586392466 17:-0.4209484996889753 18:-0.35258456896880275 19:-0.14084895577567613 20:-0.47517758745716643 21:-0.24286072967364902 22:-0.3193172445129697 23:-0.2923138147442227 24:-0.7339825424977797 25:-0.960517109743474 26:-0.9926238876452936 27:-0.38181818181818183 28:-0.034728342014821 29:-0.13259965201540935 30:-0.09955482888585254 
-0.7020945901842874 1:-0.7406790799561886 2:-0.5000000000000001 3:-0.3194570135746606 4:-0.42417582417582445 5:-0.5000000000000001 6:-0.12444797738915381 7:-0.837171052631579 8:-0.6081633447524135 9:-0.9386574074074074 10:-0.5789756543236417 11:-0.9568062827225131 12:-0.5700605823724838 13:-0.6293803562614975 14:-0.6254301628410259 15:0.026950880444856162 16:-0.4241783586392466 17:-0.4209484996889753 18:-0.3414898431835399 19:-0.14084895577567613 20:-0.47517758745716643 21:-0.24286072967364902 22:-0.3193172445129697 23:-0.2923138147442227 24:-0.7339825424977797 25:-0.960517109743474 26:-0.9926238876452936 27:-1.0 28:-0.012312293876787783 29:-0.13259965201540935 30:-0.09955482888585254 
2.9048747858250197 1:-0.8638030382399166 2:-0.6250000000000001 3:-0.05882352941176483 4:-0.542857142857143 5:-0.6250000000000001 6:-0.2695852534562212 7:-0.8385003604902668 8:-0.6612481344013831 9:-0.9446022727272727 10:-0.38039890945616317 11:-0.9491398653702319 12:-0.46143790849673205 13:-0.5468975468975467 14:-0.5500283022009121 15:-0.2878591288229845 16:-0.6473829201101928 17:-0.34510816149014445 18:-0.34193392592714356 19:-0.35846125185058453 20:-0.4264730094964194 21:-0.41147278295743206 22:-0.4781801306555836 23:-0.5320729898035016 24:-0.8043078596019132 25:-0.978947350196798 26:-0.9989984976210557 27:-1.0 28:0.04309258873596189 29:-0.2792500589107373 30:-0.24478495569940373 
3.3623560390002507 1:-0.9098677637378783 2:-0.40833333333333344 3:-0.4558823529411766 4:-0.542857142857143 5:-0.40833333333333344 6:-0.4469214437367304 7:-0.8368421052631578 8:-0.5950210889950187 9:-0.9276315789473684 10:-0.7603080378629874 11:-0.8691099476439791 12:-0.7478991596638656 13:-0.7728916809442221 14:-0.8016118098968141 15:-0.5812048192771084 16:-0.6115702479338843 17:-0.5469016819549288 18:-0.4699334601231656 19:-0.2773185863101908 20:-0.6988526458187119 21:-0.49108973618006957 22:-0.5743387150609626 23:-0.4864041610453732 24:-0.763725685938079 25:-0.905792296984144 26:-0.9656743198382248 27:-0.38181818181818183 28:0.13377950978416653 29:-0.15880766809722868 30:-0.1320925197743965 
-4.0 1:-0.9724639735412237 2:-0.540740740740741 3:-0.2941176470588237 4:-0.7142857142857145 5:-0.540740740740741 6:-0.34259259259259245 7:-0.8368895211000474 8:-0.6181792489199434 9:-0.9476744186046512 10:-0.6516532153085134 11:-0.9431563201196709 12:-0.625546218487395 13:-0.7705612696945183 14:-0.748047169526797 15:-0.5626024096385543 16:-0.71900826446281 17:-0.48386243571553766 18:-0.44475255800368263 19:-0.6175924843426249 20:-0.864432660968937 21:-0.7837430700676556 22:-0.7517799484329186 23:-0.7757457929486967 24:-0.7837595329189114 25:-0.9614407353514116 26:-0.9959110422154084 27:-0.38181818181818183 28:-0.2620131889385827 29:-0.4301692169109722 30:-0.4138882860198546 
-4.0 1:-0.9098677637378783 2:-0.40833333333333344 3:-0.4558823529411766 4:-0.542857142857143 5:-0.40833333333333344 6:-0.31566380133715377 7:-0.8368421052631578 8:-0.5950210889950187 9:-0.9276315789473684 10:-0.7053733575472705 11:-0.9541433471745803 12:-0.7478991596638656 13:-0.7728916809442221 14:-0.8016118098968141 15:-0.2377193814628593 16:-0.6115702479338843 17:-0.4552822889849023 18:-0.4323711108569016 19:-0.2773185863101908 20:-0.6988526458187119 21:-0.49108973618006957 22:-0.5743387150609626 23:-0.4864041610453732 24:-0.763725685938079 25:-0.905792296984144 26:-0.9656743198382248 27:-0.38181818181818183 28:0.17454467289168152 29:-0.13662853125443808 30:-0.09711775122475907 
-4.0 1:-0.7800898509291405 2:-0.45600000000000007 3:0.11058823529411743 4:-0.35771428571428576 5:-0.45600000000000007 6:-0.10287416754293732 7:-0.8374800637958533 8:-0.6629087511678606 9:-0.9459134615384616 10:-0.5781317262160999 11:-0.9630932967127285 12:-0.5199123127511874 13:-0.6669962102488055 14:-0.6557120500782473 15:0.13427247451343827 16:-0.41070786920589286 17:-0.3452218460998032 18:-0.30801776902385014 19:-0.1658418119305023 20:-0.68904475970414 21:-0.3556509227195165 22:-0.4295538925449186 23:-0.4513904592003857 24:-0.7143162916854211 25:-0.9622780809064526 26:-0.9949885733617926 27:-0.018181818181818188 28:-0.06750639082488996 29:-0.11967494988857819 30:-0.07762962653757555 
-2.9312642211800677 1:-0.7390207639066906 2:-0.5166666666666667 3:-0.1911764705882354 4:-0.2857142857142858 5:-0.5166666666666667 6:0.03634475597092446 7:-0.8385964912280702 8:-0.7165369043911554 9:-0.94765625 10:-0.30349808808950574 11:-0.9476439790575917 12:-0.34892217756667865 13:-0.6100125156445556 14:-0.5837245696400626 15:0.23163960188580401 16:-0.6255839022637443 17:-0.2732689127215434 18:-0.34845764980876615 19:-0.23518134497628118 20:-0.5323305067354092 21:-0.4612674650995392 22:-0.4235836341281588 23:-0.44641374891208585 24:-0.8208943972241743 25:-0.9631117219853506 26:-0.9933062871088764 27:-1.0 28:0.1120289749312895 29:-0.08131055676437227 30:-0.09486489847716018 
3.1241573639320013 1:0.8364204291915136 2:0.792 3:0.9999999999999998 4:0.8714285714285712 5:0.792 6:0.9449192782526115 7:-0.8349577647823262 8:-0.6311291048133152 9:-0.9434523809523809 10:0.9345729064728088 11:-0.9508936631160859 12:0.7989915966386554 13:0.8138026864289025 14:0.8602068844602886 15:0.9999999999999998 16:0.8452892561983472 17:0.7802460152849746 18:0.7600885419907724 19:0.8743252976301534 20:0.8648241700602313 21:0.9177768533050379 22:0.8918122802554158 23:0.8535559307391869 24:0.6910527842644345 25:0.662526766595289 26:0.6375939849624059 27:-1.0 28:0.4404710427131153 29:-0.10422153936645129 30:-0.04036683442475453 
4.0 1:-0.8186199342825852 2:-0.6000000000000002 3:-0.34389140271493235 4:-0.42417582417582445 5:-0.6000000000000002 6:-0.267950260730044 7:-0.8370118845500849 8:-0.6081633447524135 9:-0.9386574074074074 10:-0.6236597148580181 11:-0.9551559298884589 12:-0.6716826265389877 13:-0.7057483585689399 14:-0.6929719017623326 15:-0.16460463703553718 16:-0.4841437632135305 17:-0.3608800206653987 18:-0.33610443559610337 19:-0.15187039102991517 20:-0.6243756380957641 21:-0.2698133603834879 22:-0.37702316186431795 23:-0.3626687649832886 24:-0.7235178180234544 25:-0.9625502528093216 26:-0.9944679157339702 27:-0.38181818181818183 28:-0.06248000310418966 29:-0.1271778024619421 30:-0.08959321129448561 
0.9054386090417306 1:-0.7881530943049306 2:-0.48571428571428577 3:-0.17983193277310938 4:-0.49877551020408195 5:-0.44857142857142884 6:-0.13993710691823902 7:-0.8373743347131875 8:-0.6578155746047543 9:-0.9430803571428571 10:-0.3378414073643615 11:-0.9605536828516101 12:-0.5563025210084035 13:-0.5368871607059427 14:-0.4824634078983706 15:0.1271177015755327 16:-0.5008264462809917 17:-0.4056359397650643 18:-0.39495480952047324 19:-0.4031041752335618 20:-0.6320491886879042 21:-0.5812897402169285 22:-0.5727068911418003 23:-0.6383140370236002 24:-0.6477840185970547 25:-0.8597721162468104 26:-0.9371399772498102 27:0.34545454545454546 28:0.11748571782083927 29:-0.1394514051684571 30:-0.034977363013827256 
-0.29106246641424016 1:0.7695297318305478 2:0.6749999999999998 3:0.9999999999999998 4:0.8714285714285712 5:0.6749999999999998 6:0.9449192782526115 7:-0.8372159907966639 8:-0.6311291048133152 9:-0.947265625 10:0.7551924674605375 11:-0.9508936631160859 12:0.7177871148459383 13:0.7523304403728706 14:0.7791953514810839 15:0.9999999999999998 16:0.7851239669421484 17:0.32919090011367413 18:0.33228853648582146 19:0.8743252976301534 20:0.6786205453245138 21:0.8823777526791297 22:0.8000647825509788 23:0.7936529903994025 24:0.42979739660329996 25:0.34684684684684686 26:0.28611001187178475 27:-0.38181818181818183 28:0.4626684484641568 29:-0.10659537445283496 30:-0.04337966887593725 
2.405092007918147 1:-0.6943663983999242 2:-0.5241379310344827 3:-0.20486815415821502 4:-0.38325123152709384 5:-0.5241379310344827 6:-0.3134761267291387 7:-0.8452012383900929 8:-0.7883278902569208 9:-0.9502840909090909 10:-0.3731661776473725 11:-0.9630165979725966 12:-0.47697478991596653 13:-0.636943666355431 14:-0.6218082689686506 15:-0.37657831325301205 16:-0.3494214876033058 17:-0.5044294842417023 18:-0.498526019166467 19:0.04582543743937939 20:-0.33824920193302843 21:-0.08766898532771816 22:-0.31058340506069027 23:-0.2234667059025729 24:-0.5483894469682615 25:-0.6987462938049853 26:-0.8072777434189919 27:0.3090909090909091 28:0.04282999115087205 29:-0.3730727876170178 30:-0.4156037759638703 
-4.0 1:-0.998249246987952 2:-0.6714285714285714 3:-0.47478991596638664 4:-0.542857142857143 5:-0.6714285714285714 6:-0.17632850241545894 7:-0.8367071524966262 8:-0.7352733001697042 9:-0.9464285714285714 10:-0.5839625097630826 11:-0.9476439790575917 12:-0.5643697478991596 13:-0.8443675509419453 14:-0.8338505609930771 15:-0.2091566265060243 16:-0.8135537190082645 17:-0.3885302159855506 18:-0.4072831596986207 19:-0.3344327031895511 20:-0.6221147359424071 21:-0.5777816947622083 22:-0.5353632324509273 23:-0.5387215653184207 24:-0.8208943972241743 25:-0.9666363089329614 26:-0.9939774294818436 27:-0.38181818181818183 28:0.1120289749312895 29:-0.1774924764011946 30:-0.18009500192339367 
4.0 1:-0.672009198620207 2:-0.5000000000000001 3:-0.09954751131221717 4:-0.42417582417582445 5:-0.5000000000000001 6:-0.11579430670339763 7:-0.8361244019138756 8:-0.5230549398208364 9:-0.9389204545454546 10:-0.3742540494458655 11:-0.9622015068318223 12:-0.5108170927945646 13:-0.5543446852425178 14:-0.4808853118712273 15:-0.09289156626506057 16:-0.41269562159310713 17:-0.359574835753557 18:-0.34842136945453717 19:0.010960037927509658 20:-0.397418141363052 21:-0.1365943963391808 22:-0.2266620263260647 23:-0.24163618506528384 24:-0.7679090021816948 25:-0.9650417829634338 26:-0.9918686004445734 27:-1.0 28:-0.06238594028989608 29:-0.080258373936545 30:-0.052103933509997646 
4.0 1:-0.7172056647643206 2:-0.40833333333333344 3:-0.32352941176470584 4:-0.4142857142857146 5:-0.40833333333333344 6:-0.23869346733668328 7:-0.8392982456140351 8:-0.6331480727307572 9:-0.9375 10:-0.5124437781109445 11:-0.9502617801047121 12:-0.6287242169595112 13:-0.5531154684095859 14:-0.5296461697011337 15:-0.16622798887859136 16:-0.5041322314049588 17:-0.4832957195142735 18:-0.45718841492881823 19:-0.49099804218459964 20:-0.8597322735281184 21:-0.6567818241876631 22:-0.7498847118630979 23:-0.7250331053779591 24:-0.7240120439805204 25:-0.9560724131421632 26:-0.9964387838551116 27:-1.0 28:0.12784273248905764 29:-0.2519668456370061 30:-0.20298026094060506 
-3.031596063962947 1:-0.714698795180723 2:-0.5166666666666667 3:-0.1911764705882354 4:-0.2857142857142858 5:-0.5166666666666667 6:-0.0023041474654378336 7:-0.8387067144300542 8:-0.6271566490189973 9:-0.946875 10:-0.3212874082439299 11:-0.9506357516828721 12:-0.3299232736572889 13:-0.6078431372549018 14:-0.5837245696400626 15:0.1911995809324254 16:-0.5975565936040244 17:-0.3019138607467915 18:-0.3359411914650221 19:-0.21509947655715445 20:-0.4905568915526314 21:-0.4670867269209068 22:-0.4573983761240822 23:-0.42460415734080503 24:-0.7854666039813363 25:-0.9612200154204968 26:-0.9933062871088764 27:-0.38181818181818183 28:0.023411103805525135 29:-0.07528352685379869 30:-0.1002449378793816 
2.4956347563001438 1:-0.7055901694427114 2:-0.34814814814814854 3:-0.1344537815126049 4:-0.45469387755102053 5:-0.34814814814814854 6:-0.05007704160246529 7:-0.8376297887576083 8:-0.6778219208487402 9:-0.9386160714285714 10:-0.2778827977315689 11:-0.9600324459848094 12:-0.5194805194805194 13:-0.49823183302484453 14:-0.43535342675220123 15:0.22728452270620925 16:-0.4162283996994742 17:-0.39061070003882004 18:-0.3889330496290685 19:-0.23769056566491453 20:-0.599265725939012 21:-0.4542876010916028 22:-0.4827132674316428 23:-0.4557670536738867 24:-0.6411810849675463 25:-0.8474144739975971 26:-0.9278492344383662 27:-0.018181818181818188 28:0.0769019255231298 29:-0.06898422950279726 30:-0.00891458759300523 
4.0 1:0.5731226793968325 2:0.56 3:0.8045248868778279 4:0.6202197802197802 5:0.56 6:0.7777777777777779 7:-0.8413328919783736 8:-0.704619537008201 9:-0.9514973958333334 10:0.6415694591728527 11:-0.9508936631160859 12:0.573109243697479 13:0.592643258853929 14:0.6341860687937146 15:0.8569045412418903 16:0.6165289256198347 17:0.2548883153511805 18:0.020795423818706027 19:0.6635241801395364 20:0.5712328686992711 21:0.6821832557894545 22:0.6590068345199773 23:0.6103728719383279 24:0.2704079592419859 25:0.08182796223618771 26:-0.029801879943284426 27:-0.38181818181818183 28:0.3883512125986557 29:-0.3315035548895766 30:-0.24382903221438368 
2.98164047165808 1:-0.5544207450268441 2:-0.30000000000000016 3:-0.043697478991596816 4:-0.366530612244898 5:-0.2628571428571431 6:0.07239057239057245 7:-0.8371569950517319 8:-0.7259554689357486 9:-0.9451219512195121 10:-0.17719242568496762 11:-0.9622549616461707 12:-0.3277310924369746 13:-0.34536922772216905 14:-0.28798887747083357 15:0.30598702502316955 16:-0.3553719008264462 17:-0.4095530059097978 18:-0.4464763324507779 19:-0.26379024251436534 20:-0.4823276468751123 21:-0.4069910567097538 22:-0.39137966632063914 23:-0.46238470034009027 24:-0.564260250827588 25:-0.8343558123165448 26:-0.927372882081454 27:-0.018181818181818188 28:0.12495603682046275 29:-0.13411664032140913 30:-0.08311034107506599 
0.4349504572797693 1:-0.8527465795384931 2:-0.56 3:0.11058823529411743 4:-0.35771428571428576 5:-0.56 6:-0.24237089201877937 7:-0.835812356979405 8:-0.6092805979445655 9:-0.9396551724137931 10:-0.6361556064073228 11:-0.9561629248380513 12:-0.6149068322981365 13:-0.7033898305084745 14:-0.6590759510333026 15:-0.11210057621791525 16:-0.49478979518505206 17:-0.3466180298122392 18:-0.2905592683136251 19:-0.1999297786680937 20:-0.7082831982868569 21:-0.37360840982790855 22:-0.41194738516710094 23:-0.4513904592003857 24:-0.7311700799100097 25:-0.9659492818326314 26:-0.994984150212972 27:0.4181818181818182 28:-0.09947163630415823 29:-0.13753648511944971 30:-0.08128105626861548 
4.0 1:-0.09529218194363365 2:-0.08333333333333337 3:0.2058823529411764 4:0.22857142857142843 5:-0.08333333333333337 6:0.19444444444444464 7:-0.8404074702886248 8:-0.687660206501689 9:-0.9469476744186046 10:0.02888824044353666 11:-0.9615384615384616 12:-0.05359477124183021 13:-0.0025799793601649634 14:0.06554712892741055 15:0.3799196787148593 16:0.1643709825528008 17:-0.416123371460254 18:-0.47284964340416336 19:0.44310990311957155 20:-0.061878875119139365 21:0.3916664018903411 22:0.2864661502598209 23:0.1846332269303026 24:-0.413894699676292 25:-0.6697184921499739 26:-0.830956827674323 27:0.3090909090909091 28:0.17564369229268162 29:-0.1638726130604713 30:-0.14320798112975952 
2.621710728498905 1:-0.09529218194363365 2:-0.08333333333333337 3:0.2058823529411764 4:0.22857142857142843 5:-0.08333333333333337 6:0.19444444444444464 7:-0.8404074702886248 8:-0.687660206501689 9:-0.9469476744186046 10:0.02888824044353666 11:-0.9615384615384616 12:-0.05359477124183021 13:-0.0025799793601649634 14:0.06554712892741055 15:0.3799196787148593 16:0.1643709825528008 17:-0.39452266467065633 18:-0.43020841304704927 19:0.44310990311957155 20:-0.061878875119139365 21:0.3916664018903411 22:0.2864661502598209 23:0.1846332269303026 24:-0.413894699676292 25:-0.6697184921499739 26:-0.830956827674323 27:0.3090909090909091 28:0.10794009446113106 29:-0.1638726130604713 30:-0.14320798112975952 
4.0 1:-0.9098677637378783 2:-0.40833333333333344 3:-0.4558823529411766 4:-0.542857142857143 5:-0.40833333333333344 6:-0.31566380133715377 7:-0.8368421052631578 8:-0.5950210889950187 9:-0.9276315789473684 10:-0.7053733575472705 11:-0.9541433471745803 12:-0.7478991596638656 13:-0.7728916809442221 14:-0.8016118098968141 15:-0.2377193814628593 16:-0.6115702479338843 17:-0.4552822889849023 18:-0.4138201483104561 19:-0.2773185863101908 20:-0.6988526458187119 21:-0.49108973618006957 22:-0.5743387150609626 23:-0.4864041610453732 24:-0.763725685938079 25:-0.905792296984144 26:-0.9656743198382248 27:-1.0 28:0.17110813048895257 29:-0.13662853125443808 30:-0.09711775122475907 
4.0 1:-0.6601509773533971 2:-0.3999999999999999 3:0.02262443438914019 4:-0.30549450549450585 5:-0.3999999999999999 6:-0.11621220552773137 7:-0.835985312117503 8:-0.5761095299080535 9:-0.9403409090909091 10:-0.4093732354601921 11:-0.9622015068318223 12:-0.5015197568389058 13:-0.5478275167509351 14:-0.4953537315849119 15:-0.0773895582329317 16:-0.41269562159310713 17:-0.3748988582907301 18:-0.347050818778471 19:-0.017530474224218717 20:-0.41898579576154615 21:-0.13662416906436625 22:-0.23319833165417736 23:-0.24163618506528384 24:-0.75125611316147 25:-0.9633735107765538 26:-0.9918753850928598 27:-0.38181818181818183 28:-0.051608357894205925 29:-0.06463692609578409 30:-0.03787521404317784 
1.2682248247161576 1:-0.7970642394907141 2:-0.7333333333333335 3:0.07352941176470607 4:-0.15714285714285725 5:-0.7333333333333335 6:-0.18688362919132162 7:-0.8404124345952602 8:-0.7694640360036885 9:-0.9503865979381443 10:-0.4711137581893985 11:-0.956020942408377 12:-0.5973856209150326 13:-0.636394908840729 14:-0.5771958721301556 15:-0.03346720214190102 16:-0.3990817263544536 17:-0.33323490974454906 18:-0.3868363319009115 19:-0.180325128916344 20:-0.4521354155262147 21:-0.2031273473086841 22:-0.4845298758038057 23:-0.48234772757183497 24:-0.8039537069718498 25:-0.958467334386469 26:-0.9902329048316438 27:-0.38181818181818183 28:0.19473627793237314 29:-0.3356749990265344 30:-0.2750929290258838 
4.0 1:-0.8186199342825852 2:-0.6000000000000002 3:-0.34389140271493235 4:-0.42417582417582445 5:-0.6000000000000002 6:-0.267950260730044 7:-0.8370118845500849 8:-0.6081633447524135 9:-0.9386574074074074 10:-0.6236597148580181 11:-0.9551559298884589 12:-0.6716826265389877 13:-0.7057483585689399 14:-0.6929719017623326 15:-0.16460463703553718 16:-0.4841437632135305 17:-0.3608800206653987 18:-0.3265705131369404 19:-0.15187039102991517 20:-0.6243756380957641 21:-0.2698133603834879 22:-0.37702316186431795 23:-0.3626687649832886 24:-0.7235178180234544 25:-0.9625502528093216 26:-0.9944679157339702 27:-1.0 28:-0.068180054549835 29:-0.1271778024619421 30:-0.08959321129448561 
-0.772373889923401 1:-0.7055901694427114 2:-0.34814814814814854 3:-0.1344537815126049 4:-0.45469387755102053 5:-0.34814814814814854 6:-0.05007704160246529 7:-0.8376297887576083 8:-0.6778219208487402 9:-0.9386160714285714 10:-0.2778827977315689 11:-0.9600324459848094 12:-0.5194805194805194 13:-0.49823183302484453 14:-0.43535342675220123 15:0.22728452270620925 16:-0.4162283996994742 17:-0.39061070003882004 18:-0.3947716692968126 19:-0.23769056566491453 20:-0.599265725939012 21:-0.4542876010916028 22:-0.4827132674316428 23:-0.4557670536738867 24:-0.6411810849675463 25:-0.8474144739975971 26:-0.9278492344383662 27:-1.0 28:0.0734192772320943 29:-0.06898422950279726 30:-0.00891458759300523 
0.5578590931688678 1:-0.7602419238707822 2:-0.44444444444444464 3:-0.22521008403361342 4:-0.49877551020408195 5:-0.4114285714285717 6:-0.06121091151031255 7:-0.8390587246559513 8:-0.6412797169949294 9:-0.943359375 10:-0.2879770383756778 11:-0.962228870605834 12:-0.4698242933537051 13:-0.5112935096519227 14:-0.45153272576636283 15:0.1271177015755327 16:-0.48429752066115705 17:-0.4460564465595931 18:-0.4680867720686094 19:-0.329013269949489 20:-0.6750580005000207 21:-0.504542221444962 22:-0.519115821639828 23:-0.5247005452597315 24:-0.6512918897854436 25:-0.8670367850896628 26:-0.9418983056651632 27:-1.0 28:0.05769442845638917 29:-0.10517971603738319 30:-0.07193033013366623 
2.73120367488574 1:-0.7406790799561886 2:-0.5000000000000001 3:-0.3194570135746606 4:-0.42417582417582445 5:-0.5000000000000001 6:-0.12444797738915381 7:-0.837171052631579 8:-0.6081633447524135 9:-0.9386574074074074 10:-0.5789756543236417 11:-0.9568062827225131 12:-0.5700605823724838 13:-0.6293803562614975 14:-0.6254301628410259 15:0.026950880444856162 16:-0.4241783586392466 17:-0.4209484996889753 18:-0.34410519371881265 19:-0.14084895577567613 20:-0.47517758745716643 21:-0.24286072967364902 22:-0.3193172445129697 23:-0.2923138147442227 24:-0.7339825424977797 25:-0.960517109743474 26:-0.9926238876452936 27:-0.38181818181818183 28:-0.013478224174760522 29:-0.13259965201540935 30:-0.09955482888585254 
4.0 1:-0.5657145072647791 2:-0.30000000000000016 3:-0.043697478991596816 4:-0.366530612244898 5:-0.2628571428571431 6:0.07831731579834766 7:-0.8378262729995721 8:-0.7132413195562042 9:-0.9416666666666667 10:-0.1703648784621088 11:-0.9611069558713538 12:-0.33109243697478985 13:-0.35044452563634143 14:-0.2979972459111443 15:0.298832252085264 16:-0.34545454545454535 17:-0.3970158472430827 18:-0.44617867082458185 19:-0.19330163815817425 20:-0.4783950563124042 21:-0.40701982122332125 22:-0.39363206775912296 23:-0.42111143424032993 24:-0.5686815967731479 25:-0.83547628572633 26:-0.9253168624085982 27:-0.38181818181818183 28:0.05390709702986718 29:-0.09844624115879996 30:-0.04195472770622033 
-4.0 1:-0.7406790799561886 2:-0.5000000000000001 3:-0.3194570135746606 4:-0.42417582417582445 5:-0.5000000000000001 6:-0.12444797738915381 7:-0.837171052631579 8:-0.6081633447524135 9:-0.9386574074074074 10:-0.5789756543236417 11:-0.9568062827225131 12:-0.5700605823724838 13:-0.6293803562614975 14:-0.6254301628410259 15:0.026950880444856162 16:-0.4241783586392466 17:-0.4209484996889753 18:-0.35258456896880275 19:-0.14084895577567613 20:-0.47517758745716643 21:-0.24286072967364902 22:-0.3193172445129697 23:-0.2923138147442227 24:-0.7339825424977797 25:-0.960517109743474 26:-0.9926238876452936 27:-0.38181818181818183 28:-0.034728342014821 29:-0.13259965201540935 30:-0.09955482888585254 
0.07148920881808898 1:-0.7584899854806298 2:-0.44444444444444464 3:-0.22521008403361342 4:-0.49877551020408195 5:-0.4114285714285717 6:-0.06192391486509119 7:-0.8385570668243643 8:-0.6412797169949294 9:-0.943359375 10:-0.2812516630301738 11:-0.962228870605834 12:-0.4698242933537051 13:-0.5022741447238321 14:-0.43729269816853333 15:0.1271177015755327 16:-0.5041322314049588 17:-0.4460564465595931 18:-0.4692587753618521 19:-0.329013269949489 20:-0.6456289223683407 21:-0.504542221444962 22:-0.5171370866543962 23:-0.5247005452597315 24:-0.6465856910276411 25:-0.8670367850896628 26:-0.9418983056651632 27:-0.38181818181818183 28:0.07641861014876938 29:-0.10581721454016402 30:-0.06949685771094216 
0.3058554188290623 1:-0.702273441592457 2:-0.40833333333333344 3:-0.32352941176470584 4:-0.4142857142857146 5:-0.40833333333333344 6:0.018346253229974074 7:-0.8410596026490067 8:-0.6156341341698155 9:-0.9496951219512195 10:-0.3774834437086094 11:-0.9338219895287958 12:-0.31577964519140966 13:-0.576470588235294 14:-0.5500283022009121 15:0.131887550200803 16:-0.523232323232323 17:-0.2954795882161304 18:-0.3544776787775995 19:-0.22417841217996126 20:-0.492871407009406 21:-0.430910837320457 22:-0.39466969979996924 23:-0.42048278010307727 24:-0.81727147933475 25:-0.9620511411109248 26:-0.9931002786805846 27:-1.0 28:0.005717857912733715 29:-0.08564303535332796 30:-0.09437017944876835 
3.0002961472051113 1:0.8364204291915136 2:0.792 3:0.9999999999999998 4:0.8714285714285712 5:0.792 6:0.9449192782526115 7:-0.8349577647823262 8:-0.6311291048133152 9:-0.9434523809523809 10:0.9345729064728088 11:-0.9508936631160859 12:0.7989915966386554 13:0.8138026864289025 14:0.8602068844602886 15:0.9999999999999998 16:0.8452892561983472 17:0.7802460152849746 18:0.7600885419907724 19:0.8743252976301534 20:0.8648241700602313 21:0.9177768533050379 22:0.8918122802554158 23:0.8535559307391869 24:0.6910527842644345 25:0.662526766595289 26:0.6375939849624059 27:-0.38181818181818183 28:0.3942746293701065 29:-0.10422153936645129 30:-0.04036683442475453 
3.980053088658981 1:-0.7970642394907141 2:-0.7333333333333335 3:0.07352941176470607 4:-0.15714285714285725 5:-0.7333333333333335 6:-0.18789386401326702 7:-0.8402958067815278 8:-0.7694640360036885 9:-0.9500644329896907 10:-0.4711137581893985 11:-0.9554973821989529 12:-0.5973856209150326 13:-0.636394908840729 14:-0.5771958721301556 15:-0.03346720214190102 16:-0.3990817263544536 17:-0.38542394763131194 18:-0.4194911249504818 19:-0.180325128916344 20:-0.4521354155262147 21:-0.2031273473086841 22:-0.4845298758038057 23:-0.48234772757183497 24:-0.8035926493701999 25:-0.9596490878771962 26:-0.9902329048316438 27:-1.0 28:0.14866288908425718 29:-0.33709477060515014 30:-0.277807338228231 
4.0 1:-0.8638030382399166 2:-0.6250000000000001 3:-0.05882352941176483 4:-0.542857142857143 5:-0.6250000000000001 6:-0.2695852534562212 7:-0.8385003604902668 8:-0.6612481344013831 9:-0.9446022727272727 10:-0.38039890945616317 11:-0.9491398653702319 12:-0.46143790849673205 13:-0.5468975468975467 14:-0.5500283022009121 15:-0.2878591288229845 16:-0.6473829201101928 17:-0.34510816149014445 18:-0.34193392592714356 19:-0.35846125185058453 20:-0.4264730094964194 21:-0.41147278295743206 22:-0.4781801306555836 23:-0.5320729898035016 24:-0.8043078596019132 25:-0.978947350196798 26:-0.9989984976210557 27:-1.0 28:0.04309258873596189 29:-0.2792500589107373 30:-0.24478495569940373 
4.0 1:-0.9098677637378783 2:-0.40833333333333344 3:-0.4558823529411766 4:-0.542857142857143 5:-0.40833333333333344 6:-0.4469214437367304 7:-0.8368421052631578 8:-0.5950210889950187 9:-0.9276315789473684 10:-0.7603080378629874 11:-0.8691099476439791 12:-0.7478991596638656 13:-0.7728916809442221 14:-0.8016118098968141 15:-0.5812048192771084 16:-0.6115702479338843 17:-0.5469016819549288 18:-0.4699334601231656 19:-0.2773185863101908 20:-0.6988526458187119 21:-0.49108973618006957 22:-0.5743387150609626 23:-0.4864041610453732 24:-0.763725685938079 25:-0.905792296984144 26:-0.9656743198382248 27:-0.38181818181818183 28:0.13377950978416653 29:-0.15880766809722868 30:-0.1320925197743965 
