svm_type epsilon_svr
kernel_type rbf
gamma 1.0
nr_class 2
total_sv 1810
rho -0.647203883365314
SV
0.5857539123718214 1:-0.9965575860603484 2:-0.7744790179845848 3:-0.3844118425307971 4:-0.5842466154837952 5:-0.6881832378969287 6:-0.7590968295379867 7:-0.9605263157894737 8:-0.9877742262615371 9:-0.9306569343065694 10:-0.5670995670995671 11:-0.6753022452504318 12:-0.8131689506852056 13:-0.8458781642474276 14:-0.8418702994648307 15:-0.5355029585798818 16:-0.7409972299168974 17:-0.7340814885881173 18:-0.7538814583508024 19:-0.9200135436941563 20:-0.9904184990341373 21:-0.8658815900450513 22:-0.8955168923694523 23:-0.9761304554010766 24:-0.8651888310878656 25:-0.9810493891686698 26:-0.9934691885964386 27:-0.5849056603773586 28:-0.019619150592669832 29:-0.7080335454058795 30:-0.605367255758085 
-0.7910502515192188 1:-0.25280366125175235 2:-0.289069840275603 3:0.2687159307163822 4:-0.009194367646113144 5:-0.23472301541976015 6:-0.09182285933445244 7:-0.9676616915422885 8:-0.9898868719938111 9:-0.9403364011424944 10:0.08258635821278193 11:-0.6785175608705021 12:-0.2083527971012663 13:-0.10543605293913272 14:-0.05822723574554178 15:0.2292755787901417 16:-0.22717370841513584 17:-0.6481071828134497 18:-0.685909097766369 19:-0.01910120056606812 20:-0.05936952437275134 21:0.05711221707313774 22:0.048474599761101356 23:-0.13833507981198534 24:-0.6049814395106086 25:-0.7484916792807474 26:-0.8148204949056093 27:-0.3207547169811321 28:0.077719658720663 29:-0.7173114715145211 30:-0.6322133107153979 
-1.0 1:-0.9865388724397914 2:-0.7576285963382736 3:-0.3571578222741014 4:-0.5867788318119442 5:-0.6687864334923158 6:-0.7935596571025282 7:-0.9592487003186315 8:-0.9828194637760626 9:-0.9327007299270073 10:-0.541438944762876 11:-0.6753804614629357 12:-0.8216715014504352 13:-0.8479966179717224 14:-0.8373978384846339 15:-0.4689349112426038 16:-0.7430747922437673 17:-0.7148391431241371 18:-0.7423190649651636 19:-0.8997418840171554 20:-0.9960853814004128 21:-0.8678326315499938 22:-0.9010175813251079 23:-0.9632487908676803 24:-0.8538996662386504 25:-0.9776625204205251 26:-0.9931664780930746 27:-0.3584905660377359 28:-0.08595979153178912 29:-0.688917271234768 30:-0.5920212140489174 
-0.40368008000304534 1:-0.25985508898862897 2:-0.289069840275603 3:0.24058962035931986 4:-0.06526072140423045 5:-0.26156482010279836 6:-0.12264539224791826 7:-0.9655481988553474 8:-0.9886947419276915 9:-0.939921392476137 10:0.11943290872758094 11:-0.677927927927928 12:-0.22766927165528283 13:-0.099727434327474 14:-0.05488718491098188 15:0.22031366691560872 16:-0.21458731140574994 17:-0.773634044839469 18:-0.8902194918199252 19:-0.03028948712024393 20:-0.029552373736399518 21:0.0800060066670738 22:0.053501532088088055 23:-0.1446924857606976 24:-0.5722841819904244 25:-0.7428400163324285 26:-0.8119343369078532 27:-0.6226415094339623 28:-0.008769077082941168 29:-0.7131682972993614 30:-0.6316444992411285 
0.1424303799350705 1:-0.4383921851229081 2:-0.44691512683996226 3:0.12808437893107105 4:-0.1773934289204656 5:-0.3957738435179895 6:-0.351259523821707 7:-0.9628031716417911 8:-1.0 9:-0.9524087591240876 10:-0.04703482036466833 11:-0.6775749947556116 12:-0.3763877907090719 13:-0.2692835216511006 14:-0.223189395232406 15:-0.08078855817549291 16:-0.3604588037138602 17:-0.7706866645650408 18:-0.8248342497410038 19:-0.15317399901154405 20:-0.19849391486255508 21:-0.05275278255472715 22:-0.06374000059437546 23:-0.2750330906447178 24:-0.6458825404030062 25:-0.782916244159612 26:-0.8415851294196011 27:-1.0 28:-0.0912661474521339 29:-0.7394306529728158 30:-0.6577714802271792 
-1.0 1:-0.9720120799539428 2:-0.7265201256066232 3:-0.3844118425307971 4:-0.5842466154837952 5:-0.6392503904216554 6:-0.7149496118082691 7:-0.9601990049751243 8:-0.9893385780276137 9:-0.9265604051839714 10:-0.5208252578518424 11:-0.6756692726841981 12:-0.8046663999199759 13:-0.8080408543701488 14:-0.8058158780265915 15:-0.539940828402367 16:-0.7098337950138502 17:-0.7485295489399488 18:-0.8017174688945209 19:-0.9179491721085286 20:-0.9205142430508799 21:-0.8362149702315123 22:-0.8596553032349369 23:-0.9537362254923711 24:-0.8629745313578445 25:-0.9810444485575356 26:-0.9937729472663718 27:-1.0 28:-0.018712509809884148 29:-0.7071538758980429 30:-0.6088107461837231 
1.0 1:-0.20258032655328873 2:-0.2101471969934232 3:0.2687159307163822 4:0.018838809232945675 5:-0.1541976013706453 6:-0.05055711346984315 7:-0.967771760665698 8:-0.9900265072984293 9:-0.9388946819603754 10:0.12404764300406268 11:-0.6786234144312747 12:-0.14181827363743105 13:-0.051551606936781624 14:-0.01339273437285149 15:0.23375653472740843 16:-0.17682812037759188 17:-0.5698098565409484 18:-0.6459978256231663 19:0.007246714034276458 20:0.006431794133758162 21:0.08532022756276292 22:0.08448087818387928 23:-0.09307404929323682 24:-0.5645697590197647 25:-0.7118174245431588 26:-0.7913470365133624 27:-0.3584905660377359 28:0.021593661060358427 29:-0.7172148578379511 30:-0.6331453361781383 
-1.0 1:-0.8934966384876524 2:-0.5424317617866006 3:-0.33708152312803497 4:-0.377075904228222 5:-0.5312217194570135 6:-0.7033002486098723 7:-0.8034825870646767 8:-0.9846670846561373 9:-0.9037408759124087 10:-0.7928300117363402 11:-0.6740152851263963 12:-0.6394278283485046 13:-0.6568826437678897 14:-0.7426297950868347 15:-0.499076923076923 16:-0.6369196675900276 17:-0.7392380509554919 18:-0.8179618709408094 19:-0.671307785932866 20:-0.7879774071767673 21:-0.8474332675092637 22:-0.934782503051364 23:-0.7968815398454207 24:-0.7971753342006538 25:-0.890629161459033 26:-0.9346870923735267 27:-0.3584905660377359 28:0.04543981732874891 29:-0.06274612382408384 30:0.024823136482300834 
-0.3972703832984625 1:0.25844500946299864 2:0.32258064516129026 3:0.5171650055370984 4:0.2781456953642385 5:0.30882352941176494 6:-0.03736237608068227 7:-0.9371325192220714 8:-0.974567360237026 9:0.14598540145985406 10:0.2591145080536059 11:-0.6778711484593838 12:0.48417858690940596 13:0.3600771456123433 14:0.33829611248966085 15:0.0843076923076922 16:0.5138504155124652 17:-0.20336777635289816 18:-0.25800238723299274 19:0.3787497360484835 20:0.28823312444364135 21:0.25003142817101454 22:0.30026383168736115 23:0.3288618740817635 24:-0.3021323929685139 25:-0.5831168936316367 26:-0.8796992481203008 27:-1.0 28:0.14065350351633077 29:0.8202060655488022 30:0.882903586124598 
-1.0 1:-0.1977240109227154 2:-0.005202913631633832 3:0.20565855749651685 4:0.11514633625293769 5:0.018975332068311257 6:-0.1045468801270466 7:-0.9682024659312135 8:-0.9887307310054599 9:-0.9323700283032921 10:-0.1592222112178534 11:-0.6764550264550264 12:-0.10889718528461778 13:-0.05632383917941197 14:-0.12045592873347 15:0.08436724565756815 16:0.017246001251005394 17:-0.6392465855503306 18:-0.7827337189164838 19:0.013122019147288722 20:-0.04871064972965933 21:-0.08560357435561172 22:-0.13809948747204137 23:-0.059271447784134845 24:-0.4802440420764965 25:-0.6993924594189265 26:-0.77641206951344 27:-1.0 28:0.0530979388004551 29:0.3738159111276733 30:0.47529056855968954 
-0.0786541791946299 1:0.44466353005485804 2:0.5483870967741933 3:0.7585825027685489 4:0.5187637969094927 5:0.5392156862745103 6:0.2100686498855835 7:-0.9303482587064676 8:-0.9770035757635404 9:-0.8905109489051095 10:0.5418881295874463 11:-0.6761904761904762 12:0.5578673602080626 13:0.6094197241738224 14:0.6037355952533949 15:0.4999999999999998 16:0.5858725761772854 17:0.01598580691315754 18:-0.1628647854993034 19:0.5235569512512845 20:0.6188631478603697 21:0.5341483205338962 22:0.5800716704761986 23:0.47818907345588246 24:-0.015353234993305542 25:-0.18507607466139664 26:-0.36197636949516665 27:-1.0 28:0.03947856825225515 29:0.623520797430045 30:0.7446516685393303 
-0.13442074354775432 1:-0.02549906635609389 2:-0.12903225806451613 3:0.5171650055370984 4:0.03752759381898452 5:0.07843137254901955 6:-0.06552606049916221 7:-0.9261586802827966 8:-0.9775612636551521 9:-0.8865805727119596 10:0.32066519527423387 11:-0.6726190476190477 12:0.02362375379280457 13:-0.04014457209242284 14:-0.016002032004064026 15:0.038461538461538325 16:-0.09833795013850422 17:-0.20925335467580763 18:-0.35971557336492843 19:0.10610885132162462 20:0.12282784680069159 21:0.27141969394865684 22:0.10254501679244421 23:0.05758227307145458 24:-0.7571461913065057 25:-0.9257342204738722 26:-0.97731170030339 27:-1.0 28:-0.009594461391258413 29:0.38379570820336073 30:0.4125368154903861 
0.010563277974993622 1:0.8639305445935279 2:0.7741935483870963 3:1.0 4:0.7593818984547462 5:0.7696078431372553 6:0.8688259556857516 7:-0.928955223880597 8:-0.9763702691747609 9:0.14598540145985406 10:0.9627064708508377 11:-0.6666666666666667 12:0.8526224534026876 13:0.8679524268723879 14:0.9279034317966464 15:1.0 16:0.837950138504155 17:0.22985012130097182 18:-0.05689543649779294 19:0.8921623130954461 20:0.8995865279225905 21:0.96625807446968 22:0.9531418584158518 23:0.878881546151919 24:0.31793065130220666 25:0.004897952574399955 26:-0.18152524167561757 27:-0.3584905660377359 28:0.20138172321998016 29:0.8671478481223835 30:0.9326394655417427 
-1.0 1:0.6452810059058867 2:0.5483870967741933 3:0.7585825027685489 4:0.7593818984547462 5:0.7696078431372553 6:0.6238136438388735 7:-0.9291044776119403 8:-0.9620967291472163 9:-0.9146897810218978 10:0.505239179954442 11:-0.6666666666666667 12:0.5210229735587342 13:0.6155225409836065 14:0.6601161784699048 15:0.9230769230769229 16:0.5858725761772854 17:0.22082554036689706 18:-0.05436605861663013 19:0.6823534154709929 20:0.6589475569212413 21:0.7491717385659795 22:0.7825302867770401 23:0.6666767765803261 24:0.1474133141277585 25:-0.19412245691072028 26:-0.41783029001074123 27:-1.0 28:0.2637330356426033 29:0.7570517216033805 30:0.799425480507097 
-0.5209830676050873 1:0.7123363862212171 2:0.5483870967741933 3:0.7585825027685489 4:0.7593818984547462 5:0.7696078431372553 6:0.5631145466227927 7:-0.9280868385345997 8:-0.9805137289636847 9:-0.6313868613138687 10:0.8544821117513066 11:-0.6731601731601732 12:0.7789336801040312 13:0.716700819672131 14:0.7759856630824371 15:0.6153846153846154 16:0.6759002770083102 17:0.030679448968061296 18:-0.17646778797357654 19:0.8107136074659769 20:0.7273432347725879 21:0.9018832209248484 22:0.8940344014453909 23:0.7442396172922963 24:-0.364138697395586 25:-0.6396567826899093 26:-0.7443609022556392 27:-0.3584905660377359 28:0.12307317042465571 29:0.9437249620363621 30:0.9661089597642754 
-1.0 1:-0.2699815837937385 2:-0.18002081165452644 3:0.20565855749651685 4:0.022003845332194016 5:-0.15939278937381385 6:-0.19903168982884456 7:-0.9054726368159204 8:-0.988780631827576 9:-0.9301355578727841 10:0.04210963067174811 11:-0.6748768472906403 12:-0.16951214396577052 13:-0.037307858631127844 14:-0.031079687730151684 15:0.06947890818858538 16:-0.0873022964882495 17:-0.7393660335534095 18:-0.7274858125655976 19:-0.014057259266551436 20:0.013501177896427352 21:0.0332833731052633 22:-0.03874091589965656 23:-0.14173420778676182 24:-0.5462793851268186 25:-0.7658620276595236 26:-0.8810105198389228 27:-1.0 28:0.11204421172190027 29:0.4598633708426487 30:0.5792843120565725 
-1.0 1:0.2046249359229937 2:0.09677419354838679 3:0.7585825027685489 4:0.5187637969094927 5:0.07843137254901955 6:0.3057373752148316 7:-0.9371325192220714 8:-0.9785327199824757 9:-0.8467153284671532 10:0.4098030826867707 11:-0.6734693877551021 12:0.2815344603381016 13:0.2526404457979654 14:0.2630879727653921 15:0.12158808933002452 16:0.2977839335180057 17:-0.007060390098183378 18:-0.25943459365413324 19:0.4408595539017719 20:0.16705177360628398 21:0.35239002213098836 22:0.2883913450751474 23:0.2806544643968809 24:-0.4106434257158903 25:-0.6351335915652476 26:-0.8132172536604669 27:-1.0 28:0.19851481310208619 29:0.8145975799077247 30:0.8653353141489204 
-1.0 1:-0.30083232234419854 2:-0.032258064516129115 3:0.172282866635026 4:-0.05413644486492175 5:-0.05322128851540597 6:-0.2708852674254588 7:-0.9092039800995025 8:-0.9771984305690432 9:-0.8916339135317237 10:-0.1449500991461956 11:-0.6727078891257996 12:-0.17607282184655404 13:-0.06194667256015918 14:-0.12714984894814652 15:-0.026461538461538647 16:-0.06996121883656492 17:-0.5534277311934467 18:-0.7065895434927612 19:-0.0765441786346549 20:-0.0972895823386356 21:-0.16376078910752423 22:-0.1428478140212025 23:-0.18157560879512835 24:-0.07994313543817233 25:-0.1986456480353822 26:-0.3748657357679914 27:-1.0 28:0.22374230906503811 29:0.31963539880501357 30:0.4548385166689155 
-1.0 1:0.32245827874921673 2:0.32258064516129026 3:0.7585825027685489 4:0.5187637969094927 5:0.30882352941176494 6:0.406721029729038 7:-0.9375848032564451 8:-0.9785327199824757 9:-0.843065693430657 10:0.4851473700033535 11:-0.6755952380952381 12:0.447334200260078 13:0.3959696753709583 14:0.3876364844106779 15:0.1923076923076923 16:0.40581717451523547 17:-0.3050572893743021 18:-0.28403710203046684 19:0.4135712893879977 20:0.3641658424147307 21:0.38635870290208185 22:0.35165233963341813 23:0.3859332768105481 24:-0.3078163824682717 25:-0.5831168936316367 26:-0.8705410354711606 27:-0.4339622641509434 28:-0.10661577550355739 29:0.8720584987362323 30:0.9162398144887285 
-1.0 1:0.49801403613558315 2:0.32258064516129026 3:0.7585825027685489 4:0.7593818984547462 5:0.5392156862745103 6:0.45580428669785267 7:-0.9330931549150798 8:-0.9794434602893416 9:-0.7737226277372262 10:0.6041913439635536 11:-0.6721611721611722 12:0.5026007802340702 13:0.5666262677808254 14:0.6511532463268488 15:0.6153846153846154 16:0.5138504155124652 17:-0.05551008760340126 18:-0.26498547339911693 19:0.6583846298026168 20:0.4919945961454748 21:0.7525732081455652 22:0.7547016453206699 23:0.5531158755379018 24:-0.07735953942037765 25:-0.28910947052861835 26:-0.5080558539205156 27:-0.4339622641509434 28:0.047572615995739476 29:0.8244106709583121 30:0.888444254378036 
-1.0 1:0.7333038674033148 2:0.7741935483870963 3:0.7585825027685489 4:0.7593818984547462 5:0.7696078431372553 6:0.7227457699721569 7:-0.6517412935323383 8:-0.9764458878719287 9:-0.9126895002807411 10:0.8268337129840548 11:-0.6751700680272109 12:0.760511486779367 13:0.7774077868852458 14:0.7759856630824371 15:0.6153846153846154 16:0.7479224376731302 17:-0.05625942820749841 18:-0.20119535395276444 19:0.7838511300342486 20:0.7682009331199302 21:0.8365562334320513 22:0.8469477375470689 23:0.763246807060252 24:0.31793065130220666 25:0.004897952574399955 26:-0.18152524167561757 27:-0.3584905660377359 28:0.3050891307277319 29:0.8501147557799897 30:0.9295467206942272 
0.3269236931271823 1:-0.04067935338653561 2:-0.048907388137356955 3:0.3925624263208656 4:0.11514633625293769 5:-0.02561669829222002 6:0.1461551146045179 7:-0.9586681974741676 8:-0.9873577569800904 9:-0.8558394160583942 10:0.2833464485400705 11:-0.6746753246753248 12:-0.01835468673388896 13:0.012680733129395882 14:0.027487247238430657 15:0.3449131513647641 16:-0.04199803413457248 17:-0.49998635893685794 18:-0.6924232466797324 19:0.18297351600214307 20:0.18035976911518903 21:0.2439546029625801 22:0.11406033319721254 23:0.08482381099283653 24:-0.3996356180339986 25:-0.669695145031491 26:-0.8017943893757931 27:-1.0 28:0.18239486312629438 29:0.5558211161067725 30:0.625038685907781 
-0.3502607550246335 1:0.4751606720036081 2:0.09677419354838679 3:0.5171650055370984 4:0.5187637969094927 5:0.30882352941176494 6:0.5523377551730464 7:-0.9162520729684909 8:-0.9766486834688783 9:-0.9137122002085506 10:0.20742198730565953 11:-0.6756978653530378 12:0.2815344603381016 13:0.29913211186113764 14:0.401501318725908 15:0.7307692307692308 16:0.40581717451523547 17:-0.0968553607139091 18:-0.24596289527974569 19:0.6966780214910353 20:0.15191659273793068 21:0.573449765579372 22:0.6188045753160134 23:0.5326628464716627 24:-0.44311588543959435 25:-0.6075013891085043 26:-0.6980882902530912 27:-1.0 28:-0.09747441841748383 29:0.7132394823791033 30:0.7191391080632255 
1.0 1:-0.8837735273041811 2:-0.5913978494623657 3:-0.28755998523440385 4:-0.32912856091664044 5:-0.5798319327731092 6:-0.6647026805068803 7:-0.9345579793340988 8:-0.9208579704593877 9:-0.8722627737226277 10:-0.6072044030051359 11:-0.6687925170068028 12:-0.6860990500539993 13:-0.6227785361199094 14:-0.6630020317849092 15:-0.3619167717528373 16:-0.6470641660233412 17:-0.7739602974627404 18:-0.7997400802220692 19:-0.7131494056720376 20:-0.6414905834153863 21:-0.597173931791768 22:-0.6433212310350835 23:-0.7827140012796489 24:-0.7010688362022881 25:-0.8388468143378748 26:-0.922185587640687 27:-1.0 28:0.02865818638225326 29:-0.039479122802534294 30:0.08893984841714997 
-1.0 1:-0.7698445774149765 2:-0.45905707196029766 3:-0.11423460260669571 4:-0.33265410086602143 5:-0.48868778280542957 6:-0.2041800881737349 7:-0.9369282619162254 8:-0.9757023040164463 9:-0.9072992700729927 10:-0.22388202853374894 11:-0.678358843537415 12:-0.45535327264846126 13:-0.48883438750484065 14:-0.41816950300567257 15:-0.5384615384615385 16:-0.4584487534626037 17:-0.74509851128153 18:-0.5723319998474268 19:-0.4136627179661416 20:-0.18073553060273617 21:-0.2326908810026308 22:-0.26501046061843136 23:-0.44852568340921073 24:-0.7594288881181707 25:-0.8836443989426374 26:-0.9357652186126998 27:-1.0 28:0.17673735433495086 29:-0.01293094011789131 30:0.19161886745415768 
-1.0 1:0.29799460895830543 2:0.32258064516129026 3:0.7585825027685489 4:0.2781456953642385 5:0.30882352941176494 6:0.1213834942993619 7:-0.9024875621890547 8:-0.9765898073278284 9:-0.7299270072992701 10:0.5664467040837893 11:-0.673427395649618 12:0.46575639358474197 13:0.41644527959567146 14:0.403790636375047 15:0.15384615384615374 16:0.45983379501385047 17:-0.279289489514282 18:-0.3462908729199018 19:0.40400706202887693 20:0.40526756983546663 21:0.39987697456796 22:0.363895957430759 23:0.364197672149535 24:-0.3078163824682717 25:-0.5831168936316367 26:-0.8796992481203008 27:-0.4716981132075472 28:0.2584855943779907 29:0.8659458648495071 30:0.933338715663496 
-1.0 1:0.45619300693953235 2:0.5483870967741933 3:0.7585825027685489 4:0.5187637969094927 5:0.5392156862745103 6:0.1213834942993619 7:-0.6268656716417911 8:-0.9775612636551521 9:-0.7226277372262773 10:0.6907744874715263 11:-0.6733111849390919 12:0.6684005201560468 13:0.6007257176180909 14:0.571147650725911 15:0.15384615384615374 16:0.6759002770083102 17:-0.17455191874685994 18:-0.3080815275165746 19:0.5475113634722879 20:0.5902031941226697 21:0.5028977140971786 22:0.48563550770118535 23:0.5055408644206212 24:0.1474133141277585 25:-0.042595554234549415 26:-0.22663802363050478 27:-0.4716981132075472 28:0.20839992188695677 29:0.8896112098639479 30:0.9433744005859446 
-0.3209954571079821 1:0.45619300693953235 2:0.5483870967741933 3:0.7585825027685489 4:0.5187637969094927 5:0.5392156862745103 6:0.1213834942993619 7:-0.9240162822252375 8:-0.9775612636551521 9:-0.7226277372262773 10:0.6907744874715263 11:-0.6760531135531136 12:0.6684005201560468 13:0.6007257176180909 14:0.571147650725911 15:0.15384615384615374 16:0.6759002770083102 17:-0.22608213485892437 18:-0.25552761428369897 19:0.5475113634722879 20:0.5902031941226697 21:0.5028977140971786 22:0.48563550770118535 23:0.5055408644206212 24:0.1474133141277585 25:-0.042595554234549415 26:-0.22663802363050478 27:-1.0 28:0.07380108262967155 29:0.8970142120333486 30:0.9569327388450417 
-0.4314422764252608 1:-0.945503702832961 2:-0.5841191066997519 3:-0.4707896754408384 4:-0.510341314314824 5:-0.5737556561085972 6:-0.7403464514594089 7:-0.9286898839137645 8:-0.977274452739466 9:-0.5218978102189782 10:-0.7919995555308629 11:-0.675032175032175 12:-0.7455396618985696 13:-0.7267759562841531 14:-0.824850860123697 15:-0.36615384615384605 16:-0.6749473684210525 17:-0.6253421439185425 18:-0.6323583384944811 19:-0.6890922671502473 20:-0.8068972873914069 21:-0.8612542934174154 22:-0.9231663590412098 23:-0.8054756438523096 24:-0.787289519849561 25:-0.8845143334166693 26:-0.9371999747320146 27:-1.0 28:0.03881551209433498 29:-0.06680362773136939 30:0.02225088553092025 
-1.0 1:1.0 2:1.0 3:1.0 4:1.0 5:1.0 6:1.0 7:-0.9253731343283582 8:-0.9777206030527554 9:-0.9080955540809555 10:1.0 11:-0.6785714285714286 12:1.0 13:0.9999999999999998 14:0.9999999999999998 15:1.0 16:1.0 17:0.5073184024379676 18:0.2770380960799581 19:1.0 20:0.9999999999999998 21:1.0 22:1.0 23:1.0 24:0.9999999999999998 25:1.0 26:1.0 27:-0.3584905660377359 28:0.4287255889814434 29:0.8866775837642888 30:0.964269729205653 
-1.0 1:0.5073347304248428 2:0.32258064516129026 3:0.5171650055370984 4:0.5187637969094927 5:0.30882352941176494 6:0.6178493031965031 7:-0.9279688513951979 8:-0.9785327199824757 9:-0.8832116788321167 10:0.2566401472221911 11:-0.6666666666666667 12:0.3552232336367578 13:0.42894023492964983 14:0.48304383788254746 15:0.7307692307692308 16:0.5138504155124652 17:0.06469859784301524 18:-0.0949582273242966 19:0.6888295383008456 20:0.2403919852110239 21:0.5570206291857678 22:0.6183967625203735 23:0.5613979641666593 24:-0.3607388934330963 25:-0.6396567826899093 26:-0.7894736842105264 27:-1.0 28:0.17782421961274153 29:0.6383734447303075 30:0.7287666852937118 
-0.7164602454181812 1:0.6138569508735257 2:0.5483870967741933 3:0.7585825027685489 4:0.7593818984547462 5:0.7696078431372553 6:0.5127749932565098 7:-0.9208955223880597 8:-0.979082230632275 9:-0.3138686131386861 10:0.750120797956789 11:-0.6755952380952381 12:0.6868227134807108 13:0.7054323368691737 14:0.763111275903267 15:0.6153846153846154 16:0.6218836565096955 17:-0.3934854909824932 18:-0.3732521249241638 19:0.6810758241497881 20:0.7073907486829805 21:0.7855608115762625 22:0.8303381648452728 23:0.6562958963660857 24:0.1474133141277585 25:-0.19412245691072028 26:-0.41783029001074123 27:-1.0 28:-0.054758002719338617 29:0.8539930275659846 30:0.9182602667614039 
-1.0 1:0.630668621039576 2:0.32258064516129026 3:0.7585825027685489 4:0.5187637969094927 5:0.5392156862745103 6:0.775495813736967 7:-0.9216417910447761 8:-0.9644341486679839 9:-0.9098698825769597 10:0.6500472248458249 11:-0.6743036837376459 12:0.447334200260078 13:0.5022822243651559 14:0.5809313545116317 15:0.8846153846153846 16:0.45983379501385047 17:-0.08175550561910072 18:-0.25411402811116435 19:0.7519318911474606 20:0.4347557692768187 21:0.7522871936963964 22:0.7581919916970852 23:0.6711503263437653 24:-0.41858349934809125 25:-0.5982876791204751 26:-0.6979290331090884 27:-1.0 28:0.06831502445468729 29:0.8245984556447234 30:0.8334431454226359 
1.0 1:-0.8431039375073026 2:-0.6512096774193549 3:-0.17691029900332234 4:-0.4437086092715231 5:-0.5983455882352942 6:-0.5526236881559221 7:-0.9104477611940298 8:-0.9013876586950104 9:-0.9108720706876681 10:-0.4518194172661274 11:-0.6715029761904763 12:-0.6045136121481606 13:-0.6054051222961296 14:-0.6220935575774285 15:-0.39950372208436724 16:-0.6379233312483243 17:-0.8059433734399807 18:-0.7939750085802921 19:-0.6558382253841095 20:-0.6107411367919457 21:-0.6165132654883985 22:-0.6440165265612925 23:-0.7179370057895036 24:-0.8195408805780834 25:-0.9082365710034966 26:-0.9688105408797588 27:-1.0 28:-0.07493553325712665 29:-0.08249002089967039 30:0.048339387924505095 
1.0 1:-0.9365306529987354 2:-0.7358870967741936 3:-0.2674418604651164 4:-0.48882450331125826 5:-0.6415441176470589 6:-0.6467220934987055 7:-0.8900949796472184 8:-0.662356067316209 9:-0.9177173191771731 10:-0.6481983469239969 11:-0.6721611721611722 12:-0.6793909140484081 13:-0.6937276126232125 14:-0.7277823729436632 15:-0.5037220843672459 16:-0.738986685729604 17:-0.8232418938630454 18:-0.7356191542772217 19:-0.7087780938604613 20:-0.7273185613469335 21:-0.6992174528823076 22:-0.7168147155652023 23:-0.790385678145537 24:-0.8396364144522639 25:-0.917042677566036 26:-0.970999274853109 27:-1.0 28:0.08599959383657962 29:-0.13170103625797258 30:-0.004962510417600763 
-1.0 1:0.29799460895830543 2:0.32258064516129026 3:0.7585825027685489 4:0.2781456953642385 5:0.30882352941176494 6:0.1213834942993619 7:-0.9186567164179105 8:-0.9765898073278284 9:-0.7299270072992701 10:0.5664467040837893 11:-0.6764346764346765 12:0.46575639358474197 13:0.41644527959567146 14:0.403790636375047 15:0.15384615384615374 16:0.45983379501385047 17:-0.14651632992844865 18:-0.19932644578003844 19:0.40400706202887693 20:0.40526756983546663 21:0.39987697456796 22:0.363895957430759 23:0.364197672149535 24:-0.3078163824682717 25:-0.5831168936316367 26:-0.8796992481203008 27:-1.0 28:0.14610457495732176 29:0.8681164734420428 30:0.9345515079919844 
-1.0 1:0.49113751608264566 2:0.32258064516129026 3:0.5171650055370984 4:0.5187637969094927 5:0.5392156862745103 6:0.5890767062820521 7:-0.9214454045561665 8:-0.9787132091361861 9:-0.8832116788321167 10:0.24071359299939088 11:-0.671957671957672 12:0.3736454269614218 13:0.39763629431948155 14:0.4501466275659822 15:0.8076923076923077 16:0.45983379501385047 17:0.011256317035139629 18:-0.20100047938561716 19:0.5846788627801589 20:0.2625596323657171 21:0.4881449749135458 22:0.6139045392749618 23:0.5468847853984771 24:-0.28663081686174596 25:-0.6851011787288954 26:-0.8237699511937739 27:-1.0 28:0.08618875050952668 29:0.74688544998694 30:0.8288712631250943 
-1.0 1:0.8042836600317866 2:0.7741935483870963 3:0.7585825027685489 4:0.7593818984547462 5:0.7696078431372553 6:0.797483866762271 7:-0.9305396096440872 8:-0.9610114986554313 9:-0.9124087591240876 10:0.5776432024001334 11:-0.6724975704567542 12:0.8157780667533592 13:0.7571721311475408 14:0.7649127110675007 15:0.846153846153846 16:0.837950138504155 17:-0.020297882820347946 18:-0.24171827941555313 19:0.8339335477626206 20:0.7027224902970151 21:0.7490510911076977 22:0.8136226325120481 23:0.8257249174609529 24:0.31793065130220666 25:0.004897952574399955 26:-0.41783029001074123 27:-1.0 28:0.21473499597271783 29:0.8419760674010535 30:0.915661775203966 
-1.0 1:0.29799460895830543 2:0.32258064516129026 3:0.7585825027685489 4:0.2781456953642385 5:0.30882352941176494 6:0.1213834942993619 7:-0.8776119402985074 8:-0.9765898073278284 9:-0.7299270072992701 10:0.5664467040837893 11:-0.6772486772486772 12:0.46575639358474197 13:0.41644527959567146 14:0.403790636375047 15:0.15384615384615374 16:0.45983379501385047 17:-0.213939671787013 18:-0.23668663953650915 19:0.40400706202887693 20:0.40526756983546663 21:0.39987697456796 22:0.363895957430759 23:0.364197672149535 24:-0.3078163824682717 25:-0.5831168936316367 26:-0.8548490397706952 27:-1.0 28:0.14134416168405295 29:0.8674583761931238 30:0.9361765759972431 
-1.0 1:-0.38264124042060244 2:-0.2237252861602499 3:0.3314592384359827 4:0.11156393275598586 5:0.14932126696832593 6:-0.4402985205180372 7:-0.933134328358209 8:-0.9772151125500137 9:-0.8576642335766423 10:-0.3542723176429512 11:-0.6428571428571429 12:-0.2527091460771562 13:-0.24897872566183898 14:-0.2929270379878708 15:-0.013133208255159512 16:-0.2489696642118775 17:-0.1680315324423819 18:-0.2994561658445811 19:-0.17563065369664743 20:-0.28137557476081676 21:-0.20569351739634023 22:-0.12070793666611424 23:-0.2605704750601402 24:-0.594676194956044 25:-0.7666091710417818 26:-0.8488196838985265 27:-1.0 28:0.03453465232484865 29:0.2868545371857054 30:0.3867763306036538 
-1.0 1:0.5589157922058658 2:0.32258064516129026 3:0.7585825027685489 4:0.5187637969094927 5:0.5392156862745103 6:0.5305005724985608 7:-0.7791044776119402 8:-0.9793327428402716 9:-0.35766423357664234 10:0.8059761490017419 11:-0.6750208855472013 12:0.5947117468573906 13:0.5309151929779268 14:0.6013737274622837 15:0.5384615384615385 16:0.45983379501385047 17:-0.032811443529435214 18:-0.25283877852246195 19:0.7215759777377551 20:0.5608247641827218 21:0.8033164391808956 22:0.7886081890932917 23:0.6075625091234611 24:-0.5576938733351584 25:-0.784979719551314 26:-0.886822318955283 27:-1.0 28:0.14416855033385567 29:0.9240931888482213 30:0.9463634329163031 
-1.0 1:0.45619300693953235 2:0.5483870967741933 3:0.7585825027685489 4:0.5187637969094927 5:0.5392156862745103 6:0.1213834942993619 7:-0.8843283582089552 8:-0.9775612636551521 9:-0.7226277372262773 10:0.6907744874715263 11:-0.6763319189061763 12:0.6684005201560468 13:0.6007257176180909 14:0.571147650725911 15:0.15384615384615374 16:0.6759002770083102 17:-0.17118572876313143 18:-0.2494558460446522 19:0.5475113634722879 20:0.5902031941226697 21:0.5028977140971786 22:0.48563550770118535 23:0.5055408644206212 24:0.1474133141277585 25:-0.042595554234549415 26:-0.22663802363050478 27:-1.0 28:0.13285335792379138 29:0.8966466505390003 30:0.9492852253351434 
-1.0 1:0.1793458104723853 2:0.09677419354838679 3:0.7585825027685489 4:0.2781456953642385 5:0.07843137254901955 6:0.02509675394860711 7:-0.9371325192220714 8:-0.9765898073278284 9:-0.843065693430657 10:0.48993729892210514 11:-0.6772486772486772 12:0.2999566536627656 13:0.27311605002267836 14:0.27827287561189884 15:0.07692307692307665 16:0.3518005540166207 17:-0.03246931238795325 18:-0.23845938529799793 19:0.43150566260085443 20:0.20226196698329368 21:0.3656874099039076 22:0.30026383168736115 23:0.2581902779462204 24:-0.4106434257158903 25:-0.6351335915652476 26:-0.8150639757287956 27:-1.0 28:0.3364259352751595 29:0.808022268519216 30:0.8815122554460342 
-1.0 1:0.04092221223881154 2:0.09677419354838679 3:0.5171650055370984 4:0.2781456953642385 5:0.07843137254901955 6:0.24873047347294097 7:-0.9390191897654584 8:-0.9758085302815153 9:0.14598540145985406 10:0.141741434614848 11:-0.6190476190476191 12:0.24469007368877338 13:0.1434916073411272 14:0.12478119529882448 15:-2.220446049250313E-16 16:0.09972299168975085 17:-0.25514704942325117 18:-0.32322651498175103 19:0.20248715077742796 20:0.18679646705685826 21:0.12533287142671412 22:0.12031815688940961 23:0.11684708567513402 24:-0.6431670673174104 25:-0.8296308099257057 26:-0.936970483936464 27:-0.4339622641509434 28:0.009211000264793157 29:0.6464101668347049 30:0.7069121598584214 
1.0 1:-0.9322272515476272 2:-0.5841191066997519 3:-0.33708152312803497 4:-0.4214977075904228 5:-0.5312217194570135 6:-0.7217548088700747 7:-0.9284825870646767 8:-0.9762519094748463 9:-0.9347557551937113 10:-0.8342352352908495 11:-0.6743796109993294 12:-0.7101690507152147 13:-0.6947481465188194 14:-0.7700368167657887 15:-0.4030769230769229 16:-0.6714903047091414 17:-0.7556566642367784 18:-0.7662241290765794 19:-0.7243076810898488 20:-0.8535027163421494 21:-0.9075346409349132 22:-0.963489059934732 23:-0.8356137023074248 24:-0.81863946048223 25:-0.9493187569472741 26:-0.982747748354581 27:-1.0 28:0.23024291939345942 29:-0.0891484305402791 30:0.04258478951009925 
-1.0 1:-0.19982884254772892 2:0.01075268817204278 3:0.08031429626114006 4:0.03752759381898452 5:-0.00933706816059754 6:-0.2182883528438403 7:-0.8451492537313433 8:-0.9853228992600574 9:-0.8550573514077164 10:-0.009837905648542589 11:-0.675 12:0.019997337784012137 13:-0.06194667256015918 14:-0.11494158526909082 15:0.0843076923076922 16:-0.025019390581717316 17:-0.6056472984627197 18:-0.603068419149958 19:-0.026276692721616257 20:0.07534890919564541 21:-0.07820755514608069 22:-0.152420192608823 23:-0.0808317569903958 24:-0.2724806506540167 25:-0.5348665632467762 26:-0.7141441449898558 27:-1.0 28:0.013988740812693967 29:0.544525856069151 30:0.6246326290463662 
-1.0 1:0.6910855606988202 2:0.5483870967741933 3:1.0 4:0.5187637969094927 5:0.5392156862745103 6:0.8688259556857516 7:-0.926729986431479 8:-0.9771117838619128 9:-0.8978102189781022 10:0.8383947070202953 11:-0.6696428571428572 12:0.5947117468573906 13:0.6736801342455143 14:0.7311827956989247 15:0.8846153846153846 16:0.6218836565096955 17:-0.05628596131625807 18:-0.2124566912908239 19:0.7986723081594338 20:0.6605195039443992 21:0.8495142550119772 22:0.8593067243661756 23:0.7250825769182083 24:-0.13161505579406585 25:-0.5356233868226874 26:-0.8187574198654533 27:-1.0 28:0.24739315675137963 29:0.862403240110766 30:0.9392795400111675 
-1.0 1:0.5589157922058658 2:0.5483870967741933 3:0.5171650055370984 4:0.5187637969094927 5:0.5392156862745103 6:0.5744661002831919 7:-0.9305645684620376 8:-0.9724540166477605 9:-0.9089178038717868 10:0.6536674259681095 11:0.5 12:0.48417858690940596 13:0.5952868852459015 14:0.6101124517770662 15:0.4999999999999998 16:0.5318559556786704 17:-0.02018534116086579 18:-0.21570553417187577 19:0.6739083598346376 20:0.4995377811745296 21:0.6822972472243287 22:0.7342620246775584 23:0.6075625091234611 24:0.09832498978965987 25:-0.09008906104349834 26:-0.271750805585392 27:-0.4339622641509434 28:0.03815125294240196 29:0.7262573475116325 30:0.8170024301435344 
-1.0 1:-0.3043508810084441 2:-0.2237252861602499 3:0.15893259029042972 4:-0.024567400128177708 5:-0.24857685009487673 6:-0.179736839654707 7:-0.826865671641791 8:-0.9877577304608404 9:-0.7791970802919708 10:-0.12391580515156841 11:-0.6766666666666667 12:-0.28140211975096974 13:-0.14477833667804751 14:-0.1599176389842143 15:0.10669975186104197 16:-0.1291216155839514 17:-0.5973606500259383 18:-0.5719665210624396 19:-0.02827420890224619 20:-0.15196687972569056 21:-0.08578794014558111 22:-0.11850333526029322 23:-0.16312181369588274 24:-0.4940836824407431 25:-0.7216195884654235 26:-0.8625616716945153 27:-1.0 28:0.4659821223376128 29:0.34239298675822405 30:0.44072647080632876 
-0.9252666529228799 1:0.29799460895830543 2:0.32258064516129026 3:0.7585825027685489 4:0.2781456953642385 5:0.30882352941176494 6:0.1213834942993619 7:-0.9074626865671642 8:-0.9765898073278284 9:-0.7299270072992701 10:0.5664467040837893 11:-0.6753968253968254 12:0.46575639358474197 13:0.41644527959567146 14:0.403790636375047 15:0.15384615384615374 16:0.45983379501385047 17:-0.26509631854293425 18:-0.3157610449311171 19:0.40400706202887693 20:0.40526756983546663 21:0.39987697456796 22:0.363895957430759 23:0.364197672149535 24:-0.3078163824682717 25:-0.5831168936316367 26:-0.8796992481203008 27:-1.0 28:0.1312761073178994 29:0.8629770935190189 30:0.9345411615631356 
-1.0 1:0.32245827874921673 2:0.32258064516129026 3:0.7585825027685489 4:0.5187637969094927 5:0.30882352941176494 6:0.406721029729038 7:-0.9314538419016031 8:-0.9785327199824757 9:-0.843065693430657 10:0.4851473700033535 11:-0.6755952380952381 12:0.447334200260078 13:0.3959696753709583 14:0.3876364844106779 15:0.1923076923076923 16:0.40581717451523547 17:-0.26814599743742484 18:-0.23743124130829818 19:0.4135712893879977 20:0.3641658424147307 21:0.38635870290208185 22:0.35165233963341813 23:0.3859332768105481 24:-0.3078163824682717 25:-0.5831168936316367 26:-0.8796992481203008 27:-1.0 28:0.1824878007599251 29:0.85829409960849 30:0.9075906193395062 
1.0 1:0.29799460895830543 2:0.32258064516129026 3:0.7585825027685489 4:0.2781456953642385 5:0.30882352941176494 6:0.09840102573147802 7:-0.8989667049368542 8:-0.9763064658990257 9:-0.7372262773722628 10:0.6392369020501139 11:-0.6751054852320675 12:0.48417858690940596 13:0.41179544118607514 14:0.39096102150537626 15:0.07692307692307665 16:0.45983379501385047 17:-0.19087546314928694 18:-0.2499380109332171 19:0.45316198025561505 20:0.4192824704193874 21:0.3999313608031423 22:0.3763576225994252 23:0.364197672149535 24:-0.3021323929685139 25:-0.5831168936316367 26:-0.8796992481203008 27:-1.0 28:0.11087003541577922 29:0.8609719698884253 30:0.9265584367862549 
-1.0 1:0.29799460895830543 2:0.32258064516129026 3:0.7585825027685489 4:0.2781456953642385 5:0.30882352941176494 6:0.09840102573147802 7:-0.9309701492537313 8:-0.9763064658990257 9:-0.7372262773722628 10:0.6392369020501139 11:-0.6761904761904762 12:0.48417858690940596 13:0.41179544118607514 14:0.39096102150537626 15:0.07692307692307665 16:0.45983379501385047 17:-0.268268056151478 18:-0.3478244498548503 19:0.45316198025561505 20:0.4192824704193874 21:0.3999313608031423 22:0.3763576225994252 23:0.364197672149535 24:-0.3021323929685139 25:-0.5831168936316367 26:-0.8796992481203008 27:-1.0 28:0.14060546878119706 29:0.8494467614896577 30:0.9140784166586262 
1.0 1:-0.8537789469721999 2:-0.5483870967741935 3:-0.28755998523440385 4:-0.4207925996005466 5:-0.5359477124183007 6:-0.8195792614641584 7:-0.9461901021209741 8:-0.9720685640434291 9:-0.9236384053902302 10:-0.5325518084338019 11:-0.6767775603392042 12:-0.6337340226458181 13:-0.6331555731121209 14:-0.6780988586173016 15:-0.606003752345216 16:-0.6248902101209377 17:-0.6564171845281128 18:-0.7269962633223024 19:-0.7441246544525992 20:-0.6900284244201115 21:-0.7866446577028456 22:-0.8501469880158229 23:-0.7933861106104072 24:-0.6259831081640919 25:-0.7593264785451403 26:-0.8218499615762128 27:-1.0 28:0.1185023501423097 29:-0.1340102998172612 30:-0.00421699935707065 
1.0 1:-0.7698445774149765 2:-0.45905707196029766 3:-0.11423460260669571 4:-0.33265410086602143 5:-0.48868778280542957 6:-0.2041800881737349 7:-0.9393939393939394 8:-0.9757023040164463 9:-0.9072992700729927 10:-0.22388202853374894 11:-0.6794871794871795 12:-0.45535327264846126 13:-0.48883438750484065 14:-0.41816950300567257 15:-0.5384615384615385 16:-0.4584487534626037 17:-0.739761733210788 18:-0.5698629867740361 19:-0.4136627179661416 20:-0.18073553060273617 21:-0.2326908810026308 22:-0.26501046061843136 23:-0.44852568340921073 24:-0.7594288881181707 25:-0.9517569702915748 26:-0.9894576503830004 27:-1.0 28:0.03435399323540955 29:-0.012097306879733316 30:0.19108150013257275 
1.0 1:-0.7698445774149765 2:-0.45905707196029766 3:-0.11423460260669571 4:-0.33265410086602143 5:-0.48868778280542957 6:-0.2041800881737349 7:-0.9135899450117833 8:-0.9757023040164463 9:-0.9072992700729927 10:-0.22388202853374894 11:-0.6791979949874687 12:-0.45535327264846126 13:-0.48883438750484065 14:-0.41816950300567257 15:-0.5384615384615385 16:-0.4584487534626037 17:-0.7003785874434157 18:-0.5299253677180713 19:-0.4136627179661416 20:-0.18073553060273617 21:-0.2326908810026308 22:-0.26501046061843136 23:-0.44852568340921073 24:-0.7594288881181707 25:-0.8857394895478111 26:-0.941404149803188 27:-1.0 28:0.0950024569616632 29:-0.017607572578114072 30:0.18805516080446427 
0.7180314877605354 1:-0.9499775325136623 2:-0.6607700312174819 3:-0.4485049833887045 4:-0.5368511001922668 5:-0.6944971537001898 6:-0.605938236911695 7:-0.9431222267043162 8:-0.8663359905521111 9:-0.8613138686131386 10:-0.6961478607997473 11:-0.6740442655935615 12:-0.7794026732609949 13:-0.675741687130816 14:-0.7284433760086468 15:-0.17276166456494335 16:-0.7249897824803597 17:-0.7409862186330831 18:-0.7313082925487996 19:-0.7062280126519904 20:-0.6575707365353496 21:-0.6897960197805695 22:-0.714903087956617 23:-0.8020182668788298 24:-0.8324250981652701 25:-0.9356412782016894 26:-0.979100625887383 27:-1.0 28:-0.09227296888388137 29:0.00561188547151481 30:0.133977489341067 
-1.0 1:0.7333038674033148 2:0.7741935483870963 3:0.7585825027685489 4:0.7593818984547462 5:0.7696078431372553 6:0.7227457699721569 7:-0.923951670220327 8:-0.9764458878719287 9:-0.9126895002807411 10:0.8268337129840548 11:-0.674908424908425 12:0.760511486779367 13:0.7774077868852458 14:0.7759856630824371 15:0.6153846153846154 16:0.7479224376731302 17:-0.1076053751819871 18:-0.2534287911431148 19:0.7838511300342486 20:0.7682009331199302 21:0.8365562334320513 22:0.8469477375470689 23:0.763246807060252 24:0.31793065130220666 25:0.004897952574399955 26:-0.18152524167561757 27:-0.3584905660377359 28:0.10498566632194883 29:0.8542453760645023 30:0.9308332905980767 
0.2898533328709442 1:-0.02549906635609389 2:0.09677419354838679 3:0.27574750830564776 4:0.03752759381898452 5:0.07843137254901955 6:-0.010174057356348687 7:-0.9228855721393034 8:-0.9770329277578357 9:-0.7956204379562044 10:0.3229588778323944 11:-0.6714285714285715 12:0.09731252709146077 13:0.033827738745771496 14:0.026331385996105183 15:-0.15384615384615374 16:-0.08033240997229918 17:-0.18639388248688327 18:-0.3221345223117228 19:0.05714680859074517 20:0.18552648906037206 21:0.20935542786618466 22:0.05753272866343906 23:0.05758227307145458 24:-0.48108072139131863 25:-0.648703164939233 26:-0.8968850698174006 27:-1.0 28:0.10374472215042174 29:0.38822440137818726 30:0.43005885086960105 
-0.7226674979368279 1:0.5467479519908554 2:0.32258064516129026 3:0.7585825027685489 4:0.5187637969094927 5:0.5392156862745103 6:0.5797742154563743 7:-0.7388059701492538 8:-0.980475632637123 9:-0.9153284671532846 10:0.3320728929384966 11:-0.6749574829931972 12:0.3183788469874296 13:0.494108606557377 14:0.5777201005232151 15:0.846153846153846 16:0.45983379501385047 17:0.007121562685852734 18:-0.22671188874743498 19:0.6364554284415858 20:0.38765501473847563 21:0.5958562357579749 22:0.7029934770006592 23:0.5964909016378817 24:-0.3021323929685139 25:-0.6563465553437902 26:-0.8005540166204986 27:-0.3584905660377359 28:0.18040290665413639 29:0.7622834735700694 30:0.8584316187437226 
1.0 1:-0.9681995102156707 2:-0.6792367105860971 3:-0.46890646202798214 4:-0.5453782296427572 5:-0.6743993371996685 6:-0.8094059446676223 7:-0.8557213930348259 8:-0.9884027162680838 9:-0.9426485922836287 10:-0.7991302547111205 11:-0.6772131671460531 12:-0.6115903473332074 13:-0.6475720553325297 14:-0.6547628391282736 15:-0.5079271873165003 16:-0.6642067200947326 17:-0.7929819453460961 18:-0.7530492624633723 19:-0.8889342917032418 20:-0.6903654050385525 21:-0.8140425589376075 22:-0.7917881509926088 23:-0.9473361119725437 24:-0.7399637944017083 25:-0.8878980649835828 26:-0.9467637008847672 27:-0.3584905660377359 28:-0.009665892042687863 29:-0.2163927437393547 30:-0.06212017836120787 
1.0 1:-0.9440592818872835 2:-0.6258064516129032 3:-0.4485049833887045 4:-0.5997852156792556 5:-0.6588235294117646 6:-0.8483615335189549 7:-0.9618086040386303 8:-0.9878178714008806 9:-0.9322627737226277 10:-0.6384936248261988 11:-0.6743386243386243 12:-0.635890767230169 13:-0.6381894409158236 14:-0.6909111861642244 15:-0.7183431952662721 16:-0.6786703601108033 17:-0.6646114122653497 18:-0.6560389243588807 19:-0.9697637305781459 20:-0.7668449773354385 21:-0.8403303400088427 22:-0.8475007105801815 23:-0.9489800851347147 24:-0.8390646641710392 25:-0.9330643512928074 26:-0.9834274054502862 27:-0.3584905660377359 28:0.05171213105805439 29:-0.3847989438245478 30:-0.2337147423159016 
-0.06105300385604957 1:-0.9535895714756664 2:-0.6258064516129032 3:-0.4485049833887045 4:-0.649952696310312 5:-0.6588235294117646 6:-0.8645044290082035 7:-0.8746268656716418 8:-0.9883040935672515 9:-0.5875912408759124 10:-0.6744853225598488 11:-0.6748511904761905 12:-0.676703010903271 13:-0.6486472895504377 14:-0.7219370794883387 15:-0.7467455621301777 16:-0.6520775623268698 17:-0.5882378193191939 18:-0.6034872966418908 19:-0.94678130336641 20:-0.807645121636837 21:-0.836118655952732 22:-0.8420646839495673 23:-0.9573455058055607 24:-0.818928220412713 25:-0.9243230342088126 26:-0.9823225658136386 27:-0.3584905660377359 28:0.1222939440624009 29:-0.29900337971951174 30:-0.13567755398246606 
0.44428156472348845 1:-0.9920568271507497 2:-0.7688172043010754 3:-0.4485049833887045 4:-0.644223693892568 5:-0.7279411764705882 6:-0.8069582351681304 7:-0.4626865671641791 8:-0.9886947419276915 9:-0.9313868613138686 10:-0.8393461074634867 11:-0.6710758377425043 12:-0.7549264779433831 13:-0.6983706899795552 14:-0.7142605323462013 15:-0.5905325443786983 16:-0.7185595567867037 17:-0.6076535182079343 18:-0.7549630625995183 19:-0.9535746081342154 20:-0.8092797819122809 21:-0.8930362550498808 22:-0.8586570298079131 23:-0.9693803599820331 24:-0.803819086810696 25:-0.9212568374368991 26:-0.9718265892654866 27:-0.8490566037735849 28:0.2533894446611389 29:-0.1723491883621917 30:-0.032619165230039715 
0.4295144208534294 1:-0.9172361463495602 2:-0.6258064516129032 3:-0.4071191267204559 4:-0.484957426679281 5:-0.5798319327731092 6:-0.807152161624106 7:-0.6716417910447761 8:-0.989855461894952 9:-0.9311131386861313 10:-0.7444986461512013 11:-0.6721804511278195 12:-0.7243172951885566 13:-0.6208387810519966 14:-0.6527279968140183 15:-0.46272189349112436 16:-0.6952908587257618 17:-0.7615656730195165 18:-0.8169041889325108 19:-0.8785626914384983 20:-0.6982535825165344 21:-0.80349302887503 22:-0.7988655745374275 23:-0.9463851180415852 24:-0.808445651638855 25:-0.9461732264725735 26:-0.987797515672126 27:-0.3584905660377359 28:0.016569891946213833 29:-0.337689986635918 30:-0.17285456019251144 
0.6539219732120858 1:-0.9710132336041134 2:-0.6258064516129032 3:-0.5312766967252018 4:-0.6087038789025545 5:-0.6193277310924369 6:-0.9495614183858297 7:-0.8557213930348259 8:-0.9891440121732415 9:-0.9197080291970803 10:-0.8774933266645286 11:-0.6677018633540373 12:-0.688649451978451 13:-0.6956330284463343 14:-0.7375848896434636 15:-0.5550295857988164 16:-0.7119113573407203 17:-0.7342246566886458 18:-0.8121575304317766 19:-0.9014017999632081 20:-0.6640681049755027 21:-0.8245868146683292 22:-0.8084009991799406 23:-0.9169485550864078 24:-0.7753082935082483 25:-0.9309045478732859 26:-0.986465714451067 27:-0.3584905660377359 28:-0.1120965969078781 29:-0.1979267265726108 30:-0.051782442146579344 
-0.42169780340129165 1:-0.9507847048978119 2:-0.7074679628811313 3:-0.6270877895599146 4:-0.7008074027034383 5:-0.742143432715552 6:-0.8567823149928454 7:-0.8557213930348259 8:-0.9900956758352684 9:-0.9409422694094227 10:-0.8327712356222383 11:-0.6736694677871149 12:-0.7128420969038802 13:-0.6694801865676306 14:-0.7218356876800902 15:-0.5149735760422784 16:-0.6774016197585162 17:-0.7166712471883174 18:-0.7097901171858862 19:-0.8604924377380299 20:-0.675349065505754 21:-0.8209455321001514 22:-0.865473696788061 23:-0.9139356995062906 24:-0.692564757594224 25:-0.9151228931781901 26:-0.9787190296304572 27:-0.24528301886792458 28:-0.16513115684570867 29:-0.18182422427541145 30:-0.04000634366400946 
0.292535342432426 1:-0.9551032276824659 2:-0.7134724857685011 3:-0.36329880789525126 4:-0.5286326451110247 5:-0.6669550173010383 6:-0.9006064419610322 7:-0.764179104477612 8:-0.9875996457041629 9:-0.934436913451512 10:-0.9508383878280914 11:-0.6640574037834313 12:-0.6460938281484445 13:-0.6862942755257623 14:-0.7318878900052882 15:-0.5479289940828402 16:-0.6886426592797783 17:-0.6972396544959857 18:-0.7836654717772503 19:-0.8638141983898086 20:-0.8832333181854957 21:-0.8766046762442931 22:-0.8654192877176567 23:-0.9135875504223452 24:-0.8391436348119038 25:-0.9715403993792175 26:-0.9961330612717334 27:-0.24528301886792458 28:-0.1985078721005502 29:-0.2085387255142519 30:-0.06276523200895945 
0.31201052181062305 1:-0.9741700901921897 2:-0.6645161290322582 3:-0.48989084005695316 4:-0.5674550614947967 5:-0.6983193277310925 6:-0.6863367624146406 7:-0.8641791044776119 8:-0.987790852981287 9:-0.8983717012914093 10:-0.8044218142838004 11:-0.6721014492753623 12:-0.6801040312093629 13:-0.6871710031583698 14:-0.7481903155527443 15:-0.5763313609467455 16:-0.6520775623268698 17:-0.695520449425405 18:-0.6873480472094603 19:-0.9628859940631678 20:-0.7692574886997467 21:-0.9557088207555621 22:-0.940150556694071 23:-0.9931820009033403 24:-0.7023064970164257 25:-0.9138191021612843 26:-0.9801128865403435 27:-0.6226415094339623 28:0.2849113540936836 29:-0.20833758948890058 30:-0.05193340455940665 
-1.0 1:-0.891384840913927 2:-0.6410722398909586 3:-0.34649759019231696 4:-0.5047103814942636 5:-0.6354598177299089 6:-0.681412749846275 7:-0.9689390883420734 8:-0.9891440121732415 9:-0.9167024474023185 10:-0.7000075570285764 11:-0.6751412429378532 12:-0.5372611783535062 13:-0.6151366538311991 14:-0.6473047712297232 15:-0.4698224852071008 16:-0.638781163434903 17:-0.6668411419427017 18:-0.7491937447452766 19:-0.8661630055050282 20:-0.7160095242626077 21:-0.8019796353932425 22:-0.7826037762306303 23:-0.8854016577420115 24:-0.7445995165348951 25:-0.9216341963585041 26:-0.9850970855727976 27:-0.3584905660377359 28:0.4401402626518618 29:-0.3011965996554249 30:-0.15935515528494548 
1.0 1:-0.19466485159627223 2:-0.09139784946236573 3:0.1952750092284974 4:-0.002575423105224295 5:-0.07516339869281019 6:-0.2686911406118846 7:-0.8606965174129353 8:-0.9859265820293278 9:-0.8112617309697602 10:-0.12792389591883835 11:-0.6742063492063493 12:-0.0671618751812596 13:-0.08093455531173377 14:-0.09487858286760142 15:-0.02933038184836756 16:-0.02126387532633167 17:-0.20771464249673532 18:-0.16908565043893953 19:-0.11358493369925149 20:-0.13617604238976622 21:-0.03466680733423888 22:-0.11190952921802721 23:-0.14790681340855705 24:-0.2697573473298067 25:-0.4432701643873046 26:-0.5703051300352668 27:-0.3584905660377359 28:0.1218607993459575 29:-0.41797106360727654 30:-0.2649633386045953 
1.0 1:-0.8091118814106736 2:-0.5265788278055432 3:-0.38730054747087195 4:-0.46404253334577006 5:-0.5186412593206295 6:-0.7433270046441819 7:-0.808457711442786 8:-0.987978452573937 9:-0.908237747653806 10:-0.6453131043967852 11:-0.6768707482993197 12:-0.46308778129622097 13:-0.5288477145318567 14:-0.564625850340136 15:-0.4163241338813858 16:-0.5355564483728406 17:-0.747140829255811 18:-0.7875028575298446 19:-0.7632646724472488 20:-0.6274613790748034 21:-0.7422838667335943 22:-0.697802672223717 23:-0.8224187065854384 24:-0.7097497006517801 25:-0.8733384973466463 26:-0.944276023356018 27:-0.3584905660377359 28:0.0843880338086449 29:-0.1776272386995561 30:-0.025267646197433158 
-0.5129361617870101 1:-0.14667046872215284 2:-0.011612903225806437 3:0.15021040974529343 4:0.03752759381898452 5:0.004705882352941337 6:-0.13376171954590665 7:-0.22388059701492535 8:-0.9882390330958197 9:-0.9427940926837549 10:-0.003901125711385456 11:-0.673054587688734 12:-0.10533159947984416 13:-0.07191812540520537 14:-0.06043475820483846 15:-0.060556464811784005 16:-0.015972181293098298 17:-0.27201388409907656 18:-0.14138312167515898 19:-0.02130352566435567 20:-0.06098425708417121 21:0.05230454614026825 22:-0.010454154114290515 23:-0.05906834055701771 24:-0.2625641896310129 25:-0.4318063997524778 26:-0.5546703796137193 27:-0.3584905660377359 28:0.20949707054709577 29:-0.43139867068688675 30:-0.32658199191430803 
-0.4468258037269954 1:-0.973496561866529 2:-0.703225806451613 3:-0.4485049833887045 4:-0.649952696310312 5:-0.6983193277310925 6:-0.8759490190938646 7:-0.7701492537313432 8:-0.9891440121732415 9:-0.8421532846715328 10:-0.9202255603166766 11:-0.6709067188519244 12:-0.7923377013103932 13:-0.7726372114741478 14:-0.8157339993977077 15:-0.62603550295858 16:-0.7285318559556787 17:-0.6157432174988537 18:-0.6426822107444108 19:-0.932772368416526 20:-0.9173591577335154 21:-0.8908859319275321 22:-0.9451205291983864 23:-0.9869610160804341 24:-0.778359102711623 25:-0.9128714730666194 26:-0.9718946709152696 27:-0.3584905660377359 28:0.08289919438328242 29:-0.3025693619915363 30:-0.14242077483409954 
0.42005510456393924 1:-0.9750687618090933 2:-0.703225806451613 3:-0.4485049833887045 4:-0.6087038789025545 5:-0.6983193277310925 6:-0.8656781588838983 7:-0.4701492537313433 8:-0.989301066390436 9:-0.8772395487723955 10:-0.8963944475430432 11:-0.6772237196765498 12:-0.5746724017205164 13:-0.7774087623138102 14:-0.8176330087403868 15:-0.675739644970414 16:-0.69196675900277 17:-0.8291935093680975 18:-0.8930903689380263 19:-1.0 20:-0.9418163890390072 21:-0.9111492767097751 22:-0.9116837376229664 23:-1.0 24:-0.8939224991887587 25:-0.9744812453503905 26:-0.9964868338644088 27:-0.3584905660377359 28:-0.05934898814720735 29:-0.22207650582838434 30:-0.06550812261709726 
1.0 1:-0.8570442967841465 2:-0.6029077691958201 3:-0.34649759019231696 4:-0.5047103814942636 5:-0.5965202982601492 6:-0.7515041605834639 7:-0.8540630182421227 8:-0.9891440121732415 9:-0.9294403892944039 10:-0.5388687477942828 11:-0.6755693581780539 12:-0.6858416303517012 13:-0.5738706044299837 14:-0.5717488003922805 15:-0.5713446858485025 16:-0.6444143705990568 17:-0.636119752567978 18:-0.6883725747436794 19:-0.8419843376235567 20:-0.6123827225937772 21:-0.7313603591598059 22:-0.7387315866595738 23:-0.8717987681331562 24:-0.771752365987552 25:-0.9109485506012756 26:-0.9716404761722592 27:-0.3584905660377359 28:0.11410546633679308 29:-0.1823598887534894 30:-0.024209297390733964 
0.7231058625426896 1:-0.8933982047160757 2:-0.6332302253645604 3:-0.5080325854457746 4:-0.5425927605914905 5:-0.6285253827558421 6:-0.7490710804420209 7:-0.808457711442786 8:-0.987978452573937 9:-0.948905109489051 10:-0.6628164352946233 11:-0.6760594145915246 12:-0.6588411637995216 13:-0.6715822042568058 14:-0.6751740953182832 15:-0.5783910745742806 16:-0.647713095515003 17:-0.6345927379807171 18:-0.632343618247506 19:-0.8811924672814049 20:-0.7068128483180884 21:-0.7999230439402102 22:-0.7951316660706318 23:-0.9316668365639965 24:-0.7722592857368895 25:-0.9222295616480354 26:-0.9835813283102552 27:-0.3584905660377359 28:0.13417610181573858 29:-0.1796730783439231 30:-0.03190901776500721 
-0.4854804724489959 1:-0.9506487232036408 2:-0.5647432985006816 3:-0.46890646202798214 4:-0.5453782296427572 5:-0.5965202982601492 6:-0.8630402667005057 7:-0.8738127544097694 8:-0.9886345304514836 9:-0.9226277372262773 10:-0.8810031176847257 11:-0.6721981721981722 12:-0.6048402306951629 13:-0.6750643184727625 14:-0.755230978850443 15:-0.6559013505578393 16:-0.6345181958512192 17:-0.7459856608159641 18:-0.7494794859243648 19:-0.9519963643530807 20:-0.6909397341011687 21:-0.9300622322005198 22:-0.9278233790801913 23:-0.9629572357677381 24:-0.7547551994635016 25:-0.9219094950427367 26:-0.9758695279711328 27:-0.24528301886792458 28:0.17916115533572063 29:-0.28239063665398834 30:-0.14095887962298403 
-0.6608307516275707 1:0.12330165447819286 2:0.08405270331667425 3:0.4695615553787844 4:0.18664303703012797 5:0.14333057166528596 6:0.08995043762522381 7:-0.929637526652452 8:-0.9888389521299668 9:-0.9051094890510949 10:0.09182417041186963 11:-0.6708860759493671 12:0.1533978712132158 13:0.17611759724154608 14:0.20490686051794627 15:0.288888888888889 16:0.16934441366574338 17:-0.1952235876829167 18:0.022481482645570594 19:0.2407653933873406 20:0.27759631657101225 21:0.3628719285879509 22:0.2909698807271768 23:0.22799039075303718 24:-0.17627563536610935 25:-0.36802481195678116 26:-0.5209074638343942 27:-0.3584905660377359 28:0.41530238220775617 29:-0.44585203680751806 30:-0.318564732207514 
-1.0 1:-0.9233286405527228 2:-0.6332302253645604 3:-0.5477176534838213 4:-0.5821464211194776 5:-0.6285253827558421 6:-0.7665792801923064 7:-0.900497512437811 8:-0.989855461894952 9:-0.9226277372262773 10:-0.7377962687550594 11:-0.6758241758241759 12:-0.668966338756589 13:-0.691294258552287 14:-0.7058710028241153 15:-0.6065766294773929 16:-0.6642067200947326 17:-0.5719148910305972 18:-0.6278430982026175 19:-0.9168086981025927 20:-0.7224459751904645 21:-0.8434481604008518 22:-0.8370555412534111 23:-0.9620322773122033 24:-0.7712531539454072 25:-0.9222295616480354 26:-0.9835813283102552 27:-0.3584905660377359 28:-0.10480223756801799 29:-0.3118071393845886 30:-0.16493928552749426 
-1.0 1:-0.9406049525020868 2:-0.6645161290322582 3:-0.365733270052207 4:-0.6087038789025545 5:-0.6588235294117646 6:-0.8329585207396303 7:-0.8710990502035278 8:-0.9881522171930993 9:-0.6423357664233577 10:-0.8279624703314908 11:-0.6756206756206756 12:-0.6801040312093629 13:-0.7307547027272041 14:-0.7781253037170548 15:-0.6828402366863906 16:-0.67202216066482 17:-0.7060278560965096 18:-0.7329718884574636 19:-0.912686498696416 20:-0.9329831610688293 21:-0.858851357438069 22:-0.8586652314103335 23:-0.9351338730994057 24:-0.8262672626325442 25:-0.9566995802604178 26:-0.9944793103583566 27:-0.3584905660377359 28:-0.12451082331529817 29:-0.20531457349149385 30:-0.04899010086152322 
-0.3540064579302584 1:-0.9016256216925567 2:-0.6029077691958201 3:-0.46890646202798214 4:-0.5860460777912507 5:-0.5965202982601492 6:-0.8235513115925259 7:-0.8557213930348259 8:-0.9903022870250505 9:-0.9321597252039502 10:-0.631048126337906 11:-0.6755952380952381 12:-0.6149654056522302 13:-0.5996915346152889 14:-0.6267664821120669 15:-0.5713446858485025 16:-0.647713095515003 17:-0.7511066829787897 18:-0.7639310087498579 19:-0.8734274740785687 20:-0.6047108578166678 21:-0.8084624925780534 22:-0.805477893792226 23:-0.9141439479220842 24:-0.7290052233039728 25:-0.8951360486997271 26:-0.9738793859481334 27:-0.3584905660377359 28:-0.16063128884577693 29:-0.1929758172179552 30:-0.045356687081352765 
-1.0 1:-0.889109101019759 2:-0.5589924878479895 3:-0.428662449369681 4:-0.5030391000635036 5:-0.5527800161160354 6:-0.85331803372057 7:-0.8272921108742004 8:-0.988357259443711 9:-0.9416058394160584 10:-0.8805657068877929 11:-0.6680350301039957 12:-0.5812148224620057 13:-0.6305490102191253 14:-0.6973251577357149 15:-0.39518496770405176 16:-0.6180245712714892 17:-0.6575645367169975 18:-0.6397869848078801 19:-0.8689521591933926 20:-0.6980193339477049 21:-0.8651560445363037 22:-0.8890993050509891 23:-0.8779406946900125 24:-0.7272618522204821 25:-0.9337083379619665 26:-0.9915418964022528 27:-0.3584905660377359 28:0.10953298712690995 29:-0.19469854345988624 30:-0.03975070089180355 
1.0 1:-0.8685760036965191 2:-0.5265788278055432 3:-0.38730054747087195 4:-0.5047103814942636 5:-0.5186412593206295 6:-0.80673176925051 7:-0.8272921108742004 8:-0.988357259443711 9:-0.9332638164754953 10:-0.763621104947085 11:-0.6732804232804233 12:-0.5170887144005799 13:-0.611173128300325 14:-0.6909111861642244 15:-0.3599530240751615 16:-0.6147258463555435 17:-0.6985932293185004 18:-0.70916416833294 19:-0.8707884684698189 20:-0.6222829666656619 21:-0.8924061184933938 22:-0.8808181774062971 23:-0.8886016881580959 24:-0.6851930860308975 25:-0.886318323194523 26:-0.9743769214538832 27:-0.3584905660377359 28:0.230473807449052 29:-0.2026722113066688 30:-0.04940347938935952 
0.14862134288844706 1:-0.5122028807874215 2:-0.44516129032258067 3:-0.15880398671096363 4:-0.20309050772626913 5:-0.42843137254901975 6:-0.42358901849888086 7:-0.9565807327001357 8:-0.9905566884782903 9:-0.939888364104766 10:-0.3828535435123168 11:-0.675974025974026 12:-0.3987093324258959 13:-0.41129191246720564 14:-0.45150810119683926 15:-0.36304816678648477 16:-0.34688171486266084 17:-0.3348084660193814 18:-0.2697029082468363 19:-0.6354188803106052 20:-0.43862069972204265 21:-0.5498897134575008 22:-0.6522212084621004 23:-0.5682102952807463 24:-0.7394044152565314 25:-0.8880000116420609 26:-0.9580333604773354 27:-0.3584905660377359 28:0.004171980206192583 29:-0.5297943148661546 30:-0.40182533794071007 
-0.25917436572657937 1:-0.05235367805188895 2:-0.016129032258064613 3:0.3562200073827979 4:0.11773362766740259 5:0.0016339869281045694 6:0.04384655164741047 7:-0.8606965174129353 8:-0.9859265820293278 9:-0.8112617309697602 10:0.15928264563376926 11:-0.6771428571428572 12:-0.025811340524459547 13:0.042805751180585494 14:0.08353132322564316 15:0.19645821804095176 16:0.022260308097012738 17:-0.143502589293386 18:-0.09601761978561751 19:0.027175282046612903 20:0.011233865189577807 21:0.10731162080634316 22:0.06339095205582201 23:-0.0227303194113333 24:-0.24214352279953077 25:-0.40297660238767163 26:-0.5202510681218122 27:-0.3584905660377359 28:0.29451400185836496 29:-0.4122962512172438 30:-0.25891070081256895 
-1.0 1:-0.10914510031986058 2:-0.053763440860215006 3:0.27574750830564776 4:0.07763061074319366 5:-0.03676470588235281 6:0.07819909787595458 7:-0.8606965174129353 8:-0.9859265820293278 9:-0.7737226277372262 10:0.12114854334012715 11:-0.6768149882903982 12:-0.14986294449485926 13:9.367681498828606E-4 14:0.03979231670065264 15:0.16989485334809062 16:-0.04302596703800399 17:-0.2520112596835338 18:-0.15796539445248248 19:-0.02465469394762443 20:-0.06352426876464601 21:0.07528847849800524 22:0.03467059812558859 23:-0.07767609636055228 24:-0.25622235921836256 25:-0.4296373544460659 26:-0.5490000677849246 27:-0.3584905660377359 28:0.1065186386914716 29:-0.420671958440174 30:-0.26393161244298124 
-1.0 1:-0.9184878630461424 2:-0.6177178623013961 3:-0.29716864184063074 4:-0.4221607195809033 5:-0.6093064091308165 6:-0.7958057116020304 7:-0.9001865671641791 8:-0.9834742832182681 9:-0.7408759124087592 10:-0.709392614269325 11:-0.6763975155279502 12:-0.6422069477986254 13:-0.7078003963249864 14:-0.7604544932453328 15:-0.5091575091575093 16:-0.666798575385833 17:-0.824696835078889 18:-0.7392709640891465 19:-0.7676194776978772 20:-0.7053905696089702 21:-0.7843733883307837 22:-0.7413987581612325 23:-0.879658113471827 24:-0.7203969669387027 25:-0.8622500656870736 26:-0.944429382034084 27:-0.3584905660377359 28:-0.04201876191871634 29:-0.0873389689167986 30:-0.00364019039643948 
-0.2839359702607746 1:-0.8023306840087101 2:-0.49638902262879137 3:-0.2106907323845888 4:-0.37906494019966397 5:-0.5267778753292359 6:-0.5526236881559221 7:-0.9582089552238806 8:-0.9869602583125062 9:-0.9375296236610106 10:-0.6319176246878766 11:-0.6776753712237584 12:-0.46964889466840065 13:-0.5508118719205419 14:-0.6717716640451815 15:-0.572923076923077 16:-0.5608642659279778 17:-0.7413466511891967 18:-0.733970296783642 19:-0.5728111241470323 20:-0.6944073299631961 21:-0.6969505160238496 22:-0.782157024870326 23:-0.6948286526327196 24:-0.8120726137290264 25:-0.9484233302267446 26:-0.9850860289671832 27:-0.3584905660377359 28:0.036218908630208935 29:-0.2748554367496693 30:-0.1826519615483192 
1.0 1:-0.8254193532294876 2:-0.5368319691863264 3:-0.2106907323845888 4:-0.37906494019966397 5:-0.5680421422300262 6:-0.6331989693775868 7:-0.7574626865671642 8:-0.9836765998459288 9:-0.8637469586374695 10:-0.7243511339026223 11:-0.6797488226059655 12:-0.5510013003901171 13:-0.6026510761858879 14:-0.7177626314191893 15:-0.6246153846153848 16:-0.5885207756232687 17:-0.7202833050679893 18:-0.7339317734385719 19:-0.5824307129781974 20:-0.7624598872960172 21:-0.7466445245213104 22:-0.7952952438422601 23:-0.711670782429012 24:-0.8154560964996088 25:-0.9543320172969774 26:-0.984057479240782 27:-0.3584905660377359 28:0.10518386468842511 29:-0.17202143902494205 30:-0.0741852785291015 
-0.023581465995374955 1:-0.9340505094967563 2:-0.778225806451613 3:-0.31270764119601335 4:-0.3985927152317881 5:-0.6847426470588236 6:-0.8113943028485758 7:-0.5298507462686568 8:-0.983407793859521 9:-0.8394160583941606 10:-0.7782357101881916 11:-0.6763038548752835 12:-0.734928478543563 13:-0.7916153696624117 14:-0.8536758871651755 15:-0.6910769230769231 16:-0.7268033240997231 17:-0.6325491212747163 18:-0.7074228652832055 19:-0.6757332540960655 20:-0.9322067712110689 21:-0.784351241728134 22:-0.8935521551373296 23:-0.8280941306660818 24:-0.9171514366066595 25:-0.9806824078981168 26:-0.9915144647571904 27:-0.3584905660377359 28:-0.14748255636585528 29:-0.288296236454589 30:-0.24247443778972144 
0.7561323637912926 1:-0.9484584903050473 2:-0.47800586510263954 3:-0.40461089298298614 4:-0.3999598635360224 5:-0.5080213903743317 6:-0.5995001275372107 7:-0.8395522388059702 8:-0.9840566873339238 9:-0.8795620437956204 10:-0.8311000937960605 11:-0.673955296404276 12:-0.49440832249674926 13:-0.7070141162161814 14:-0.8049478671268493 15:-0.6984615384615384 16:-0.6576620498614957 17:-0.7177440971583876 18:-0.6862648681582643 19:-0.7461961280748928 20:-0.7332124270567533 21:-0.8575132750822846 22:-0.891965537636091 23:-0.8217555843164877 24:-0.7193461642360419 25:-0.8728723557697551 26:-0.9331971181733832 27:-0.6226415094339623 28:0.4514429490783778 29:-0.07794504487825504 30:-8.009934129111773E-4 
0.5132573598731025 1:-0.925024716487351 2:-0.5241935483870969 3:-0.31270764119601335 4:-0.3985927152317881 5:-0.5119485294117647 6:-0.6873752064060137 7:-0.8208955223880597 8:-0.9860552792350844 9:-0.9169006176305446 10:-0.8583699094394136 11:-0.6752725186460127 12:-0.57222366710013 13:-0.7178609096472611 14:-0.8065795123377274 15:-0.5507692307692308 16:-0.6230914127423823 17:-0.845867246072608 18:-0.6652507940718769 19:-0.7790141188377641 20:-0.8748366483302182 21:-0.9632800892612338 22:-0.9663629731371968 23:-0.8599486935317361 24:-0.822700382744385 25:-0.9295971174612327 26:-0.969662141645767 27:-0.3584905660377359 28:0.20408234533049874 29:-0.13315319904773104 30:-0.06668881009257432 
-1.0 1:-0.8238188439907836 2:-0.5007444168734492 3:-0.20337337081523132 4:-0.33265410086602143 5:-0.4461538461538459 6:-0.629537875898323 7:-0.8474295190713101 8:-0.9867453153170131 9:-0.9152161706906232 10:-0.653254828653462 11:-0.6742758959253805 12:-0.466111833550065 13:-0.6296277051778341 14:-0.6778216663009291 15:-0.44000000000000006 16:-0.6058060941828254 17:-0.7857506823651765 18:-0.6857995510219959 19:-0.6140738290332376 20:-0.7370819078822166 21:-0.7533328334094924 22:-0.7427808591046912 23:-0.7258969908111516 24:-0.7358965822190493 25:-0.8352567009615448 26:-0.8727169713578569 27:-0.6226415094339623 28:0.22091723349356074 29:-0.02720651733744439 30:0.035813248033160106 
-0.12073664042211354 1:-0.805160948820591 2:-0.4922861150070127 3:-0.3435408541576388 4:-0.4227852960936749 5:-0.4825234441602727 6:-0.6608525548126938 7:-0.9522388059701492 8:-0.9904677548610232 9:-0.9303761931499157 10:-0.5232783868397726 11:-0.6746031746031746 12:-0.5227048114434331 13:-0.516243701089858 14:-0.6092302324086574 15:-0.46953846153846157 16:-0.46406648199445977 17:-0.6914432435853304 18:-0.7315611477981074 19:-0.6058752914020271 20:-0.5710613630100223 21:-0.7315953947811639 22:-0.7632326646656113 23:-0.6902675679376822 24:-0.6713768301830556 25:-0.8508764292347947 26:-0.9276136943286436 27:-0.3584905660377359 28:-0.10265237367440738 29:-0.21947696595452182 30:-0.11296173076851068 
0.8382193808687394 1:-0.7127472720211472 2:-0.5053763440860217 3:-0.10362284448663195 4:-0.19163250289078093 5:-0.4481792717086833 6:-0.5324597441538971 7:-0.9001865671641791 8:-0.9831671133708335 9:-0.9309887193098871 10:-0.47323321105377103 11:-0.6730914588057446 12:-0.45196358907672307 13:-0.4850820972166249 14:-0.5753512483742742 15:-0.25538461538461554 16:-0.49172299168975087 17:-0.7760940172753231 18:-0.8249649648309344 19:-0.4965723915278628 20:-0.5337414639690821 21:-0.5883000816821444 22:-0.629727703809799 23:-0.5987262271998379 24:-0.7054307264271993 25:-0.8561654531707988 26:-0.9348782178430688 27:-0.3584905660377359 28:-0.31212030179441497 29:-0.07263665656285556 30:0.0012571569617865208 
0.8970048788016963 1:-0.8641208236159785 2:-0.5841191066997519 3:-0.20337337081523132 4:-0.4214977075904228 5:-0.6162895927601809 6:-0.6246942555132997 7:-0.835820895522388 8:-0.9798147779926851 9:-0.8112617309697602 10:-0.6683795094559519 11:-0.6758241758241759 12:-0.6246620017751358 13:-0.6308439587128112 14:-0.7218955505486253 15:-0.49450549450549464 16:-0.666798575385833 17:-0.7868457071772432 18:-0.8051797376951806 19:-0.5958873954516587 20:-0.6531695943747067 21:-0.6794642096955037 22:-0.7570249791502317 23:-0.711670782429012 24:-0.7845796749605681 25:-0.9238657799794168 26:-0.97433238268084 27:-0.3584905660377359 28:-0.08884672735774646 29:-0.3044986127824637 30:-0.1958949787329164 
-0.39176723471718367 1:-0.7711520021916806 2:-0.4709677419354842 3:-0.365733270052207 4:-0.40245979186376546 5:-0.500840336134454 6:-0.7175615454506125 7:-0.9011194029850746 8:-0.9826456389786771 9:-0.9321831453218314 10:-0.6765880187275679 11:-0.6782032400589102 12:-0.4913204119966147 13:-0.5999274855618575 14:-0.685802806633862 15:-0.4652014652014653 16:-0.47130985358132194 17:-0.8230828987099564 18:-0.8200704305210238 19:-0.6430943184322062 20:-0.6600448381172627 21:-0.7654834433475051 22:-0.7570875392141466 23:-0.7284596292652328 24:-0.6393701821367896 25:-0.8503993105943949 26:-0.9390718174747212 27:-0.24528301886792458 28:-0.13972652869374602 29:-0.04364013729977745 30:0.023541132935178677 
-1.0 1:-0.5818074191002369 2:-0.3763440860215057 3:-0.057638559299689085 4:-0.19163250289078093 5:-0.22875816993464038 6:-0.49559100871604067 7:-0.8756218905472637 8:-0.9858206919233256 9:-0.930312629114447 10:-0.38729460707563446 11:-0.6719187675070029 12:-0.3104811443433031 13:-0.41881591312519595 14:-0.4538073293833661 15:-0.3956923076923078 16:-0.3603545706371192 17:-0.7030002759366443 18:-0.7673581943603937 19:-0.444341733071395 20:-0.43814077180417277 21:-0.4831785630801907 22:-0.5379350913115195 23:-0.500105514212699 24:-0.7491269263126596 25:-0.8819167700091608 26:-0.9599854109638132 27:-0.24528301886792458 28:-0.3367592422728577 29:-0.06420984150680098 30:0.012716152314097284 
-1.0 1:-0.711920033593795 2:-0.3548387096774195 3:-0.22217607973421938 4:-0.3083609271523178 5:-0.38235294117647056 6:-0.4617576707829292 7:-0.7201492537313433 8:-0.9833135949416639 9:-0.9127737226277373 10:-0.7626613981967058 11:-0.6726874657909141 12:-0.480260078023407 13:-0.5237464792388666 14:-0.631128121013304 15:-0.3956923076923078 16:-0.48480886426592784 17:-0.7103777534132492 18:-0.7256825537856211 19:-0.5722005099662615 20:-0.616023507365441 21:-0.6894757414745794 22:-0.7286453016052896 23:-0.6441323941162487 24:-0.6901054941435689 25:-0.8476519450800715 26:-0.9178785558342312 27:-1.0 28:0.23331710809028872 29:-0.06714993542438075 30:0.01807516195561165 
-1.0 1:-0.77844809103653 2:-0.45905707196029766 3:-0.20337337081523132 4:-0.33265410086602143 5:-0.4461538461538459 6:-0.5815586488839446 7:-0.9640685461580984 8:-0.9885979378416336 9:-0.891970802919708 10:-0.6900245833239362 11:-0.6717235566793089 12:-0.4767230169050716 13:-0.5926840040528955 14:-0.672386181651796 15:-0.3513846153846154 16:-0.6127202216066483 17:-0.6532258382555987 18:-0.6930043316107244 19:-0.5550728083269897 20:-0.6903024525232272 21:-0.6753894010482188 22:-0.7144066001284273 23:-0.6581444421635823 24:-0.7140110210335554 25:-0.8435126273335316 26:-0.9006902599774066 27:-0.3584905660377359 28:0.2732227880538467 29:-0.17958942851957282 30:-0.10231422459746276 
-1.0 1:-0.6885962681121652 2:-0.47800586510263954 3:-0.009564079331521369 4:-0.22496488059401953 5:-0.424242424242424 6:-0.5164694496218902 7:-0.960820895522388 8:-0.97987781335877 9:-0.9311389615755405 10:-0.3687545529179146 11:-0.6630347054075867 12:-0.5294913677355241 13:-0.4958456777931399 14:-0.5314715081524253 15:-0.4183864915572233 16:-0.4386865752314033 17:-0.6501640124486675 18:-0.6945357005169468 19:-0.5722660926857206 20:-0.5425488561938355 21:-0.5463005709799628 22:-0.6301377516544462 23:-0.6390820767465717 24:-0.7005310123169203 25:-0.8681711111474504 26:-0.9423693520582016 27:-0.3584905660377359 28:0.04636176779857082 29:-0.40996751867080305 30:-0.2984973090708334 
1.0 1:-0.12094451628071001 2:0.02150537634408578 3:0.07456626061277216 4:0.03752759381898452 5:0.04003267973856217 6:-0.1868029213176864 7:-0.9057835820895522 8:-0.9797435206223284 9:-0.867570385818561 10:-0.09640760789605862 11:-0.6770186335403727 12:-0.03381014304291308 13:-0.005815484025368023 14:-0.05459057071960316 15:-0.11312217194570151 16:-0.007251099885937751 17:-0.34344990839350764 18:-0.15532917852467598 19:0.0016390980961675794 20:-0.07034895832101462 21:0.012465569121488551 22:0.044807201213008074 23:-0.019585694307824753 24:-0.08944343432750679 25:-0.24792490547053792 26:-0.3168699489360268 27:-0.3584905660377359 28:0.13678881755906347 29:-0.3344366953543856 30:-0.2163939087360789 
-1.0 1:-0.9672583938524242 2:-0.5870967741935484 3:-0.4485049833887045 4:-0.5262062440870388 5:-0.5798319327731092 6:-0.849185775005474 7:-0.9029850746268657 8:-0.9821241645865206 9:-0.9299550814149354 10:-0.7728442607299514 11:-0.6751700680272109 12:-0.6351889693892294 13:-0.6807018878450168 14:-0.7238646270904334 15:-0.7509157509157511 16:-0.625643055005936 17:-0.5660859279820718 18:-0.5054715587310633 19:-0.774807659740834 20:-0.6572433625625748 21:-0.7388704120002605 22:-0.7608795082547739 23:-0.8531139776566807 24:-0.7451765157348137 25:-0.9115408683242552 26:-0.9585169821104486 27:-0.28301886792452835 28:-0.09789854914308582 29:-0.05785215027238899 30:0.027351821641984797 
-0.6318968510734169 1:-0.938157587572542 2:-0.5870967741935484 3:-0.4071191267204559 4:-0.5262062440870388 5:-0.5798319327731092 6:-0.8384040303080784 7:-0.8909299655568312 8:-0.9827710568704615 9:-0.9291128579449748 10:-0.7577801376470304 11:-0.6762974852862493 12:-0.5958224967490248 13:-0.7009423002452564 14:-0.7685342388228635 15:-0.6483516483516483 16:-0.6016356681176627 17:-0.6963654616490343 18:-0.6359770269615197 19:-0.7458413199508922 20:-0.6676035911661868 21:-0.7593377433565301 22:-0.7966217207353721 23:-0.8238042069737225 24:-0.7282477521097407 25:-0.9258572609727175 26:-0.9655172413793104 27:-0.28301886792452835 28:-0.09020530940756322 29:-0.053020058787139446 30:0.021226912705718526 
1.0 1:-0.8203227443585754 2:-0.5368319691863264 3:-0.2106907323845888 4:-0.37906494019966397 5:-0.5267778753292359 6:-0.7545909971843349 7:-0.8880597014925373 8:-0.9827710568704615 9:-0.9291128579449748 10:-0.6146750900501589 11:-0.6757899421450824 12:-0.5163767880364112 13:-0.6178311009980867 14:-0.6609301208676861 15:-0.4652014652014653 16:-0.5639097744360901 17:-0.8172469799318015 18:-0.7767450825281936 19:-0.7028136434358807 20:-0.6570198918514232 21:-0.7127766232440713 22:-0.6794490500022619 23:-0.8104656082745231 24:-0.7067499457975187 25:-0.849773464037175 26:-0.9294788695877624 27:-0.3584905660377359 28:0.19929054656369805 29:-0.04061578552256484 30:0.03861333688627466 
0.3524339454611365 1:0.25253326065951476 2:0.26881720430107503 3:0.632125718504456 4:0.35835172921265657 5:0.29785247432306283 6:0.3381825711185329 7:-0.9641791044776119 8:-0.9883432295596453 9:-0.9349048701687208 10:0.44855425412107786 11:-0.673778602350031 12:0.3613639647449789 13:0.3616079470880409 14:0.3439037725533076 15:0.4139194139194138 16:0.27977839335180077 17:0.015404442647793726 18:0.01222841760922777 19:0.379147961980407 20:0.4399796521099528 21:0.41097794659593734 22:0.38489933480520055 23:0.337935608911172 24:-0.08211138005943186 25:-0.25213447594389493 26:-0.365300492945277 27:-0.3584905660377359 28:0.2897967247870723 29:-0.3402547819042664 30:-0.2713628391459738 
-0.1269345170106716 1:-0.9775834303693977 2:-0.5841191066997519 3:-0.4262202913365706 4:-0.4214977075904228 5:-0.6162895927601809 6:-0.8241207265219849 7:-0.7985074626865671 8:-0.9846670846561373 9:-0.9037408759124087 10:-0.8378497442730048 11:-0.6764411027568922 12:-0.6571131339401821 13:-0.6924600589017176 14:-0.7898346511988472 15:-0.6246153846153848 16:-0.6922326869806095 17:-0.6682212223345672 18:-0.6918701015156037 19:-0.7059628047200415 20:-0.8062638065960999 21:-0.8728615419449592 22:-0.9598068774291564 23:-0.8335297766736242 24:-0.7658107261396768 25:-0.8808975679311724 26:-0.928791714956686 27:-0.6226415094339623 28:0.02127956449375712 29:-0.07393652075681811 30:0.016827599911744873 
-1.0 1:-0.9537442588031687 2:-0.6512096774193549 3:-0.31270764119601335 4:-0.4437086092715231 5:-0.6415441176470589 6:-0.7060139708442164 7:-0.8843283582089552 8:-0.9868560618486807 9:-0.891970802919708 10:-0.7996774354455216 11:-0.6705182072829132 12:-0.6571131339401821 13:-0.7515622140298587 14:-0.7783291976840364 15:-0.4473846153846156 16:-0.6542049861495844 17:-0.6286243993428664 18:-0.690211613835112 19:-0.7756029001552662 20:-0.7917276717312602 21:-0.8239402149360285 22:-0.8103240537799163 23:-0.8743458647694285 24:-0.6963092451655405 25:-0.8260332345241271 26:-0.8770883076950617 27:-0.3584905660377359 28:0.057309309787207274 29:-0.17992571261272816 30:-0.08179249329531757 
-0.5047667040578985 1:-0.6930029061412193 2:-0.3548387096774195 3:-0.09735226014295795 4:-0.18121613485851884 5:-0.3404634581105169 6:-0.5748709355729376 7:-0.8611940298507462 8:-0.9848731715673946 9:-0.9087591240875912 10:-0.6234339407744875 11:-0.6718995290423861 12:-0.33330624187256175 13:-0.42649617147718766 14:-0.5186282095751398 15:-0.4783653846153847 16:-0.4381925207756233 17:-0.7438004880006202 18:-0.8592228757480216 19:-0.612869599575292 20:-0.5598784650710689 21:-0.702044698187289 22:-0.7025429335548876 23:-0.6498262624011206 24:-0.7212872043760477 25:-0.8831751455854369 26:-0.9492726927742327 27:-0.3584905660377359 28:-0.36208914656032576 29:-0.07331222768064383 30:0.009526268257571191 
-0.537605554628115 1:-0.8952954478024843 2:-0.6422287390029326 3:-0.34649759019231696 4:-0.4874573550070236 5:-0.591800356506239 6:-0.7832670621211135 7:-0.6318407960199005 8:-0.985640937011673 9:-0.9051094890510949 10:-0.6511204110822695 11:-0.6740934906072521 12:-0.7030949284785437 13:-0.6781343800507967 14:-0.7086402680637183 15:-0.5359999999999998 16:-0.6894017056732176 17:-0.7296101857898118 18:-0.7797181870932429 19:-0.719471817652686 20:-0.736308614774102 21:-0.8021165621484195 22:-0.7935681305076017 23:-0.8412178328066581 24:-0.7737313072519579 25:-0.8656727694343146 26:-0.9112875860979002 27:-0.3584905660377359 28:-0.17350524824168312 29:-0.08754432748846408 30:-0.032100271778342515 
1.0 1:-0.8172247625458695 2:-0.5424317617866006 3:-0.15880398671096363 4:-0.4659195109526235 5:-0.5737556561085972 6:-0.648967878829082 7:-0.914179104477612 8:-0.9809073910048224 9:-0.9379562043795621 10:-0.4793716827664952 11:-0.671997157071784 12:-0.6252795838751626 13:-0.574655217278168 14:-0.6385703416476454 15:-0.6541538461538462 16:-0.5746925207756234 17:-0.7183142554899611 18:-0.8134172238816827 19:-0.7706890726156889 20:-0.5626667388767421 21:-0.7313248011931459 22:-0.7487733127329377 23:-0.7704236883618261 24:-0.8569549386987181 25:-0.9465680938597891 26:-0.9820992858034836 27:-0.3584905660377359 28:-0.31265951319264884 29:-0.4515128913880184 30:-0.3420720680847035 
1.0 1:-0.8880392879066911 2:-0.6258064516129032 3:-0.15880398671096363 4:-0.510341314314824 5:-0.6162895927601809 6:-0.7067849054196307 7:-0.945273631840796 8:-0.9756790670209625 9:-0.9360792492179353 10:-0.5199741610852344 11:-0.6722689075630253 12:-0.6394278283485046 13:-0.6706762619833209 14:-0.7394054395951928 15:-0.6984615384615384 16:-0.6403767313019391 17:-0.7100769747232412 18:-0.7483692141542568 19:-0.8209939589229627 20:-0.6988018451888502 21:-0.8144381393510387 22:-0.8228244528743925 23:-0.8417925883514797 24:-0.820060690209967 25:-0.9410863092533208 26:-0.9826417316882264 27:-0.3584905660377359 28:-0.21236174105213457 29:-0.47980892195757485 30:-0.37245661004614994 
-0.9454203510999859 1:-0.938157587572542 2:-0.6258064516129032 3:-0.365733270052207 4:-0.484957426679281 5:-0.6193277310924369 6:-0.8402724239630732 7:-0.9029850746268657 8:-0.9821241645865206 9:-0.9233576642335767 10:-0.6580063067956128 11:-0.675191064079953 12:-0.6856306892067621 13:-0.6927843036013942 14:-0.7339482775377492 15:-0.6703296703296704 16:-0.6770874554808073 17:-0.6895567931073054 18:-0.628513712470643 19:-0.7462111447445281 20:-0.6081216261702437 21:-0.7733457878918159 22:-0.7674148495736699 23:-0.839066166864716 24:-0.8084597970140408 25:-0.9421246740071891 26:-0.976925071298937 27:-0.3584905660377359 28:-0.022919412059422384 29:-0.05844387844268928 30:0.027605700464637284 
0.9506599744005719 1:-0.9535248950110579 2:-0.7204301075268817 3:-0.33354427042134704 4:-0.46662461894249996 5:-0.7114845938375352 6:-0.7610373665810515 7:-0.6318407960199005 8:-0.9860146380122139 9:-0.9117740399873056 10:-0.7600904478393327 11:-0.6785714285714286 12:-0.7284949264306853 13:-0.7199345301499053 14:-0.7974438384447426 15:-0.6541538461538462 16:-0.7129750692520775 17:-0.6673788114380792 18:-0.6598173952173454 19:-0.673588597818924 20:-0.7685984329365607 21:-0.8004449845797714 22:-0.8725673999536849 23:-0.8004351828103498 24:-0.8030567778434514 25:-0.9479466740914144 26:-0.9835432043775814 27:-0.3584905660377359 28:-0.02715470169871237 29:-0.13370109693266718 30:-0.043958105627598054 
-0.6310787014905289 1:-0.9294319907863331 2:-0.6935483870967742 3:-0.22217607973421938 4:-0.3985927152317881 5:-0.6847426470588236 6:-0.7892796110268951 7:-0.8540630182421227 8:-0.9873790219228661 9:-0.9063260340632604 10:-0.8302607901446661 11:-0.6762295081967213 12:-0.7101690507152147 13:-0.7567357914878213 14:-0.839753187241958 15:-0.558153846153846 16:-0.6680332409972298 17:-0.8104989888660585 18:-0.8082049612649109 19:-0.6428259732529603 20:-0.888268977925776 21:-0.7812467935607007 22:-0.8837261526591297 23:-0.7711747665162625 24:-0.882980904397999 25:-0.9647535027043461 26:-0.9898002027946976 27:-0.3584905660377359 28:-0.1779331143073326 29:-0.08873372033044502 30:-0.00484033454085675 
-0.17960361658813576 1:-0.8288557688865554 2:-0.543010752688172 3:-0.18514044095439453 4:-0.35621111780052184 5:-0.5359477124183007 6:-0.7420505433557734 7:-0.22388059701492535 8:-0.9821241645865206 9:-0.9299550814149354 10:-0.5336410217564211 11:-0.6727272727272727 12:-0.5854600130039014 13:-0.5686339649642873 14:-0.5969338869370806 15:-0.6849816849816851 16:-0.5901142659279778 17:-0.5833901646629124 18:-0.6538999161811854 19:-0.7211286019231973 20:-0.517224844038201 21:-0.6526402267233984 22:-0.6729297513116441 23:-0.8092108450014711 24:-0.6649637375415371 25:-0.8147755177155775 26:-0.8939569858999034 27:-0.3584905660377359 28:0.04118967263762907 29:-0.04760761892450438 30:0.03827335357959183 
1.0 1:-0.9261063461936787 2:-0.6792367105860971 3:-0.33354427042134704 4:-0.46662461894249996 5:-0.6237161531279178 6:-0.7976136192258902 7:-0.8507462686567164 8:-0.9785238482351942 9:-0.9108219612821327 10:-0.8038795115946746 11:-0.6746031746031746 12:-0.6294727127815767 13:-0.7281640398502979 14:-0.8114429383877463 15:-0.4888337468982633 16:-0.6867125368599767 17:-0.6686323092561748 18:-0.6900054419370137 19:-0.692945612891057 20:-0.7281014737421452 21:-0.7696840084781952 22:-0.8485552441583052 23:-0.783422716149786 24:-0.7614453280429495 25:-0.900989809334533 26:-0.9649778757476624 27:-0.3584905660377359 28:0.08618625821605197 29:-0.329108350260488 30:-0.24345834242020903 
-1.0 1:-0.8454419889502762 2:-0.509677419354839 3:-0.28296155671570955 4:-0.40245979186376546 5:-0.500840336134454 6:-0.7167832548616733 7:-0.8597014925373134 8:-0.9868739795319453 9:-0.9300128810648347 10:-0.7374442081550656 11:-0.6741961741961742 12:-0.558075422626788 13:-0.6049985710945416 14:-0.7139657479992352 15:-0.5433846153846156 16:-0.6092631578947367 17:-0.6659037422712695 18:-0.6615007143800452 19:-0.6303519199514729 20:-0.6559121837515203 21:-0.750936513273743 22:-0.7518782923228231 23:-0.7297152391840185 24:-0.7755840904715002 25:-0.9172520599100776 26:-0.9586777446554412 27:-0.3584905660377359 28:0.15769652549792101 29:-0.03203803126416238 30:0.026978818141696115 
-1.0 1:-0.8444179060070993 2:-0.5870967741935484 3:-0.32434741338395845 4:-0.4437086092715231 5:-0.6193277310924369 6:-0.7545909971843349 7:-0.8909299655568312 8:-0.9827710568704615 9:-0.9291128579449748 10:-0.5537439545765681 11:-0.673992673992674 12:-0.5860631205234587 13:-0.6553372346884729 14:-0.7011444062369232 15:-0.5384615384615385 16:-0.5604801477377654 17:-0.8016583598429743 18:-0.7711516836644704 19:-0.6665606760082361 20:-0.6389099636081502 21:-0.6779073595529311 22:-0.7117203616331301 23:-0.7708105099258821 24:-0.7517049313778155 25:-0.9133074677817045 26:-0.9753694581280788 27:-0.3584905660377359 28:-0.13147464174132517 29:-0.04311202688887972 30:0.030975032718508544 
-1.0 1:-0.7170283401142818 2:-0.4193548387096774 3:-0.1955914148605179 4:-0.32912856091664044 5:-0.4481792717086833 6:-0.5216331953783588 7:-0.9020522388059702 8:-0.9826456389786771 9:-0.9248881563456558 10:-0.3817919326796412 11:-0.6769423558897243 12:-0.487334200260078 13:-0.47744434445792105 14:-0.5367536423354986 15:-0.417846153846154 16:-0.46060941828254864 17:-0.6905169052208651 18:-0.734695492325917 19:-0.5319023746584186 20:-0.570697639699452 21:-0.6096488275725915 22:-0.6246924010130459 23:-0.6288022494037624 24:-0.7467607970383896 25:-0.8858148582860297 26:-0.9390584287107314 27:-0.3584905660377359 28:0.07492097949886767 29:-0.07335627742565709 30:0.013844408782858197 
-1.0 1:-0.9850486481200803 2:-0.6258064516129032 3:-0.3015552024652127 4:-0.5064785488050676 5:-0.6427962489343563 6:-0.8314815195142157 7:-0.9079601990049752 8:-0.9824370492218145 9:-0.7244525547445255 10:-0.8434597862274402 11:-0.672998986828774 12:-0.6683598829648897 13:-0.7403299276835578 14:-0.8089661417807437 15:-0.6009615384615385 16:-0.6222134283076113 17:-0.7675553251479701 18:-0.7916388958438337 19:-0.819649571187049 20:-0.7103943981185656 21:-0.8588653346299263 22:-0.8368592282204472 23:-0.8737524752457873 24:-0.7579723853043235 25:-0.851671088923541 26:-0.9032927145449832 27:-0.24528301886792458 28:0.044503464498948375 29:-0.16425858155093587 30:-0.08729204409806313 
-1.0 1:0.7333038674033148 2:0.7419354838709675 3:0.8620471444391709 4:0.8166719226321875 5:0.7805788982259574 6:0.6941489414655222 7:-0.9614427860696517 8:-0.9865586283064878 9:-0.938309394866965 10:0.8120771480524345 11:-0.6729323308270677 12:0.8070055937416145 13:0.7582513661202184 14:0.7721888099143428 15:0.7948717948717947 16:0.7873631447038649 17:0.11152678695841889 18:0.13663509681431862 19:0.8080553388585576 20:0.788550000564824 21:0.7847454955818907 22:0.8034007369535321 23:0.7787015815805944 24:0.5300378193452384 25:0.3985594221469624 26:0.27675580764523877 27:-0.3584905660377359 28:0.36080182515725356 29:-0.35056773067069935 30:-0.2588131805578251 
-1.0 1:-0.9716889939152414 2:-0.47800586510263954 3:-0.31682271217154967 4:-0.35621111780052184 5:-0.4661319073083777 6:-0.6910358774101321 7:-0.9402985074626866 8:-0.9867112933104452 9:-0.941970802919708 10:-0.8779242804648922 11:-0.6746031746031746 12:-0.5333159947984395 13:-0.7404588085526489 14:-0.8543830872972481 15:-0.6246153846153848 16:-0.678404432132964 17:-0.8048692360061933 18:-0.7054739134988267 19:-0.7853982335914532 20:-0.841658047368076 21:-0.9522303433338658 22:-0.9519258326456506 23:-0.8577460271134657 24:-0.7535133608887017 25:-0.8826199866840013 26:-0.9518358127445874 27:-0.3584905660377359 28:0.15772873382818298 29:-0.283496846841775 30:-0.22369339939355715 
-1.0 1:-0.8758073766602438 2:-0.5870967741935484 3:-0.365733270052207 4:-0.484957426679281 5:-0.6193277310924369 6:-0.7738821007186826 7:-0.9402985074626866 8:-0.9879985218120707 9:-0.940278699402787 10:-0.6319176246878766 11:-0.6750841750841751 12:-0.5965900881375524 13:-0.6757482980015244 14:-0.7329840074231756 15:-0.567765567765568 16:-0.5776282812293894 17:-0.7579632491390784 18:-0.746308064494627 19:-0.7041929111106637 20:-0.6546998723504387 21:-0.7214403676661557 22:-0.7535394382732871 23:-0.802777552141489 24:-0.7492540157775428 25:-0.9127062691008934 26:-0.9753694581280788 27:-0.3584905660377359 28:-0.13571542883221066 29:-0.19930308016347253 30:-0.11324910874129357 
-1.0 1:-0.8504626239765691 2:-0.6512096774193549 3:-0.08637873754152836 4:-0.3534768211920529 5:-0.6354598177299089 6:-0.7516327160651757 7:-0.7761194029850746 8:-0.9851512598385506 9:-0.878345498783455 10:-0.6973546381124988 11:-0.6772287862513426 12:-0.6818725617685308 13:-0.6876247114519349 14:-0.7577390937674742 15:-0.5064615384615385 16:-0.630005540166205 17:-0.6996456902756596 18:-0.7246584558801434 19:-0.5735076296699896 20:-0.7626779777439687 21:-0.7174907432018187 22:-0.8198019641950376 23:-0.7039243499366112 24:-0.7984026736129852 25:-0.9433573801117113 26:-0.9825146546511804 27:-0.3584905660377359 28:-0.04359585091401441 29:-0.06640242979165634 30:0.01616118571218461 
-1.0 1:-0.8210528877747219 2:-0.5053763440860217 3:-0.2415757000474611 4:-0.32912856091664044 5:-0.5359477124183007 6:-0.5477868542364331 7:-0.8557213930348259 8:-0.9816947150870977 9:-0.8999570631172177 10:-0.6353272297178904 11:-0.6749482401656315 12:-0.5368530559167751 13:-0.5801629033921023 14:-0.6570306730786548 15:-0.5064615384615385 16:-0.5677783933518004 17:-0.5071763246222663 18:-0.48712466387631026 19:-0.6094139781802654 20:-0.5309327072127632 21:-0.706846600137631 22:-0.7297562466894101 23:-0.70310379350979 24:-0.7356441501264818 25:-0.8865343495087248 26:-0.934172817510326 27:-0.24528301886792458 28:0.037105100960816095 29:-0.13132164074985475 30:-0.035514792577462595 
1.0 1:-0.7212836767688402 2:-0.4193548387096774 3:-0.14960712967357503 4:-0.23746452223273418 5:-0.4042950513538751 6:-0.5891713663975076 7:-0.9522388059701492 8:-0.990992901608054 9:-0.9387272540351599 10:-0.5449893092220188 11:-0.6711590296495957 12:-0.34585175552665803 13:-0.5058141040582189 14:-0.5928218047720759 15:-0.4326153846153846 16:-0.4744376731301937 17:-0.6206393813198063 18:-0.6356756728282413 19:-0.5459796546860427 20:-0.4808479616566981 21:-0.701484376007997 22:-0.7279780689441637 23:-0.6134721046912763 24:-0.6388195114506516 25:-0.8349025914408006 26:-0.9141169502498504 27:-0.3584905660377359 28:0.1442499461757134 29:-0.27622717218747284 30:-0.18455305984611814 
-1.0 1:-0.8448534756212843 2:-0.5870967741935484 3:-0.365733270052207 4:-0.5064785488050676 5:-0.5798319327731092 6:-0.7619808186359082 7:-0.9029850746268657 8:-0.9821241645865206 9:-0.9299550814149354 10:-0.7670029287341362 11:-0.6751152073732719 12:-0.610626044956344 13:-0.6334182980320104 14:-0.7039653412069868 15:-0.3992673992673993 16:-0.5879171613243634 17:-0.7130383608047175 18:-0.6926738173514186 19:-0.6794307470828342 20:-0.6524347517281159 21:-0.7851425515134139 22:-0.7538539133969169 23:-0.7727359387586334 24:-0.7704409467716677 25:-0.9147739758577769 26:-0.9644801659320716 27:-0.3584905660377359 28:0.0626066975912043 29:-0.05279854744592849 30:0.03501291870932821 
-0.3970756567248397 1:-0.8706800735565741 2:-0.5601173020527861 3:-0.2729286217658313 4:-0.26871362632952045 5:-0.5080213903743317 6:-0.802152495180981 7:-0.9011194029850746 8:-0.9826456389786771 9:-0.9321831453218314 10:-0.6095677322701334 11:-0.6753246753246753 12:-0.5750975292587777 13:-0.6271285443994363 14:-0.6611806012727672 15:-0.597069597069597 16:-0.625643055005936 17:-0.7668080667080376 18:-0.714308704654276 19:-0.7657640793236768 20:-0.5654376203854505 21:-0.7387054525913554 22:-0.7083850509958174 23:-0.8455498396991682 24:-0.7380504143564366 25:-0.9087377986752114 26:-0.9676262913684802 27:-0.3584905660377359 28:-0.15346289804549473 29:-0.05848888120395168 30:0.016874211644049453 
0.9019649093552055 1:-0.8944592831095337 2:-0.5379250217959894 3:-0.3310586333842148 4:-0.4437086092715231 5:-0.5317965023847377 6:-0.7802401010796811 7:-0.8955223880597015 8:-0.9817545118528401 9:-0.9299550814149354 10:-0.8228030212204773 11:-0.6759581881533101 12:-0.5060143042912875 13:-0.6374125509032058 14:-0.7290754849516401 15:-0.4871794871794871 16:-0.5947764147210131 17:-0.6116911869135567 18:-0.7150068564790033 19:-0.7540394176439144 20:-0.652167872216334 21:-0.7910639450676811 22:-0.8030134507944159 23:-0.8689107391482144 24:-0.6856117686442309 25:-0.8554351711667263 26:-0.9284417941405239 27:-0.3584905660377359 28:0.14426156495586717 29:-0.06101611706510268 30:0.02070170582264841 
-1.0 1:-0.917192953195038 2:-0.5870967741935484 3:-0.4485049833887045 4:-0.5262062440870388 5:-0.5798319327731092 6:-0.8181281106658569 7:-0.8955223880597015 8:-0.9817545118528401 9:-0.9299550814149354 10:-0.7996924829157176 11:-0.6761904761904762 12:-0.5544822176811772 13:-0.6501519835805774 14:-0.7729517922679987 15:-0.4432234432234434 16:-0.6119245482126368 17:-0.7676932267205252 18:-0.7018152670754212 19:-0.7521119939995985 20:-0.741566117513613 21:-0.8527695633240879 22:-0.8525697104934294 23:-0.8566465069554744 24:-0.7335297597580173 25:-0.8865076647671534 26:-0.9574799066632098 27:-0.3584905660377359 28:0.15493949494945403 29:-0.0709359522724502 30:0.00981400752671524 
1.0 1:-0.5893682404775324 2:-0.43695014662756604 3:-0.14124635054867618 4:-0.2832965415746872 5:-0.424242424242424 6:-0.43761452607029827 7:-0.961369622475856 8:-0.9847851460642534 9:-0.9384030984656636 10:-0.2353616988684234 11:-0.6745213549337261 12:-0.3442258483996812 13:-0.4118770688053589 14:-0.4196479273140261 15:-0.3920595533498761 16:-0.4218568492538649 17:-0.6676503985907172 18:-0.7323981083969608 19:-0.4603195723807666 20:-0.27723724012888895 21:-0.3708233988643924 22:-0.4775941363984918 23:-0.5061610917038737 24:-0.6586600390022586 25:-0.7893009515590667 26:-0.8833723516373838 27:-0.3584905660377359 28:0.1263533953947975 29:-0.45655616239596997 30:-0.35987033919364686 
0.6943536935096318 1:0.027248148583519205 2:0.02150537634408578 3:0.23551125876707268 4:0.11773362766740259 5:0.04003267973856217 6:0.1303827146692229 7:-0.9057835820895522 8:-0.9797435206223284 9:-0.867570385818561 10:0.025141962698379094 11:-0.6774738264099966 12:-0.07607282184655406 13:0.05983845528843834 14:0.08879026059358797 15:0.21266968325791846 16:0.008636141437184275 17:-0.34479756341150747 18:-0.14903858298963002 19:0.13613466398201024 20:-0.01613505989449493 21:0.18471766225575537 22:0.20912762160158227 23:0.11038809963134821 24:-0.21781118362819618 25:-0.28250536991452513 26:-0.3168699489360268 27:-0.3584905660377359 28:0.37763374073999323 29:-0.3274140005053088 30:-0.20909159316071357 
-1.0 1:-0.11017415485841164 2:-0.053763440860215006 3:0.07456626061277216 4:0.03752759381898452 5:-0.03676470588235281 6:0.01922058242827185 7:-0.9057835820895522 8:-0.9797435206223284 9:-0.867570385818561 10:-0.009268191667213821 11:-0.6773636991028296 12:-0.05656697009102729 13:-0.020596277148281272 14:0.007220964840284783 15:0.07013574660633459 16:-0.06762261691380145 17:-0.2902652668453978 18:-0.1807201227565456 19:0.013553378908702562 20:-0.10649355457792997 21:0.12240765777605378 22:0.13706296055985234 23:-0.013644013640106811 24:-0.17694575702802895 25:-0.28250536991452513 26:-0.3168699489360268 27:-0.3584905660377359 28:0.25800032135333684 29:-0.3371368016017774 30:-0.2148105352983244 
-0.46057130387293627 1:-0.625682823275953 2:-0.45905707196029766 3:-0.06966521850242802 4:-0.2882322975038205 5:-0.4461538461538459 6:-0.41267631490377277 7:-0.9587775408670931 8:-0.9731138792030586 9:-0.9132197891321979 10:-0.3291614950655005 11:-0.667953667953668 12:-0.5187076448137693 13:-0.4190680927950622 14:-0.46141764481742753 15:-0.22326454033771104 16:-0.4176069184514559 17:-0.732498391854721 18:-0.7224881006023143 19:-0.5115277181426511 20:-0.5297325518682725 21:-0.5380267656984312 22:-0.5776742293945387 23:-0.5754100814534697 24:-0.7085589701436432 25:-0.8819947286110368 26:-0.9664804925923692 27:-0.3584905660377359 28:-0.027976732645522584 29:-0.38468182057757705 30:-0.27469706056009024 
-0.7397071762920826 1:-0.7016805475385504 2:-0.3548387096774195 3:-0.17691029900332234 4:-0.26324503311258274 5:-0.38235294117647056 6:-0.45828369512291345 7:-0.7201492537313433 8:-0.9833135949416639 9:-0.9127737226277373 10:-0.7687395409491083 11:-0.6716637272192828 12:-0.4307412223667102 13:-0.5237464792388666 14:-0.6356843448150172 15:-0.3883076923076926 16:-0.48480886426592784 17:-0.7038182469174692 18:-0.7530799894277346 19:-0.5616672674846295 20:-0.6227593964834982 21:-0.715609680794221 22:-0.73554322858097 23:-0.6350569935223891 24:-0.7138171695306692 25:-0.8536061805592828 26:-0.9228476878060452 27:-0.6226415094339623 28:0.04653321989069914 29:-0.06413556587078473 30:0.01833766549101834 
-0.30223161678001786 1:-0.9454583657779919 2:-0.778225806451613 3:-0.2674418604651164 4:-0.4437086092715231 5:-0.7279411764705882 6:-0.7669083133977806 7:-0.10447761194029848 8:-0.9828757012105108 9:-0.5656934306569343 10:-0.7325668180645304 11:-0.6767925561029009 12:-0.7384655396618987 13:-0.7500000000000002 14:-0.8323272604772702 15:-0.6910769230769231 16:-0.7268033240997231 17:-0.7348079489109424 18:-0.7221703480874009 19:-0.6670784320612623 20:-0.8769881516005906 21:-0.7726488685475609 22:-0.8720082179002044 23:-0.8116173776303302 24:-0.8757578477875007 25:-0.9667105414162657 26:-0.981342418534381 27:-0.3584905660377359 28:-0.2477709541516988 29:-0.28524229048951577 30:-0.2281507456669255 
-0.10542975124747048 1:-0.993775599219042 2:-0.6935483870967742 3:-0.2674418604651164 4:-0.3985927152317881 5:-0.6847426470588236 6:-0.7586927360118567 7:-0.4701492537313433 8:-0.9873389085080848 9:-0.9114963503649635 10:-0.8485235546487417 11:-0.6799171842650104 12:-0.6797558952725187 13:-0.7931904161412359 14:-0.8782887211164495 15:-0.5950769230769232 16:-0.699146814404432 17:-0.6388321751188728 18:-0.5774043010458814 19:-0.7235567618210181 20:-0.9112708080617623 21:-0.9013594418982585 22:-0.9580782539482839 23:-0.8522140426925298 24:-0.7750435764181818 25:-0.9448943387200827 26:-0.9835432043775814 27:-0.6226415094339623 28:0.3571449721375468 29:-0.13191879366033887 30:-0.03697540208491357 
1.0 1:-0.9326810647915621 2:-0.7220379861320472 3:-0.24544353711926004 4:-0.5111716283963607 5:-0.6536558548653104 6:-0.6627111239848924 7:-0.9621793942906826 8:-0.9807774443116313 9:-0.8996350364963503 10:-0.4995506118206665 11:-0.6768707482993197 12:-0.731152195900316 13:-0.6736443883984866 14:-0.7020934780320534 15:-0.5161649944258639 16:-0.6857360793287566 17:-0.5678820116556201 18:-0.734102309849995 19:-0.78138991184147 20:-0.7370585181679796 21:-0.6356764604208172 22:-0.7681547909455229 23:-0.8589729385772761 24:-0.9156868327490073 25:-0.9783557686615181 26:-0.9905336147010098 27:-1.0 28:-0.05712386152136506 29:-0.4610982586372424 30:-0.34073434915374 
0.4439197704626933 1:-0.10713339177590664 2:-0.14231499051233387 3:0.2615464790567388 4:0.09414361771198543 5:-0.02998846597462501 6:0.1253979858517158 7:-0.9615974183138363 8:-0.9849666274617994 9:-0.9359654943596549 10:0.13323856337883444 11:-0.6685971685971686 12:-0.10966623320329438 13:-0.011349306431273742 14:0.006514566435649627 15:0.24434389140271473 16:0.019227635652599107 17:-0.5947372807654632 18:-0.5368255061514234 19:0.10449422978244294 20:-0.17381448869460914 21:0.15012885277602495 22:0.08265903442533618 23:-0.01175566631745839 24:-0.6223327321491352 25:-0.8268905031408915 26:-0.9175513327306356 27:-1.0 28:0.16142492039046208 29:0.09750182981417654 30:0.17059503842334256 
-1.0 1:-0.22462509865824798 2:-0.15753210147197017 3:0.15621068928813342 4:0.018838809232945675 5:-0.046830382638492374 6:1.3298332607680763E-4 7:-0.9626865671641791 8:-0.9761272090767219 9:-0.9352586480482387 10:0.05051468461932629 11:-0.6714852607709751 12:-0.18081765993212606 13:-0.10256978289765173 14:-0.1088536202197169 15:-0.004127579737335796 16:-0.05714478751435714 17:-0.7110111815375311 18:-0.5355060790066071 19:-0.003115719496294078 20:-0.2188348845907695 21:0.02724137239135027 22:-0.01393976990146406 23:-0.08988677221009655 24:-0.5537887296995054 25:-0.7305249906430349 26:-0.8105048526071568 27:-1.0 28:0.2941331937223153 29:0.06489404705560564 30:0.14249666776508385 
-0.03270050211867642 1:0.011587470202849337 2:-0.025994362668337212 3:0.2687159307163822 4:0.1870378705072977 5:0.0336950314106228 6:0.24334162032907591 7:-0.9630623859121658 8:-0.9856100564692238 9:-0.8963503649635036 10:0.15686826546543453 11:-0.6739305891848264 12:-0.04062926194931671 13:0.048639447665863145 14:0.07125687101817135 15:0.2975609756097559 16:0.09884467265725294 17:-0.6673546278575113 18:-0.6460353954865443 19:0.2322911308809381 20:-0.07073738795219775 21:0.22506026363906928 22:0.1902494151200862 23:0.12603278439465826 24:-0.450402647015951 25:-0.633045230749523 26:-0.7472108653116064 27:-1.0 28:0.2350318487839771 29:0.10065535094307076 30:0.17041764330968223 
1.0 1:-0.014700097078989782 2:-0.07860945818979037 3:0.3249685514305065 4:0.159004693628239 5:0.0336950314106228 6:0.23375326138687225 7:-0.963136126595936 8:-0.9871433556110261 9:-0.9370100027034334 10:0.18903865586517554 11:-0.6727357609710551 12:-0.012591582352754593 13:0.03528326787616676 14:0.06285195582376568 15:0.34709193245778613 16:0.06511722180933743 17:-0.6997081725169743 18:-0.5644054571115071 19:0.20302706116438518 20:-0.04329434647583674 21:0.24832073205980199 22:0.21258797721777212 23:0.10234800653392839 24:-0.47833769438985396 25:-0.6891835979562387 26:-0.7916301885515435 27:-1.0 28:0.2636861978867806 29:0.12255682001717538 30:0.2017957616147903 
-1.0 1:-0.05274789182902018 2:-0.104917005950517 3:0.3249685514305065 4:0.13097151674918028 5:-0.019988577955453724 6:0.25438975427540456 7:-0.9627307250728605 8:-0.9825804546796575 9:-0.9352189781021898 10:0.1852519729645592 11:-0.6718614718614719 12:-0.06435345237717671 13:0.012852776564918678 14:0.0499184047571144 15:0.270544090056285 16:0.05879332477535315 17:-0.6832269178214575 18:-0.563845124269266 19:0.17955860349550856 20:-0.09176802775486526 21:0.20395865077425945 22:0.19489896160860742 23:0.06961165357702792 24:-0.4646599034163348 25:-0.66776503741412 26:-0.7845354355340536 27:-1.0 28:0.10672995691581222 29:0.1261679735361021 30:0.21000863108737944 
0.5186265583781171 1:-0.005888446538836689 2:0.02662073285311628 3:0.29684224107344437 4:0.10293833987012158 5:0.060536836093660895 6:0.20723453302250605 7:-0.9628328943517706 8:-0.9865102088926424 9:-0.9238790406673618 10:0.2198715159581277 11:-0.6743589743589744 12:-0.0384725173649656 13:0.10388886233650352 14:0.11606413570093865 15:0.21651031894934314 16:0.07565705019931102 17:-0.6070685112482098 18:-0.5517542028443125 19:0.18384488884568806 20:0.045466241917800465 21:0.24174261983551348 22:0.2359686984544238 23:0.1055399721493957 24:-0.3623639063948436 25:-0.5657578836274664 26:-0.6820187731374299 27:-1.0 28:0.26463492154219415 29:0.07836361958223614 30:0.162484953532535 
